{"internal_architecture": [{"inputNodes": 784}, {"hiddenNodes": 64, "activation": "sigmoid"}, {"outputLayers": 10, "activation": "sigmoid"}], "learning_rate": 0.15, "network_values": {"w0": [[-0.039018276415182046, 0.1444207168613495, -0.09173303099140954, 0.15056439650948772, 0.040388520469126776, -0.031049052568167812, 0.21017524341080326, -0.03810574355367441, -0.10767392367956888, 0.09015595997421769, 0.07992100033460116, -0.01944613248365829, 0.09627183473671083, 0.11318463984642707, -0.05931182586814367, 0.0998029323272452, -0.1910478849307305, -0.09707401864678157, 0.11530621877925695, -0.06891697929032564, 0.0768461664951195, 0.04496188276729717, -0.016755299219651763, -0.028733455853468676, -0.03659060879647065, -0.22895398097938335, 0.09590315613029604, -0.020180358850486413, 0.18760018969618486, -0.14992739272668656, -0.024602382739428892, 0.0316488124995602, -0.04084918690559713, 0.08993454028911262, 0.037728815877660346, 0.0779653438823781, -0.12548840604783978, -0.11088029522030858, -0.10203291834112774, 0.03975948685253622, -0.003950202808326552, 0.035430835843143306, -0.11813729547525889, 0.05600649651846754, 0.05243343297079037, 0.22230130410022106, -0.041387967739918735, -0.04630975417635898, -0.06479718372214108, 0.004903456312956169, 0.026381966506505775, 0.09220846152929499, 0.052412509735105466, 0.10892533689175782, -0.12243586244975302, 0.07826876739831712, -0.06944082254926473, 0.13342943668941273, 0.0035324884600676804, 0.01880818517620291, 0.01894109165746078, 0.012856243569671716, -0.016021761680863875, -0.020012161644448828, 0.1822319257793864, 0.22221818529759838, 0.11940054813943182, 0.061669141333716065, 0.10128858904640448, -0.041927203017979184, 0.07309277143841882, 0.04720691396521812, 0.14873524310198621, -0.10973137415248378, -0.12599305178759673, 0.18593361568193478, 0.021269069041081626, -0.011970532707829475, 0.06427335481528007, -0.2263818372656223, -0.04052700422826385, -0.006122387560299386, -0.08066225128896401, -0.1521157992073386, -0.05941297156211947, -0.13239322544874962, 0.1137325342883899, -0.06782262893997125, -0.01956836589356112, 0.01340391014392854, 0.004349273435887578, 0.1400154801752628, 0.2038045670667808, -0.17247142058147358, 0.06168799151989918, 0.17720232589105156, -0.07099450338949613, 0.0009674975667566656, 0.10057571666191852, 0.04215579831045542, 0.09891873019259312, 0.1297894953517774, -0.05459325321586594, -0.019213622276758456, 0.016406993252341028, -0.03224651745705971, -0.24589335591371198, -0.08704421813614674, 0.03144020074915949, -0.18179730820404572, 0.04247857954273737, -0.05298244227114693, 0.03569441654518066, -0.09838216905392069, -0.004778442995860988, 0.08057727697357613, -0.05193557133493633, -0.02522505935127724, -0.037342915643066146, -0.11337697479740914, -0.12313641063919548, -0.00861969536638395, 0.09616691078063154, 0.02591869975562926, -0.1289168160724576, -0.01771012545478638, -0.0807921865330371, 0.046661934418745506, 0.02325638630312587, -0.20480295204022775, -0.12444121605598527, -0.037697896089658595, 0.0016392676642661475, 0.1326576590851247, 0.012670908734591372, 0.0024595813102714363, 0.07481084960492065, -0.03107692466236879, 0.21047175830088805, -0.08380261813420029, 0.14970970741180542, 0.12551854368639864, 0.09301637236694901, -0.21502266100170583, -0.07754326331223874, 0.2508237867231713, 0.07196557924937305, 0.09463516145498925, -0.006289324932458197, 0.1774436819889822, 0.07805088129068558, -0.05794656885977978, 0.17345651585550434, -0.07381669661693922, -0.06636636522705677, -0.003713596164049529, -0.060318467591438774, -0.022095456063894268, -0.04329592519123086, 0.017924358497000897, 0.2617134382312862, -0.050386551088782254, -0.053519671713285935, 0.0667999664890836, -0.012529426259263546, 0.022505600380323686, 0.08844595479071954, -0.07896767450333138, 0.11156458011937948, -0.11618515897849835, -0.0008331896827336696, -0.009376577074884684, 0.02413902684817621, 0.04067448608789637, -0.034268231623622684, 0.013438349866104295, -0.13266039402440358, 0.09032328967309189, 0.21065074196574476, 0.08925249383324296, -0.022278485293584737, 0.0706455197035882, 0.014843165288351366, 0.0893731210796111, 0.13108275687118562, 0.15480963149932933, 0.182552929784771, -0.26293548197043565, -0.003559590681805723, 0.026557171770015583, -0.05797255279332039, 0.0367995423423801, 0.11572366934065695, -0.09532497173353663, -0.14172505389314624, -0.15873107252075602, -0.09068614838869228, 0.12854790757213658, -0.010550705755097256, -0.16969225499352628, 0.14077374922370703, 0.005026935899129794, 0.07494829855328417, -0.09678776678752958, -0.04661816100676978, 0.13089666354839344, 0.06957976402772403, 0.011322152059415216, 0.032229186170201866, 0.0580405988453912, -0.05080231064746962, -0.01470338976662531, -0.0683022781664168, 0.12837837239899494, 0.10893469016223277, 0.03644680531945954, -0.08496755368787888, 0.008174327853933004, -0.05156311016888239, -0.09047088692442969, 0.11833011680834281, -0.0694791805447119, -0.011340671030602075, 0.1038551828238844, -0.13450906535058504, 0.11637336827049778, -0.2630355689314103, 0.2824589085512963, 0.1626515022530845, 0.07068077851077259, 0.13514527238317783, 0.008389127079711636, -0.08640569483077348, 0.041576079602549734, -0.03570905319370592, 0.13957806256260064, 0.11014154104083713, 0.009236579275836801, -0.1030769475654429, -0.07181891894355313, 0.10680049753104343, -0.029231518708708205, -0.06225430627404356, -0.08123388335128495, -0.04704047821334639, 0.05205281787456835, -0.08975090129235791, -0.06997392387179867, -0.08738686246510323, 0.10690496088853832, -0.12074565795661539, -0.019538324098123387, 0.032623854259734984, -0.07131459422804447, 0.13496975259605667, -0.03861748089985419, 0.07966850532379947, -0.13126071233076805, 0.04562734941535926, 0.15394542549126441, -0.2572003172407381, 0.08528276314006966, 0.1309107207260227, -0.23497180228071565, 0.16339131135556087, -0.10282691765717336, 0.21082965607291426, 0.03823968093830805, 0.222117080562127, -0.11407996069659779, 0.016058835628143954, -0.035392940126263844, -0.1291881417440818, -0.011220848349973481, 0.13050319914844566, -0.028455043825825185, 0.006818205314054158, -0.04305766480757428, -0.04877923169334468, -0.1013780146286655, -0.21871557943141143, -0.012115187979920365, -0.10102208527589318, -0.11109544672329957, -0.10168147521790405, -0.000642069351272014, -0.07920655022880371, -0.04045145728807131, -0.02099000808360257, 0.0019654760454127255, 0.21977708666518858, 0.09888149376616616, 0.08947535903740017, -0.09823710296814786, -0.022246107508922357, -0.1185117421666696, -0.12208940370087538, -0.0031243520978096856, -0.04696985048904285, 0.07712678801326107, 0.10761993286376599, -0.07043511406437096, -0.28702088667167014, -0.03029823905515666, 0.10966392368809681, -0.037312757466358475, -0.07458334515606511, 0.1527737217250732, 0.008366531561151675, 0.22103814918825448, -0.042056861302846756, -0.015626640439488054, -0.07526873527565722, 0.0555604035219938, -0.047605221302494595, 0.07087740293420636, -0.07531565246426959, -0.22220432459027936, 0.039526660391194554, -0.00916182721328336, -0.04017053260039429, 0.13128566982056022, -0.2565344944929418, -0.06770174048755537, -0.0021823652276159065, -0.13786209379358513, -0.1490810798145035, -0.1466107752163109, 0.05215894611772087, -0.16721964995956826, 0.06302784385777714, 0.06574114749179001, -0.22352286403031318, -0.09746154208232646, -0.0859944590384017, -0.1156129386107096, -0.0003022909470319741, 0.007203476813313956, -0.03708777856984027, -0.09575960020290447, -0.0054373332627571675, 0.1381040839208156, -0.05542549216167898, 0.021008816217685793, -0.011941710331774621, 0.012826225764853844, 0.18987747356915582, -0.005319936468923523, 0.05909982610128083, 0.09680275419918283, -0.05098479508235511, 0.032948422568704, 0.02273635663859765, -0.033802348529590624, 0.02027110962846702, -0.007502885691445385, -0.1282963886980301, 0.09307681073460983, 0.11941284686871248, 0.07855966760080169, 0.023541027495182276, -0.1689416936587459, 0.10844581527256521, 0.0027229422153357387, 0.08884997730744602, -0.08445695106647551, 0.1577268475108229, -0.0865694874560151, -0.00496213653568172, -0.09216310348745316, 0.08053181052141041, -0.21610749664640938, -0.12076754400202049, -0.07350953934050908, 0.0915431488569989, 0.015694796757182453, 0.10539049327157313, -0.05740093540637035, 0.05662904247877908, -0.00386424582554372, -0.020603183574866166, -0.11198116142833242, 0.03799164450894249, -0.064039378545248, 0.02662491924472063, -0.017529657846612753, -0.09675306298226824, 0.04792503505120473, 0.05140282979446921, 0.11892358338636072, -0.17649769379932953, -0.13151829981940774, -0.001461352534082525, -0.04492690840418683, 0.09443591893900401, -0.03217234658819943, 0.0813152329715236, 0.028698723947376156, 0.19753191210657536, -0.027592850689498932, 0.127395990147035, -0.1484761645034057, 0.1410782136937362, 0.11594360272215427, 0.15829347708994085, -0.07573148889981747, -0.06536416083827164, 0.03483896487770205, -0.2618375507531173, -0.06596747245613972, -0.044913201978536356, 0.004140885717456465, -0.21801114298720026, -0.15074845768544576, 0.08225408370287184, -0.02938870784344573, -0.028311645470946546, -0.09384373393422703, 0.06474985350459096, 0.036938771142136936, 0.09501815744421165, -0.05641818779236442, 0.0047493011589893885, 0.1555344633575636, 0.198537346573766, 0.011328589462112772, -0.14921221002354357, 0.08550420274962718, -0.022736967715424296, 0.1800134436415557, -0.008375182555039095, -0.1994854233954506, 0.3171061437991042, 0.12181294846784596, -0.05961585430172381, -0.011225071654778948, 0.0028021099659927664, 0.10442287839092071, 0.16750256112969775, 0.053424124711256404, -0.10364655985744718, -0.19189350338985503, 0.11459737123824798, -0.02360951133579094, -0.016294019032582704, 0.056971444915046424, -0.19332597555280157, -0.035924702209643104, -0.07881780712545593, -0.05452262958220864, 0.10679161748390918, 0.06362950335768512, -0.1294958839546612, 0.07468443669443758, 0.029558795013026492, 0.06911628738272806, -0.012425504542960056, 0.006016549211901841, -0.0024154370049215583, -0.03216159755711806, -0.020506714674423644, 0.07211410381023318, -0.053059800911467385, -0.06257808171935134, 0.12322827534529833, 0.01509621823850966, 0.1322883486740025, -0.011517290237099232, -0.011025401276911189, -0.059983140760761666, 0.05574582424961932, 0.022148289127700657, -0.15690800833668375, -0.07586945505051114, -0.052993015547895685, 0.015490054729779067, -0.10204523791269596, -0.045122792122923694, -0.0065621454709338155, 0.13171233995771367, 0.021302775261834342, -0.0948171966432937, 0.04247920230443952, 0.22222175193371935, 0.05701106509547509, -0.0034829287392778166, 0.0077018758180821545, 0.017481809503602452, -0.15803255162123525, -0.12855853720518942, 0.04623495976718647, 0.01830440072678466, -0.015500524338431843, -0.07746616233794573, 0.15351891881354443, 0.1351430787019675, -0.04781612328824466, -0.04516471814717189, 0.022199712698169827, 0.23547168695281467, -0.003805194424904949, 0.19082194592188387, -0.010424516327072435, 0.003723627764633531, -0.013273878245492352, 0.04356526663154271, 0.05961865707392882, -0.06870308412851768, 0.041460004347000035, 0.045270751148166956, 0.08003881765162472, 0.006204978179880747, 0.08736375954122738, 0.014635592867782946, -0.10942233527130657, -0.07444220781868151, 0.05658879910929548, 0.051177526550534674, 0.03966238827512773, -0.009950479359231948, 0.13085036645507128, -0.011554765937211787, 0.044559972470816715, -0.03481444643986242, -0.008589794293751176, -0.05530538153701597, 0.028549231185584875, -0.20395027958662448, -0.07968365008393535, -0.0401952674170268, 0.19574065085166048, 0.025328006265453437, 0.10261545213045556, 0.04205018252061274, -0.007816855503751642, 0.1665592406895284, -0.11975724334323284, 0.01436028258889269, -0.07933881492065362, -0.06049160582227006, -0.32029560463154993, -0.09079751892597526, 0.04249743516805261, 0.11426503605056726, -0.0017303692277955548, -0.06459633709854583, -0.08841225982256903, 0.09911024617973199, 0.19801024628787678, 0.05088432729323977, -0.0249935031203653, 0.05460823988736202, -0.10782645960755816, 0.0751149268959316, -0.043350327525582065, 0.04144620864054549, -0.0022678435636378125, -0.23517062476071593, -0.047660670580540486, 0.1675533458112318, 0.09918431084490083, 0.18193315825499565, -0.04128167829266669, 0.015915590303990226, -0.19827384683281696, -0.07011070929432997, 0.0005618848955973895, -0.009978359073479055, 0.02472991131192598, 0.03959844605986451, 0.1407149820106983, -0.00041104435742653553, -0.005559103876466076, -0.09117306185091383, -0.03933526547873584, 0.08922216725053522, -0.07775287806513768, -0.01138746503293076, -0.08350897822207376, 0.08854530873629267, -0.045991405337964635, 0.053730043085615964, -0.07288336560658328, 0.05840438113690482, 0.00837508154736879, -0.036518332888780584, 0.04086596406064196, -0.05797385674876069, -0.1302734825983338, 0.08377085315851175, 0.16078007110118703, 0.1238186780145977, 0.0924077326911471, -0.12971751298868492, -0.06172323092880505, 0.07261682161240439, 0.040594875153401266, 0.04118649681170289, -0.06289066991441358, -0.040946367551642514, -0.012123219932436946, 0.10367031930195934, 0.05385556595632504, -0.11840385327885579, 0.11351011454800207, -0.1890131090455825, -0.053303843292563526, 0.16717386860130534, 0.152550927017819, -0.09604339853282862, 0.10778007183694734, -0.06410892616669221, 0.041558745117093586, 0.06423843437548964, 0.030442809804941663, -0.09120863846121731, 0.1043221435170304, -0.05927316835934563, -0.006947696850479747, 0.08205646154302973, 0.03569541059857326, -0.015080183848342078, -0.01546722532545655, -0.1699453348434458, -0.022314597484747057, -0.0023041335572720023, 0.0415518708512985, -0.037981062415004416, 0.043803149923348356, 0.023861780995641874, -0.004110356074591819, 0.08146846228202433, -0.07427822493473808, -0.03590237354441505, -0.08158949472883434, -0.010587981039371086, -0.16175435926474277, -0.06447718461153265, 0.08413043915680345, -0.03734947796588953, 0.16455773526462134, -0.1886192438876675, -0.08181895174691911, 0.07835381393483304, -0.003791554298009323, 0.10271055171960415, -0.14804021017703012, 0.0265792566546037, 0.18580436212619825, -0.1271820744007572, -0.011356654742305962, -0.021760147268686733, 0.2782721798834484, 0.02597441134638311, -0.05180102357025897, -0.028239825588812634, -0.17785430764957788, 0.2726191351575706, -0.0038913575093475028, 0.04293243830398818, -0.0015416767060990825, -0.032458181634551914, 0.06516226778742289, -0.15653368109405957, -0.19429792126702455, -0.013675655569864617, -0.035466532093482765, -0.024466104098637097, 0.10491638882419141, 0.1076957534856162, 0.04334619731925307, 0.05273173715478862, 0.12522850370876326, 0.06455926248862105, -0.053323799095195884, 0.11351034481158935, 0.0995822400518103, 0.03695021838945318, -0.0699636521492952, 0.10220265031061111, 0.014707732602873148, -0.07751837195863215, 0.023930930465243326, -0.05278544345279121, -0.08385313723271758, -0.05380400808925755, 0.1548136410635671, -0.07156136935087272, 0.04481549088678879, 0.05482508889898128, -0.03938923522719667, -0.08898532711763535, 0.19459002970998632, -0.18207192777072323, 0.011589174856927887, -0.14874507550971633, -0.03915417867209403, 0.01426030853479943, -0.11730465486069924, -0.12441165247594713, -0.09009103591938344, 0.05820802635313656, 0.028117528951455657, -0.08397490091941111, 0.09392392765308522, -0.05587609162635078, 0.0274839515029994, 0.037158248829876936, -0.03183588287955247, -0.07605087448664101, -0.05609677662382637, 0.01352851306078903, -0.04389588770692501, -0.053958669910892404, 0.14083708457723768, -0.11504748719405399, -0.08830127965491111, 0.10488999920088803, -0.045044153604698815, 0.008018648570650625, -0.021330401699623372, -0.09168873847248023, -0.04448461558165314, -0.2038742954080398, 0.013167479035505796, -0.1426928530038166, -0.007342449441285224, 0.061282040225940075, 0.08396810858675322, -0.11564063222574071, 0.017850520167840025, -0.04496607951181811, 0.12390619537614861, 0.019447227836429007, 0.19617017441405699, -0.03649078308704597, 0.07590291783120663, 0.09593414118908983, 0.13913194081826702, -0.04892464379640451, 0.04481963305244462, 0.006929375177410719, 0.08043999342623491, 0.041611219002753386, -0.16536476512544196, -0.12255219690161685, 0.01909534552669932, -0.04659496600735876, -0.07265339463922388, -0.04559582329712764, 0.11478823958209955, 0.04826215541978747, -0.05486988194955501, -0.031552747230658935, 0.05577410795213768, -0.03749238087558289, 0.04566954419304597, 0.10441206326680826, 0.03940490383282434, 0.09009683157547205, 0.17087775959027784, -0.057197670439381065, -0.09525571750588381, 0.04780974983923531, -0.0868739539429467, 0.14262771835196061, 0.07507165179060508, -0.00331719394542759, 0.1564120825093174, -0.09930084496357511, 0.06259285547523263, 0.11408528077582791, -0.02198654064750407, -0.1942376816455366, 0.09119754059409835, -0.057180446265959896, 0.09767972845478466, -0.019528988183717125, -0.023184247350643686, 0.002708615844962425, 0.028488537481761056, -0.05489412229439592, -0.02842922020624322, -0.025488712863725522], [-0.07579051021543065, -0.08733003061383941, 0.051795028599268725, 0.039173849528339605, -0.035835160716569385, 0.010545666532962213, 0.05624095523629923, 0.10412085640432132, 0.1128260995116121, -0.12550440135115568, 0.02172314917555646, -0.07610304033374678, -0.07004564791315177, 0.12883169534816857, 0.08863565814468627, -0.06294775297782727, 0.14776348441461554, -0.06402350761242483, -0.018064806637969003, 0.01392114039655002, 0.05486829049369001, -0.02180382252704971, -0.08918413861419629, 0.0055132661191983024, 0.034858743291000215, 0.17761094554729234, -0.02831077394171784, 0.016089503596287878, 0.12494362418888555, 0.02552250619120557, -0.11251455135949731, 0.08303650473029879, -0.07979795061096105, -0.047163985138179106, 0.09162684853373665, -0.08708007657578223, 0.021913886204425973, -0.04150899214107259, -0.008355666817578749, -0.0033259354063479778, -0.1493794807154715, 0.02071318534943528, 0.0845447905346764, 0.11284385458333511, 0.09284999578643906, 0.10387229465834298, -0.04966958294650228, 0.03472503906540487, 0.03554624558366572, -0.015078705081121819, -0.03568439300535707, 0.09282382354258475, -0.03498931197560808, 0.17659436036767825, 0.06968194818838588, -0.05331376345638897, -0.3106252100274697, 0.028577052956540873, 0.05737520074546685, 0.035212065993814594, -0.01759560838435206, -0.07077504513441718, 0.03375972581244651, -0.04109525927537514, -0.03678482009471714, -0.0032726499943023383, -0.12580796741644937, -0.10151669034240406, -0.053856703543216713, -0.00938983803540047, -0.09821115981604914, -0.04245036336897879, -0.1308184488877251, 0.05139469543937303, -0.0869763089976986, -0.08268766474226937, -0.15663660809452384, -0.05531115101909178, 0.09053228749551052, 0.0704268988220963, -0.03542101780541132, 0.07649477628317504, 0.03446874648159395, 0.09057738539225044, 0.10660711810142623, -0.11070454211684058, -0.009471590299809027, 0.06868550787012066, -0.03212299512459004, 0.1179998738679015, 0.028805419969329366, 0.038522425039598115, -0.013007789743897338, -0.09721051683980561, -0.050070549670987334, -0.01880665807286754, 0.030543530910298735, 0.12803112306085163, 0.026882586991742397, 0.09679504257450636, -0.013736220459856405, 0.025260861183411854, 0.0732564505891608, -0.03409440269307689, 0.07801904181697367, 0.10795013725871894, 0.04200428523889427, 0.030646584088752683, 0.05327760545201504, 0.0730552549202091, -0.07102388657022818, -0.014307052777734251, 0.20394655715423804, -0.1685532290172685, 0.03576311778234308, 0.10566670745173246, 0.002215416037105462, -0.053831085910376233, -0.06880351736085803, -0.15741896350329132, -0.09685293260500517, -0.07766549730968295, -0.1729760931783586, -0.2176339296489922, 0.057499249523710876, -0.1535590346085679, 0.038300267029292276, 0.041627977790515934, 0.07422505765345784, -0.03646375532897177, -0.19071191090536807, -0.14385707646434262, -0.12507685313336353, 0.17741722746717095, 0.1471163838220276, 0.04154114205490176, -0.08399562012865873, 0.08967476047953224, 0.13589454312111526, -0.10566738614492875, 0.18738156317113785, 0.0037478930438485554, 0.08218428618471091, -0.15984444104270376, -0.06153268539028415, -0.07876931222061381, 0.1233094139785411, 0.12940926852655724, 0.031531146427196476, -0.10361851796894801, 0.1037513483770099, 0.10221112332336096, -0.2196656473095434, 0.09129112510448445, 0.048300347369141614, -0.01491363907448885, -0.034145151238475495, 0.007206709095319554, 0.06746759614400899, -0.17160236636265333, 0.07137123467664959, -0.011243882299113071, -0.039049665351960194, 0.16303806670859256, 0.1307450470910385, 0.1710254458448597, 0.16079757674869039, -0.015144995373913353, 0.11928967722448494, 0.006856135519550357, -0.07635137419919295, 0.1487743389652271, 0.3058809678586234, -0.059719882913877455, -0.2418107850461622, -0.14567581044638908, -0.01378840977396975, 0.04656946801182797, -0.02380625596676212, 0.14567110707360922, 0.03134674073301352, 0.0066542651499351645, 0.0977595572484751, 0.008874131918678396, 0.08660883615472997, 0.1157387447313725, -0.19748956118462063, 0.0962839507956812, -0.10990476001056736, -0.033461930338073424, -0.1058466063451604, -0.08969576431729934, -0.04495413842700267, 0.10179183575442247, -0.05235488802580279, -0.18299018748904475, -0.13875050253824112, 0.04957913549673287, -0.05767200733014641, -0.10324774561365534, -0.02475140925174795, 0.07923231522226383, -0.019888427249022775, 0.1023932327188683, -0.11246082837361926, 0.02083330678240601, -0.1253161933601555, 0.06938818578446675, 0.07862871572959623, 0.00964956403614256, 0.008129987221091898, 0.06109583037130228, 0.07836973669929834, -0.041972619838084146, -0.18700997301205038, -0.06383563031299487, 0.013222194624814852, -0.16533453637181766, 0.08478900643976885, -0.05637259229795001, 0.0496169444659264, 0.037705136661486484, 0.042364836023144725, -0.043715964837205384, 0.045050781272414686, -0.0638908989383498, 0.03127512292612607, 0.028541963511534804, 0.03522268265310135, -0.316242314114695, 0.12246649535089907, -0.10869859365687978, 0.1917594803147294, 0.05760602247035673, 0.07030700740983158, 0.09211701851422935, 0.047450747539709785, 0.09862865043865462, 0.11424853163012712, -0.2188774566402405, -0.00637008423850738, 0.14975978755204705, 0.0017702387989968948, -0.0525359696429085, 0.16926470744310457, 0.12137649473844044, 0.06669356028422113, 0.09667313213842814, 0.049995119188689235, 0.16076684864385737, -0.06546871115033281, 0.07505365092354258, -0.11215501024467907, 0.04288734595083262, 0.0809561425260458, -0.03546141074123295, 0.06485339783411952, -0.06586422788973925, 0.1421542669113559, 0.0686471268103585, 0.10426084786152641, -0.01754390247897118, -0.14197978791998567, 0.06646161159527716, -0.01707702565660991, 0.1461601984703324, -0.12054942342611873, 0.17154604714439362, 0.07870649670270378, 0.021487229617389608, 0.0037956280272838892, 0.05815142877490397, 0.0028430522141918986, -0.09000184871386813, -0.06782206319103909, -0.12490592002513559, 0.00032569970439450766, 0.08806646300240752, 0.02895315488889687, 0.09419735486612943, 0.023536304709512918, 0.030222312195992786, 0.05099557719229125, 0.043703435237088674, 0.18734186161398222, -0.08436191753967003, 0.07695328004897767, -0.055898630984642754, 0.09057813488805418, 0.02114892651708494, 0.044210641443315685, -0.07975363112764433, 0.06875192096918932, -0.11189754990170858, -0.03436059348801322, 0.12979087260787256, -0.2336385469318988, 0.09723973993893376, 0.016914292162696336, -0.016792214000408444, 0.04071377179704391, 0.08639237023843604, -0.22896316231620661, -0.06725974044679249, -0.008606746261586687, 0.03806889410770953, -0.13110657213225357, 0.09826904978254018, 0.06965019831873771, -0.038492383502572364, -0.009659978680506338, -0.04123224312210909, 0.07602047114028282, 0.20782199207744212, -0.05676764513459425, 0.11783295196948265, -0.09239654702041643, -0.041614109651841924, -0.05905601383932529, 0.037417789909900065, -0.09564544121300272, -0.10294282401447495, 0.08093122736719295, 0.013924312106370827, -0.09073725248061049, 0.039470144452360384, 0.007623799093014374, 0.0014111141990747443, -0.14619642949481473, 0.040782852504949, 0.12200966878119622, -0.028008281004433977, -0.15859582295767194, 0.015624840464372411, -0.0797998482575403, -0.007341301286579522, -0.13809533824352813, -0.02928309259102975, 0.09805579144982433, 0.029833847616331267, -0.06113836247221214, -0.07458448372513193, -0.07070648140406467, 0.0871534553796191, -0.12272153110783508, 0.14555149645458185, -0.04826188822002436, -0.1373854781725464, 0.16948340266670348, -0.09523859259047465, -0.09494102779888819, 0.01556123987997592, -0.017220593629872938, 0.10276005183453688, -0.0663451415956836, -0.013326536450935445, 0.017103223155357256, 0.10423997790274975, -0.03297249781594826, 0.07267600147726036, -0.17664172878851545, 0.1461875516477589, 0.020971939781375723, -0.012861831912449188, -0.06256560402583548, -0.003747058773194284, 0.12381558000377757, -0.05649608020991547, -0.10068643165313476, 0.06990713997795303, 0.027119858251281288, 0.06069171572324648, -0.005936204537831417, -0.25376631138845124, -0.029819473772413636, 0.1287215686397865, -0.0092268953986892, 0.03433487453472623, 0.03395885269492537, 0.026955667418370036, 0.13142205217771485, 0.09286436107848721, -0.00033161064113342503, 0.1245567372089051, -0.1015804172994172, -0.08596647227482829, -0.047113505645329457, 0.06674248625053607, -0.11802794063253375, 0.16542792785630428, -0.0826250046030336, 0.1259351577661764, -0.061445971225891974, -0.1613209989687028, 0.007777234443931715, 0.14991917974496496, 0.07261262026568524, 0.09641200591438773, -0.17794219620519114, 0.018273416580700235, -0.02685351577154965, -0.019754881230066176, 0.09442923552702451, 0.002248767093758593, 0.0023398939323763493, -0.15531268177119742, 0.12500884559177908, -0.07160684945210459, -0.01714692158612237, -0.06848973124940004, 0.020040533148775228, -0.06092175092843765, 0.1599460459526822, -0.0629773275032239, 0.15121418161916067, -0.13450126552774375, 0.011222525796176651, 0.06561415533901015, 0.0018929777781265902, 0.07544823611719984, -0.17305883074642367, 0.0862094652744442, 0.06266169093004298, 0.02535053109223592, -0.00846123091012552, 0.08784625960942083, 0.04048118809399409, -0.05276418167996558, -0.03453839760297072, 0.022586642787529275, -0.015635299678362382, 0.13911373611554662, 0.008989723505315083, -0.006301655854573818, -0.06717602328356113, 0.07116546890311015, 0.006018938115469044, 0.046836279535549294, -0.16839284323673737, -0.05586413885540795, -0.045556660447579056, 0.13854316839512315, -0.09327031215501669, -0.06148525639543078, -0.1231052666762441, 0.03710445446636911, -0.07422683961990413, 0.10712343714825917, -0.16506606628068934, 0.12305478607435145, 0.09208107026990922, -0.07148711366681554, 0.09844622124687236, -0.02657769398940619, 0.01791954223406031, 0.058645943202693555, 0.15238284549801884, 0.10306786067063181, -0.0969335244499902, 0.15111284174644754, 0.09548153302127614, 0.0250252491271139, -0.21323988319924989, -0.07505147378610955, -0.03622497132463167, -0.16063457049145077, 0.04035156231223194, 0.20381257876447545, 0.06765104654238127, 0.13212882940721385, -0.17336749316044509, 0.13407061886919644, -0.06067950358637211, 0.17122380720432706, 0.02309988696120472, -0.0017570519331411485, -0.07485976243236997, 0.1437883728377298, -0.10315967412358203, 0.011284499124735777, -0.27121206594428593, -0.05740257103078081, 0.11193897322140577, 0.06391290945201093, -0.12771970605599237, 0.04312196657091688, -0.08017070897377339, -0.116284447499155, 0.0744066227315838, -0.12787930495305197, -0.08246958135434172, 0.0956439774042662, -0.04557085055309455, 0.06144557205511782, 0.05764716702366873, 0.08920008202840701, -0.08147678866524413, 0.02759376717128814, 0.24007118536988506, -0.036963787126954195, 0.1876104699423827, -0.15462560948492712, -0.11703620326773817, -0.11201241388225254, -0.13127166246595165, -0.06892615820229213, 0.010561886465455953, -0.08343599268174111, -0.10401361094687772, 0.018610037613540707, -0.07772192525235826, -0.12024568984932792, -0.11943121774829189, 0.07642451824394414, -0.019943446078288077, 0.08708725108887809, -0.06748646049072406, 0.05415368232707947, 0.13492440758376598, -0.06052277511911274, -0.0321589242613687, 0.033032188123394195, 0.11865858497263644, -0.15972088291058284, 0.022318504903988873, 0.036558660698298884, -0.1205079332057944, 0.10774898219303262, 0.05783978472496098, -0.0578226399011741, 0.07236743390924176, -0.057865074761889436, -0.09021592467890426, 0.08271878028501817, -0.13495253499509607, -0.1346957546105789, -0.11524085103253255, -0.2056723601703253, 0.019017014342565402, 0.05937274068937244, 0.16656405943879987, -0.02904992377183926, -0.0930056813381413, -0.08446162535762108, 0.07106360520653786, -0.055969080227077375, -0.19529542985269663, -0.05995664421060405, -0.12456788904081027, -0.05698978629266657, -0.05699218505937534, -0.0024416111296593924, -0.003876886020042083, 0.12020630898191054, 0.06398786553768114, -0.0714635348865489, 0.01699773066344523, 0.028256941936418624, -0.02121004620665645, 0.044041224960429795, -0.15860150439973295, -0.06661766316321907, -0.04991756250162513, 0.10380117419059683, -0.12486334395096176, -0.0475571218349328, -0.13875511454986994, 0.04732263490756869, -0.06069467086764422, 0.058479582038768234, -0.017339463901711094, 0.06889030055219418, -0.14858115189084525, -0.2444325986779878, -0.05660063571844614, -0.0982306483096157, -0.029994126934440354, 0.006248316794693108, 0.0001927086236078357, -0.12308746095019048, -0.003538341241666082, -0.02885802272684078, 0.07772326753532452, 0.033014759813899446, -0.03757739699512627, -0.06155979834648817, 0.15736340016163575, 0.08793553520051232, -0.2476524061132294, -0.15242695019407693, -0.09941062132289585, -0.12712715704116703, -0.07023141240868155, 0.05696029315188589, 0.06523670213492495, 0.36884428746533965, 0.11427093867319227, 0.0800588323213361, -0.04200845293080349, -0.03986112108490103, -0.04027404657358764, -0.16319122924226054, 0.02546513682097682, 0.004480657253700474, -0.05592148777482402, 0.05593903523278568, -0.19678892506445814, 0.1025422858897433, 0.08207877262223517, -0.06344379396127293, -0.07319679994568036, 0.045770468006281886, -0.06640469305237226, 0.049453967179024866, -0.020645548838770764, 0.17199904759878185, 0.06596992839299028, -0.11322179738842181, -0.21605812072420283, -0.05575232388838175, 0.01880035671966019, 0.035989215560221985, -0.17518109608652344, 0.03197504699135953, 0.042974796058850656, -0.025277708100070385, 0.09843693396972093, -0.1290504209653814, 0.10089795463776108, -0.00201354836209791, 0.1834132414199582, 0.06260915631444086, -0.08903533427594003, 0.1240942467807787, -0.15578294773095397, -0.16697257958120887, 0.06091341685671045, -0.08269679543706497, 0.05225465570023452, -0.03321270694179159, 0.02321384267536979, -0.010307874083118106, -0.10834149125222133, 0.08943584309171149, -0.05618730507289395, 0.013234588602999704, 0.002906769877834115, -0.08254777911341529, -0.06614488560375155, 0.06895113971254367, -0.013403803398716725, -0.044585070545327565, -0.10297136196079902, 0.01157163758106468, -0.1742252683134341, -0.02593762799491017, -0.15412368016815692, -0.07738264102962263, -0.0490591830057954, -0.14666210325874754, 0.1362112146010597, -0.1459093037368954, -0.09267028583033642, -0.16371576316101386, 0.11890860669563919, 0.1837935824587974, 0.16164364808408174, 0.04194822125207869, -0.014723620020498651, 0.006055229634884098, 0.011195454951628108, -0.18952893504254772, -0.18995138093858144, -0.11825562203220524, -0.024499132797516015, 0.10822064998464516, -0.01889600302325827, 0.061212136929597954, -0.15498834271394016, -0.13708712074824778, 0.14378003557969563, 0.08674005709390904, -0.025201909369467115, -0.03131906770739568, 0.16977215001160129, -0.08672375414362135, 0.11062832907285103, 0.0863877765202631, 0.08198577818049793, 0.13085871626822776, -0.11332933415832391, 0.017889705528996817, 0.0653378586832286, -0.1253979923674019, -0.14378798274828616, -0.18703303013285144, -0.008508441180791226, -0.2013428139986079, 0.04721921212759574, 0.18156658654911806, 0.08785751864986757, -0.1276927467087375, -0.015969486707995032, -0.015116411561988691, 0.04582488948141733, 0.024811337861614328, 0.08269628530122526, -0.08185545527169243, -0.06416322834385256, -0.06527586997373776, -0.0893515144361441, -0.1408215958853235, 0.011720647439371276, -0.04967995570123203, -0.042048843975726904, -0.0039772664970856636, -0.02711046089031696, 0.12558489429109512, -0.11256219225111329, 0.1762223798677771, 0.3273723941497935, -0.29887982297804044, -0.0885471964312888, 0.09172883454093488, -0.043515832542830174, 0.15093317860871536, -0.018489959144015123, 0.10329990860462326, -0.07705342318626145, 0.08244235200784336, 0.020427726492518974, 0.04052158231453669, -0.10187389809712118, -0.05352694702119546, -0.10834917450417425, -0.13052223328316545, -0.04212853905890389, -0.03143294056471922, -0.0716120908245533, -0.15167347396544362, -0.008895476189778186, -0.061743084862910524, 0.04836962718349405, -0.15864515632405363, -0.050026320921363276, -0.16690036536243755, -0.00020009629764585846, 0.23584747874324685, 0.1403894699996613, -0.0807074585233648, 0.12681729732435404, 0.046999630704491126, -0.05349007408259158, 0.15125037246995054, 0.06122545672906687, -0.07256291094347447, -0.07784456365178322, 0.1869249833395165, -0.04622511717413026, -0.08897370369516877, 0.10989570853295659, 0.11149561238012046, 0.014674695284531815, 0.01817256925147648, -0.026804616011238316, 0.04387748718554321, -0.07361941448519234, 0.03767603488402915, -0.05658277828586292, 0.0852504017262438, -0.00014488822891593512, 0.12181492474266996, -0.03814731409863978, 0.03321399010724449, 0.024671870829637992, 0.07396996350308775, -0.008893945345072046, -0.04497257665312046, -0.10743951609753051, -0.218139063715185, -0.09410525769907402, -0.1344875321892338, 0.04576006535497086, -0.06893008860740586], [0.05823475843406594, -0.12150232843491733, -0.056727006726172535, 0.1098844132542502, -0.21958472231739012, -0.11486638647124965, 0.08935576864579507, -0.013766868538746986, -0.0451765589861248, -0.05107231807568198, 0.06135509281793744, -0.02468096333559639, -0.05188403623190263, 0.14488688639142674, -0.11112258753455145, 0.09485416616041577, 0.090820968652238, 0.235306782554853, 0.09164237830634295, -0.013240490183593629, -0.0767202848714103, -0.06458972217019834, 0.07958222010650175, 0.0610502379855393, -0.09950683739420617, -0.08767558466035998, 0.2620703948112471, 0.007790577720489191, 0.05972987642612572, -0.09109128529075722, 0.09824585527192022, -0.023581936510949718, 0.20375996640868044, -0.03604587160268445, 0.12169068320981546, 0.09090939239389202, 0.1144333148309224, -0.07703958843186715, 0.06915878223519961, -0.038318395974025386, 0.055844962841322704, 0.08918212506538147, 0.04079701284209908, 0.00946311722728248, -0.09966872544522101, -0.04118758783965559, -0.007165721252380979, 0.047893717149113516, 0.015386022283365644, -0.020738753335332847, -0.18391403941176848, -0.170872577242694, 0.13566574733821482, -0.07452616022939157, 0.018445685914929854, 0.07438937030722732, 0.13736076254484206, -0.1260522209777248, -0.010859838134899743, 0.03275173060720254, -0.02068596837034979, -0.012180959694719808, -0.2360277884850971, -0.0755670613589022, 0.10048512900435141, -0.0515362256968647, 0.06746155491038253, 0.00624315236262137, -0.03517269966468231, 0.05000032555675994, 0.06777804489969512, 0.0783476725752375, 0.00893674348589885, 0.09556881268725365, 0.06978388926918173, 0.014630008509277401, -0.08591991725940203, -0.11824358598306116, 0.0349178260615286, -0.011443088049704, -0.018848931984258917, 0.033010026818952674, 0.13102191679460015, 0.04916009657306484, -0.08934347882644038, -0.039904587736428784, -0.15005086057534306, 0.06678424199169954, -0.10785263079026014, -0.15177559881786917, -0.11511305348355719, 0.16772829319181226, 0.15377188884819581, -0.15944348275888318, 0.010563727053191696, 0.07011214734797665, 0.008929330146749936, -0.19167187067267422, 0.03214098923675633, -0.00790367844018623, 0.13880461690367996, 0.15146510418788225, -0.09104511379991131, -0.04640476814012659, -0.14546555172821346, 0.06748193857787264, -0.169691056927602, 0.026640025495831495, -0.060891196388207204, 0.07217898263910039, 0.20455180946307588, -0.03202135341108075, 0.17558318770053258, 0.07969252349402539, 0.016381148981271805, 0.16832029871021936, 0.06443969282430985, -0.015786599523512995, -0.13752897053789045, 0.07588948580276089, -0.1369607328955704, -0.03391478100656189, -0.13444018861793575, 4.7656454106830005e-05, -0.0018070368148640058, 0.1559843508411266, 0.1330659928306559, -0.041957106879394294, 0.12850309793332387, 0.011648745949769425, 0.055048538871931035, 0.10709878762317802, 0.06278022818940797, -0.2321085789854112, 0.09169995666721853, 0.11065346274943058, 0.2565624511858444, 0.09252040635705198, 0.06717594311637587, 0.017838713316287724, -0.11342417527151241, -0.04684052136963253, 0.13427007602727023, 0.04559359599958492, -0.17190031069791906, 0.1407939325674093, 0.043716406225299, -0.1328941791667525, -0.09508216174521206, 0.02873512480919568, 0.008076147869832037, 0.047922947613354236, -0.05362670938137063, 0.15127655152755806, 0.08282084604717237, -0.12910860270895755, -0.2004635151817826, -0.05923106610592778, 0.1218285734991269, -0.03064079262183127, -0.10379308315898719, 0.10917640623593992, -0.08533282260623244, -0.12078154981128963, 0.0346951477127102, -0.15248667635002464, 0.022218250994676267, -0.23184575058669554, 0.10561339127780361, -0.03239734040812544, 0.04352436940916804, -0.01785124477421255, 0.1592768427877394, -0.03314895715438285, 0.026373798693602048, -0.031822743739277314, 0.15159778915465236, -0.0649758268726701, -0.14661889020616165, -0.15169273593775276, -0.07867342075757229, 0.09058017480503051, -0.08085370965945793, 0.01450385822232361, -0.08945503002913036, 0.07101133487597715, 0.07215209158876232, -0.09239890906480323, 0.05906871398468188, -0.048724150504395755, -0.11481157758138848, 0.0003172293315006229, -0.16197773167224355, 0.1597312301347045, 0.01973976721975946, 0.10016139257481392, 0.13748813785389102, -0.010573051954608208, -0.1571939696057505, 0.13046808146776415, -0.006568549899659038, 0.03135061811498854, -0.11133574241927127, -0.0725629815789519, -0.061528284462677156, 0.07448437588860392, -0.01704829048257494, -0.09424094021723968, -0.022417466356756538, 0.08218625753642919, 0.08579087070473497, 0.02883130315960358, -0.15977104093277097, 0.04322817087008111, -0.08526929890486425, 0.14942490068872982, -0.011101960999568408, 0.02926871211407609, 0.25484588041731343, 0.05363808099298337, 0.03913211657855816, 0.027668401878064398, -0.050041241703712006, -0.01586718779102705, 0.1048185704093298, 0.03040097873509014, 0.0026819190460421736, -0.07353977238822007, -0.3040457733418882, 0.1486022632809481, -0.05981050691230097, 0.0369537918281973, -0.11348599044269472, 0.12816068823029308, -0.0005049832781680801, -0.08230525426571836, 0.05613008532492062, -0.010905387458010812, -0.06604539211924708, 0.012472490800082042, -0.0871497973476061, -0.03379960152494698, -0.038820251574648496, 0.10140321085047009, 0.10684198448512822, -0.03592561865907686, -0.06331565680814116, 0.03607222711615365, 0.003502301332914482, 0.07378144673249487, -0.048178414168597083, 0.17805485722363584, 0.025828045629319337, -0.14967592168828805, -0.06889700010100146, -0.13174684687799942, 0.11671814299340731, -0.09585457998808522, 0.07935305395125172, 0.29427070701552976, 0.2693759303756537, 0.0822065312655848, -0.021941893028678227, -0.05260755874929927, 0.004885776996287404, -0.0787721409670408, -0.024197127030666732, -0.19264763930965365, 0.20111337591981016, -0.049862776875375464, -0.10074700019519015, 0.15808021685391294, 0.07348654152746696, -0.05270022765364858, 0.027023447272386647, -0.0680948208228706, -0.019973946835867947, -0.043077894440334885, 0.01820652553457915, 0.13259514033655026, 0.16501766390943923, -0.10605661960073212, -0.06802031837294156, -0.13815826356017255, 0.05300729074050321, 0.01852319087238277, -0.022250062511895475, 0.012419411476319106, 0.008425812644202935, 0.10949301382532778, 0.09906971974405365, -0.1636171901886659, -0.038982579788388455, -0.06781857272547234, 0.02864878875549074, -0.18189288543399562, -0.09232973314804344, 0.016109665648163702, 0.07047667593444655, 0.13609888232569514, 0.09135836205769754, -0.15694490603547706, 0.24484577085591064, -0.18607334387345278, 0.08344660245774164, 0.007008782513750429, 0.065378386184347, -0.06606209246312882, -0.07659227256834272, 0.1359899199945865, 0.08978287539634604, -0.009440933820221934, -0.14434297405197244, -0.059934137535586685, 0.024654745436211177, 0.047337344173582034, 0.03352095301692008, -0.015514876538036477, -0.008076849125283666, 0.0688923987029942, -0.021451724634727415, -0.09856279948805759, 0.06730093939512172, -0.14661803271349833, -0.16180222519856546, 0.11763940507290511, -0.13692145191582503, -0.09311298202785928, -0.04918552132429015, -0.04427488084364746, -0.003081116809736504, 0.01773634380073481, 0.03407169735056826, -0.023817424139439533, -0.18420660697729, 0.10309830369002637, -0.0799481326271178, -0.08192961444924382, 0.04864525842042787, -0.12068240264704676, -0.061041572554159755, -0.02993032586890101, 0.04027441460890645, 0.18130787123844788, -0.10134719269329101, 0.21136819013288244, 0.1445348195852018, 0.08791167582406019, -0.032346630366315104, 0.0805605878170807, 0.13963633614069235, 0.09685399247541882, -0.0022083621957728595, -0.05952734854838737, 0.05436444721689707, 0.186431804358144, -0.09365487770355624, -0.106334305293995, -0.09573772357906411, -0.025801070629195774, -0.10398574783808634, 0.20553479443823794, 0.24814162304216342, 0.04648471330018623, 0.009703522404223085, -0.052970672514822015, -0.06347817586305245, -0.13639049099559306, -0.07056109689368309, 0.21743468991170498, -0.06665734253317829, -0.029861250758419472, -0.09056712531110692, 0.12153197377843022, 0.01940406107596562, -0.03127882843195773, 0.03957060671056761, 0.08941446555859939, 0.027410411624570658, -0.09025437208727785, 0.17565791469096137, 0.1037038666501454, 0.0795324605531096, 0.00972285375810864, 0.13353340468178992, -0.12742296887820834, 0.1120266681732066, 0.06931640109512888, -0.13124422138903552, -0.14863222054491423, -0.03446132833405787, -0.029349647186335388, -0.17275907091336565, 0.013501490663505936, -0.07421368382154968, 0.005282551687495875, -0.09098833248292718, 0.04769187669884126, 0.032378999860680394, -0.05841637203946352, -0.10793691660833604, 0.031735613753606104, 0.132502183144199, -0.04537956389138175, 0.051422402722873656, 0.017151764348860933, 0.04206571359849877, 0.012742548802459362, 0.24027783635165756, 0.09055605406299722, -0.03236213767533725, 0.1052633364744952, -0.13667115987439368, 0.07475517122244305, -0.025875893124842165, 0.07047126771589883, 0.037598901664100744, 0.005463101917112051, -0.08908464939462019, -0.06455451504881124, -0.12443766012534552, -0.1536223700200545, -0.08493860087355472, 0.10398442501553928, -0.11168902485427767, -0.05628237898512051, -0.10843806397236924, 0.061023284234676026, -0.040073364917907334, 0.1841680090417336, 0.05640949019074877, -0.11643127811397536, 0.011841702707842287, 0.11851287086017503, -0.08679041323222658, -0.01914616755395456, -0.0020306209347731924, 0.0618086890762855, 0.1408529807717199, -0.08629996523418827, 0.26594155716421275, 0.04903399592454274, 0.061489419015706516, 0.07358392042421767, -0.041643118876165716, 0.04031604067669163, -0.20778478743142548, 0.2339425932995468, -0.11336911094654567, -0.10413876458661707, -0.13813566696663646, 0.007014676375319068, -0.10034995204076408, 0.04470047690919368, 0.12371653693265086, 0.05867280190232488, -0.14500292202004403, -0.09570557809388991, 0.07917827574094549, -0.18257494958141413, 0.10504573122497976, -0.13793566242203617, 0.024561972032283094, -0.044184609547652874, 0.04267169430687135, 0.12302253273494315, 0.03380645075239973, -0.05627223301220598, -0.08529708414853003, -0.016416037075217105, 0.025550649082779278, -0.053992998223219374, 0.01157382848794708, 0.062324072972880874, -0.046676961990796725, 0.07367919501906114, -0.14324675049517796, -0.07996735007582542, -0.022345360249417585, -0.02103609735026253, -0.059775511827202914, -0.009128190817164905, -0.1495033527955318, 0.0036024298596154976, 0.007204047570765902, -0.13368058471309643, 0.11138488080862932, 0.08729419916227531, 0.03579972171565817, -0.0004967595503539366, -0.2530175213903083, 0.09211144471511082, 0.16402082029440435, -0.17802893711221301, 0.12836284658936783, 0.12743027142900154, -0.07299189559190356, 0.032353637971379814, -0.11242095762189719, 0.09144606272062454, -0.014222811808739381, -0.027472987809745636, -0.1403924141396538, 0.01579107210658534, -0.01554452416420242, -0.021640470369370408, -0.12830866039198094, -0.05018754557033095, 0.13640987962559462, -0.04804588310821478, -0.023163270075977127, -0.11061794087931952, -0.09987295949694291, -0.003178699537838358, -0.1902040727333311, -0.03477847429946973, 0.0018838809988835894, 0.06893481711673814, -0.06811545277561688, 0.001235667269541501, -0.16669774401421159, 0.15822530738757898, -0.06267905819529683, -0.07859594571761294, 0.009554524029275521, -0.049444033916292374, 0.06588978754293832, 0.09512432717216925, 0.05500575330133054, -0.18557877522621635, -0.06743788758680756, -0.029446022099289093, -0.13043510453338125, 0.13639232783893737, 0.005461204354927272, 0.08701742569132385, 0.06488181130394605, -0.18861681570732836, -0.03198931269869674, 0.04446778669011939, -0.07257751253164213, 0.00872387524196691, -0.04890004747824791, -0.15649933594004148, -0.02762545767379146, 0.008174370780364808, -0.010021539392518779, 0.11187194295074128, 0.11173140171882112, 0.0461983404894663, -0.0843693035562065, 0.03796310409659646, -0.035782855591681616, 0.08475680988010681, 0.13970785591298895, 0.05585004945480383, 0.07992376892987736, 0.03092583317301802, -0.05709706607897546, -0.045121627865930526, 0.1075495672194734, 0.08718596357202367, 0.002935188010208761, -0.03969668736951739, 0.02131691503301833, -0.21700941816490246, 0.011288709586303342, 0.018260681908924426, 0.02663437781268039, -0.04207599865034972, 0.1013451580329312, -0.05048641593781751, -0.0749343061621369, -0.05872723297747519, 0.07401730460232818, 0.21250854197114172, -0.030642469010110432, -0.03013766926817529, -0.04181268331892558, 0.0726201930707246, 0.03781883926033467, 0.08575889597315228, -0.018674100605274576, -0.07599057449750146, 0.10028349350421961, -0.04055831268033986, 0.2049120677368449, 0.05522377423294725, 0.013059800659644015, -0.08961669341849043, 0.0065591629326457795, 0.09926301257187409, -0.18819442411174436, 0.12112480514556845, 0.040293551754757295, -0.009546495280817862, -0.1354979817384378, -0.1611245557087001, 0.08390266044722365, 0.14076267927835553, -0.0322774078769341, -0.18725045926088674, -0.10230910281577701, -0.20548793728666764, 0.04343191727246252, -0.0552675972748094, -0.2430161197312911, 0.19378817709888088, 0.060395940387517014, -0.06936608573913812, -0.12080835732548896, 0.12151013258112782, 0.07036979583139984, -0.08189085565609096, -0.07081872369886959, 0.0872857780411301, -0.0015962606754350566, 0.16191467141847124, -0.14512498093339837, 0.008765582161288228, 0.09009831583428712, 0.05976654969861059, -0.006018866625503464, -0.15337632493282663, 0.044229032286732, -0.05727907755148551, 0.14006833403120253, 0.000850755603620529, 0.15164821206343246, 0.1356943473638487, 0.014754260599633907, -0.10640374875423463, -0.19595647070273223, 0.12609702277257215, 0.037085006324235024, 0.15195227085460253, 0.11706923352962624, 0.036862635014399465, -0.09493669627118936, 0.06813085604431306, 0.1683972101209964, 0.03940908657285261, -0.12749793401701456, -0.08165732950545528, 0.07058178466733761, 0.04822044123109458, 0.1229352242913142, 0.05472102461276229, 0.19310203752055927, -0.02981382671683891, -0.13472758331248855, 0.04798316784345913, 0.008406991477025871, -0.19962388063650988, 0.2228812482269202, -0.19768885808474537, -0.09129005559133971, 0.002254699131518651, -0.051901609325919945, -0.15813868196529215, 0.04070658694480813, -0.02930722151142065, -0.0260133424370894, 0.0701052559494182, -0.21981351278555172, 0.14471949450825483, -0.10254044420727788, 0.007005419127114225, 0.07628953279359264, -0.12550391577225783, 0.11389657067543167, 0.07190019473457006, -0.15255410057600846, -0.06068430572581005, 0.04869752431347573, 0.08487875246979701, 0.002116700663020943, -0.04854132431889288, 0.007294701811412079, 0.09933839754429515, -0.17028294070687292, -0.015167453245650967, -0.17937502639801534, 0.04674417286141573, 0.013396171244596598, 0.004301117087360928, -0.09598784137602229, 0.12256561791923114, 0.07997776698399894, -0.010546603725490308, 0.012415248186861828, -0.016719276438555638, -0.017665825754738407, -0.09731461244223578, -0.18319488192210565, 0.05343547663193676, -0.10460183076977872, 0.030597652541765996, -0.0973799072348631, -0.07944059942137585, -0.0014508312372099395, 0.04870519508293086, 0.11938083915446554, 0.0983646347239081, 0.08256691284002693, 0.0917621251379606, -0.11831826269252575, 0.04317461978938242, -0.010136594695237547, -0.1768620296830064, 0.11711674055335948, 0.04993489454092012, 0.009879145373059742, -0.0225739104756372, -0.2028420032645506, 0.11497981666050004, -0.07254278945199495, -0.038917919615923835, -0.33162880073907713, -0.03966973684145627, -0.2097804005476477, -0.036677985560723866, 0.09954389143465524, -0.0060618724534046145, 0.02096036782671394, 0.07138165379296804, -0.1442681478317932, 0.058412484903103516, 0.04699222976672173, 0.14336536717399093, 0.055846483842362044, 0.046900192742673236, 0.018866965706920945, -0.041803972331413315, 0.02894459628944523, -0.004814687246057182, -0.05497287892967533, -0.05791008754194439, 0.04943799370820903, 0.21940626227671173, -0.14983012887831254, 0.048431878031229836, -0.14221123824307005, 0.01782986901312309, -0.1034380761254634, -0.009770219357781357, 0.12098314206477766, 0.10995245702169494, -0.01270158543398877, -0.13931995309391185, -0.07622760081055671, -0.15938782444213853, 0.13750518447465118, 0.10823385589322772, 0.013797032448444225, 0.1287713281314002, -0.062228608999982817, -0.1413646929715492, 0.05680196650588107, 0.05436562940518605, -0.006042903239295705, -0.07276817366777673, 0.06702666093601242, 0.001865021017563072, -0.00011440456921963816, -0.06809021812930964, 0.026427198815999073, -0.11093000585377398, 0.13751288625684743, -0.006790755865511561, 0.12917808192253102, 0.19860209339378807, -0.22466485056965102, 0.10739568226024945, -0.03668633831008916, 0.09043729433534277, -0.08663968405273, 0.03635895821485492, 0.09316164424712638, -0.09399749577404297, 0.03264118397845497, -0.036941828681060156, -0.03984707238604207, -0.018579733821830726], [-0.10722324058801753, -0.06801409510707876, -0.016118798730735472, 0.08710718776543214, -0.045993124891306275, 0.061750115370932314, 0.06115247187784137, 0.022530976854697415, 0.021314837111712247, 0.02387928866191863, -0.15840540923022736, 0.10564969016705178, -0.039112587481264095, -0.0954884668282622, 0.008637653873047903, 0.02261856213260327, 0.04052805320577925, 0.07426874313507147, 0.00921037643269613, 0.15804470715604776, -0.07041796866696216, -0.04992125886768911, -0.053756632437093846, -0.013395047954805967, -0.13702160496691715, 0.18199294472625424, -0.12924802799214588, 0.09899485330425704, 0.10814894625533485, -0.11428763586070312, 0.20040223321682327, 0.14868630587401446, -0.03830993117692857, 0.21809016760360864, 0.10037985495596072, 0.056678404651614035, 0.121156732614397, 0.07071756335326343, 0.03311324933257031, 0.14319562624936877, 0.08094711267598426, 0.029340653810089535, -0.14816783700234337, 0.10128646745787179, -0.19959590105100733, 0.023557493690200264, -0.16270871002293835, 0.020200875881113547, -0.009320882126666185, -0.04497081453783539, 0.006508270517675961, 0.11989126541832425, -0.05100087640685989, -0.09895200674785075, 0.09002888702096513, -0.030751481293717433, -0.029152132262804678, 0.0032947922275973355, -0.030741284637955307, -0.06512028569421015, -0.23940815800098592, 0.1171767689856421, 0.011258436961576574, 0.051691183895782845, 0.012151438083285837, -0.014480768301252509, 0.08501210590952193, -0.03707971264057317, 0.04249213293557644, -0.13489892508691004, 0.02402804719042893, -0.05411108337426784, 0.01641440784682051, -0.010326874951417434, -0.01573840578648421, -0.07007917584889686, -0.008463865869884138, -0.0767562992577862, 0.049276058684195434, -0.08772019069431489, 0.150577854604632, -0.06215097816754598, 0.2458611095731308, -0.03006952324333356, -0.04582064631072887, -0.10463556530185761, 0.045428917875401265, -0.025054101100637334, -0.07795240566825672, -0.016066863504927625, -0.21068487419670723, -0.057106803343212525, 0.04673602654381908, 0.04271760384172105, 0.006789376625127477, -0.11582823895677617, 0.029634840283237464, -0.12037886352232903, -0.1383999195774452, 0.03400251368432289, -0.04288015831037101, -0.10091088007977621, -0.00920983594267667, -0.09383429635408429, 0.027036171555098396, 0.049470726311613936, 0.029148014269032487, -0.14578640440276971, -0.04864862816330412, 0.16218268730260724, 0.2583705165395584, -0.2639696658455255, -0.01002847699330966, 0.03665344230249772, -0.0541807535451743, -0.013432838835129092, -0.14921747339471078, 0.24113372953976514, -0.11743371640156293, 0.008285299662838702, 0.20938352161322388, -0.06931142255565248, -0.016419429910731136, 0.14825935822330114, -0.08698680273259606, 0.09868505311326879, 0.0071176115495098615, -0.06166296267924953, 0.03517005266617925, 0.09995260999772566, 0.02004107052514492, -0.12100441551373223, -0.08968015248266262, -0.1584860052005459, 0.161812812268056, -0.033734747260526235, 0.0376519518196553, -0.056233676509788916, 0.09994148316605563, 0.11245234922586132, -0.021271645619333365, -0.04702382530457102, 0.04670279007497457, 0.06386344888002658, 0.055713862958777706, 0.03389236832421631, -0.05750363076473362, -0.1561480297525572, 0.18261694170046128, 0.09609160047968274, 0.10325174113320619, -0.1121455207649441, -0.15388371705864912, -0.05310217993271863, 0.04416834908297743, 0.028989816557124393, 0.11629238734337602, -0.11327205582145919, -0.09809328456131955, 0.11273617292573504, 0.08861909697261838, -0.13221680942488165, 0.007123258637908682, -0.03893674596746846, -0.1949648373976063, 0.012488048238105705, -0.10039582673354282, 0.004560993987092732, -0.005041866913289734, -0.021830321885250567, -0.03602636329647672, 0.04381047508884395, 0.08154422327587707, -0.014719096971743787, -0.104237112648203, 0.08641099785851654, 0.006911656780842624, -0.009520923933333904, 0.04529912612222739, -0.08099160433393501, -0.11225846217300615, 0.006483994025363008, 0.0949784764682088, -0.08299782049796327, 0.04536268417126984, 0.08409363999435057, 0.14550762950143747, -0.20666897261146366, -0.01810019718133468, 0.09821063817785754, 0.09461953391876154, -0.011155482546649803, -0.0800500675577711, 0.13413269907991593, 0.12492345696417194, 0.13150670514603777, 0.010920917232323489, -0.05454095312341835, -0.015704117037122278, 0.008732824738680874, 0.19185102686120536, 0.08760210607610885, -0.1141458356501496, 0.01810999584311136, 0.11527938449096438, -0.14395433666772672, -0.1696064694132299, 0.028378289237469073, 0.1896296025667129, 0.028900809991959143, -0.13258230984695615, -0.16593622022848972, 0.038505071542248685, 0.12729073505941474, 0.08256794614098117, -0.0006422288274213032, -0.038029541384498045, -0.13195995651638506, -0.010020508668679392, -0.08415239801728724, 0.1702513327260537, 0.009761979933565309, -0.19290666397115522, 0.09250921971907197, 0.04106707860821983, 0.1284392558427879, -0.15972913538387223, -0.14976300285654617, -0.10234279719997841, -0.019429891301853117, -0.22256543929593336, -0.0387624190344432, -0.12467277115041593, 0.10048006029471371, -0.18907775780408545, 0.11457285032816045, -0.14834412621088086, 0.05643939541367883, -0.13286826895800985, 0.07839076905531422, 0.08197861383447652, 0.07501269977492989, -0.1490527763913523, -0.07845381207651395, -0.025079565668177983, -0.1116206467005571, 0.0017817752480179814, -0.0954440860259076, -0.04320429554975749, -0.01899516718534256, 0.11901100304561013, -0.07564048586743215, -0.05113696229078311, 0.03805700624115983, -0.05936406740930298, 0.10888175358666558, -0.07545327509098998, -0.14905899901768985, 0.07492838729458831, -0.09247121487901303, -0.1780202498633022, -0.049921133217248594, 0.025295460115249826, -0.10332310097362168, 0.2511127660849569, -0.03614689613321761, 0.0003029802149802084, 0.1705980977047509, -0.02075295077420687, -0.0537897936758657, 0.07394299190181092, -0.06413472081293825, -0.13569902922509766, -0.04089051575036099, 0.1490747039541773, -0.07353173458407312, 0.22152973299331805, 0.11911157386571361, 0.03451633851246088, -0.09733376450068364, 0.034365394217832516, 0.0798735852669665, 0.12204022697831421, 0.011276148143672778, -0.26658263672844634, -0.09529431926203111, 0.0128840223696566, 0.08635538563258614, 0.0008250358744741984, -0.05360338998328491, -0.150653674983165, -0.10679364773373567, 0.0519510017744833, 0.16798552655046775, 0.2721416301830347, 0.16026049725823416, -0.14651292619133108, -0.04736031984015936, -0.1543621232248258, 0.02189763654782785, -0.0436519091943858, 0.13609101752372318, 0.05230238350545916, 0.054846173908614404, 0.08715862691096855, 0.13394651366315916, -0.13502736841516375, -0.04753266133345333, 0.05630411203063304, -0.08765676824961015, -0.203656842036597, -0.02090127103945906, -0.10582925425930345, 0.03759355523921297, -0.21189301663866172, 0.07039762890396466, 0.1123566805424745, 0.11635562486488378, -0.012804336147707913, 0.002435908615508338, 0.04703543660907855, 0.058914582962874086, -0.13145977230977332, -0.058651356083061816, 0.14096929595386815, 0.03599614683032267, -0.007907585066837353, -0.10863351730326568, 0.02278208986592413, -0.00878454419570019, -0.0029086748036489187, 0.0008892435353583515, 0.1248443880040149, -0.21244285706268629, -0.10522781839714426, 0.0757059176073053, 0.17296683402154286, -0.09112617883319296, -0.03935065159230575, 0.13490028432752377, -0.023011315533895016, 0.14053380392277456, -0.13767586701609744, -0.14635914847819473, 0.13308749677763448, -0.03484885350518107, -0.12789673535483212, -0.0696130769753042, -0.029510565004573816, 0.16313993532582097, 0.16782781633785107, 0.04166680010241044, -0.019222455727224138, -0.024034626792013836, 0.1537613996762973, 0.027031871619180903, 0.05975255184977416, -0.14196776737863626, -0.09015202064092948, -0.044905538224597634, 0.01645002644629322, 0.04511409989458662, 0.09021804264758107, -0.08647864254575388, -0.07971698587605504, 0.045186384049234085, -0.08666595210184652, 0.24232910509747857, 0.046296332319875844, -0.09578206111669785, 0.19067532566036582, 0.03739970677129487, 0.11046174406186396, -0.048935480748859714, 0.08323320175977743, 0.0262651196598814, -0.12596041654387147, -0.11436361839497809, -0.20842772642405963, 0.03856779232156838, -0.0710958427767729, 0.04580952523946733, -0.03927164555062225, -0.031588180677682216, 0.11852027259703586, 0.11746930010745833, 0.16953345797013838, -0.14776562732363246, -0.006980588606689986, 0.03448123297459967, 0.20816773916440845, 0.09776094375212468, -0.17599513476363587, -0.020430899202730987, 0.175753367697052, -0.006487679407984487, 0.0006406001664774608, 0.027604937270775703, -0.1277161421761065, 0.09007812480407144, -0.10509832731693416, 0.012341378155777521, 0.10417758172389449, 0.04470543361110281, -0.10778144558327665, 0.0930258247308737, -0.0035172219871108788, -0.028613735823523636, -0.036689437006242026, 0.017482721683637976, 0.05908785350459766, 0.040751356494664055, 0.039572866581367126, -0.0900188900960896, 0.034578661136670345, 0.10054122788530512, -0.10905725057385336, -0.07149867976551902, 0.0411687271342945, 0.10201445651174101, 0.1416895108633814, -0.09483007080296246, 0.08138584978621799, 0.04027274980590806, -0.14859825971030471, -0.10934894806355389, 0.03590701164662641, 0.012365179631049439, 0.0999243997429673, 0.029755182182551215, -0.022488563872842444, 0.017573795637572366, -0.04050155497553737, -0.04307671679565686, 0.05276312109956192, 0.035106659407382744, -0.11705589100119398, -0.06536512375539658, 0.06821231603387888, 0.11956931473153776, 0.0684400471331458, 0.14146722762791428, 0.06244179703081409, 0.013268614622856334, -0.00031602779728425004, 0.17484460881343356, -0.05496454699961553, -0.11188845028220505, 0.15995940632999175, -0.05205147304755151, -0.15561420074100327, -0.10246954755454557, 0.13505820923750575, -0.04594645168051281, 0.03913824514929816, -0.012516230290402523, -0.0012933794531813174, 0.13787344714706543, 0.030639865485935527, -0.14771077925766646, 0.028180808167448168, 0.02845496922320634, 0.06324619021912568, -0.03587063030889851, -0.05589254437028599, -0.08235237640605839, -0.15935681623250056, 0.007474816155236108, 0.19570168793604867, -0.008871157685512245, 0.10872098997374383, -0.07839570099538547, -0.051598650598874134, 0.10647661240313973, -0.024152012197815504, -0.21891528637886168, 0.07242899577303206, 0.0478124029669999, -0.08336663076924622, 0.07224689198454169, -0.05104707232338566, -0.11944694454636098, 0.06854620163929631, 0.0222689917757644, -0.007574468985021974, 0.0010640961103652836, 0.047749851728537525, 0.04462680374453573, -0.017148901520095315, -0.049789904559393805, -0.1438297931051549, 0.14270706796134822, 0.09912061989851333, 0.07354561935873809, 0.21696939408768212, 0.004843305800033184, -0.14214177573782247, -0.08135333000561289, -0.04565809082529295, -0.12027118578726065, -0.08685945897575074, 0.029423835311492903, -0.13064806069716714, -0.05072173411916388, -0.018494852705924984, 0.04439182604150562, 0.18161596741179353, -0.10174419871943118, 0.09184600592306222, -0.19121964540082723, -0.06899561327288393, -0.12518229225807523, -0.14366353854499367, 0.06902463594085544, 0.129371221314526, -0.09808369232391818, -0.054887982370857194, 0.01993813305883249, -0.08734942104102135, -0.1856344972626186, 0.089423870533747, 0.016401948054497514, 0.00470420433656018, -0.12145717427655618, -0.09518401512269511, -0.03545828665661925, 0.018729450160919384, -0.06030663186963008, -0.034812789205477056, 0.1299875162841486, -0.007995709434396616, 0.08565524657860817, -0.07457364065367776, 0.06421556873578636, -0.18179302740874004, -0.017552537872034205, -0.10785335496732065, 0.019506119044778277, 0.09429934987013883, 0.09974868032031721, -0.1303275267550222, -0.06052419008148855, -0.009482056847468424, -0.0077008761536940945, 0.023151654257312068, -0.0005610640171616059, -0.03416272472167357, 0.09467404490174719, -0.18165730845871175, 0.0032217964917303577, -0.0011082741794442848, -0.04315267418086565, 0.19522185385147506, 0.08152895924840312, -0.27020620789519495, 0.02212099224680443, -0.055502347837630285, 0.14200325807637468, 0.17755147756644932, 0.07664111248130151, -0.19832370799445348, 0.10670059382841264, 0.10113843585858268, 0.11576247265326974, 0.11427802599018644, -0.036997557039271094, -0.027225797629175527, -0.10446285672075328, 0.018240093261584902, -0.034416874792935113, 0.08220270699604372, -0.16559544275797955, 0.10422395505288329, -0.06325367728894385, 0.01740474293501965, -0.06343421584018552, -0.06661468605599272, -0.056541162972411144, 0.007203434761283829, -0.015030662187440286, -0.009696230526935787, -0.06959239362793197, -0.05052271670924788, -0.14296969730897438, 0.03273528752401111, 0.04637412223624853, 0.049754625822502084, -0.07277916645792021, 0.01578817146408008, -0.0029050116553599216, -0.18847006169577885, -0.07993993338397415, -0.08398709534323211, 0.055418806674697174, 0.14331739914839978, -0.05781149866459884, -0.04434356570268792, -0.011820271209683977, 0.028724797529444037, 0.10664267302897457, -0.1922992945961099, -0.0258536763451359, 0.026994836816985224, -0.2027018658661236, -0.16899090532672298, 0.1370126661657836, 0.03925683137826198, -0.016494433695769216, 0.03302438816119357, -0.20803294573266734, -0.020483284945232803, 0.02716927383456897, 0.04328593988819068, 0.022265633036386446, 0.038201195059888775, -0.16946532024191896, 0.06993056088701786, -0.10488211378979258, 0.07182157828646321, -0.11639692660308508, -0.041486749726522255, 0.05024486599273288, -0.04432054397481654, 0.17751625718899575, 0.038840708989930105, 0.02193305974032637, -0.11790520425155851, 0.08867247982839269, -0.055885177966987845, 0.06952368519927442, 0.19643486173455613, 0.05080276691084196, -0.05198573243608945, 0.12478312425202016, -0.04190406568167393, -0.07104218006584899, 0.017739435976451917, -0.05258901753041301, -0.2969967007585034, 0.025700139935183372, 0.03328610523389441, 0.10290613904700795, 0.2769234913881264, 0.011768208503809519, -0.18148176981122313, -0.04211069338435175, 0.03686918248216075, 0.046855029006200886, 0.09184821433873926, -0.17754724767029728, -0.043770167762201134, 0.03601725648395342, -0.1978490623342793, -0.09838044033554776, 0.04080701196706261, -0.048380295903300105, 0.012919305956201905, 0.04459261825040168, 0.028977103696824, 0.07199929370277537, 0.04790567910469512, 0.0748320904927594, 0.21614842082527877, 0.10320718444352206, -0.0070399344630359545, 0.21609977551803589, 0.14132444234644123, -0.21118263331417664, 0.11174219747064618, 0.06448541211388466, 0.09440736617883864, 0.06627503095820106, -0.13654030650180932, 0.16239035045360428, 0.07733560739293033, 0.0076702537599770545, 0.01359735375615314, 0.12763842752502275, 0.11831442873946557, -0.0975750780358953, 0.058290417510144604, -0.10856043320077165, 0.07314402531404511, 0.05723693498935383, -0.01919133117291638, -0.09819833010670209, -0.07632219923261468, -0.053819520867361685, 0.2466654378849793, -0.09136411608508176, 0.06602209738052706, -0.04685737635832172, -0.1732475331785576, -0.10197018762466875, 0.18866076282010014, -0.01944591902152724, 0.01967437567473551, 0.045908457899181854, 0.08588661550875563, 0.04313408612222139, 0.08687954910496835, 0.18728489567925538, 0.13049433950125977, 0.17553469387996334, -0.07777911146305215, 0.09650552265523524, -0.04436434377404565, 0.15839791101435574, -0.14081068318310394, -0.09414706980508245, -0.10656942922666808, 0.08116357097972655, 0.02101160234743356, -0.10295034263724512, 0.17048310101901634, 0.013402041011063938, 0.011962544115861144, -0.10440997680979669, -0.026066211221102843, 0.10112842451851033, 0.17401801045807042, -0.046928903012680045, 0.09130024401213638, 0.008150848380320128, 0.06399124025731348, -0.13801837122435362, -0.02236853636221829, 0.0778155984046751, 0.0014371173221649734, -0.061126358202246114, -0.07258030014055, -0.030399982610308848, -0.07876067814533838, 0.023889857885382587, -0.10420196623050704, 0.013010892410977094, -0.10167959335404075, -0.07594679906978397, 0.02742557837723277, -0.03268422056787187, 0.07657397197064024, 0.03755785718320831, -0.06639518873262525, 0.052457362099455576, -0.1316757092484054, -0.029966865914274127, 0.19333258676358744, 0.07118103390626408, -0.1830769338654038, 0.15824556625831823, 0.14076665337739594, 0.057336272645819954, -0.18086027548946548, 0.017451625670931923, 0.031205675888366154, 0.22307016709976285, -0.019334516203925442, -0.26886293537513145, -0.07900407434183812, 0.13044959460791827, -0.131812984348246, -0.08677601754943212, -0.07812487823591799, 0.05036644786839506, 0.07015502618711579, -0.053086712899332505, -0.0875476695921893, 0.02522853046546213, 0.29034908234803025, 0.10716411457354257, -0.06026140448035183, -0.11635806852120337, 0.01728751622285577, 0.037428679543770375, 0.1272050051250638, -0.06647852884287468, -0.08069798456456083, -0.04044731682887611, 0.033805390808414174, -0.03716473257215157, -0.0022426548066893327, -0.11514428439457279, 0.08319021991646539, -0.03372808750268997], [0.12050420139116971, -0.10778504268111436, 0.14813317306544246, -0.01701744259573972, 0.017910702957471304, -0.08154027025384106, -0.09297433134523762, 0.13797576507196732, -0.06268467157068834, -0.06502249611615783, 0.0037169299738378965, -0.098538268497822, 0.14022071374145248, -0.13862186615145725, -0.0050454654257742065, 0.0725629736207882, 0.034421539819678576, -0.11750051825264751, 0.13400499065300295, 0.007633304416922695, 0.07119704106487877, 0.06499232747546144, 0.01874575330325782, -0.10643379548201118, -0.0028195225562998028, -0.12459336875431198, 0.016732032235484095, -0.009024696626773734, 0.05422452827275784, -0.043797040644812546, -0.12200304140220056, 0.05447018466376013, -0.034507710751852626, -0.019453028324338748, 0.005060260718661255, -0.09422119073679558, -0.0031959515464077036, 0.0027366220114071055, 0.07095477304777568, 0.03147815936980953, -0.03349061238771893, -0.08042313542830531, 0.1293928888197807, 0.10207789235641135, 0.07483653608940315, 0.09921434960836595, 0.01819495833414074, 0.2468771342993351, 0.2048791859485312, -0.004715471544878516, -0.07008835304568387, 0.03807089997784179, 0.12726447324634235, -0.059786966874636596, 0.016161089367659764, -0.1566547000929395, 0.09192169194790624, -0.030427299265534544, -0.018288983979996617, -0.1197182934866917, 0.044220684340383974, 0.08206039539187221, 0.04467057140711875, -0.032677904325510015, 0.03221025354169046, 0.08938904823482259, -0.10482452427428479, 0.0073930215618479836, -0.17440962502722493, 0.18087522151952884, 0.23520930713304844, 0.09605696287525933, -0.20188133417314763, 0.019888755312511025, 0.030638579083337565, -0.1562421836699902, -0.10946996786319357, -0.1383559242062803, -0.18805300428341262, -0.102659294007297, 0.1290971987967748, 0.16614881775577064, 0.028808350987312728, 0.05538448093797346, 0.05793406453882412, -0.013681265193059384, 0.012032487878309767, 0.10341334406690383, 0.12539008856746647, -0.0903719721412805, 0.12363721111659354, 0.13501525319645546, -0.03544628469904062, -0.17946552212313793, -0.06385741635366574, -0.12076423273004476, -0.011349072341558122, -0.28228574929751676, -0.04298827896915348, -0.050959532120517216, 0.0930425164490502, -0.048464071116129236, -0.1347107307118541, -0.105503022264965, -0.1729608746708986, -0.05623569100326329, -0.10245205702275598, 0.03587471210309364, -0.039778694688078924, 0.032148574246304566, 0.049604564395608834, -0.24188672566612343, -0.09623592964129744, 0.1266530370470634, 0.023679537297615322, 0.03559521861092758, 0.05877952484256343, -0.029118086507203135, 0.1773080246371932, -0.000835426609526045, 0.01384194748416767, -0.17522023524824293, -0.2871958678002682, 0.1415845354538062, -0.07426750305542539, -0.03183975956784039, -0.06478303278186583, 0.032381446856977074, -0.05490535678018943, 0.04586209958275687, -0.0935639082064896, -0.08910242230356963, 0.037105969088830064, -0.07836196976638848, -0.10362638545813754, -0.13027370513094041, -0.08384517703094439, -0.04629447382572141, 0.15136598491420883, -0.1556236062134825, -0.01965589747072783, -0.0759173381993342, 0.14252109310482325, -0.09906998339782863, -0.011526920835213245, -0.2356988726753745, -0.02769975309169881, 0.09753349303042858, 0.035158509224314474, 0.010190386351765826, -0.09189784104880058, 0.16700361987322865, 0.10185611840906246, 0.08599034723050765, 0.04904083579264984, -0.055083119089782, 0.19213297785456515, 0.020370232743287444, -0.018198867433153434, -0.06159852023239165, 0.0461189595263736, -0.08514161945235749, 0.10036734557663074, 0.1270414651080735, -0.041679100486238435, -0.0023452771806404247, 0.1008968165158719, -0.012160298347933382, 0.1162540473269486, 0.03853566406166004, 0.0330480527458842, -0.0011788416205738732, -0.12222740983960018, 0.07386628507479057, -0.1662999352976695, 0.03030938774884282, -0.03304826776748406, 0.03132631510983437, 0.10933150059416862, 0.1275203111968271, 0.1380312348712292, 0.16481728051684547, 0.03510204573211568, -0.055265029087537054, 0.10396673330687156, 0.07487543396140249, 0.18826690022854026, -0.036102782408568644, 0.0006317993207034178, 0.08370165715052075, -0.010543264402892763, 0.010506464116503723, -0.05391078231837501, 0.08867392383833997, 0.05181218663351955, -0.013050997277927351, -0.08244780748889524, -0.0657763407874676, 0.13097945922671092, 0.08932518466416485, -0.01831146591832821, -0.2533896316683564, 0.056489752670958494, 0.00476789206154358, 0.011422411032340027, 0.021192726215692542, -0.0617394199409398, -0.025258331538918762, -0.009908391714426281, 0.1442170561671249, -0.013548954765886304, 0.03539588918546752, 0.04846747373064009, 0.0035376788595973562, 0.02988639183748952, -0.20800141177519357, 0.07836047840393093, -0.0030241194904198155, -0.14773207434899566, 0.1484543814695854, 0.036424996998621235, 0.051913892188157264, 0.0714090141328566, -0.027216696380202843, -0.08349059503697999, -0.01263027550309697, -0.03958775155302507, -0.041156177970202754, 0.0033397476370660116, 0.041875431921805026, 0.010937487399799614, -0.010602206648707655, 0.02833740449340283, -0.08968081400326944, 0.08376763474193057, -0.028124182157219502, -0.030161650291284894, -0.008409979704838392, -0.05343147426666181, -0.1312110524893811, -0.09064721477353863, -0.05081002800337006, -0.10485300293031632, -0.18771317925741768, -0.015195005458543569, 0.014745619372454347, -0.22440898541055648, -0.09197623096722574, -0.03326604712948064, 0.07146063451117644, 0.0458178243224565, -0.06430990247642387, 0.03958954537887856, -0.2298379644597297, -0.012298151317515438, 0.2063838314775202, -0.2025368997650522, 0.03929038400056098, 0.019424736887624118, 0.005510618028759945, 0.2194819661328712, -0.16113362725228753, -0.07497432397727312, 0.009140743627952358, 0.20889985581024267, -0.07034752882332011, 0.10192630248091637, -0.15752964518630563, 0.057701056579339265, -0.057988927195612654, -0.19177003234641732, 0.051368275342231734, 0.009488197521427091, 0.1317576116643658, 0.07606675796902082, -0.09025750451315895, -0.09520023049543226, -0.07035296748020448, -0.008766915023264198, 0.21568940189915065, 0.016428283451886665, -0.1161606831447915, 0.1770482484304562, 0.013829383751440789, 0.10622483764074947, 0.22964976680354893, -2.4341949533831123e-05, 0.08858150636571703, 0.0756704124346163, 0.08308682371324967, 0.16640428476923624, -0.04600095732215344, -0.010438914736387162, -0.12405324336071147, -0.057260909099549506, -0.12762722209467733, 0.15074206850749783, 0.007361082850584389, 0.0036279538738300207, -0.025076533964164052, -0.07152340781666792, 0.2776452994708199, -0.1257795738575677, 0.15426319964427454, 0.021753401126124915, -0.08526425962833042, 0.09962012633155676, 0.10230952290617806, 0.028433047676115066, 0.042194337887599326, 0.23018325423871389, -0.05791167110841564, 0.008715796351817018, 0.03132868706436414, -0.03589705096704181, 0.0511159480303473, -0.05919165956045991, 0.055201817107959475, 0.014788207056103113, 0.07370812533578978, 0.24657519575322265, 0.06647428849835152, -0.041114487239720256, -0.035625630725372996, -0.019457783976626796, 8.326255671947226e-05, 0.09863917143351769, -0.16609619870495895, 0.09366623394575621, -0.11350290890818658, -0.08698639965673793, -0.004093341765441973, 0.114558096515647, -0.07234459721408644, 0.06786888482531026, 0.030350438928455195, -0.1621740121938209, 0.02488430330303904, 0.15743983902086345, 0.02408668742348495, -0.016395680956316026, -0.1721448990880869, -0.0066440541297184165, 0.16502202604019678, 0.028702873637920148, -0.03815223795770748, -0.022743682816280822, 0.004859962379185374, -0.0965880006748378, -0.019038988746937397, -0.020882184539942242, 0.0584226008123859, -0.05465441364782553, 0.0148176175290199, 0.16157749381481684, 0.08805585636094426, 0.10069073652361911, 0.03212383454923537, -0.13794264584082763, 0.13065420270998943, -0.036739410202304555, -0.022938467811152975, -0.03199789664919889, 0.08435867119858995, -0.15554123327787328, 0.026241299716510333, -0.035275858423758764, 0.07908904234608304, -0.03366185632729073, -0.01757819136751044, -0.03102926044042638, -0.13624300602798098, -0.29735019751682856, 0.0234094470249025, 0.17649622891365194, 0.025372989057117202, -0.16755389113551214, 0.11155455476849643, -0.17688387247085957, 0.054544549608258136, 0.07853606748848763, -0.0012309239858995379, 0.08915535897701858, -0.0912074834277536, 0.04697384263119303, 0.06883240836225038, -0.06955283214153589, 0.17174861925907214, 0.06810954657936576, -0.10570810186290061, 0.07473415718143106, -0.09099805853345884, -0.006589873807872542, 0.08061812685762337, 0.08097109490738014, -0.04389997588100083, -0.004184129155800102, -0.2759839479788155, -0.05802903661490018, -0.03286287202405113, -0.08748499216070427, 0.014956555999890703, 0.005429861252238115, -0.0015085361343911553, 0.23680276020103205, -0.04561390831412834, -0.030341646311591836, -0.04277887116641545, 0.04118632671698585, -0.2357076771317207, 0.02009254973574828, -0.15621202632650366, 0.007310100436645295, 0.1093532871577042, 0.2597992211638437, 0.1366538624081054, -0.06655003375767597, 0.13415931819742685, 0.12953934763273653, -0.017895845598801623, 0.0728870223258654, 0.13194945541943848, -0.19504239051176853, 0.07894879092013934, -0.04695348615319471, -0.01785107094881881, 0.007888365180998454, -0.007955285394511485, 0.043330313947080534, -0.024368302326515556, 0.0351039343579047, -0.13988956528221994, 0.06603209253904604, -0.06270170366927263, 0.004648076227431633, -0.045951727577928175, 0.01688548213724775, -0.05370630339470907, -0.18890670400438078, -0.132775965070043, -0.018066970446275653, -0.08102400691849622, 0.03044943803051982, -0.024771292805717254, -0.022903203313590855, -0.11044969418533586, -0.07349830373591076, -0.03214252622980262, -0.16198898913727017, 0.02182317950785139, -0.18207223307971646, 0.03382725820616638, -0.21037289353118882, 0.11380762765411355, -0.04698011737060258, -0.258412947691577, -0.004059248320746502, -0.02771165038150459, 0.11745096908523703, -0.08255013346279726, -0.03617393571368518, 0.10563069784045319, -0.062487527977315764, 0.062468989901509814, -0.045310915990431806, 0.07822791154513481, 0.07260077170961053, 0.019352342676803202, -0.10207490404712696, 0.008280274600730043, -0.051831408986531685, -0.004441825469271603, -0.007495008870423813, -0.043953931846722465, 0.0558239460206556, -0.1597330216263943, -0.2868631250711388, -0.027600413836594836, 0.2729561374220972, -0.07645474928615738, -0.1083716571589139, -0.033258578477479685, -0.031192683575632825, -0.12671093359553262, -0.08583269402415301, -0.010757511207663838, 0.0518720528869989, -0.04882595430678038, -0.02903096163600534, -0.15198913908375564, -0.10185908428896617, 0.12806524849767897, -0.09801536244151764, 0.022004446259672406, 0.11316422280454073, -0.05495693901595442, -0.06025357952137848, 0.09167081575201871, 0.2334090539628918, 0.1743523819784537, 0.07606296147168047, -0.1445237572457373, -0.02886299587876466, -0.24488808555652, 0.05977914359758535, 0.11129680970138783, -0.1824211939664867, 0.07613374436434574, 0.09107029359875835, -0.002838384350787282, 0.10230955820995863, 0.08073721584658439, 0.155715455288982, 0.03560259007668655, 0.029713048790511978, 0.024950115342493834, -0.05141870836855797, -0.011083761442344053, -0.07856381525203128, -0.0685999965668301, -0.20554544126007337, -0.10800803860953352, -0.042418082226316, -0.19331540875743936, -0.061923899069305934, 0.022560753009370847, -0.028791306312690675, 0.06301022449856358, -0.11041442105918092, 0.06948905785337926, -0.09651661090262127, 0.10614522284776846, 0.10317479022889252, 0.014411776892566553, -0.05095872571194918, 0.008348520491509345, 0.012864171922271926, -0.12491796860316617, 0.1693060919526458, -0.04968057099570928, -0.17543120377152144, -0.04860702095802916, 0.11234600973757723, -0.1369741021037704, 0.08091011384572616, -0.01822183057383479, -0.15133716442372946, -0.0919413198256226, -0.12837460445346843, -0.08441567566680776, 0.03928510000928694, -0.13199849682497578, 0.18384936802662807, -0.06597226693547023, 0.018325764162649815, -0.0018531552468648998, 0.0856943431791873, 0.02330224830840795, 0.05304570135359027, 0.1511672300185539, -0.17582888507331196, -0.0033551736387201266, 0.044219734763284474, 0.05138133715993298, -0.09515156238641294, 0.07956105862907382, -0.12183984424575015, -0.1371021047875943, 0.1454535979916872, 0.018487133546336073, 0.15562423569768527, 0.188006871314141, -0.08834259679167301, 0.13434123820577115, 0.0724394295763354, -0.1389812057863083, -0.04526693293906062, 0.053004774804683, 0.1265830824901159, 0.11792009513333038, 0.11713352035694019, 0.10170598951831929, -0.05135475643286004, 0.07233179481015631, -0.12512982300256095, 0.11725919080251378, 0.05226729308114328, -0.06256726218459416, 0.14538053131269832, 0.13687580693289825, -0.09812913294179224, 0.062439023886180695, 0.14777716846777034, 0.10659403619013702, 0.005683405552177445, -0.1084787541024984, -0.14575355018682204, -0.013410079996443426, 0.014306745612694936, -0.09544187799180093, 0.06422756414137906, 0.06901265915078418, 0.06519736852337055, 0.1409191354772443, -0.016905619336884826, -0.016004084541058474, 0.030773986288706725, -0.015263933806166769, -0.00781979908880887, -0.17672290217030012, -0.24354531154645903, 0.006687937121027826, -0.05062192834589139, 0.18369696164488197, 0.0029349502491305326, 0.1495732036673785, -0.02099712871886722, -0.10926622145174823, 0.09458658701548874, -0.11696363347623472, -0.013122982767244962, -0.03494682685549887, 0.0676906718358971, -0.01773036376588986, -0.15551563748589617, 0.17888261199311617, -0.1550528303102789, -0.061258837921991355, 0.07437153464099326, 0.13630755371657752, 0.03154861010071783, 0.10848464979761958, 0.17430212964727546, 0.087030943490223, 0.06712019341200404, -0.004019234982155377, -0.09475715814499859, 0.07301593507108835, -0.03230450715105281, 0.16430845967328256, 0.001521552692144951, 0.016010560451250874, -0.13129793106496834, 0.13712705415865867, 0.008079915158554687, 0.050572648517295475, 0.20059663599842104, 0.08051738135636671, -0.019788827392644683, 0.08210880155860048, -0.08230464460489978, 0.15952665471494284, 0.09344717672049609, -0.07135321353947151, -0.12430138321263424, 0.09230048005693717, -0.05936808867763992, 0.12101938146337782, -0.022914065385262833, -0.1313106075338107, -0.08393220451949379, 0.1235374095678699, 0.07124447295819075, 0.031125093427722208, -0.16355111015071255, -0.1803973506963925, -0.08920371116529927, 0.04926279430316364, -6.111471237652514e-05, 0.07245706762430844, -0.014834955904555042, -0.0090119258451323, 0.0021285776209263945, 0.12393479563008103, -0.034514647946738995, 0.006305286727593635, -0.04777916894571381, 0.12974948727239882, 0.05353799728440829, -0.0850264016020354, -0.13383211158537242, -0.007245201895516646, -0.005230968711002383, 0.031371090351278996, 0.07103986301762373, -0.04717387493145106, 0.03128245908902323, 0.06280971719335271, 0.16891149107344436, -0.04758203089859351, -0.01660922945210595, 0.11306980979101669, 0.1602995386637458, 0.03276006564731291, -0.20206826037970155, 0.10239126031249496, -0.03810831931684194, -0.0008430477627973826, 0.06696105064602946, -0.009273506679804746, -0.018682758686031413, 0.25113870488457607, 0.14912083804008544, 0.043103683129025745, -0.031024940545684054, 0.09176246809948546, 0.0189625016276054, 0.10262891077313177, -0.19619747778987873, 0.06018014109056753, 0.13854193406733914, -0.15274996899024845, 0.054867752416280516, -0.25799053316490855, 0.0060671911320277746, 0.03427278833676749, 0.11426813671111034, 0.1399573193212825, -0.010041329501078958, -0.13954275181235284, 0.008070188395225665, -0.0773698036259285, -0.23348591805225563, -0.012582157972443473, -0.06259694447518122, 0.026511206255306848, -0.13609967127426997, 0.09212990372912438, 0.06309244534027882, 0.04051662316320162, 0.1377133939539368, -0.09393747080948658, 0.041863343304977735, -0.08830124197845882, -0.04654264704917502, 0.20121283491786454, 0.029061745967248278, -0.15301213833422264, 0.03425362654909333, -0.027558935721740365, -0.10169820482097361, -0.09660889602318917, 0.09722833996743971, 0.03887412388876521, -0.04962786356824542, 0.055415541562186324, -0.0069872931247896945, -0.03791789135595172, -0.05128145260492015, -0.06027643323570636, 0.06813349255679255, 0.08787940748060839, -0.1553177556853598, 0.06157744982816707, -0.02172879710303492, 0.1223350279390551, 0.06001788327431212, 0.11614987522554675, -0.03729471087476691, 0.20644927146139389, -0.05640197253368744, -0.1279703394596853, 0.08162168021074763, -0.02343082685166066, -0.08143704864217727, -0.12844802459214538, -0.10788840498046581, -0.15955726631452133, -0.16278232116566788, -0.17334235780865276, 0.1359998981002893, 0.18361376587251124, -0.07964917611469305, 0.11595443374903827, -0.13994991346467708, 0.17715903213141723, -0.10768511455901703, 0.030984479265329653, -0.053763889830327385, -0.0993638324533425, -0.0607312657884056, -0.0328880007667046, -0.014748640517071289, -0.0068166408548570485], [-0.03182297580512162, -0.18950849774475087, 0.1620409530569952, 0.007531326389487884, 0.08014819135802136, -0.040677121481156396, -0.00599038794819074, 0.039265523869978225, -0.02699980717091967, 0.1433722587545608, 0.00924412154113789, 0.05345843900356106, -0.10085632683787865, 0.03764708078773735, -0.12659060513680964, -0.032220994051046115, -0.10212602081682035, -0.04785105476904053, 0.09470710528668043, 0.009160952548261955, 0.02620315016586225, 0.032347567892377, 0.06227911995584051, 0.19509403951245896, 0.015587526378660772, 0.0025835003312115676, -8.18116187829676e-05, 0.03650116746559517, 0.03932576928955394, 0.24575933354185203, -0.021933403704252882, 0.0636561182541025, 0.07270709179453182, -0.015132780662718476, -0.02785321481253344, -0.016007092160539863, -0.08536659006651502, 0.0784471956543399, -0.004400849030525006, 0.12794583395010503, -0.16455766700159183, -0.12785772060549516, -0.024272609046708665, 0.11825506390533136, -0.25312158614941527, -0.07925404502446788, -0.006275413694295558, 0.07986363542968605, 0.07294681461926023, 0.1096521912521812, -0.056753624007546515, 0.00309159262053194, 0.2310367133256379, 0.2286652204549463, 0.016575501324353516, 0.04580600920849169, -0.06319528971636816, 0.12034366719891057, -0.07092078606773773, 0.03068123583873439, 0.03664889440920071, 0.07040172522827956, 0.029289072123665508, 0.06371180490586632, -0.038375602175891525, 0.09088719363775404, 0.08833659719984088, -0.1617862726668977, -0.14692873511812743, -0.0048299263988699935, 0.04868468174411862, -0.17160534314268194, 0.05816648659466492, -0.043759357750814985, 0.018495961084218176, 0.07410903382249988, 0.023709881748722707, 0.013917341810770876, -0.03778825816951512, -0.13527108003422214, 0.146224876618921, -0.10459116563265786, 0.11138663641620734, 0.02506737488817902, 0.14758780561478288, -0.10142327275826009, -0.3284005656750361, 0.15543323778254253, 0.11986142152298276, 0.049518869470782545, 0.010480912562749169, -0.027666251291840444, -0.06099628562306661, 0.05920838299527695, 0.15064549491566515, 0.06503583952765062, 0.03531498051067937, 0.11357713016765758, 0.03288485296785094, 0.1972032746925951, -0.18519515826542293, 0.04552225369494945, -0.112519225502141, -0.21311022632975504, -0.0861284362416287, -0.05492226089139218, 0.0768970474061374, 0.006263956833032933, -0.044318144248269194, 0.1582689361825733, 0.057269182921718946, 0.12232644527612146, 0.07887193136944161, 0.01002707242739133, -0.1685196538106164, -0.045299613917285764, 0.0056235583685663205, -0.008489164265814824, 0.0681912184243721, -0.050456312091033545, 0.19284843663763307, -0.013494330727068746, 0.1617953396617472, 0.03350106373299051, -0.0028116029159863686, 0.08713366131368949, -0.0934622822503528, -0.16148602951709068, -0.023258864721419192, -0.08901126836054729, 0.02306127190935996, -0.1309292924071847, 0.02046186629394742, 0.027268618527909433, -0.05370014248532937, 0.08146937058339684, 0.020473736874598546, 0.04247103510796562, -0.006748837533040815, -0.034591209263034516, 0.0840416650738265, -0.0034993049741674, -0.07281651734241804, -0.09134829512063763, -0.09557580638651204, -0.04183798747847218, 0.19624216926180688, -0.09372973083712281, -0.10260563940117606, -0.12146189245467423, 0.0030143848873148086, 0.0539041832562553, 0.006796046568015857, -0.10133226086536168, 0.13938283188026387, -0.00030545590202272593, 0.15564013582934255, -0.1198259158576142, -0.011008314851541573, -0.03548979634391227, -0.12895531269579139, 0.03394687946354044, 0.10533300012689209, -0.09941949739865732, 0.09982535277170403, 0.027385493268994216, 0.11070246677206852, -0.0036928903745184656, -0.20535661377264094, 0.048307847234515214, 0.04228325186484208, 0.07683584197767787, -0.037749280776712905, -0.06382802201285996, -0.1367976336983638, 0.042952713759751515, -0.13885060470638588, 0.11824088477550364, -0.13787526094965596, -0.019356376596186338, 0.0719097199774946, -0.03461972758392428, -0.049902403141484176, 0.008889066988476689, 0.0964334143083306, -0.17644385297095086, 0.03561509333944214, 0.09335048962578968, 0.07836958096331814, -0.0282073956422914, 0.1971963238057196, -0.11709369183662546, -0.01472894728862116, -0.06641421150155655, 0.10662664296375242, 0.007215659827415648, 0.004108304918597867, 0.056261868233818894, 0.06193165118163635, -0.09798757977721965, 0.04073614107070369, -0.14168059861549795, 0.12944674046259325, -0.148209606647525, 0.09441514947371572, 0.08731550502214726, 0.04919547265916146, 0.0028677134366771155, 0.06366925864259766, -0.08900860491801686, -0.05480094921685577, -0.1516672844324684, 0.05401216073978187, 0.07564792515547397, -0.15967098992968878, 0.20043014265836734, 0.04909233991837563, 0.024888183537195893, -0.11759337527437613, -0.010926569919321848, -0.0675055396632285, 0.06683374570018978, -0.0266228379590375, 0.17189258482170336, -0.021468961445860753, -0.09279631059147675, -0.27831914984855505, 0.17805238071295035, -0.07414352976010383, 0.00447553994652571, -0.03767305255640565, 0.10869701971870774, 0.026684703024030684, 0.049100458633344106, -0.02526374899286384, 0.07643569572248748, -0.008450265558345691, 0.009180072760987831, -0.085585057004372, 0.14293526112025925, 0.03935426683467764, 0.038862377604780694, 0.13638439768655966, 0.06649068401371112, 0.07884843045664372, -0.003868156957869426, -0.16627649140113065, -0.1381110136314087, 0.0507219395498017, -0.1160957791629702, 0.03700007265002744, -0.08426955635216318, 0.006782937323963018, -0.018285815517795415, 0.044699407862946725, -0.07167403624880113, -0.17910763152772435, 0.006478153724143523, -0.09849083124630409, -0.1359504285301049, -0.0002468800517356068, 0.028325849463573097, -0.16295337321093437, 0.04662088196579803, -0.028338664172975616, -0.06841972090858438, -0.058851172407289126, -0.016572185033902603, -0.034188129146360796, -0.10535264052544019, 0.16163253695656044, -0.14832218020840904, -0.011387059707210606, -0.02732105932624315, -0.06657474266838058, -0.14742790961193797, -0.11769938003443133, 0.05417564931538942, -0.07234290298663952, -0.016379347254050977, 0.05989049201845203, 0.13141905210545704, -0.005710389771232675, 0.09955954736210229, -0.04150960584076472, 0.03578999911430916, -0.007931198022318354, 0.07627776433679066, -0.0526708337326412, 0.06328136634704874, -0.03416877498571957, 0.08867777098955643, 0.06942652609715486, -0.007610622303664829, 0.09428152446421789, 0.13106191925591243, -0.19274391765955834, 0.014604643765202738, 0.03791139110557244, 0.023054201404070326, 0.045640947332799, -0.08000670691548024, -0.017565285419251023, -0.0771124266713487, 0.05402130655475612, -0.015143324968994773, -0.013367749126332623, -0.2502014482297307, -0.004434987404108839, -0.1297767392438691, -0.09370093442281646, 0.015373579519208154, -0.19421928796146895, 0.08538217749130785, 0.002788356323797375, 0.12769424687253608, -0.21298153409571632, -0.15339676816044534, 0.0025358776215456194, 0.10681158798113861, 0.0002841057546709152, -0.06597701319625777, 0.032552371783104536, 0.012890955549977452, 0.09132395971237, -0.01870278860990975, -0.0061859284422019455, 0.007061895812540012, -0.12295141152269728, 0.042853507709595395, -0.19061333251719528, 0.059328677940845925, 0.002495691323188399, -0.021682096396217803, 0.2443719972390392, -0.06963247979577974, 0.061507880512889905, -0.02267989513114456, 0.21695571082948215, 0.06319152904156336, -0.044320327599036674, -0.07632922546506617, 0.06159476073530715, -0.20191470838286116, 0.0055758622305906525, -0.019739422985851598, -0.03128532553054667, 0.10285213426482671, -0.023574029249613992, 0.058638314566859834, 0.11046951877094183, 0.014194772244115856, 0.03528993377899333, 0.04061066053167648, 0.020389307560666148, -0.19282523740134094, 0.02421577262064488, -0.1235904577985238, -0.09416919051776228, -0.0877875996718781, -0.019140535865994283, 0.10386929929585945, -0.08624441570690806, 0.10371974459640819, -0.07399822920546296, -0.06291266171604658, 0.012751735429338157, -0.06638829071574344, -0.03555460182113525, -0.07016271015789063, -0.06965442237653666, 0.056046172348274616, -0.0808887656840987, -0.039000015773435696, 0.05790170296780346, -0.04859461292277509, -0.010812028478525817, -0.07597724058487952, 0.22241209699166, -0.08812750236985362, 0.04523942038380477, 0.014826199381144904, -0.04053864152664388, 0.028516936169045645, 0.04831642099094299, 0.0545244564824631, 0.05470490555455905, -0.014475586833865295, -0.018529513208528664, -0.0797843665883144, 0.09751211303814196, -0.09414144528796371, 0.16691705146837155, -0.04438422634322364, -0.07991454709328488, -0.04576584671734976, -0.011775875382924128, -0.20008461349707557, -0.023226331343008375, 0.13424510356519667, -0.052032621082826316, 0.07089746618798888, 0.08894077043357074, -0.06583537146728889, 0.07871235178649581, -0.025954860605142606, -0.0322729354010752, -0.012111883523505649, -0.04032359549625794, -0.006579428830025905, -0.1396982968791613, -0.1690811314488602, -0.02865512012744681, 0.06264725227782214, 0.04599953960224864, -0.19629639697256818, 0.10611045005454273, 0.04447167429388963, -0.13313095125499927, 0.061498242422883265, 0.027800739681232756, -0.0897510550669327, 0.010034263954281438, -0.13050380180158028, -0.06205843493578747, 0.024416979180639245, 0.0275685966837324, 0.13680718836020558, 0.18020408492229853, -0.06627716886864986, -0.008790407709404362, -0.002306260121607971, 0.13287449546541497, -0.010892120766816005, 0.14553153728904597, -0.037442058815289024, 0.06906604470239013, -0.22835001820679035, -0.07155331541912846, -0.08998939419032528, 0.055857232998329454, 0.14750017378891223, -0.14445733145351153, -0.07336735238621928, 0.12701870221800302, -0.14524903626415042, 0.1818912834405117, -0.010730243480091701, 0.007348029953404803, 0.1651630028602893, 0.11008899223851527, -0.07200005612826732, 0.1806760353953818, 0.01348336428500675, -0.03500928280217999, -0.06321149829953059, -0.05940698710913453, -0.022231966845065496, -0.0208240517941128, -0.27274865802786347, 0.095130660062153, 0.03969865793875996, -0.11596957342627108, 0.10208886097795743, -0.06664329499631991, 0.05493354095245541, 0.06797780685101218, 0.010988796412067917, -0.0973353287914112, 0.08842725443426981, 0.08721661564321694, 0.10193295560193359, -0.04291012125445298, -0.09353310551727106, 0.07715706942011594, -0.09161165733412496, 0.0968153364334626, 0.11877401986766399, 0.010169495271597993, 0.13758819049465112, -0.08016489867852196, -0.07130123789963427, -0.03125635260809784, 0.11510886126258964, 0.1557579522892118, -0.0931911187252745, 0.10485498306769486, 0.08089791593057494, -0.05026660338675137, -0.043759074590078106, -0.2344659774893464, -0.012128428458414447, -0.06716362351107406, -0.09072578666282025, 0.020761560508585117, -0.03787401525996661, 0.049151993331059324, -0.061543670174915736, -0.12434940255390114, -0.0161927579420187, 0.1047656077521074, -0.1821904645073769, 0.04931693674789051, 0.016037235031985977, -0.07192923642673583, 0.1913360265700121, -0.22392624074877673, -0.17130774544389082, -0.08860054174823248, -0.05504443364563713, -0.1276795903232585, 0.03268207823205481, -0.05960119452571036, -0.07488671871892161, 0.057676486301893516, -0.15506170175169853, 0.1246082215781613, -0.1044040144724088, -0.03273409018553481, 0.10578774635641004, -0.13380278523171377, 0.07125991943431097, 0.015746018211671594, 0.09678558340435583, 0.06818171573094949, -0.033243877370027146, -0.048818703528547336, -0.0034243151737496586, 0.15811374672128894, -0.1430553559323351, -0.09873636953124032, 0.10557924846432831, 0.14193076333089993, 0.08997561278677485, 0.08112852331171279, 0.15154951541764172, -0.05773597039965389, 0.057457878882317376, -0.08763068587270999, 0.010283853560797593, 0.07020820640812916, -0.0188996986156629, -0.027831945015988808, 0.013265442564710003, -0.1718462230758445, 0.0764365397753746, 0.09546936763277017, 0.11294670424751639, 0.17209406031627722, -0.17614548995140114, -0.008987738912458604, 0.25363320705224923, 0.045010539769692035, -0.16815109198090125, -0.09574270825124227, 0.027856386183304008, 0.009613621255127564, 0.061194121661340806, -0.047789343847136165, 0.08967626975785367, 0.041497737950545045, 0.1770399399721944, 0.06327995383609329, 0.10095269103649007, 0.09871767546464721, 0.036230068038526866, -0.1269651134156604, -0.10351463674245938, -0.024022134020948507, 0.053148120961240865, 0.05377282225110056, -0.1014433493182113, -0.16008676409000966, -0.038707204750642064, -0.012282695236600055, 0.14111969106488717, 0.1789793790875902, -0.02331706579687179, 0.1393613254357542, -0.042483544785023614, 0.0574991600208895, -0.06687567936005222, 0.049845403813705946, -0.08428656377626835, 0.0023965352814548308, -0.09534807519945504, 0.03673284048076703, 0.06805150827143974, -0.13372924074555767, 0.1957344711891262, 0.07559484473056388, 0.08660724500600733, 0.0269007979774058, -0.09429971448473591, -0.04670168632336419, -0.045656066810032044, 0.06628956354866171, -0.000764156483201842, -0.018329802161421778, -0.0558866056573466, -0.07916484610987677, -0.13932220243817225, 0.1755771293185075, -0.2180894312049773, -0.12306063985182392, 0.08942417326352571, -0.015188149986448915, 0.06179108195256786, -0.04913033519909931, 0.05865354575568869, -0.07645231407235614, 0.047185781279725975, 0.024670299702604773, -0.0036853611647696075, 0.06455283971489134, -0.08831239403868231, 0.015977340755700023, 0.03954642551176168, -0.056050056680815065, 0.05225509886683941, -0.15164638703312083, 0.10398129280513045, -0.17036138764173206, 0.11833375692958764, 0.05385106805878832, -0.13212681096104248, 0.021199972385735913, -0.13280278930345027, 0.1540714710739449, 0.07982964626121751, -0.09244085057922363, 0.014298401907480246, 0.012457450118616202, -0.056683939346262736, -0.05792723883414459, -0.14049684434739196, -0.03336722105373093, 0.08885093162386752, 0.09170356176548652, -0.13569143322995958, -0.1158309077497045, 0.007979097391824768, 0.19589750929701116, -0.048049306376111774, -0.11113077914898468, 0.022502327107458867, -0.0734257976185749, 0.06576834402376566, -0.19449821890141708, -0.005265416984923641, -0.044905648734018644, -0.05603355363535474, 0.04379191781387947, 0.06791287241002657, 0.18862437497301096, 0.06566822727092242, -0.056594192798014364, -0.07054875145309616, 0.03281977745770676, -0.0030179437786358745, -0.15799431927348007, -0.09793151975878099, -0.005079040279924697, -0.01447943118466897, 0.01826389662057954, -0.08732462701354152, 0.08532306561831271, -0.04285856643174307, 0.03062154837276661, -0.19210354108044375, -0.0961046256149052, -0.07674177906232443, 0.14999604158663765, 0.12764740584385142, -0.053192916724052686, -0.15313231769839133, -0.026752332629722392, -0.05378603247545022, 0.1957323538984283, 0.031119640524743572, -0.08303538594149062, 0.15250583739084955, 0.04398519925084622, 0.15583054499933743, -0.07956121256724205, 0.13326338061690207, 0.020205796590666257, -0.057395202892570496, -0.005572950082066918, -0.03630043237903687, -0.04995319293514477, 