{"internal_architecture": [{"inputNodes": 784}, {"hiddenNodes": 128, "activation": "sigmoid"}, {"hiddenNodes": 64, "activation": "sigmoid"}, {"outputLayers": 10, "activation": "sigmoid"}], "learning_rate": 0.15, "network_values": {"w0": [[-0.12804464682886782, -0.11456798889297821, 0.14490185820787987, 0.04426223747750092, -0.02974190030787561, -0.05938637597148665, 0.004771281796595106, 0.10699454822563366, -0.062489522538617594, 0.07765988683411634, -0.1407374811205823, -0.08928738963007347, 0.03171916587358477, 0.018765792519215795, 0.014070177206163067, -0.04896226788356076, -0.05573393896048591, -0.044815571353013645, 0.16280495701103495, -0.11708714354949097, -0.21677314982530485, -0.09915662595352764, 0.09101383492004467, 0.17542735634551337, 0.008477849257331601, -0.06488870799866212, 0.021461406805521673, 0.13810850610251477, 0.029155529211463846, -0.09484725986081916, 0.09439035349222727, 0.013650196206111437, 0.007782058185064555, -0.02096365609051193, -0.01471399739646204, -0.09686625794162021, 0.03539736821584914, -0.03589472420887951, 0.026553436368093073, -0.1114880369867091, 0.09578321728142357, 0.07971698975848153, 0.07268407634524227, 0.057580510162085444, 0.17377066521028153, -0.04469556928209474, -0.07652331424560213, 0.052989563310941186, 0.09769502316382515, -0.045911832245292786, -0.06178066744217752, 0.005895764576376552, -0.06795073433977887, 0.13092385756446254, -0.13950730423920954, -0.03691999272156334, 0.0043354460547924125, -0.011717361707562275, 0.0047842107622235175, -0.04528064889482922, -0.0779983505431907, -0.13081497199577471, 0.11534148866348999, -0.01997033030855907, 0.00010454683759416479, 0.13930272837270505, -0.07249011530737791, 0.01128124456588487, 0.18790900340484534, -0.09824752937464179, -0.05939313031568032, 0.02265657735547165, 0.008135194981443819, -0.01439735554642633, 0.03000093702952736, -0.061340148294551713, 0.09496933034471874, 0.15302328842409338, -0.0076438024901973505, -0.0028059967226141047, 0.09963346047625307, 0.1424050165409409, 0.020384801873487568, -0.0004490909126439213, 0.15443335216982865, -0.0788606489707062, -0.06967367697403754, -0.09509175572349032, 0.265567184807062, 0.08786726685010908, -0.10016390117023666, 0.18359202862302884, 0.0767562472577523, 0.01227671942830526, 0.007737341117117485, -0.0019888396120955982, -0.03896115690371002, 0.030875382281212276, 0.04223485369710882, -0.021200755039745417, -0.024187299272155, 0.11822867295657818, 0.06871731076735814, 0.05018677641663185, -0.00046470172667389167, -0.058066738713770515, 0.04505913996719122, 0.2408012565268099, -0.08505275840906233, -0.08063059996193006, -0.024796840354064684, 0.08954342974322098, -0.02328550866459318, -0.17777430042064066, -0.013885608985413921, -0.140982136409192, 0.09680326149218285, -0.10596179552281747, -0.022286804876596726, 0.18573313628576668, -0.03603926118751317, 0.015231460905849327, 0.1252725369731725, -0.22117053939470588, -0.12985629064340207, -0.2904664681784465, -0.12771999476433676, -0.42108850390542, -0.12648085728734682, -0.0461457052920066, -0.09432988902572172, 0.195429620694054, -0.0356819355537979, -0.08926633483228678, 0.033361949406349574, 0.03454677548380232, -0.029814014563476193, 0.0005457160191253512, 0.09459404023522064, 0.09627011795058198, 0.14742610687999744, -0.027425808330558733, 0.014354997956470505, -0.10006460769986651, 0.025060478501762552, -0.016166932921564122, -0.03915562685183772, -0.11461130244613031, -0.13698839416221706, 0.004405113921837662, -0.019100691919160088, -0.06701486938914254, -0.033020178662723616, 0.02074873334712408, 0.08785982632146103, -0.12344012684696865, -0.2725452793682785, -0.09631269852828017, -0.18037218817881842, -0.041832757035536725, 0.007765355559104537, 0.010148716810323099, 0.07720799404174519, -0.010777094390540436, -0.05061616417057668, -0.0723147518563076, 0.007940447876236338, -0.025248390688901386, 0.21096612407336224, -0.044528749665046, -0.25656037279212496, 0.05093985141888975, -0.10212161695539065, 0.011573186617316907, -0.06589469969873878, -0.3401990253236964, -0.23205741723586013, -0.13878071535197972, -0.4144696924646919, 0.08450141410314935, 0.09614330427209299, 0.1505098972854464, 0.2778247175485223, 0.28182524522441377, 0.11120706665021654, -0.08376742746155158, 0.03916530543456928, 0.12188463064167095, 0.04255074892960903, 0.03429105156146575, -0.18673565598701486, -0.03167898774240805, 0.050846122287230434, 0.12033551600405683, -0.13222127439354023, -0.018279407873018984, 0.027521804254414913, -0.10224015975785572, 0.036788132253806505, -0.15311700502819545, -0.18159131178249308, -0.0056051739671976, -0.28629674128020544, -0.2986774666169557, -0.30664700614138724, -0.2584042579458422, -0.04891652852954034, 0.021611658402954613, -0.10248635016391267, 0.03944264457991462, 0.30577992379107155, 0.25798531741155356, 0.1855895602258266, 0.17463413865121452, 0.07234628310804889, -0.1719590659717722, 0.17101811302475267, 0.11382382753324939, 0.06360386065255733, -0.015852274812104605, -0.05827327727343327, -0.06676537218073068, 0.08296946303272083, 0.17130997062691297, -0.040226929723626105, -0.21622740033546392, -0.1282955428723802, 0.010219540828842025, -0.25082070811334684, -0.2038761955167841, -0.1854612885890353, -0.3411789832795891, -0.1835597480056514, -0.08210935578202659, 0.034192943204667425, 0.16636707657047753, 0.19194651121528017, 0.18489344104372826, 0.20234045708703188, 0.23160045901412005, 0.2157699131391723, 0.016423594178395944, -0.09820137323201415, 0.18257706645632693, -0.004399438491304393, -0.007310766471054936, -0.02099687492389369, 0.28465269568544743, 0.29156547536817967, 0.043810203462593664, 0.12404625786799216, -0.02031397847258496, -0.1315422495490875, 0.02512449185359651, 0.04648597949445162, -0.05745384243796566, -0.1807661416000065, -0.19301128690159827, -0.08657960040939235, -0.1552033214135541, -0.13094822461852376, 0.13686867143316317, -0.062217127077542886, 0.25937128581300656, 0.056488373659598856, 0.08998070354567451, 0.11901674183121241, -0.11446477500404831, -0.17790190535600678, -0.06565237438043581, 0.04409420840209878, -0.029419634144585004, -0.1297303904651828, -0.031267266337072414, -0.028464594311395693, 0.22335005107696854, -0.037868240650425426, 0.1127812216225464, -0.0567232496461911, 0.01784217504358144, -0.2392501455220416, 0.09428979685781677, -0.03450503822214962, 0.0030192198901666857, -0.2080857005990481, -0.13411487691324553, -0.26283843055091993, 0.1495541205718767, -2.1000152791376538e-05, 0.15665912814831473, 0.1976109961082662, 0.3028012138065999, 0.17485764809328116, -0.20651766451677914, 0.014427398070421916, -0.2825450421640272, -0.38983101297137607, -0.25902211872085257, -0.09316125699465894, -0.14164030921918425, 0.1160112558797065, 0.07618241054298062, 0.09752907650316434, 0.09155204509717883, 0.10418662754460252, 0.19197330480002373, 0.07563964999486124, 0.11314416500887858, -0.06667513972031382, 0.0978776475602032, 0.02809919454353572, -0.20416478685872197, -0.011866312009048278, 0.026551197642325008, 0.27109798082207076, 0.21759361751774378, 0.056297097696455155, 0.1666127933688528, 0.07207607613332798, -0.20300411389797288, -0.07865686440422785, 0.1642975232302974, 0.09453302125128467, -0.4671148931758091, -0.3480678792631566, -0.13607601517977086, -0.017886797104365956, 0.12977880211662418, 0.014691865156660244, 0.009276421969865818, 0.15559726023242754, 0.13161115280855412, -0.03526263097618799, -0.1545848528689473, 0.06251098873200671, 0.01050692247106657, 0.013524790647868943, 0.11385322037173867, 0.019356274772934886, 0.039604072022872014, -0.15586837336933668, -0.07012993499882345, 0.22992634597338074, 0.09805533782079326, 0.020033439458170037, 0.2599576491820466, 0.1808282354150807, -0.1606134498999785, 0.30937556987350523, 0.24402914428727215, 0.00399395010744742, -0.054750515543497094, -0.22166773282140342, -0.2514559870352589, 0.20499700863255904, 0.2609317090343523, -0.043087583498760545, 0.19217261289872006, 0.36491673026189697, 0.1078577131385267, 0.12951655124522218, 0.04175309707883455, -0.13563968946585844, 0.09238483424274611, -0.08272957189379547, 0.050896821816523295, -0.05894157242631615, -0.03181379579486037, -0.04204010147381234, -0.08688214841019543, -0.005282855075979874, -0.03079072582792445, 0.28603792028521363, 0.2945029378072043, 0.156862524658148, 0.2305785892186203, 0.14576412543400613, 0.08346181654543788, 0.14098224989173708, 0.0935161992809834, -0.25079567229947375, 0.009412126221381888, 0.19658982100334646, 0.19375123024967, 0.02418410169595752, 0.24079112972413202, 0.22927933901880998, 0.14729732408927027, -0.0819009148173014, 0.17173712132786825, -0.07094960847660858, -0.12403815027313668, 0.07816744435026952, -0.0038548062290607306, -0.040011637610877324, 0.03271727498726367, 0.025032070245424833, 0.008265539552561872, -0.004128462904607285, -0.02784550536285216, -0.14296450744331146, 0.05456408472829264, 0.07509621224522925, 0.22569794881670352, 0.15258839586115105, 0.2016032343365368, -0.034373777560977134, -0.08217430649225069, -0.10531451721179615, -0.2690260386058221, 0.010042255130290452, -0.27964388885600716, -0.12764827543638083, 0.09515426593628798, -0.019578273953461803, -0.1285510175933349, -0.10307596344068354, 0.11251959863910727, 0.09557970838595335, -0.00918069537466813, 0.04497155964571235, -0.13423525655340007, -0.06254351788979176, -0.11304840027858806, 0.010491918659769782, -0.0676074470289015, -0.005378375082293221, 0.16158376203377178, 0.37260672743142875, 0.30090751425103907, 0.09444128538111876, 0.38301830582052865, 0.05094023515004476, -0.02257443554828449, -0.2650225656499273, -0.3280188670211119, -0.08049105100525025, 0.07806305976950884, 0.0660836641800691, -0.15634893597226382, -0.37990089560048224, -0.2764387136187444, -0.239387967926271, -0.04370557100989118, 0.08294146707697016, 0.07415254668029582, -0.1561610329265727, 0.030626550493327027, -0.1463149363893489, 0.15403603935631663, 0.2057883654196605, -0.16099116429342597, -0.005497122163924873, -0.0006845620976437389, 0.14162637194108055, -0.1379194121189819, 0.020329813980667896, 0.15506264609562098, 0.5078093281327719, 0.3191205646201423, 0.1134267379828983, -0.1915159480528084, -0.5359789752080124, -0.05385011029986265, -0.1884916381517831, -0.03286960566820852, -0.07837153192870165, -0.29078137842079715, -0.2577301147674747, -0.39086756250227583, -0.09895993854480457, -0.14741845765736664, 0.03348982503456673, -0.08777207316410846, -0.003662239385615666, -0.08507407538899484, -0.021872947168955992, -0.03386748252982831, 0.11021392017383812, -0.013378991735072173, -0.09890941236904952, -0.20135490292448674, 0.16799878606537325, 0.03972872741765906, 0.11648066749552374, 0.4321352234029669, 0.300904176908752, 0.16523648975620076, -0.03740534254233045, -0.30499713297181513, -0.3897254010702097, -0.022682239826581, -0.18980566451273473, -0.034202604951795626, -0.16674499022638817, -0.2515235149250817, -0.1414750754249664, -0.06189969881409222, -0.13230705948514992, 0.0015638222647702035, 0.10197311640038498, 0.0962666678055859, -0.039887487859687105, 0.017219132742532117, 0.05091011590945319, -0.007273874437679311, 0.03420719348786019, -0.1851371903629959, 0.07011591662907894, -0.020330625935465297, 0.08400956642184529, 0.28146779739112543, 0.237978040352227, 0.24150352895146734, 0.3139520273631098, 0.2114594926470274, -0.026070860727934915, -0.1510259186700602, -0.24326099605191326, 0.07975914310058085, 0.10889999866881686, 0.014697220257079285, -0.16339137725080952, -0.05145583297398982, -0.3277480022819444, -0.19682344301390142, -0.07907198886065094, 0.08475276451008779, 0.03353891616578189, 0.07735045626236334, 0.14450026147210268, 0.010069364549125812, 0.1376984461414045, 0.05015973375414308, 0.024512335610570733, -0.18135517179598315, -0.028847011808408526, -0.024496820774006927, 0.07238268942423398, 0.2380448446421924, 0.060567022525066884, 0.22292453821888142, 0.23267044754863034, 0.026547389443244775, 0.023659919651534224, -0.10759279432431756, -0.007164076362391013, 0.18384115642670454, 0.10902497542191156, 0.014748873971346377, 0.003062929607347394, 0.03765153058378442, 0.11070049402977901, 0.046236207593543695, 0.13572842804912244, 0.18909843614974983, -0.06082499446970344, 0.07365947755667711, -0.11928649974460066, 0.04301339057778551, -0.09978370350154114, -0.03557547497739872, -0.05974447277697505, -0.12526607042518026, -0.0028560508019997975, 0.1823121017444123, 0.2119343109169589, 0.06026630439543388, 0.09411184200006183, -0.02705444625492673, -0.12278010848522874, -0.046405378417473796, 0.00911445093562482, 0.10401351758299929, -0.023973449043747215, 0.07740417078138191, 0.09128936966377663, -0.04067223088397943, -0.2466057974066143, 0.01576889752742199, 0.09361884410941171, 0.01494026908002332, 0.30594110308631234, 0.014652871186766891, 0.021285314255330024, 0.11639056586849288, 0.20397175062892922, -0.020798549466488032, -0.05269607931624127, 0.006046252905769443, -0.10159261134335472, -0.06064202781790139, -0.10300479645737047, -0.021373021480253763, 0.08158508076075528, 0.11185331566148145, 0.0939787267995913, -0.20495558752607762, 0.031610843569020254, -0.06906119611904113, -0.24709496637700876, -0.1435647144565021, 0.025252283343599555, -0.03485344203145025, 0.16386123757320575, -0.218747517207669, -0.08475654477616738, 0.09926736459919092, 0.1243074568297729, 0.21641166334946815, -0.00133238092772413, -0.0966573819449539, -0.11547730903694542, 0.03417959289613239, -0.08018137961792766, 0.06733825234290265, 0.002021196060641327, 0.1504191991653739, 0.05341560474483212, -0.1352209986491385, -0.060296415470433504, 0.03174263334700727, -0.060253985382130934, -0.06603111831405371, -0.06481559445734753, -0.04195836667479245, 0.12678291582163198, -0.07104547643578792, -0.04522743291693724, 0.09207026473235673, -0.16888999248339984, -0.11320328627561341, -0.2624308968403522, -0.3353223933957991, -0.28560762115691385, -0.15423224499068808, -0.16049774253969146, 0.07282945233446292, 0.19938908727125004, 0.1369070612077871, -0.14409178719379337, -0.01899388422353409, 0.08021360625500852, 0.04392661088018331, 0.08422343435775345, 0.1894239469542668, -0.07455773045114684, -0.01694093897776197, -0.12489044410515754, -0.2301170191850294, -0.2100117551466689, -0.1868382753745793, 0.17684242980828788, 0.004500453716727558, -0.08672194052330759, -0.097705179930162, -0.027663174818273198, 0.017619684151681598, -0.17343189585692365, -0.1553743809721116, -0.2827795954581942, -0.19388315051309074, -0.3452047969018361, -0.29881375466707216, -0.002755470924571907, 0.1497243026142845, 0.1617214301596498, 0.08867360863567861, -0.04776545816383205, 0.04057555764690154, 0.11905781302965797, 0.01930543922361595, 0.09139532065081885, -0.035708419529643584, -0.049565366354921085, -0.06290592417001101, 0.06631799272244013, 0.03976307227729228, -0.12423755193145937, -0.17024777117448667, -0.1776335563900594, 0.01598547117349846, -0.16591186860236784, 0.246681876997369, -0.033367658036502344, 0.06097612442843969, -0.05080844784560222, -0.06216670186472412, 0.03938240448412615, 0.18170340572243815, 0.14346083729498402, 0.07202335289527745, -0.03282184677785204, 0.07675346365557352, -0.02530859846747595, 0.04493697356368149, 0.001258401026543844, 0.10402799991823061, 0.15427059863046655, 0.10177479536583878, 0.1949902637480595, -0.07497552104200841, -0.09654817914711217, 0.04681378589734254, -0.10786716578203918, -0.06757885789564298, -0.2796074989114957, 0.0890385578970409, -0.06944929058255474, -0.14895208466421092, -0.017019264662359604, 0.13595160043091403, 0.07769245203510436, 0.07175477395604273, 0.23338386634418934, 0.16472777965967525, 0.18491976940330798, 0.028131310228353322, 0.09467536204915766, 0.07848655514861272, 0.2805899177137793, 0.06801734418060056, 0.15243692936440617, -0.011196293472190151, 0.055544408338095874, 0.050290180672521015, 0.08958700427505395, -0.05679069377749001, -0.14633358767248836, 0.22944417640082482, -0.11931207812713214, -0.10574129670142852, 0.054570116456749494, -0.019511969425473903, 0.04260786462846241, 0.0661357890213737, 0.13389735466773373, 0.021725082028791462, 0.037730320766108286, 0.06379745615053772, 0.06070606456966496, -0.0882285614762393, -0.06051992734194333, 0.2381380268788651, 0.1492398743639879, -0.007821398598944058, -0.0668547618992308, 0.19012446822419668, 0.10662360174761772, 0.08824239039925028, -0.00986752721125253, -0.01082352398497695, -0.06970993388441953, 0.14606434490793263, -0.16291202444035713, 0.058875628429744115, 0.13401693407779075, 0.1079198248205398, 0.09732116690000603, -0.058138080837053255, 0.12828402587263368, -0.06929563866962, 0.04543699887270113, -0.23425071669496814, -0.16384552407807274, 0.013426510094380858, 0.026563111422226858, -0.08358887415788024, -0.05945885354256059, 0.09382461253633127, 0.11535765665922092, 0.08158415964553892, -0.10935120059248882, 0.10159600541641002, 0.13652668665342496, 0.12007442662321688, -0.05708418464309379, 0.0068308146249462225, -0.02222564220663521, 0.03286819583893597, -0.043118013083689975, -0.1260933040559705, 0.09148028186279532, -0.1680974960963281], [0.06317794880245739, -0.18924227920535508, -0.020614306507352926, 0.015088687304930777, 0.020223299599849528, 0.13080439000396668, 0.17657709213398515, -0.08779555085523934, 0.11970404381145046, 0.018999831119615607, -0.17191447594092935, 0.12115774736302827, 0.019826252207154647, -0.029071270509489974, -0.19852575031316505, -0.10350784351496974, -0.06670571869060846, -0.061960740042747625, -0.09296021897251361, 0.07963327530665731, 0.15320384474421828, 0.2703278884492643, 0.027725803077253936, 0.05356779777044033, 0.004355454479706776, -0.1934948783565039, -0.06852130902444836, -0.14534342707583112, 0.05373992598472615, -0.043691790507311694, -0.1783521364214874, 0.07059041590098367, -0.03682806852459286, 0.008752627985345617, 0.05981098525139594, 0.018678187960054774, -0.048126247184923907, 0.0795703392945017, 0.030944011590557364, 0.0279458130896777, 0.14117171210327728, 0.06221424559851924, -0.09987758880605917, -0.0952123370644283, -0.17461709158146949, -0.024055643140554, 0.15590784791996454, 0.14106477927242572, -0.10151090280503101, 0.09597191449478025, 0.012908745958915118, -0.19144233158056598, -0.0732050243462347, -0.005201889163100295, -0.08567450503113394, -0.058703422272946865, -0.09768689604880376, -0.030823854436946792, 0.137415169540001, 0.043585559434077936, -0.02082193815749661, 0.07821125661050511, -0.02932427511030677, -0.03887595666557762, 0.046517672357872436, -0.059346307252306885, 0.058836047737536576, 0.08988676447567454, 0.1768664301771436, -0.035756233871645546, -0.04603494468786663, -0.0489887642718263, -0.06867858648017958, 0.1336767890736015, -0.03229941236928864, -0.10559114789382942, -0.23395654393020257, 0.007278815038123569, 0.1150715646567855, -0.1286264250042728, 0.0775398473163953, -0.19037740389739524, -0.05018512049240366, 0.10965066331749196, 0.004567935578733233, -0.075885957764384, 0.12956198366129412, -0.007476503006254492, 0.06136487963887026, -0.046597360774216445, 0.09836704555743549, 0.16178573042987363, 0.05345700346856054, 0.008454750729170802, -0.05161626972250903, 0.169501473310582, 0.018895683197510612, 0.09143333558339509, -0.06408951500042094, -0.11570616417067094, -0.006785202344234857, 0.0035169894019060205, -0.05152254102499764, -0.10337295827524212, -0.11169769836469737, -0.011876881346054956, -0.12586777610622324, -0.020599015090035845, -0.0175076823670644, 0.25766265053390736, -0.07532047134538727, 0.1121556554161787, -0.05499246550541712, 0.019060842449506964, 0.0831303831816303, 0.0697391025995906, -0.025413645891488017, 0.08329255154733801, -0.035672787855701216, -0.06107154466671618, -0.11891120921401549, 0.022420389369608638, -0.24809411856100513, -0.09348310822823053, 0.02126084856466598, 0.10629528885666459, 0.14464951260253625, 0.1225577122396638, -0.08604615840577991, 0.06941711820630264, 0.02700715583342334, 0.02613798260804874, -0.11735938593376483, 0.16858020624467296, -0.01545991164672511, 0.12472220783090535, 0.07197833979492956, -0.030273387858814123, 0.010180552182729464, -0.1718287121457035, 0.010632571457138286, -0.10456559955883112, -0.1113926406480973, 0.06668687875302753, -0.045181609565614095, 0.15382789880104658, -0.04704698855982243, -0.04020595439367536, 0.0017387673046564945, -0.0742207425742314, -0.3442281991224018, 0.14616120222832607, -0.10765538698710264, 0.05415894789492443, 0.00016336588493781967, -0.031127326294830573, 0.1790953928002425, 0.041557110856481644, 0.03442439536522363, -0.12523236947526367, -0.14654652014750374, -0.2040081326183323, 0.08159018332342792, -0.06856811510753083, -0.1271109189100138, -0.03759029086680068, -0.03033210197619658, 0.007670248191657737, 0.25591273968107564, 0.04781357474160173, 0.2148418624195705, -0.09683352525183346, 0.021481437985061844, 0.297097561908448, 0.07969359951829875, -0.0523432422660152, 0.06516100439374367, -0.15688951546495708, -0.18707908204362683, -0.12020208987567466, -0.06631007506382003, -0.10261271518391653, -0.2628894286793199, -0.12929300496594937, -0.2391956029587768, 0.010044747918786815, -0.052522419237267984, -0.0992588713068172, -0.13974560202472497, 0.04869084785192199, 0.016912370452308305, -0.16095804042177406, 0.013240104407745045, 0.0031298952561137757, -0.06375868800098435, -0.09087042019033521, 0.060460751461821526, 0.0580304139597672, -0.08076212287044247, 0.03555494226177663, 0.10701898443503254, 0.1597813028114731, -0.20274715200843385, -0.17541022821762128, -0.06878398016781818, -0.2882551147623219, -0.2457979208535143, -0.06006131871498953, -0.29465445112805316, -0.06874659250859089, -0.0842800045350432, -0.02177432269556956, -0.46921159041245764, -0.041443138529410374, -0.20760166003031863, -0.053926035221254054, -0.03859045989455903, -0.33024074219572935, -0.003811638952646913, 0.1625251057423795, 0.03566479270984462, -0.06822288186735324, 0.052022862801114116, 0.040590111643795494, 0.01615618233438551, 0.011569010402796618, 0.23838701671319007, -0.24010296959688954, -0.0169488454058777, 0.049959997205833606, -0.13258894421089004, -0.23740712397797678, -0.022930653659779105, -0.20569971111725024, -0.37799128543251354, -0.3341968269088633, -0.07672078260949376, -0.0578515618583621, -0.047601844318977876, -0.08517645940067192, 0.04098394391970001, 0.07726037253105758, -0.04557550811555474, -0.30719337587133144, -0.0093393081316826, -0.000454526666293137, -0.04982274211323684, 0.06682154373926115, 0.05096315192654266, -0.005565476374726528, -0.08919925429494154, -0.032970012380001204, 0.1083207696259426, 0.087400551783376, 0.1335669957162754, -0.07377451722200754, -0.07736034486676255, -0.013001691128709563, -0.10818443247367515, -0.06908839138572784, -0.06753540281426175, -0.2223566554223739, 0.09288674961596904, -0.022658957994290505, -0.11627720752765752, -0.0736205962779826, 0.040073408375490754, 0.20320393811565646, 0.16082570065230076, 0.136727028640887, -0.03388579334688818, 0.029496314191393907, -0.030101099940331097, 0.03686447212391136, 0.17349187061179808, 0.07313374617375902, 0.27106909382675887, 0.2249430853079682, -0.1129809270046414, -0.13576223483126906, -0.13242992297985248, 0.014059000844158698, -0.0777044205140186, 0.07537075188249641, 0.011524641725690595, -0.06006145301198344, 0.06565854089749341, -0.11543480819518527, -0.052223963760600955, -0.33933498345271806, -0.0992829529915261, 0.04049209186889283, 0.08701105647615598, 0.08829024106257634, 0.1277724376597428, 0.5051566586608688, 0.17975356206069362, 0.16869911380812677, 0.012359475021118066, -0.2958980624792462, 0.03544143019908527, -0.15092566889085166, 0.06312856134625099, 0.1511455799452262, 0.10447680163383632, 0.2604259471567604, 0.13924228053472334, -0.08069328560768797, -0.0014694528700155772, 0.08648565262883556, -0.05017377270312388, -0.1682773685420785, -0.007956635032844089, -0.2086591200432234, -0.030483394075109735, -0.21965214706893127, -0.008425845818955034, -0.07832517937687333, -0.0556991100956759, 0.01989634139460055, -0.008409428706204924, 0.154893082830489, 0.2508953779512254, 0.1383303152470579, 0.2654173587511119, -0.029712124171420818, 0.1224847795136474, -0.0009734138886904778, 0.013511583092660468, -0.1341755141231735, -0.02948215262289316, -0.04885937491014483, 0.024194821706452513, 0.07313713227894512, -0.023762847333288394, -0.06992485056177568, -0.10280904951454568, 0.034704979729920406, -0.0016299630491823183, -0.12320883827462996, -0.13403885456842515, 0.02169975269610072, 0.05257568555444021, -0.1659949198540393, -0.04750034319119214, -0.015745124968181635, -0.19772586040070572, -0.16915777506778945, -0.10033329171512485, -0.013676716073964486, 0.02520953573026911, -0.05391571077958369, -0.15216407308964044, -0.12303791398578444, -0.2183492144206103, -0.2459971868059167, -0.1706556384770932, -0.20100398285799512, -0.22276245000838962, 0.06126090202940828, 0.020573114738447536, -0.05471019469944146, -0.11981786676000979, -0.0794145571728538, -0.09637887897035384, -0.05182221303963841, 0.019455337284666155, 0.039217356467825336, -0.037871939436670596, -0.1497052498032018, -0.02320805765085241, 0.10965325747620853, 0.02940749548481154, 0.06411649753956467, -0.17894570496395296, -0.058840013788408044, -0.05689401295038187, -0.025026981469839307, 0.14500963967938782, 0.01614731808938025, -0.2505538254230953, -0.20790977851225892, -0.05882336173539634, -0.21524718683342603, -0.19744992302887016, -0.059695842082176556, -0.2571154745252178, -0.10371155331729606, -0.12016367417381028, -0.16937014548859225, -0.1567937907957385, 0.00570167156075519, -0.08982485744100867, -0.0518398499747791, 0.011352556047991274, -0.1288563842634834, -0.01488095596771003, -0.14207461325727916, -0.04643699602852337, -0.08668506697146892, -0.16075719899332222, 0.12431532015218956, 0.021476994750077055, -0.1973054167755438, -0.09483577089106071, -0.1876589168182486, 0.08528457360389102, -0.27967501679558965, -0.12589205791850847, -0.18231302636588, -0.030207567057071106, -0.07453083317883706, -0.09780287613629786, -0.0823144960877514, -0.27335308105902006, -0.21973764311354846, 0.0064982703458951385, 0.015388135464305468, 0.029495306912886602, 0.03506700438749539, 0.003258212576093294, -0.049383097198910875, 0.03874607558579812, -0.08901142781007583, -0.0217598078263475, -0.051930535360275296, 0.06473956725826806, -0.027762946369763068, -0.19288644005843936, -0.03490596494006711, -0.1797221822797998, -0.3122521522780375, -0.14325591939478585, -0.16131603542578934, -0.032448447450101565, -0.12775182689344353, -0.38743004641274853, -0.2840705484831238, -0.15591605811590942, -0.13257461029137563, -0.09481336025912938, -0.14509978964012846, -0.1153244235643718, -0.1418285299404791, -0.0752186791310977, -0.1915313770619643, 0.0786913309669764, -0.03888202405496218, -0.06751584916283693, 0.09029723959530982, 0.21475351838286835, -0.03245715212679783, 0.03207618021435858, 0.04664011232068649, -0.11108118462308623, -0.017138177402326538, -0.1190344179313749, -0.022749719521113657, -0.29193215687554397, -0.1997014437315371, -0.11470383430364975, -0.02280172129888868, -0.12589384975601745, -0.08391741869173337, 0.0323661754535252, -0.2116637568161943, -0.02790283191957847, -0.06338977725320007, -0.04823972312263428, -0.027902679604424847, 0.059350254163013316, 0.016620399984384145, -0.11998738075083613, 0.03294569655564296, -0.0060340700367602, 0.003023578872144966, -0.08298757665394248, 0.050523094094809054, 0.12733558397729391, -0.01813313688837589, 0.09940668232266008, -0.10351698823703351, -0.24737794823847062, -0.1129963965628296, -0.00495162401162403, -0.3607741273666716, -0.03876602727209494, -0.057876301499009956, -0.1510959274655425, -0.03566139807498552, 0.13831309118756413, -0.08186971322749277, -0.12592915851413103, -0.2752385600597304, -0.1276488602506466, -0.10601546641762047, 0.02716359604095307, -0.14438968057070642, -0.16051710612407627, -0.037181904598225665, 0.0969186757438191, -0.1278136891349329, -0.0692520686490399, -0.12103837070013568, 0.061441578591184494, -0.07247532715753281, -0.141329928498028, -0.16426839685364433, 0.07193158863942571, -0.014867738272478028, -0.001667434775265682, 0.09686563536372861, 0.09693318878427283, -0.12243327202013526, -0.01977412683232458, 0.03369602491997695, 0.12124456706330525, 0.08684448131380422, 0.25084726014432274, 0.024945223874280994, -0.1389500470809495, -0.01791455970370256, -0.09055303978298714, 0.09867960969936108, -0.06666959915578398, 0.10177073151327089, -0.14067639326182088, 0.006667787192522725, -0.031584192776020016, 0.007323994881688023, 0.03968605435342383, -0.06620265245187013, -0.034581121099139155, 0.26150787795360775, 0.11893762988778701, 0.032494206210453166, 0.06214384117864589, 0.0752876384267181, 0.06436252259445889, 0.040890436927064865, 0.22419410940843806, 0.15351339754847182, 0.05490233219655899, -0.05181719529675892, 0.22135875959057363, 0.2025112158034764, 0.02365857021390993, 0.07139941151561163, 0.019865448188084785, 0.14132901627650313, -0.1525564512441344, 0.030857130246482886, -0.05919586123210574, -0.3152867793975758, -0.17868988271036465, 0.043108082054065786, -0.07846613765069663, -0.05222090488456749, 0.029501782541136803, -0.023370384391549637, 0.04646486026203936, -0.06359183851832045, -0.044340588225649506, -0.021876210178531363, 0.0374446997201946, 0.02128533026101179, 0.016381715918610106, 0.14358081592125715, -0.016723158027458506, 0.16815330813165708, 0.25599919307106034, 0.36993457617312986, 0.114018272028996, 0.11607671217604981, 0.2669248685856408, 0.034455668634322076, -0.08431248136695584, 0.02642457652067084, -0.10578139798382243, -0.20272222188556563, -0.04172281494234079, -0.10166500079169512, -0.006716473240961039, 0.1055909201758972, -0.02435600004291141, -0.037967797085803015, 0.07822375582599142, 0.015298235064239551, 0.22579522180130604, 0.008032451688237685, -0.18670728467679124, 0.16937688728623804, 0.0564089860665086, 0.16396740172371377, 0.08342112483535515, 0.051160829085057175, 0.05203613350808245, 0.05604671033546568, 0.18814824358555265, 0.1662246500301794, 0.004897422090842488, 0.10920368258154373, 0.014617631914902295, 0.06596970641096628, -0.09828877404920372, -0.17798807083212087, 0.03985795090850464, 0.010237693512066942, -0.15253655692832208, 0.004659596563742046, 0.044151616487905186, -0.23394835096265024, 0.01894883834252118, -0.14962256882149175, 0.04197586661124033, -0.10617652189095694, -0.07077006125041682, -0.2679780740225952, -0.04869875708977055, 0.16133463333671766, -0.12783502894616688, 0.10665127869484924, -0.10562401523763008, 0.05688166597448867, -0.02842967042788883, 0.0907557103470749, -0.034510299150909356, 0.06472601269802244, -0.01125429636394975, -0.07655035391687154, -0.10042707475648154, 0.1196597930402865, -0.019575398113419334, -0.07152616461306163, 0.04060709372015544, 0.019134583746055128, -0.16842395403875185, 0.021052546930467222, 0.055048025271585484, -0.03454568028996865, 0.028279789428280206, -0.19468456575360626, -0.0030803321307352033, -0.09762336942085054, -0.1475314855363598, 0.06216264880899101, -0.0745819022710658, -0.015684359400515175, 0.15363792846649865, -0.10177294151712381, -0.22420840120905047, 0.22548984635427896, -0.05989392222853912, 0.20909750259379728, 0.04324882066169643, 0.024794317709355442, -0.23569039745428488, 0.0131202998823582, -0.06088155833856086, -0.2232146944242133, -0.16279294382286172, -0.040557768914858024, 0.00042972275309943454, 0.06350719381472789, -0.01640871973150686, 0.04427046403196147, -0.07459397397501859, 0.04293971891661594, -0.029492789540988558, 0.04100663839990905, -0.037083190156805786, -0.15735606610927472, -0.2630142575978586, 0.021294891124716345, 0.02954510814229033, 0.11127022759832912, 0.08063099009639031, 0.1078834790668935, -0.03023015079099029, 0.20830659119215666, 0.12133312865615511, -0.051066180305750046, -0.008323485464787938, 0.02791039471755296, -0.2775229592974693, -0.04867837651887196, -0.07106209991802316, -0.31730253338320524, -0.017047645726229188, -0.13860189907261763, 0.03907466569557234, 0.11192221898052182, 0.05034416082673743, 0.03180433347524896, -0.14032314218775258, 0.13894334877470585, -0.03598198961298774, 0.01627368234957008, -0.08935015333556369, -0.061201837839756384, 0.033545953150837776, 0.15144401675098773, -0.04263852124287556, 0.02758518020413892, -0.05337206925725716, 0.1183895086931401, -0.09796466039836949, 0.05215139998896596, -0.201541291514273, -0.16992077799023028, -0.03920555141339884, -0.18533391739602334, -0.016702483280698326, -0.02346965384218113, -0.25547056861462203, -0.12961080066362196, -0.04544848053654842, 0.09024312180480688, -0.024715335396185773, -0.0013936577561749915, -0.00866435186143881, -0.010387570349184716, -0.1661321944029082, -0.03741372611598048, -0.16962775656716714, 0.07395841209839882, 0.10376005901754871, 0.010309076541953531, 0.12236480377297294, -0.05414931023937361, 0.07391395490219813, 0.023546369775870053, 0.1523948568810658, -0.015996508639941908, -0.11014245101888696, -0.07041139833552486, -0.022153437563449358, 0.06772037150377226, 0.10542356259043428, -0.06122723950158178, -0.1600344126239582, -0.11985406697844075, -0.19340852665614658, -0.08976658997700522, -0.10574254723148514, -0.01748903669489057, 0.010024316028826493, 0.005465733256716024, -0.08038449240508132, 0.17562718161791907, 0.13223253512855862, 0.008227492024322065, -0.01166683459005981, 0.09172522713938175, -0.054690060900494046, 0.12407768214690813, 0.20530635438494893, -0.14735789372761485, -0.07232503922629867, -0.013450621190302698, -0.032790282408779216, 0.048584010703376514, 0.1137036290346127, -0.013377916023432265, 0.013606957672932726, 0.03329919576352753, 0.050924506227930204, -0.04560393287134363, -0.1140088102908214, 0.17233779475563663, -0.04808514828530123, 0.06020952062322892, 0.026850706197886202, -0.10205252278395055, -0.07882305377673272, 0.023896514926840466, 0.03659393852731924, -0.0421603180565391, 0.06275546920788826, -0.09345374225495263, 0.11820242132234607, 0.06692429338738917, -0.15488912327740273, -0.0498258743502632], [-0.018298479787901587, 0.02377636707549861, 0.05988914897388229, 0.08107929524305191, -0.15158832528129507, -0.07508458336200896, 0.02649888914317245, -0.08022309872195328, 0.016358512128422823, 0.005595183405124729, -0.11328791093186341, 0.012828627926080872, 0.09018225248337657, -0.09811442600651073, -0.023710213370929892, -0.15018135570425573, -0.018602307245013782, 0.0035803219017233514, -0.038173939015174095, 0.06496804788874164, -0.11809724596115245, -0.03952303143866343, -0.06900778767550902, 0.0447729739780072, 0.003934361041859937, -0.0757668554527571, 0.021275955761723826, -0.04157751290852623, 0.11455793345419979, 0.06208276643881649, 0.04799486260989769, -0.044038533500932134, 0.03834020434144786, -0.005539257805886338, 0.046252368758278525, 0.005611109820890898, -0.10965319818358303, 0.04456930826398898, -0.24533683006853976, 0.053869800252696234, -0.08546680318593133, 0.09973750788851063, -0.06592428479240847, 0.03099459290583135, 0.10282099331373498, 0.11076827610941432, 0.10155304582598612, -0.11579448592884113, -0.043981095671689785, 0.1575452265681952, 0.12057360010467438, 0.07282119291924848, -0.1584260106299096, -0.08327644790106312, 0.13807667215593142, 0.11418370191602865, -0.024511628203600214, -0.07659509720315759, -0.13154078389155593, 0.10959497880757917, -0.22951296169027843, 0.2876402886386873, 0.13049499851273633, -0.08251161746477154, -0.17933494351161972, 0.060827256680888266, 0.09572480121622373, -0.19921848013253732, -0.02315903327714049, 0.0728571305162922, -0.04859059621896884, 0.131025803275102, -0.019430751342431694, 0.027785380930227647, 0.04751835398973713, -0.05528193049784417, -0.025648022200065807, 0.1736349354536404, 0.046357465953689996, 0.12067172872266646, -0.031098773721591807, -0.09495406095223352, -0.14321658202569995, 0.10016363401268427, -0.08474882392221965, -0.05605489356237878, -0.08162540715180099, -0.058673001295677825, -0.019439375495744902, 0.01168608588553596, -0.04421682843283495, -0.055661921863497284, -0.22969790227472917, -0.036935294035043774, -0.07529527117078698, -0.03125432911354986, 0.12921412110778505, -0.13886311333394058, 0.013910126093423573, -0.12243678109511753, -0.03669031793916431, -0.11078746670765814, 0.04579974377180616, -0.04660412412605556, 0.17732150863214466, -0.023709622212046918, 0.013357351449038778, -0.08893075238764324, 0.09202423666114246, -0.06748526390454143, -0.2101924251694409, 0.03501193494251662, -0.007386865070476522, -0.1562741499276049, -0.04763730072486471, 0.19342899899278715, 0.04570298824236795, 0.034000928278885525, -0.12853574782209992, -0.15674401860815174, 0.19628966851737384, -0.03783276544111224, -0.025150423678616033, -0.16422958922287495, -0.21828654456361085, -0.10795456274012662, -0.09761199699902146, 0.11437902318841396, 0.11383121764741648, 0.12022068647836325, -0.01921778769878321, 0.01323963839566926, -0.09725082019437344, 0.032008862010700946, -0.14110417275279566, -0.03341769695948835, -0.004177400445456734, -0.07637364722037786, 0.0232776789145245, -0.05109391994110694, 0.3502968662116399, -0.11643974981624428, -0.08868178750082531, -0.02968533804436469, -0.10409409473458844, 0.09625068226326819, -0.10490730564215489, -0.17026832395641842, -0.0515338575887168, -0.3862763318208015, -0.25129865971729226, -0.09449432806857419, -0.11665549557567957, 0.023075412065850003, 0.14337567127065426, 0.07534671729599493, 0.09545691870575927, -0.02545386324598432, -0.0691707707022433, 0.08451169812597824, -0.0972280761155152, -0.029010444743968845, -0.0010940157595677497, 2.223702970896861e-05, 0.026658301042264927, 0.05181615243437318, 0.0459718833084934, 0.14232965025980907, -0.133802689263044, 0.18694502260157447, -0.16258025582496988, 0.34864473824969344, 0.12182317075953106, 0.012405944416503365, -0.004673079731853484, -0.09820626524908013, -0.1877121742917342, -0.2426516570395042, -0.28324861912278143, -0.09388253962062047, -0.048470708337368607, 0.14158518262479303, 0.06594001084897903, -0.010363203603148222, -0.10254565933591107, 0.10549278581179967, 0.06381756296178774, 0.014407466500030504, 0.14717018475881025, 0.07833988426830685, 0.09693696788879372, -0.024299376691527038, 0.20064240129903524, -0.03389236225463066, -0.18095638366841596, -0.0647750076608137, 0.24636698995245088, -0.18158758612215703, 0.019112257530367424, 0.16288330130475032, -0.08665844584559985, 0.016260149357047615, -0.05390895322768702, -0.11082604050275695, -0.05748405522083926, -0.39391064127206254, -0.031093219100699922, -0.11679464593900071, -0.11081387639516295, -0.11517457289177402, 0.11584995273108956, -0.17534728453143159, -0.10012114803641749, -0.00357547766234333, 0.18026466002575967, -0.06037725704643831, 0.03819183252960467, 0.016054912429655226, 0.0979783618744802, -0.012061986816102323, 0.14083294100108656, 0.13332006899506965, 0.17688696480486538, 0.12733604213744706, 0.007034287256884034, -0.020789705395784095, 0.2608872080865661, 0.01749195805878558, -0.10564071369574796, -0.09416447801582468, -0.23005441677406444, -0.062284572030464204, -0.313250159740245, -0.09284993341620784, -0.3113414131156724, -0.08329450008626213, 0.21786023890400655, 0.029245254392351046, -0.047839133629456, -0.07004055390318775, 0.021996417015435078, 0.017044570524493163, 0.025542165385606237, 0.03232029913176854, -0.009477556466524442, 0.15477012204286944, 0.11786286697040327, 0.12062643894095175, 0.03444648358982664, -0.002676054024824025, 0.06165299538723238, 0.023277332536702205, 0.1641294822784987, 0.0253807768920266, 0.054741044263356506, 0.00793553689150541, 0.015009615791585216, -0.044938049825763236, -0.05547649453586628, -0.06789833031366559, -0.27194902150941724, -0.005457719936586879, -0.06654250397948229, -0.059801436155300716, 0.11868581022828878, 0.07336776791334823, -0.03435985731530716, 0.1377087213006353, -0.07888932482254316, -0.0790437606784792, -0.04525138732467424, 0.012985305705284417, 0.005834529923434164, -0.04276412721608837, 0.16969791495227873, 0.2622141003958439, 0.1241284869259273, 0.23063337494065794, -0.05765671883308372, -0.014848761449054976, 0.007774288950450334, -0.17804400279013652, -0.2889053055118623, 0.1403935072105178, 0.03550383531579002, -0.20510665785064477, -0.17641086128427724, -0.22428956158239902, -0.01286727739996563, -0.20580593898072727, -0.13098715082771958, -0.08735351295275008, 0.0862215565739985, 0.08054374653123517, 0.18813941423293024, 0.09580680747998084, 0.1351549519269303, -0.03057820508974841, -0.02002820255316527, -0.15481952126320916, -0.25420282098995955, 0.07390604034741742, -0.19827734924475568, -0.038777752675322325, 0.11498625332101912, -0.0951144830315987, 0.028757233079254846, -0.10221602619831492, 0.005706658754894762, 0.13313690574957318, 0.10869587424139487, -0.16563659770510242, 0.00923556348429733, 0.0345098892130098, 0.027172432121443907, -0.03640879827208954, -0.19330822620656227, -0.20283277741236544, -0.06443485473698511, 0.031393585018127765, 0.04676418843609287, 0.32107807044441355, 0.0775538265379225, 0.05472249751076009, -0.04069398555557875, -0.1873690110379847, -0.0594339581238662, -0.23196318443843036, -0.23668459812007814, -0.21517511997870978, -0.21620633843663434, -0.11498486170666403, 0.0014742978552066165, 0.15276632097612883, 0.19914763228233928, 0.07264007753570526, -0.0018844061158224555, -0.03757554886182346, 0.14277919752313392, -0.038864608446967056, -0.1556648837821947, -0.07384984060083935, -0.11349718379425114, -0.07972558248486179, -0.2085018331653045, -0.13304821353071916, -0.1181089909894336, -0.05509248349758921, 0.02141900942348743, 0.2849787944153395, 0.3270562757178796, 0.10999825739148253, -0.04208671785757902, -0.09269226218811581, -0.12266564768381022, -0.1930009756719031, -0.20473774100868247, -0.1336609856196898, -0.22483601697912847, -0.07568257705402627, -0.18710168046610165, -0.061336246998033445, 0.15112728558098104, -0.12784671467077047, 0.027059729831675032, 0.07931180299846723, 0.01269934755778889, -0.17883910707695982, 0.013686877524695058, -0.1003545413908677, -0.1446021784099811, -0.09246177529299897, -0.08468776885639391, -0.044358417656456366, -0.04739259390830605, -0.10379440183666444, 0.02781967033317861, 0.04588985242569016, 0.11321533260302576, -0.008429752873606807, -0.17510421827579592, -0.19808432940603227, -0.02764273097375048, -0.10711358174923274, -0.1743582901490791, -0.10767585044686338, -0.30112637018587085, 0.08930586875876122, 0.0982388680024643, 0.02098684268327174, -0.028040855597815186, -0.029179715615757263, 0.03652059289097276, -0.020401228136308864, -0.04128140201290518, -0.10799960284668278, -0.05502588915768632, -0.09907779113004256, 0.05712961724640098, -0.14137402702891708, -0.09519433814830534, -0.030221883033885382, -0.09345913712461663, -0.034695680422034934, -0.12755912788957754, -0.021691135949531256, -0.08352172559141831, -0.11989507189607092, -0.21814739931012608, 0.014063043499834478, -0.061259012589148634, -0.05295438221365068, -0.09403836313502886, -0.12308873021892032, -0.036481406196441496, -0.19997560423807456, -0.09111154200772308, -0.07137209533960523, 0.13883020600324542, 0.026005192124704025, -0.025295994560374232, 0.09753816301808754, 0.11299475436216207, -0.12514579002619033, -0.026177045077827275, -0.09246515376233881, -0.15559583615615702, -0.24386637960763505, -0.15342892105442324, -0.1004659728017701, -0.030723632225746384, -0.13388559308429163, -0.1035430469840592, -0.06885280342201407, -0.16123834669929707, -0.13009179703980875, -0.24728894657859873, -0.027449271571630986, -0.005118225345359249, -0.03450008423257997, -0.10297214536926899, -0.20209562249781432, -0.1396004953308657, 0.0719340883757957, -0.08339428578587876, -0.0071003469862513146, 0.011125915459565577, 0.015802039637591737, -0.08301368933928224, -0.009776019985408004, -0.02827720787834934, 0.19534097713065765, -0.0460495550368282, -0.1758690288224603, -0.18439873755669398, -0.04968854740072909, -0.27721560590422667, -0.29896685657374855, -0.2998299348921765, -0.350581785991901, -0.1449765034564286, -0.05731501439765989, -0.12512993185881283, -0.024007763143767867, -0.048259743925724775, -0.053113802541140454, 0.09106580515408423, 0.13642566383141966, 0.10818312321020969, -0.038375149999408456, -0.37289729261501947, -0.02246157910141828, 0.0009222444736028089, -0.11462431442973753, -0.011694234750291162, 0.07260753644868147, -0.03550531049713117, -0.017215512986135703, -0.01660428389277911, 0.0275785198750866, 0.015587028088237736, -0.013955544075681569, 0.1968622706197671, -0.11229891836572005, -0.2623039373837265, -0.25344200174970916, -0.40230286255385145, -0.22907229593093587, -0.34594793524157097, -0.12069385461723188, -0.09815209063939617, 0.045657228529379035, -0.019015197852335224, -0.03221377043920005, 0.07722800589879367, -0.09219320409875004, -0.1562778411936461, -0.10789270473187862, -0.1916382055827825, -0.21339076058431083, -0.21413881485666955, -0.011348946130049184, 0.07595243193076588, -0.01992189013356886, 0.18229439071526196, -0.1738089010511806, -0.041292749040896304, 0.0008664466160775599, 0.13793620678628507, 0.021106284066857724, 0.15570050899001023, 0.17871643193376516, -0.05317690529856157, -0.09722323809064563, -0.4978133394416394, -0.1772714715865628, -0.13004390057293386, 0.08145279256106006, -0.021643289394217148, 0.08546622505479916, 0.2168965551560493, 0.22535266186611305, 0.13777605874440102, -0.18836505737532702, -0.17045343765951865, -0.14543210012632263, -0.1305836902567043, -0.004881155560693377, -0.07386301047202594, 0.03643436289649836, 0.0016179204653070313, 0.05891509387989525, -0.123469228868051, -0.03540062069652643, 0.23264510489726686, -0.06351264481496335, 0.01730592597469845, 0.19364280620034308, 0.12920972231892544, -0.065878728444704, 0.049793113158305695, -0.022474369060623493, 0.10784957355699659, -0.04124703038980197, 0.0006237036279401616, -0.02783715223689388, 0.30797813592616563, 0.20295366056178085, 0.051956656158623465, 0.1415689968647299, -0.17864280336959135, -0.1052329436492963, -0.12504859591923922, -0.186184849622977, 0.016095236086347185, -0.06403968746969767, -0.052019618544289284, -0.1717843634811507, -0.0006728713697528117, -0.022996308937772526, -0.05265006482909928, -0.020009695690037497, -0.0037130695060460872, -0.02429534827964522, -0.09424643950550811, -0.07910465035564496, 0.08881037042623133, -0.172476852804129, 0.049688082216410946, 0.1090370188063566, 0.1682655382516227, 0.08359086804744635, 0.0373083470748972, 0.16472073041929894, 0.12757224779520188, 0.09642968537561628, -0.14211672808627368, 0.03093094849136008, -0.07700513573822777, -0.1278150919523316, -0.22242254159058192, -0.37296204381025533, -0.3086594022844415, -0.1199684911419091, 0.015472598338579254, -0.031141503949263967, 0.0899429882952078, 0.08980024033335322, -0.05305140895768608, -0.07722551685184315, 0.09165724685740899, -0.11198840195889409, -0.062116388818245355, -0.09223707809121419, 0.004347076447891879, 0.11011979155795941, 0.2484890300166392, 0.0638824653591189, 0.08045202866731212, -0.062245348734835886, -0.18623508593172916, -0.08451829164185058, -0.13436545280426995, 0.05697393422447008, -0.094018910744248, -0.16240606331521337, -0.0913950711968644, -0.22267785440087684, -0.18738282426297834, -0.08305093314834051, 0.059089560009558575, -0.08047868120610019, 0.03831018350866918, -0.06236037076844306, -0.0007760905823148006, 0.07906731556058416, -0.012625040908533865, 0.027439702403978708, -0.007277752245942259, -0.02388191274100482, 0.0030424348252334524, -0.04443287833077465, 0.014411386609074662, -0.03756872315902453, -0.04426211856768414, 0.10559946834196286, 0.3307078363761821, 0.1401599670959575, -0.04860488224946841, 0.050234893149909476, 0.008660988490746707, -0.07203208154227732, -0.14291461003537442, -0.06847295361807328, -0.08118747127394975, -0.3144627645544775, -0.03478245388286302, -0.09996106189207225, -0.19171094510377712, -0.032827765522628664, -0.17131389182753948, 0.06634292587611164, -0.070250393994399, 0.016073986801181606, -0.005268544412209513, -0.14139442939833027, -0.019788959741272896, -0.10472029414739273, -0.08806412500836082, -0.03711727127001326, -0.04357739747404596, -0.155222165114827, 0.14818221851442936, 0.08337346329906631, -0.02959147781114386, 0.07297281790431505, -0.003937466391635913, -0.07216061340209762, -0.09933279222547425, -0.21776776469899337, -0.016391899310104645, -0.22517959655168757, -0.1491242580739704, -0.03537153629836777, -0.08126390811902423, 0.04222936858942799, -0.062313506955945716, 0.1919253863400792, -0.04611286786457886, -0.030962506510968647, 0.08709647836405542, 0.0042402807215772475, 0.0889381020123618, -0.0922543031362977, -0.04308934922468094, 0.030350611396332557, -0.11598162519587095, 0.05138898384205515, 0.25771911000068864, 0.0490498314847016, -0.10372781881865456, 0.21957859547037153, -0.27667116204436404, 0.0338633956582813, 0.03170031000367837, -0.19945988353483154, -0.08239268786662907, 0.03390869956953993, -0.11370450209587864, 0.037306220889651485, -0.008708121707097342, -0.08221615286824109, -0.02287927114759025, -0.10282938801543698, 0.12216584282371584, 0.1780722329171264, 0.08125654703163905, -0.05049523015761113, -0.18434453359406552, 0.03064231032208153, -0.153369844295269, -0.0895665419153091, 0.025914694289654407, -0.10369683043585413, -0.1530993556727564, -0.08891959165156389, -0.23508880045886973, -0.011348937583684668, -0.04793100376634432, 0.0733177027077709, -0.11436428050437525, -0.08869670569357549, -0.023944101390811785, -0.1057305731224859, -0.174871944739059, -0.1392174897761574, -0.14038080816165993, -0.11780548948852884, -0.02701546476841622, -0.09546878101019513, -0.12482175475162484, -0.11524252937210828, 0.024181527229685335, 0.02280807500844045, 0.012020652074285126, -0.04677277684808816, 0.1578704746045984, -0.076331650686294, -0.01920452225486592, 0.046026446327213935, -0.08945032108652162, 0.1710462901369579, 0.09657411120957689, 0.094819544757504, 0.15748531426163487, 0.06230357471720142, -0.1072455566027543, 0.04276799582039392, 0.10157248168464453, 0.015628795638099748, -0.03777811001654027, 0.1048161020388951, -0.09266563435882325, 0.019880879481254613, -0.05294108856009916, 0.17962444382670606, 0.021787481318495, 0.05579717647858532, -0.05658386716815846, -0.020624359868075856, 0.06287654030600145, -0.20204485937128144, 0.09151859660916872, -0.06002588575455643, 0.14974543899488965, -0.032622127744744565, 0.0732712429858502, -0.12311716776336463, 0.015384039891306225, 0.0546813354710489, -0.007921458613070463, 0.038576311951991835, 0.0037726557740171895, 0.1529921380355421, 0.18540444381996887, 0.06362259615092497, -0.02248453604605328, 0.03988742138239483, 0.004498265196624473, -0.08436335641498496, 0.06953432873444064, 0.12850419899109133, 0.09210631597731513, 0.13963031765751083, 0.17809844217329646, 0.07659562082527595, -0.12917963585017095, 0.04957752163580399, -0.12477546246058248, -0.0743748715569172, 0.04661738365027112, -0.10046709031436894, -0.0016576232453303051, -0.11169588219798135], [-0.19881196224609377, 0.0061413134217649665, -0.0024017769075414842, 0.052809369664768305, -0.03510259937933668, 0.19662391310237803, 0.12212874483212406, -0.05303054857051927, 0.11024961374321163, 0.09436445881821687, -0.07880014667958482, -0.19397405776560464, 0.13223891932541126, -0.07116329874439392, -0.04185031873368749, 0.0004305098321748309, 0.05323243526587517, -0.11432330955061279, -0.03633326680382103, -0.2393639690220947, 0.036715798973416196, -0.04481792179064547, -0.12108351455187116, 0.13964457369458583, -0.08588713866687439, -0.16005359710795358, 0.055499263636067914, -0.13992615602542197, -0.044830986192472506, -0.028059640613267933, 0.17303849594306484, -0.10695525953813552, -0.017074803580403575, 0.09401550845668766, -0.08126820419530405, 0.07290111485173607, 0.06083830476803425, -0.04533797956121278, 0.047907822050448905, -0.09865086269921804, -0.018590821737999776, 0.05191544537389289, -0.0006882607179300045, -0.021203716037026893, 0.020870469257769784, -0.07213647419147472, 0.05089443854238888, -0.053380991858683946, 0.034207384362145564, -0.10502298079532281, 0.2250240849831395, 0.051431379763156634, -0.05482720674490357, 0.01732434142482734, -0.01970464158396339, 0.0959702332158411, -0.004135284498382573, 0.0256111754967167, -0.016926988609082424, 0.1276656150421761, 0.06579448443497632, 0.11560163078446441, -0.018314567733183868, 0.15241708764278783, 0.08952435278460417, 0.10878714908285597, 0.08685865197558068, -0.11934095111610044, -0.1367303246172769, 0.027669161196048956, -0.10088978362654326, 0.12234672795678686, -0.0791213862951929, 0.06243248786070949, 0.011444673080385185, 0.0072391880809492375, 0.10607351717151522, -0.017173317357611153, 0.06389249832136966, 0.0810741059150478, -0.014195241929848645, -0.12397813574929979, 0.13183910028721577, -0.026528367580120806, -0.10019026914617679, 0.07294754301084715, -0.023508156130801695, -0.2596804619485235, 0.1289264801654753, 0.13841060483036646, -0.0689064975783122, 0.11260564587642947, -0.033014129540928895, 0.13144893746542977, -0.07692088952982211, 0.09305649404879662, -0.02306698566312742, -0.09344608707029638, 0.1549472885199124, -0.06530240147030575, 0.09387201241569366, 0.05500757773822904, -0.18935965258526635, -0.04237677443967795, -0.034806193684617764, 0.09968256512531602, -0.019870052996307213, 0.037973599738062275, 0.03607883413215468, -0.09713431621034571, -0.04754692956670387, 0.250241626662781, 0.06606960225416786, -0.19200008291551743, 0.07489501184570485, -0.15861942024558712, -0.09954711205317537, 0.1377426604716118, 0.02388781006752232, -0.05993517872298989, 0.05124798843733138, 0.0063194968005860636, 0.10553463238638276, -0.04792502990070222, -0.020864321399948756, 0.05288789178371247, 0.0167118478060403, -0.002269681620560519, -0.1879181229657134, -0.061880226697140564, -0.05195335371270346, -0.13088978853308442, 0.023794310321144357, 0.24554219805693644, -0.015914816267316615, 0.15881580594357428, -0.27242875203481487, 0.09288718652541919, -0.009804503825540718, 0.10940396429004881, -0.036484700436221394, -0.07989384046018029, -0.01615847501949703, 0.0598024016884675, 0.016518085189869816, 0.08767964141816652, -0.009225786711023289, 0.19319938736111314, 0.09162926535572126, -0.19330443516300447, 0.051345891775213814, 0.08193547728342343, -0.14264993288988428, 0.03167694048198515, -0.1285127434444076, -0.18171600988902573, -0.09505937932803635, -0.12233629353948805, -0.11754629949397151, -0.3242654724299123, -0.047872007885329484, -0.05204312209799327, 0.033866788400040156, -0.029310054700638338, -0.0035102473154871284, -0.048565395032641234, 0.12386682921018702, -0.11614671719873354, 0.12933183900792225, -0.12269699261321497, -0.012998875533376662, 0.04687403035226325, 0.15659340385251347, 0.1521662930242177, 0.11173384705332742, -0.16406061134437427, -0.0615795717219121, 0.030049574128352144, -0.013981752146608616, 0.1717669527251165, 0.274844056727032, 0.2551367896308287, 0.03499517546251966, 0.03408280914175721, 0.11085445264426758, -0.03955105089762107, 0.011478165163340933, -0.3033015607201066, -0.25431295325358416, -0.08201031617944986, -0.07778253794998972, -0.06068055201183392, -0.12450058357199058, 0.07396316628527443, 0.1451877853152251, -0.11896780114966272, -0.09042226887511823, -0.07711272075327616, 0.08348607298333587, 0.033810420315861706, 0.07924598246316546, 0.10836446211079477, -0.0032262752103723977, 0.09771974625869655, 0.05019793579140174, -0.10379663866054392, 0.1480754387995799, 0.11541076379732125, 0.24654441570962457, 0.40208231337890515, 0.10831127213778656, 0.34860499908971704, 0.12369088522132184, 0.07102871455328165, -0.0270071968731237, 0.06802962232194658, -0.07180138417977125, 0.007007083566923673, -0.19747346385947565, -0.10876355060261, 0.05915229837207008, -0.012927496884655417, 0.19259488038293496, -0.025891832557256488, 0.016257607723230073, 0.041272835070030406, -0.035348732752428856, 0.14804752931163506, 0.1267224771831101, 0.0945199252611296, 0.03064553128597567, -0.014993744642265142, -0.07394407998715614, -0.2314712170967658, 0.12871746669842957, 0.10866996965170352, 0.08368147778415336, 0.028990451069676737, 0.12563600536510605, 0.014477033664434294, 0.10471077183959934, -0.004274898998298497, -0.08603944324731459, -0.1169463049872989, 0.13358767015212367, -0.16221997583528633, -0.16104113369203737, -0.03944699534339362, 0.12989302251976337, 0.03163237635231917, -0.031200979953289715, -0.07739915738551421, 0.06732130590229614, 0.07537898899434212, -0.10714016088859853, -0.10387526091021874, 0.04075551845099567, -0.013589268718947228, 0.1568263825104326, -0.079493457820107, -0.020098397736542744, -0.016227296047086545, 0.07181189959660116, -0.1429571186163056, 0.17366831002272776, 0.1977236103159666, 0.3030609592371243, 0.0648643925704128, 0.021369975865850304, -0.08709940751763169, 0.025932729824449337, -0.1505602809624347, -0.168091559357025, -0.1099660666085688, -0.1835961815349903, -0.19164912872300205, -0.13231119869926233, 0.11873577249949395, 0.11140984940894812, 0.06333544574415317, 0.0626185156683715, 0.0029295830850123395, 0.10552892374817069, 0.13774739692494153, -0.10682428994362773, 0.017320878107134233, 0.06628472317497852, -0.052538294013987345, -0.2203740385080691, -0.15907823380992128, -0.2623974798877471, -0.15636618682568293, -0.06263963915268518, -0.10132408655827649, 0.16085580449148082, 0.02864210513449667, -0.08067135321165073, 0.02129173919287412, 0.007108536712593965, 0.056505280731147495, 0.0043492054246762795, 0.05744309838370816, -0.09055058184326154, -0.04241531311021945, -0.03451777062573974, -0.005117054328880097, 0.06574076270992175, -0.07597317328540214, -0.10102734027808062, -0.043908836790157925, -0.04335490765936438, -0.13006648796196527, 0.05800828520754592, 0.045916547696167924, 0.21404447135537544, 0.029969335700731646, -0.17813763303803512, -0.10494328974461607, 0.044266557798982566, 0.10656324774636677, -0.15920656782108372, 0.19345643696977513, 0.15523167486150935, 0.1598708300048664, 0.08570702973455788, 0.25013858266515626, 0.3199636604023159, 0.23114270943106582, 0.17306992428022744, 0.009353167828210062, 0.011390383825381947, -0.08770954180083342, 0.08439478924031668, -0.15004902403118597, 0.04351766714478298, -0.037401428964805916, -0.05513657733871856, 0.12974484397746433, 0.002879968333858699, 0.0733302931576711, 0.20508129223051474, -0.011708159617178974, 0.06882767334771062, 0.052723919163882936, -0.18399690063215127, -0.0429373781477927, 0.015283871476352092, -0.04008290290374109, 0.10960027866290208, -0.05543883135358225, 0.37757090651274694, 0.4135217820379196, 0.11667729612131311, 0.3729522440499231, 0.13848960489120424, 0.016587156501953106, -0.25691930637883403, -0.13451551447665983, 0.029549632283926153, -0.050571030504988845, -0.19746755533685187, -0.2608686804940265, -0.061173144137167554, 0.0724647148140683, 0.19356904694673285, -0.08312469141824273, -0.16348717849831373, -0.06936666689073853, 0.0523193247864097, 0.07049225319713476, -0.001178218472108041, -0.08324523858762195, 0.016072332324624114, -0.0684356956937606, -0.03578452859551883, -0.04051255304292606, 0.08490948645295059, 0.1353169217249756, 0.46646283132638283, 0.39634741322922246, 0.2342652292850515, -0.014004490858006357, -0.03315656710740628, -0.0714042686721038, -0.042651410557630866, 0.08939716666867453, -0.05754628102537951, -0.008147204209367978, -0.2629805870507366, -0.010238191799136308, 0.04290507789302043, 0.12446762820309797, 0.1997545532901659, 0.0017732771254373267, 0.0252674174225943, -0.1327424976021924, 0.0019424901615327432, -0.034388022331313155, -0.15389814285372527, -0.18194686702174734, -0.021489124802972815, 0.08041854591652241, -0.07667230438558541, -0.10215926250427376, 0.18313772925333888, 0.16878952486796028, 0.27031575485873416, 0.11655783618292175, -0.1010188881113335, -0.017394312423698936, -0.09301401335640849, -0.33933652395558817, 0.08154195429050107, 0.09135534153724321, 0.0960068032183113, 0.08303325771418667, -0.20267512780565902, 0.02986422675430207, -0.048262090020448664, -0.09886407269528012, 0.08396329687821884, -0.11493533317384347, 0.1480229129046772, 0.10332156090561613, 0.24950208400552507, 0.09775837930670205, -0.16774492670600555, -0.1687183512766221, -0.05396605665757432, 0.06520910111522953, 0.29920534602058113, 0.2969939873072232, 0.2543477185092232, 0.11281800607725209, 0.23886433488448974, 0.2130314521650364, 0.11460062362940705, 0.011046984780903806, -0.2156616204300156, -0.014624436104496142, -0.0003293234233956668, 0.21779409958123516, 0.0894561364119421, -0.027205144445810417, -0.0626989441573574, -0.08014522831176703, 0.03100575231585656, 0.038948919505060915, -0.08055188188465914, 0.003628667153845723, -0.1529118721365646, 0.18204060362042834, -0.019522691192703022, -0.14415150896741508, -0.11601531360279504, -0.43911333888581666, -0.41737598171184515, -0.34477624991919464, -0.058107445064957006, -0.045072552119899766, -0.09052475957320401, -0.0670730052497795, -0.016819972781701154, -0.1894077235459157, -0.20467552469021455, 0.02501385308833448, 0.11278299325854739, 0.021861275535424402, -0.07946731017153214, 0.0721604374657995, -0.05460720040713926, -0.032087080329090474, 0.06945585855276419, -0.012308422794994027, -0.029764398792025193, 0.05198506715629819, -0.024771953821413294, 0.013770909607601873, -0.015403761503679276, 0.18289816560408356, -0.11158597962144245, 0.14508605575406888, -0.20313035063246396, -0.30562993835095353, -0.33409282599655965, -0.7874999504487398, -0.5780237885436309, -0.41454407292466133, -0.5681110309117817, -0.40910193979957143, -0.20303083065404867, -0.19610513270604155, 0.0372537433701665, -0.16694674605697377, -0.06213468557820219, 0.047029211501774304, -0.04346144548658767, 0.014687791895874106, 0.03844457210699704, -0.000394131316839141, -0.06609501583513179, -0.05249987818740147, 0.034299345136315766, -0.05005169668927792, 0.16045586692118588, 0.011214231227408365, 0.1539734784335097, 0.15602138361862977, 0.017794765763061594, -0.1220283383007193, -0.1353015081565127, -0.3224816815565247, -0.6150856213748198, -0.5783325550930626, -0.8123638531602464, -0.6503391533463281, -0.6956001996963307, -0.46638599563686983, -0.30324695941060287, -0.05761066960028592, -0.11138012615985436, -0.23777103560820276, -0.1479652528152722, 0.10105040665772201, -0.1346144007384551, 0.10128277288955354, 0.05554005331270884, -0.04073749430697493, -0.2792864097020613, -0.08335839031734962, 0.03207556948226328, 0.06637048711904502, 0.030326406143903563, 0.05579463588676108, -0.16910861473393185, 0.07314358366095472, 0.12661709792070977, 0.05711002811867543, -0.10445751674727277, -0.22305946740993363, -0.2240315011174025, -0.3723514263758847, -0.41095906352390155, -0.44929069644939645, -0.34264075540195627, -0.4452382611867117, -0.14348715186532895, -0.3088513894479101, 0.08897694138676775, -0.0024185345794184103, -0.12644864038237272, 0.04076689005824253, 0.19490125464966362, 0.2221450370179811, -0.040846482783622344, -0.14158064817905708, -0.04503202474234371, 0.014038791689339589, -0.025276271898532838, -0.055634194375102176, -0.18357011618967992, -0.05749394451714095, -0.005914687638424587, 0.12136358594752247, -0.01652282623050138, 0.04482878739516408, -0.016588384361431625, -0.09589600035047773, 0.09719513949672544, 0.17511350324993183, 0.20777998516021984, -0.053475073832158423, -0.26630093674083016, 0.06968784897586587, -0.06938373984181954, -0.05944184151956083, -0.0706726757007368, -0.006215518912863008, -0.13601738202091634, 0.1482721937161962, 0.07959236052407065, 0.0061931712367278065, -0.14530144547896795, -0.1042385482986847, 0.0016553729133309356, -0.1024117420218824, -0.09329832600199439, 0.08858854633365844, -0.10390566779911847, -0.06049306199884929, 0.07693951802148838, -0.0417295665110478, 0.21021717333262854, -0.10172818010401816, 0.029607949098225467, 0.04838760944691691, 0.03523210415281971, -0.08692530135393944, 0.08708628697834968, 0.12265486591925226, 0.07482846814584095, -0.15834969847662592, -0.07008485338968125, -0.17873573722344635, -0.14909581083673087, 0.011622009219591748, -0.13836835502042766, -0.0875827820218532, 0.10031868808907883, -0.24336851278395938, -0.19746644379918774, -0.11440206205925754, -0.08005357983594148, -0.1157779320196046, 0.03906183392947287, 0.16337975352659728, 0.019302086578379018, 0.014763361135944213, -0.19480560824865562, -0.021701966903908045, 0.17660168383492456, -0.12110581697392615, 0.09521693370888569, -0.1574032290030184, -0.0474781632944356, -0.02528032161807697, 0.08951379377741858, -0.04298916298814263, -0.13817420747792797, -0.055982642505312784, -0.17123461629054568, -0.15371004490256887, 0.07009705640005817, 0.0011721696855974658, -0.0239406881176664, -0.0018019986094951984, 0.023910451474517317, -0.0772199453030798, -0.14927140210718262, 0.13114799092287133, -0.01087579032295538, -0.09809917817423801, -0.009884093477359223, 0.08194773439027762, 0.033886466645980155, -0.15311562650833832, 0.12813654849195297, -0.02085262493487147, 0.3512010364900847, 0.00995020819611686, 0.121373690528237, 0.1531315057027869, 0.09009911984019583, 0.08912586967402619, 0.07722731384535482, -0.1243179747827116, 0.15388258840370994, -0.10232240534729653, -0.012565033551726727, -0.09615938282154278, -0.062329000144436285, -0.08081923636218434, -0.06653925721358997, 0.077254727301881, 0.011775446462544699, -0.2550842739309189, 0.07417279885002578, -0.14738720796156451, 0.1602372202677584, -0.05123454387182346, 0.06623218424922798, 0.18297671225640597, -0.0944102568886782, -0.0836860810151533, -0.009291096929239705, -0.0527550506658978, 0.018207403207390973, 0.14898727704187062, 0.12132298631801082, 0.14641878322271085, 0.2603008934819494, 0.23289220275430755, 0.14204813029479973, -0.041610610224470976, -0.11324872957578423, -0.2650008646986587, -0.18701380577022944, -0.19853357789631465, -0.026244658647102726, 0.07491085456793635, -0.1335588765962825, -0.11594868463095843, 0.050675701434591484, 0.03720974486191959, 0.05600391110405291, -0.08915176658352329, 0.19257950634684098, -0.15318082281475973, -0.019941387632596917, 0.04904597284300859, 0.053824328577194616, -0.001039983557208821, -0.06177141605926897, -0.10949637911598224, -0.028846263359183114, -0.25515877554057764, 0.18061642581639276, -0.0031152900931488564, 0.1115315501986958, 0.28059839952528276, 0.23605768960128434, 0.14725597880876828, 0.03939699200092312, 0.17971394462675916, -0.04607966576251731, -0.11627438927537119, -0.046769449400391946, 0.09724158828990848, 0.061288212413148795, 0.14084829428290252, 0.08066291839754677, 0.11214539848874915, -0.14226891704601172, 0.05308633655137084, 0.028365231941347498, 0.09813523213330141, -0.012472936599548984, 0.050917228474272935, 0.034999531404997605, -0.11384027682908554, -0.05223362780107513, 0.012274172829608411, -0.1620672223368434, 0.16780403182948078, -0.04658870851369029, 0.10875184407023222, 0.1393593899427515, 0.06265117022141252, 0.12533004817102986, 0.09025101562069553, 0.09533512354284854, -0.007530314609330543, 0.14646607166389386, 0.34426197490150096, 0.06222944712072802, -0.08381747862708014, -0.04690464875144984, 0.1884505830058395, -0.0301848222344901, -0.07782332676607422, -0.008333482365314856, -0.04715214634842012, -0.12696624123955028, 0.14849246854039921, 0.1332764384072573, 0.033007636628423966, -0.09502014549799856, -0.011003878739992895, 0.0034308353075033667, -0.11597745220780104, 0.10875972675135233, -0.1595950856885627, 0.03177586252219354, -0.265725585937617, 0.12291555439598247, 1.4121244669883177e-05, -0.01399558695823679, 0.006231773136479512, -0.05600325496742567, 0.056624835346551626, 0.15894126577108003, -0.022614662117891707, 0.022919922499080415, -0.05801558956390671, -0.03262854216710158, -0.11320913692054907, -0.020519441426078096, -0.17190122422624132, 0.0343198145593707, 0.07800584750495311, -0.17295244842115207, -0.10988903573736797, -0.12868291149087652, -0.04692856970675913], [-0.18090370202399286, 0.0446768183075642, -0.06831928709942649, -0.02163059175834955, -0.0862824115128979, 0.021011758871478006, 0.07364669671843893, -0.1319454777852834, -0.036301203798786014, 0.0028928641063410846, 0.002327801190552387, 0.05763921413240582, -0.04398120305036649, -0.12225791754372625, 0.21298547209272278, 0.07852115660087812, -0.07066591790929748, -0.09560138627885324, 0.013206390572134706, 0.0010817266826364832, 0.05137418570598126, 0.11731971318563837, -0.09929537563502257, 0.010804011357123784, 0.004608851706284053, -0.17546975973420506, 0.049051214923601844, -0.1575257703055841, 0.004824491278186305, 0.0025186464848302313, 0.03948025664009055, 0.04632230212492978, 0.05758702651600194, 0.05476056671124374, 0.0014509941879051551, -0.05996760560775728, -0.06545549370158157, 0.026866361596155935, 0.003160724509724528, -0.08989803625292964, -0.08329173569080836, 0.037978584088891196, -0.02315433730261836, -0.028096685770171926, 0.07173504027419231, 0.0455078201913466, -0.0474551819312511, -0.30732499637689625, -0.09145779985933558, -0.05328657149134937, -0.046166716477983295, -0.0549837954529936, -0.06862213671008371, -0.04083277858234297, 0.21382534942806086, -0.10019203752422534, 0.019931555360653126, -0.08244612311108479, -0.008827178187286481, -0.08423954085728134, -0.015125675467887234, -0.1166798213991964, -0.011190551387844085, 0.12135120575175262, 0.053328176157683364, 0.03247718825518711, -0.00958909705552835, 0.03991581316905122, 0.031079568551549135, 0.051024299091552795, -0.09360519555039273, -0.040285829098148956, -0.06842954520680902, -0.06572104422274652, -0.09445885428379082, -0.017966899231202208, 0.07648685708954042, 0.029592072133840294, -0.10253117378876246, 0.05559742768937246, -0.04379632705614941, 0.04578996307994118, -0.02015211545428794, 0.1426782259050844, -0.030148547112078417, -0.1231794912441812, 0.01170632860466297, -0.014177544489427702, -0.06890084994757054, 0.10720385271725509, -0.010163361088649465, 0.028624030472383034, -0.02273393295169617, -0.028741459083640973, -0.0036599899342463996, 0.07341396507487619, 0.21148737010999807, 0.04317221681959239, 0.1620999924864409, -0.08150734803269283, -0.0010104539424509286, -0.10070953555490826, 0.023746159716760716, 0.028860169849178136, 0.028442104193759785, -0.06402935207029573, 0.07250295175504133, 0.13339935784778573, 0.22752805331970924, -0.049620738111169634, 0.0874342534628321, 0.2805831745407852, 0.12337033101217432, 0.056581783745194784, -0.18379538101273335, -0.0063102399488518, 0.02676196702134576, 0.08477986215261901, 0.048901715996536727, 0.09991990336298856, 0.07264787732289206, 0.13624118976342608, 0.08556062860088154, 0.06775437791970225, 0.18498164293878663, 0.16216659768882602, -0.03120626718295531, 0.007520194424347298, -0.05091908635893453, -0.1616788980736193, -0.00261591760299154, -0.04779162530418372, -0.0702754010055115, -0.003649772688667049, -0.09640159993879795, -0.22507784583343557, -0.23783124980530088, -0.00421208553932336, 0.2783081343085595, -0.026169354070968792, 0.10926260646148325, -0.1083592944253456, 0.16388989865250003, 0.1016314730972423, -0.0755312857514852, 0.14527826344858175, 0.0019531138668276034, 0.03601037072529385, 0.057358092741067616, 0.09524414278264662, 0.034224156742097306, -0.016572833034440775, 0.03568477481953735, 0.220274749695505, -0.022993693773701744, 0.028773069616938155, 0.12003281638842936, -0.3781443841625229, 0.025021162871460632, -0.013920019674538743, -0.11613022347694053, -0.15849288147296522, 0.02017143811573804, -0.1003992161164084, -0.08536630235863835, 0.012894880173011204, 0.1577069238615051, 0.10047109101956697, 0.11877028192803188, 0.15289361450426436, 0.052159640728342574, 0.058246687929313395, 0.01121938323208117, 0.0017550677464315716, 0.2504780062168068, 0.0076171055577911135, -0.022150979025264146, 0.03981989018817397, 0.14902899608642045, 0.16419625663621157, 0.13360574818627177, 0.1848452821877271, 0.20905971887903999, 0.16685135411133803, 0.10803340830801886, 0.04871785723924261, 0.16798776340592603, -0.13395992947694535, -0.08170147694319883, -0.01219506154749792, -0.25428799667000584, -0.26482726884702773, -0.08668413582227644, -0.044347931534818745, 0.0777793316402478, 0.09163603175417089, -0.11782648528950639, 0.10167403437123831, -0.047484046730918925, -0.14524924612390847, 0.02933892137578527, -0.004057819629768885, -0.024338112669997764, -0.18068408164631303, -0.0517368484383294, 0.05528547028314591, 0.24376369505834908, 0.1372659638835804, 0.2867405264157205, 0.4084618059954231, 0.29677496971090533, -0.04363013669143441, 0.25178976813665876, -0.11149675669983426, 0.2135580425624204, -0.07766947250288785, -0.2186329148789109, -0.1507891618157815, -0.17992971190466212, -0.2407043677164033, -0.10579033246520819, -0.1270012507869135, -0.05671837732445496, -0.07952356599468335, -0.17748553700235412, -0.030190189860729178, 0.16334096726848196, 0.041095674474907196, 0.08635713314270746, 0.055909023865091785, 0.11134852887543947, 0.10079881688184225, 0.039757596273527145, 0.02433683049304364, 0.32970633804995547, 0.03194002419661023, 0.1819778506746601, 0.06777222483493328, 0.17436123354332683, 0.3184933528904213, 0.11507074266949566, -0.08018845673266452, -0.053317511188123085, 0.07604272424539675, 0.20245998222285128, -0.047556103234560054, -0.17197771593090144, -0.23741153775870244, -0.43940661262512376, -0.15172615037188467, -0.020767795097989185, -0.15349691907391524, 0.15668218067787096, -0.10106123425589476, 0.15818834680479316, 0.07098978830091666, 0.06740101768900826, -0.09913135990875062, -0.0617971690249486, 0.029349513991755543, -0.11750623591297629, 0.029704826841075466, 0.023637854548832576, -0.06346385713058518, -0.3362873889420646, -0.23530838932136822, 0.20677376832353442, 0.1053454283808174, 0.26226814946761107, 0.1286509792024249, -0.1075885534478383, 0.006844608709448593, -0.06176038059583102, 0.08165761562436263, -0.07287498431595699, -0.3049190577500057, -0.34560410968651406, -0.057059393545621014, -0.0021429176310726827, -0.17628734017280664, 0.043744862982737276, -0.03994463743403647, 0.13523146625974472, -0.12436607179947327, -0.10787780068971295, -0.060518229485754006, -0.14771118059363203, -0.2228686300556331, 0.04541711862344763, -0.3246478491203463, -0.5032015592202669, -0.4247644845214672, -0.6269993988655065, -0.4684670500238867, -0.11989435547089167, -0.1541477514049297, 0.2225170907233736, 0.09843323900558608, -0.08285739666991356, -0.05903597602057939, -0.007373107195342369, -0.06756372839123993, -0.2354569345974799, -0.24668866984734913, -0.2558349023681166, 0.0534530233630281, 0.17783862959084137, 0.07011942417596764, -0.0688020993667666, 0.07154334064395568, -0.10808586633405404, 0.061120145409240816, -0.26737248358561155, -0.33842842586632005, -0.25524048172167546, -0.48258814996221366, -0.5261604374713961, -0.4125343492230815, -0.8401782828013091, -0.7190485869393869, -0.5551440655643773, -0.31826240095834035, -0.1615062947409011, 0.004083918409980948, 0.13366485330203054, 0.03629500386042093, 0.18538848013035164, 0.25087822799393034, -0.07691732019374144, -0.027332853091689226, -0.03695522309632631, 0.035761141893903316, -0.04939277123427095, 0.02599260542918707, 0.17723774714197368, 0.10116675462653178, 0.00016338300183966508, 0.002377750967614104, -0.08832790827065863, -0.2655054098250025, -0.10902426738967853, -0.3773666116262712, -0.41605080542518685, -0.5135326040070273, -0.6192539431985395, -0.7020689130443033, -0.5206477141782877, -0.45645379657715823, -0.36649850505722587, -0.4322347221984486, -0.07208516220359269, -0.14020358843625952, -0.15498459763291925, -0.08499360367403065, 0.09014959966949469, -0.04450818210795725, -0.05895197753218671, -0.21533424789383354, -0.1376085025569092, -0.12176097364415583, 0.08246935793745191, -0.0644079711702777, -0.027240089285521095, 0.064114514535356, 0.16618978440678916, -0.040826345780625016, 0.14453732397770858, 0.07309047478058645, -0.1894110052722672, -0.1353523471145346, -0.3846589914042412, -0.5396927093515614, -0.2046204604072095, -0.2899490107167152, -0.19430649565669222, 0.05817967335900537, 0.18382056450819956, 0.07252390784108274, 0.12714427590271607, -0.09306623775492581, -0.05451383280334279, 0.033747353239963584, 0.029353201170212808, -0.20426466789062858, -0.048306314515917964, -0.009838793079145598, -0.17971053818890537, -0.11734232853987468, -0.05018208104515803, 0.1288338054753265, -2.2474827289215142e-05, 0.14882396192802186, 0.028151792086909235, 0.011864068408803772, 0.06960720673813636, -0.010101306071958008, 0.11927659511991119, -0.17804010262319225, -0.21370291541112366, -0.15112392990203752, -0.020037959106135112, 0.18247758526253252, 0.11729302542330712, 0.24149651319637297, 0.33793355385350354, 0.043421027890849055, 0.26343468681922977, 0.012197779028032074, -0.03803329959155572, -0.21550775701785418, 0.007127878519668773, -0.09813205540832115, -0.016173454322125344, -0.11376125506908988, 0.0027344937261228343, -0.05608547187041864, -0.08380066911607262, -0.11845658867805624, 0.039290164305383964, 0.005822206418555152, 0.030975046898413905, 0.07257098033173885, 0.12250370662042087, 0.1401255186182705, -0.06537060764555543, -0.025494675673881792, 0.005750449145243838, 0.037975087072977594, 0.07133260879685013, 0.1528935451273855, 0.13210258604092856, 0.17882975034041906, 0.17001998756190723, 0.22504992028758738, 0.20384724520328543, -0.08143227594767932, -0.19084231874464935, -0.24098837732258183, -0.12073692202426108, -0.1180509552330923, -0.07331710663052247, -0.06244458813509575, -0.0269150235157465, 0.15651461764818653, -0.017427991379536118, -0.04152849287488182, 0.15164982588000583, -0.0016271642695301612, 0.044766943265820695, -0.048222011317709715, 0.033909291660092634, 0.006000302857405079, -0.021031281238798, 0.04896646013991598, 0.03938759925903883, -0.07517067249020967, -0.00977979099591577, -0.014592142711756167, 0.21809415010564975, 0.03811216852123093, 0.23764317808208493, 0.25305959362846353, 0.17659109684321822, -0.24298260201280045, -0.021940358527873204, -0.21560061956786036, -0.19037369831515386, -0.12695550847091233, 0.01768531383435087, -0.002989977565018502, 0.14655614215513915, 0.05971787760858069, 0.18406619326651788, 0.2748844614976792, 0.03411227013091798, 0.010079746629676332, -0.07970826203820772, 0.059645465177137355, 0.09067160256612951, -0.01536781875052567, 0.0595220652467691, 0.07227308696609289, 0.00961952835313163, 0.0544001093757407, -0.14523221023341576, -0.10704461811669141, 0.009586657553396188, -0.00010007818430043494, 0.08708928640349772, 0.10972350572498434, -0.05900277821733744, 0.004375252763561387, -0.16876470039763883, 0.011187754170589145, -0.12281853011690488, 0.0947697713436879, -0.06334862378077154, 0.15458146801446465, 0.05657007999288573, 0.37808166040184155, 0.06874332370055346, 0.14646052645647745, -0.22491484094846098, -0.036175096577827914, 0.10147674239583648, -0.006984625559696924, -0.22345667779194073, -0.006172032539265096, 0.2214467452757963, 0.07528707520302881, 0.09074877064175446, -0.021424550827696592, 0.022965025640789047, 0.07814512409530625, -0.11395789211854215, -0.09646042554422223, -0.08372063256762187, 0.1891738957779822, -0.15109255245606562, -0.07718509699770419, -0.026005785847512567, -0.13700477285169335, 0.06743527222544489, -0.22201315890103737, -0.15698025428014598, -0.05226833158616688, 0.2352746864461616, 0.2814626231570615, 0.2577420528540648, 0.12617851564683236, -0.08894850002147588, 0.08451702773412582, 0.0536294913014023, 0.10946558675616057, 0.11016050582875972, 0.16023825042296866, 0.15969107946597821, 0.00046419394534008264, -0.15108188795639876, 0.34128991976386264, 0.05614300147603845, -0.08203335421959153, 0.05911681119369798, 0.011328240355799919, -0.14335414213106515, 0.14067056462979394, -0.08100387191412563, -0.019986000330936487, -0.1285263331479162, -0.06307685456920546, -0.0992398543400263, 0.06501621263186065, -0.08457643423867317, 0.15975348120970417, 0.12228410101127914, 0.23520756703507095, -0.002304226005092693, -0.028464789517025767, -0.07463767877273059, -0.11454447269723927, -0.06162494133281236, -0.0775270048358592, 0.08799154307097921, 0.0337869049522861, 0.26442456443748985, 0.23388505118399602, -0.06562734858007066, 0.02375131354739073, -0.047319344466798204, -0.020781787356758133, -0.07499786705378901, 0.07331813329549038, 0.013808347675256486, -0.03978019237699753, -0.03478862995829014, 0.03245668025554307, 0.046405773830915965, -0.0512400942050892, 0.0799348381709294, 0.0033665809718234022, -0.01602984799209123, -0.015951967141614804, 0.13847618406915765, 0.009946403298522304, 0.06589786688582931, 0.09946642550021527, 0.17487705026464384, 0.041503904135368724, -0.19543572923612865, 0.1082606189694065, -0.014517934729456153, 0.16305113190419143, 0.08040788694394771, 0.16518480478789668, -0.023764580279485536, 0.11087735756901211, 0.07183078487592977, -0.12827011964930882, 0.12811303550487166, -0.1875530992125306, -0.22671926066559606, -0.18953487029157637, -0.16660997157824545, -0.26053706769332197, -0.14187476419245956, -0.17238727019139063, -0.12311012908577848, -0.03386300398964699, 0.12866890579847498, -0.16015399843976233, -0.03965374786482719, -0.010228690250004403, 0.03930839357735007, -0.01942808299218124, 0.0982586125764513, -0.15763165554412786, 0.09083086021782323, -0.11787253540375185, -0.04996241170862708, -0.020631976582131333, 0.108475768832503, 0.11033223724082344, 0.13393824117688688, 0.20000022226880862, 0.21351427513216, -0.025867151808672693, -0.10601855966420291, -0.3362094637003154, -0.14118641190423872, -0.292002273240674, -0.11110823774489685, 0.011745812191351635, -0.14207255401014776, -0.14600079475667355, 0.10717626269037274, 0.014217025879065216, -0.10200415181143868, 0.07751261424358463, 0.10589729308571294, -0.0721491330458293, 0.13227115110843599, -0.061498088966721466, 0.06832639881365649, -0.02505130691924516, 0.06575635578412678, 0.13422671033885333, 0.08076219948244526, -0.1315927113335078, 0.1548672963021739, 0.1417981453294503, 0.17522479249575598, 0.3854577329782524, -0.019653325123610583, -0.12059703252914926, 0.0757142230388355, -0.11771574743150434, -0.06371938714827884, -0.3207837697466493, -0.2584902679720988, 0.017377424674339045, -0.10803927403943703, -0.0861452786045382, -0.0588199699330395, -0.21979461699479697, -0.08149823688196478, -0.07578956051473668, 0.10962484884459496, -0.19911511032373974, -0.12091112236696086, -0.051988896890672064, 0.06651521057247746, 0.003854552817573846, -0.01619547280784227, -0.08126848529189096, 0.011123443417170571, 0.13961046016591894, -0.049772706542185116, 0.055527576054524526, 0.21329510227625822, 0.26421618916738204, 0.167768027867055, 0.11747602102075815, -0.009288440291181388, 0.0764402707367826, 0.005895315608079214, -0.03398715242910292, 0.07127512994068924, -0.06910152803454286, -0.07467710203880559, 0.06580225557657705, -0.005219691553849406, -0.24953367904090135, -0.19161787400851057, 0.049203816885123194, 0.05735116141115627, -0.07653904940394857, 0.06262947635443843, -0.11864867503859858, -0.10070700572968641, 0.15351142008588958, -0.2086580320041429, -0.02139047959828391, -0.08814196855774, -0.02522538075257396, 0.05822318284905536, 0.10128414043982636, 0.19043466522692215, 0.04891468324914515, 0.011668112094810383, 0.005305011267865619, 0.10973390197275705, 0.05382376238950546, -0.037614800811471415, -0.070433792688486, -0.13063399743476922, -0.21534231905376042, -0.11618057901849085, 0.020146296916201352, -0.22505546162303425, -0.003139636924395567, 0.019374716523105174, -0.00886442156086315, -0.08859070889557118, -0.20665850926822965, 0.05442832154608562, -0.04599829681998546, -0.05879098553811674, 0.1561784606578066, 0.028979014678105736, 0.062398477285261544, 0.09398215711344263, 0.08152557813344725, -0.07008794152406099, 0.012626138300546971, 0.03017082015434162, 0.05817626553623355, 0.08822732512076252, -0.01186974699333998, -0.0012501574627773297, 0.1561178862984966, -0.052237994246452826, -0.20223524993711284, -0.24353755597849072, -0.208807643214161, -0.06764880481537804, -0.00021915903201734686, 0.0033398762871253984, 0.002229367787875824, 0.16852838856562033, 0.05345583662069383, 0.017198657144680853, 0.11844757348025169, 0.06541651882581459, -0.1526537671773895, -0.09974207472340407, -0.02410917516008938, -0.12278683347533965, 0.2187297589633137, 0.09177513074929902, -0.07133098114493704, 0.015056592437506434, 0.11721306796853637, -0.012135337570022794, -0.11431640219218517, 0.22666694530281675, 0.022773111896190815, -0.13168997746014494, 0.05120362654303616, 0.07247641174279393, -0.12472222758334231, -0.07478159341748478, 0.07979471260911628, 0.06497282470691143, 0.03810812487583964, -0.08293732242116242, 0.07487631359989728, 0.07965193289071748, 0.12138299241415951, 0.0818274270356472, -0.026903190870389577, -0.09174899080529077, 0.11160008913973551, -0.012318659801333662, -0.00349103048189085], [0.05558926748440506, 0.046107001013658326, 0.1616905129602571, 0.17059623330101437, 0.07680845442977259, -0.013892993092236511, 0.15513778041487883, 0.08437929964702379, -0.12590614541703862, 0.03237087419742418, -0.04498200885878935, -0.0048681756934796806, 0.1445581509840501, 0.08625502094523647, -0.13513413112633138, 0.1453254298865786, -0.08281424580393933, -0.20872477844444515, 0.05882549432207937, 0.05416646735686639, 0.08266189590240468, 0.05640241651033121, -0.1523909546480169, 0.1395306861036517, 0.14342766330646434, -0.026651632144461673, 0.008046303071121462, -0.06071241588037451, -0.10577455196998636, -0.04624889153471833, -0.02018760959264016, -0.04787621546225531, 0.038588313885758646, -0.018416057684464488, -0.056919942112464005, 0.08207296628691065, 0.07404623808650734, -0.10654288852939026, 0.009978945718509491, -0.14662255641558716, 0.1365777445610103, 0.2311481683001425, -0.12224528678743274, -0.1403797664438353, -0.0006944259862952751, 0.07845791067538045, 0.08052834864111219, 0.014434254206483072, -0.007741001981992903, -0.048213590348954824, 0.02433241279314994, -0.009809650288646438, -0.07955599076157745, 0.019169169591121315, -0.2067203367503766, 0.02195986039560896, -0.07342904913874158, 0.021289664361003467, 0.020953648401177184, -0.02085098764242991, -0.12278806583970248, 0.08638218195800455, 0.034785109927439, -0.05543117716061526, -0.014377105589185271, -0.19593463615895526, -0.04814297834684272, 0.06991680211079503, -0.08102136351142149, -0.04777401664609729, -0.048297622029624586, -0.055991946442924594, 0.1155553922830325, 0.03618940287286214, 0.031240652879608817, -0.11512377635221575, -0.11056643617661607, 0.07222234351144856, 0.14460855361276212, -0.07914782666098259, 0.0761183826255091, 0.17253882363748138, 0.011904527851701367, 0.0391407426368966, 0.05318695494388886, 0.12391479162739015, 0.028925356841180524, 0.03137309212732995, -0.12296324558486875, -0.036387150541255395, 0.11445885118992244, 0.20259407549426622, -0.1461010382224625, -0.014107027797093852, -0.007691344649964708, -0.12900634991575163, 0.0846831140585261, -0.012645916827040483, -0.012575457237616796, 0.12644424478245578, -0.02141564238417275, -0.001641606295053613, -0.03241387960285795, 0.0909355199665446, 0.059350037469643145, 0.050442132018824616, -0.08374633859397963, -0.19837681870842397, -0.10790065549800876, 0.044725569391708894, -0.015642180788157392, 0.00011639775666515765, 0.14973439862421994, 0.038756734981183975, 0.0345757029049902, -0.08967035567793162, 0.32320905250131876, -0.022630908288662217, 0.06087761753690238, 0.023543982152805107, 0.1467478135781999, -0.05374233756483065, 0.09278115967575659, -0.07991256550791602, -0.2186918418627146, 0.2142539510247973, 0.05674572337291354, 0.04471999078785151, 0.029937355890913488, 0.11644674376055415, 0.01625788067580074, -0.06440588410880384, -0.06362973228685577, -0.044817844495113196, -0.10675276299555084, -0.017104379851211153, -0.026932066275110328, 0.012152586356688668, 0.15558231945036682, 0.0406410553825021, -0.017148121736963746, 0.016340256866689294, -0.02209018288465611, 0.028350196635339168, 0.01786650258509089, -0.13855848623526187, -0.07897654514936099, 0.043587347809363075, -0.06605674019481857, 0.13802840977558953, -0.017224516712003042, -0.039449631136280715, -0.16264550057293706, 0.1438491766361747, 0.028364254690540703, 0.18825962359998086, 0.21240907040758697, 0.2785504852883708, 0.14783521586156637, -0.006332582361966378, -0.0015312863992264852, 0.05947568392908611, 0.22848160045738852, 0.09207207808656288, 0.07680400055748142, 0.10073266727324792, -0.06442265821123512, -0.05710951204125118, 0.04996477329874051, -0.1226541660559738, -0.05154725628598066, -0.08171150717266241, -0.06436933714833214, -0.07922310394504661, 0.04948800604071035, -0.0772779117446501, 0.032420499552041425, 0.11814729695014513, -0.09771730701052064, 0.06345278093022147, -0.1262546130408782, -0.02379122653639915, 0.009413565090277562, 0.114481082198302, 0.06336597916738265, 0.17818861780657694, 0.09612157514869145, 0.057168440162211065, -0.009731017000108868, 0.02181218693771637, 0.03782375587875654, 0.12049294603402899, 0.06562741661113301, -0.005755743758220643, 0.041590501176898866, 0.017926087581559835, -0.16317002071872333, -0.12040988378919265, 0.02251893137714902, -0.07943668096690491, 0.049705092775195414, -0.1765507304912703, -0.06967969052604639, -0.09250572863834237, -0.0745992939342695, -0.15492233372574635, -0.15931372517704992, -0.3641177969265174, -0.13908071336330066, -0.06137164148587182, 0.11641939535276463, -0.07251676387873975, -0.022580120917430592, 0.13463738080361465, -0.02677141680560477, -0.06572539211587701, 0.05722472054936965, 0.1599136326286186, 0.010504661256022098, 0.05086609472350565, 0.17915268143287733, -0.03604238271207231, 0.15147796829967553, -0.32205566682843756, 0.008155435739316994, 0.010921062791277796, -0.11531497412844434, -0.16637750513969626, 0.007112700519897919, -0.10675342950764097, -0.0033043401228412253, -0.2426953631911304, -0.19646050339479587, 0.08350231053190443, -0.1117579121356833, -0.20288288040886787, -0.27244532953176753, -0.11944786800224726, -0.09268600698471971, 0.10075449919498898, 0.12840482113038823, 0.17873655869558866, 0.17847430921234567, 0.014215928347383718, -0.007282640560094499, -0.23515510718974286, 0.1253088756733748, 0.13787156252507501, 0.4057372003257102, 0.08319078117312537, 0.14625710277195325, 0.23788615171862107, -0.1355229211529387, 0.03088518122610502, -0.08651253286443153, 0.005909666149253349, 0.01189842916011313, -0.11947369199360701, -0.05298266449806744, 0.01794491247513757, -0.0008697265148273813, -0.03386961794288902, -0.1467837591933051, -0.17132419594730758, -0.3066341680533136, -0.22706651417472878, -0.18231651300650004, 0.029749784903479366, 0.01218409764781723, 0.010859617037462084, 0.1089751149060722, 0.08506737262909587, 0.029516872478319973, 0.16174893519450406, -0.07483442494653483, 0.27684019141011934, 0.08093807937011364, 0.11391925732760368, -0.1214681019075965, 0.13637198702367864, 0.054649557842580423, 0.0019655690343310275, 0.025993391812391103, 0.01903418833396358, -0.0477417768735665, -0.16554455139588733, -0.2888748365878223, -0.13625876140725118, -0.043638240824301046, -0.05395101194452698, -0.32572946517339624, 0.11734643842070107, -0.018049490445019818, 0.020556124884728005, -0.021281921918747403, 0.05089562291433251, 0.05308109790178556, 0.13862082941820614, 0.004883839756709418, -0.1238900131631157, -0.13941656900154403, -0.12370895338267457, 0.02126924641464997, -0.059895490638112815, -0.01995595776453435, 0.17268211874556996, 0.10235409916662325, -0.09665715996731142, 0.02884524011958565, 0.04814454491279677, -0.17092943499919175, 0.03057410687974573, 0.05186421821150317, 0.008799096716585535, 0.009543951434639805, -0.01957090512038579, -0.08544517588530044, -0.06301643061630473, -0.03937592250304626, 0.11128573697291369, 0.4511628776263932, 0.38032281691178155, 0.17241443212437615, 0.12095793115601114, 0.09976147984784725, 0.07987644447440266, -0.02102075158463296, -0.13914088056006851, -0.2579232368991979, -0.34748325988701045, -0.0980516349708528, 0.019206486143208613, 0.07445395929669787, 0.10605932636645325, -0.13291305796887065, -0.14134757431866493, -0.007567458632623255, -0.039080774079425604, 0.1066566097586415, -0.07892901785594617, -0.09919597042047067, -0.012041886217971087, -0.12381620984188847, -0.1088041768668104, 0.02819001738755088, 0.15102538395899376, 0.21948617792534095, 0.6705090817620951, 0.5392043943241362, 0.30989010395995553, 0.35903941075970813, 0.18926790956941597, 0.07638846607295595, 0.024863453317836074, 0.1166484825210882, -0.0047681299855528055, -0.17100708113135055, -0.1874918663844066, -0.20115370374073602, -0.0935316606013674, 0.03829082090499693, -0.11331053189805011, 0.019588753287925503, 0.11471545624220217, -0.0007125441534595731, 0.08441030422680668, 0.017949140348099534, -0.11593583549623598, -0.045937647892605765, -0.15095506832782063, 0.042517416985405315, 0.09885803523885262, 0.1461332716608907, 0.39631664600985883, 0.4162445668954105, 0.5226322728816766, 0.36715131465960066, 0.39247815329642977, 0.17461447873218902, 0.044274620781728974, -0.14257733278047666, 0.02832718648113135, -0.2803534706685248, -0.2226580506974347, -0.014171256698416257, -0.19956436219723614, -0.21093410544450444, -0.11156880687905239, -0.14016829791618843, 0.031205982512831198, 0.04096383395889001, 0.22554127132568227, 0.011087611920714436, -0.02322310936256874, 0.14537610846326662, -0.19198916543795355, 0.09386954866076329, 0.02816290697720577, 0.055579659936812104, 0.06404726811395839, 0.1446678132618599, 0.13748361584834864, 0.40534686446848317, 0.41785363158956085, 0.19222538641947434, 0.22014743225819125, -0.07372876820270885, -0.19878608234730466, -0.021322446146616464, 0.11819878918569282, -0.13993445819102898, -0.3461058095136159, -0.13180302014697412, -0.030577174270967098, -0.12914875233057607, 0.17911922719812143, -0.008439656276184678, 0.2110970134794063, -0.15340393315448836, -0.033768356682115225, -0.16537518385131714, 0.0820575666817251, -0.10562356212072929, 0.09369025407495257, -0.11168645982162843, -0.033557151853576904, -0.05393905134266902, 0.09516017383495859, 0.18199647136000227, 0.12653229559481274, 0.3719434170594828, 0.18060093289126267, 0.08298362696444797, -0.0955426052971903, -0.24282928291511735, -0.4790621886305829, -0.18045517043986536, -0.15281597167598213, -0.24345943703428002, -0.027340908499826552, 0.012107321846235048, -0.04988152860918801, 0.071319545774576, 0.16743939047114248, -0.04619190195043078, -0.058098592791472656, -0.11180701739991954, -0.062476466118521486, -0.02626286116235159, -0.04803779961787091, -0.20818120699159648, -0.032782444501677506, 0.16351163908674554, 0.03852973834211237, 0.041300472158501904, -0.025032477429263348, 0.10958525256904403, 0.02997322620811761, 0.10760291514811907, 0.020870326307821613, 0.03564171834202359, -0.2313338278428443, -0.3249816403119587, -0.27017783897355013, -0.01678386142344422, -0.1340573855831412, -0.010595364767771861, -0.035014490140626416, 0.12670460490655885, -0.0001527213377695994, 0.19445023597211486, 0.016342599247438673, -0.11833477042340794, -0.16522362741753444, 0.031113832167160703, 0.005800153547775816, -0.04922533912544619, -0.011042575276791648, -0.016197213026526873, -0.10022391407363704, 0.0020283145200520364, 0.0566715830582829, 0.0725593523388359, 0.11111699958005089, 0.1091863343681536, 0.05418160377229679, -0.21922677982035227, -0.26468001474524544, -0.22959429421659158, -0.4117680901300137, -0.2683868317187529, -0.08512610129930002, -0.035330228871836816, 0.07402353395920652, 0.3075556144160406, 0.06522623703566131, 0.12473914708973687, 0.1771005516716947, -0.029598400323790016, 0.1453117641114003, -0.044836207471621266, -0.11189642103679387, 0.03089730028797727, 0.050368644307555346, -0.05333444015042249, 0.08858372570511944, -0.029992796424226816, 0.0805746900236942, 0.07948109874417587, -0.033346207941983015, 0.1302776760243665, 0.14928971210319122, 0.09239010504948904, 0.12598264888996907, -0.2200815316653754, -0.14316479645402544, -0.27789925869473336, -0.23347836857755647, -0.24147155016337957, -0.1062833019827662, -0.020435279769058585, -0.02099467506407519, 0.08894123694535822, 0.05463205936920226, 0.05453733600377282, 0.12179630014770329, 0.014128400387824066, 0.018274229448942875, 0.09481495637754912, -0.11895991052264138, 0.11099917412927818, 0.025157840068568034, 0.13819343850941096, 0.062103401410505216, 0.16137520437899003, 0.041323995726304255, 0.044746665707278685, 0.17715405226549347, 0.32653461963064456, 0.3571428745180996, 0.037861273297973015, 0.0718300136537888, 0.17520377026738432, 0.02887206857693027, -0.03438115689065903, -0.19177658371856235, -0.015539141363437176, -0.0006897058244929083, -0.10712653445609988, 0.016427961455505905, 0.014733136521479244, 0.2676795339029289, 0.054359342743574075, 0.2129722783370814, 0.20132201794197843, -0.031548115726266195, -0.14116392968168137, -0.148977266266717, 0.16722363195815895, 0.23983036198241697, 0.10378991754185454, 0.009353912739478111, -0.01686684563938897, 0.004507573457159059, 0.004996814910796902, 0.07052234930937208, 0.2626136222023621, 0.28453444317150683, 0.14434657792794764, 0.270541680576174, 0.10657475336781187, -0.06009970145890495, -0.12591494252431967, -0.1506518403892099, -0.02733009819624774, 0.06155367347003293, 0.05514475397580766, 0.0794153252859054, -0.07421197117749266, -0.009572334789366258, 0.1908253401979266, -0.09929998768845796, -0.041364511496211745, -0.04644619510705552, 0.004607988527039604, -0.039752210925312066, 0.04912616111903975, -0.03874826892227345, -0.029746895933097133, -0.16570732586880893, -0.05023019438931916, 0.08647305987842761, 0.15248151233380997, 0.0024223461095282776, 0.10607058795760516, 0.00637234863903849, -0.2508680551256127, 0.201104662300814, 0.2665755080243347, 0.13445354924846073, 0.1860909957830901, 0.07165561150315426, -0.08202428908397864, -0.09561845506543096, -0.07786071516103825, 0.025594773051471884, 0.02518904669555246, 0.15860715157647415, 0.16430785539456302, 0.237025806214406, -0.1593951468631115, 0.09388192844795322, -0.06427807592322966, -0.13535795941299103, -0.0764338873277768, 0.08458021067883753, 0.007219486859883313, -0.012706886989901496, 0.06800470122005098, -0.021299301122628164, 0.12873341218643308, 0.09780609203262394, -0.014271561110054209, 0.017063268258153158, 0.07221927552665909, 0.03996153085272298, 0.05103994328296581, 0.1412476447691514, 0.18185443301664644, 0.07384771511745813, 0.0720117794750479, 0.11770078131490416, 0.0932355871975348, 0.056314849779128734, -0.07465194052634345, 0.06871936597428592, 0.018951820089819826, -0.10454334312610403, -0.11252755028956807, 0.14005459948518456, 0.01335373636002379, -0.02193060748170678, -0.05718348302505858, 0.09085793949359108, -0.06501970238261245, 0.09590776754091192, 0.1765003871538711, 0.20197439918356558, -0.1454705290519391, -0.12180828950248666, 0.10274942210559825, -0.000854972786407104, -0.13444786338602158, 0.19238371681793703, 0.15748262136768992, 0.05739098425993887, 0.20266208175354988, 0.22154822017967216, 0.1949590008955626, 0.08919989561743456, -0.08639686539375947, -0.03419768946074202, -0.042369663311028496, -0.04247450244715953, 0.08029567677506691, -0.0744930226980146, 0.04319671518036778, -0.0695603841968311, -0.10373463206777861, -0.14875343375309485, 0.01172272015052135, -0.027492040847805085, 0.0655231605057982, -0.025923978841576503, -0.028036762657393688, 0.0863454782491315, -0.0788224617614556, -0.020365149994328226, -0.04061818625760086, 0.010278347341120443, 0.10355742641837618, 0.29614128387685185, 0.04459470063747557, 0.14485716444101285, 0.07347066572333749, 0.0749005603589998, -0.024835150256323713, 0.051660065722078916, 0.1638606379639924, -0.12200760480862227, 0.12053321361336888, 0.09184605777547827, 0.03280107812582788, -0.19882263145875137, -0.019334233068908115, -0.10537020926811261, 0.027733135317202826, 0.050113511796217244, -0.08745302051737336, 