{"internal_architecture": [{"inputNodes": 784}, {"hiddenNodes": 128, "activation": "sigmoid"}, {"hiddenNodes": 64, "activation": "sigmoid"}, {"outputLayers": 10, "activation": "sigmoid"}], "learning_rate": 0.01, "network_values": {"w0": [[0.08750660558562168, 0.01825107649299156, 0.03853298033540355, -0.2441953351012794, 0.01632037102626238, 0.007585454282736718, -0.18312981273929999, -0.08517196357675295, 0.14976204506052318, 0.15261311609336115, -0.002298488317323569, 0.03467361458772694, -0.06851763715404406, 0.0895854509237904, -0.18544258707750483, -0.027671123899044973, 0.009710441512531497, 0.01301560512517756, 0.12037647632354471, -0.07465812272341309, 0.0973347309572236, -0.017211743786510466, 0.04451292171576682, 0.22405281529287902, 0.053093183115636114, 0.1482044244066662, 0.08974440703968836, 0.009905766814508811, 0.1383318149668021, 0.1215361490450942, -0.02019968875418105, -0.02117404546181175, 0.06388968448244482, 0.04579621115059205, 0.12230377587561309, 0.012927962455242982, 0.18246206254805675, -0.13103524345903675, -0.1553930460203799, -0.2103405171621874, 0.023625803635674097, 0.19327225557420846, -0.03187166965406383, 0.028440248688295106, 0.06728691623464572, -0.031438638783042906, 0.04671778850456414, -0.07377314418066992, -0.10302451219329992, 0.11787539997711481, -0.09112437077530917, -0.06984788305709579, -0.015578069955334457, 0.06307862787458622, -0.09124262907263082, -0.028502697455212916, -0.12932019683374993, 0.09077261011585014, 0.027096247384436542, -0.019628562899402915, 0.07579479742491317, -0.09887643588755841, 0.03538899401004245, 0.05940338185478661, 0.015205322913613924, 0.1357730642573246, 0.07382631603702096, -0.12503469362750413, -0.06777868148578704, -0.009861475306841025, -0.19685663150442834, -0.17830683504534087, 0.003580548895437581, -0.07977543589046014, 0.0805360285128334, -0.1456720411501665, -0.15827319904224718, -0.016440365982109403, -0.21712135816766973, -0.002438989253119638, -0.04699671094028643, -0.1319010540568058, -0.1801623253367052, 0.03791292070273024, -0.03710411133222352, -0.036835405179757356, 0.0170937716250376, 0.058342748551219695, 0.05574296067365607, -0.1097126815619986, -0.1345955458500071, -0.1602920760010395, -0.11425655178407448, -0.07677253095900301, -0.07069870158106548, -0.06409534444631676, 0.04993104341934609, 0.003988353618246321, -0.1793880241609591, 0.03869881816534507, -0.11744409674082716, -0.13104199181643267, 0.07282350956172766, 0.0017664891357946815, -0.2918007834929365, -0.08157794243422992, -0.04492992035190479, -0.18844191161789883, 0.058281546187037944, -0.057224273753662354, 0.14264419376138218, 0.18706466836616029, 0.14776402877674283, -0.0016068457213346652, -0.21930502751044237, -0.0021455042641655296, 0.07447827047481416, -0.09015362241336793, 0.0018796568602950418, 0.06532353770760439, 0.026762666169429305, -0.18357260562218752, -0.12855574099898368, -0.2624322636910426, -0.1393204888992872, 0.1521013068423958, -0.036001682913995824, 0.030114178146478522, 0.2114205913045122, 0.23495010945560144, 0.24007446437461857, 0.014363769611888594, 0.09785123176197548, 0.09836860823525782, 0.004181264107940545, -0.05255749310863716, -0.16037001949445295, -0.18171077507817124, -0.07087704074458377, 0.0028109074324135417, -0.2190978319057012, 0.13576680618799356, 0.11520348464506851, -0.14654265950636702, 0.08302295970634732, 0.07760125289492445, -0.03799804466407699, -0.008697465867607735, -0.03197985440855345, -0.20480965622513395, -0.13754760148235123, -0.06026992132670727, -0.3233823619486312, -0.20082989058334633, -0.13933738554664554, -0.06982245745332354, 0.15267242927273392, -0.011047627765306814, 0.08922703692612002, 0.12655584791480573, 0.21858705449461885, 0.17148577516215657, 0.02119907375106818, -0.13180152056290906, -0.31841542467449196, -0.08203228938742621, -0.1227910786800719, 0.11131144587908337, -0.007960975942596695, 0.027554735546266765, -0.002361454685315353, 0.1401781708353868, -0.187649859631191, -0.24324257339247443, 0.022733921015939004, -0.07430109940541967, -0.29612831890721597, -0.20885857738945832, 0.022007619236467515, -0.2027335640641749, -0.00040322752914330034, 0.12915896487940606, -0.1324880212513055, 0.1343281681601344, 0.09856487425053428, 0.16820440950765148, 0.26483928238341387, 0.28749516187263524, 0.11153816155804704, 0.18922777246247838, 0.10025198752385926, -0.07282824869284416, -0.026490798956061008, -0.10421086355422533, -0.04567219432672544, -0.17144976502605278, -0.09296214181153459, 0.05378256132466353, 0.04390644622978198, -0.10603619709638828, -0.059914672083270566, -0.045427267028280274, -0.07113633802668559, -0.14914501930010604, -0.052646190684125405, -0.08355169634986029, 0.06879000982264599, 0.039065549559456236, -0.013950022016616371, 0.08196673124305588, -0.07094104848960263, -0.18484195615918383, -0.12875398578590228, -0.10956487804451451, 0.19587622035771624, 0.4644266169730591, 0.4319824846299329, 0.12446212909071597, -0.0017744768076055804, -0.03145901176879864, -0.17268444764262839, -0.30979855305686343, 0.15901624175843868, -0.11824185535324436, 0.15441435460195785, -0.04374332888532865, -0.14216355733213376, -0.1402423872173039, 0.060960373515801455, 0.10068251730192011, -0.15247686898424015, 0.05767250400049781, -0.1002338617898812, -0.006407052435642162, 0.25702935592503295, 0.20266815728739473, 0.1502397699512055, 0.0978895446936741, -0.15323420960632134, -0.38399770086964174, -0.18936090038833892, 0.06164048172637866, 0.317430161048867, 0.4239508367996204, 0.30520575454062787, 0.3770526105301379, 0.1892258443086604, -0.0022784199329780323, -0.29981359720386574, -0.028039438535491203, 0.1669275034254752, -0.009904903973954248, 0.024576926777433814, -0.001325516574790515, 0.21443615433931007, -0.16894119472081148, 0.00932302169422003, 0.13531782239441142, -0.010687037203387702, 0.022470247470164146, -0.07480082541892642, 0.22152617269110136, 0.22370963207387998, 0.06570741039401634, -0.024189750764965816, -0.14840946804950853, -0.30327007616843854, -0.40484793737791297, -0.10201111003868557, 0.18088715119282175, 0.5149355451232015, 0.6071920158586125, 0.3880931489709935, 0.22779340559328473, 0.09475635392753282, -0.13906842350401383, -0.3079043056219723, -0.07309771187101499, 0.056821358269450506, 0.07140865132461592, -0.1303542642952523, -0.03358152771736454, -0.008426685026823068, 0.05974363982268505, 0.07010788981673273, -0.04735575009863105, -0.04535051379804519, -0.028495967460095663, -0.04006657564949396, 0.18406026159416386, 0.037220766089217636, -0.04796428062112325, -0.42874731336335153, -0.6329558501418224, -0.7857864072217581, -0.46570797802323355, -0.01811799067619923, 0.22190328861333572, 0.4509700696282818, 0.3070454264331677, 0.1820042909201795, 0.32908482981980675, 0.1305102518046497, -0.015475174364415206, -0.25404406598828483, 0.0018530183417192943, 0.13031637835330792, 0.051951500000739524, 0.01803708501066295, -0.11094943580399827, -0.060529726117342204, -0.08525442299663827, 0.05733190806706646, -0.08459193975769007, -0.20359627764907492, 0.042791739668348046, 0.14059495888642545, -0.11449735652748036, -0.1185470689950196, -0.2909216027544775, -0.5625909002009362, -0.7416986956388626, -0.6544607527374541, -0.21133889362758987, -0.028494197950985286, 0.2987623904717237, 0.4409213319050271, 0.271304185692955, 0.34565031928719514, 0.1354018629599505, 0.03249139144730388, -0.06264297275547448, -0.20241197154031323, 0.07939991910003599, -0.02026336342898193, -0.0773406105553428, 0.11345276718133969, -0.13957292780125383, -0.03000691267207409, 0.09773465701866815, 0.017386417997329175, -0.13646221037497133, -0.12531217845805878, -0.36278703506987675, -0.001797727222492826, -0.22060551533846373, -0.1734065911658764, -0.28266952083916963, -0.4593643176133744, -0.603875689685046, -0.32780516101719787, -0.08777936848483298, 0.12218908454453059, 0.10902977721573211, 0.2783403752284179, 0.3956928631758943, 0.3813078720261844, 0.2162160523596986, 0.0937442588068893, -0.1666720306998639, -0.16692342165894083, -0.09037638912571778, -0.011560930196509321, -0.007444898738527643, 0.06393789474877033, 0.1401456561444662, 0.061640821931114934, -0.14456138827017048, -0.05583847869468831, -0.09341130488928664, -0.1861215146002897, -0.026336956376892023, 0.021531062783078793, -0.3146352324529999, -0.24744040376466486, -0.08633292916074581, -0.17578416938764677, -0.16304244692011438, -0.07177004448944634, -0.13291785685403357, 0.04279345280602281, 0.3617288990537287, 0.22551902993412992, 0.326104369934466, 0.280805784156369, 0.20048616329158975, -0.08728427385742075, -0.37257430814678405, -0.0530021999864828, -0.05910798192619024, -0.135773001265768, -0.07774737522925661, 0.10985251378338733, 0.05137989638613426, -0.2071755217219626, -0.009424693903085781, 0.17673777685067316, 0.032420265931904356, -0.23619250369828124, 0.06143004221107094, -0.029178939761093432, -0.006300976958422091, -0.10240259830344237, -0.22712183470490516, 0.08905658630173516, 0.13967827488840626, 0.12809080291184902, -0.06378198869775614, 0.08753484877980951, 0.36105768572357383, 0.48883768019143103, 0.27668906072383637, 0.22246436960478802, 0.13084081516132806, -0.2313528117700909, -0.18366349066917054, -0.18878430986911302, -0.21360543088086734, 0.011994348310482232, -0.16086487602973593, 0.02823036355113767, -0.24213356347630277, 0.08349748581823106, -0.10793670192609377, 0.07906173374802909, 0.17834236085473568, 0.1760665951921, 0.03623796080239409, 0.12353387837752275, -0.22635499427935737, -0.30640795196073767, 0.154260461222591, 0.14538441113478848, 0.20591326338006238, -0.06394539751751932, 0.10771525087707065, 0.28761024430252535, 0.3712408290906519, 0.2764936605174169, 0.18610157273669153, 0.04062793725608239, -0.1101774686259341, -0.29941129240212366, 0.020382529611187236, -0.10584081831197807, 0.12116517376210625, 0.022119136084821703, -0.1361824499545739, -0.19312541270715602, -0.05369677962758577, 0.16525346430134685, -0.009214391155430438, 0.07426594559774484, 0.18502744225897758, -0.011046452272116649, 0.10289738097885658, -0.06032063403989968, 0.09928567501014869, -0.1337229142956571, 0.01004437149453132, 0.12325618073140988, 0.4711372710536118, 0.17786626139708547, 0.06899488380939389, 0.28684246159301274, 0.1210055285342583, 0.09142251839501861, -0.11997332855493693, -0.0887196914412614, -0.09785336320814068, -0.2402507459856467, -0.2070464260378733, -0.06697357991553497, 0.011194564949349702, -0.07855110067983222, 0.09406476181736396, 0.03500299681325253, 0.1651275277225375, 0.01241229532643803, -0.1564238520899562, 0.17583956787970179, 0.05003116652543595, 0.05729281590655695, 0.021744022542223653, 0.13427464644895312, 0.018146945122811176, -0.24484835704225472, -0.021975363582963307, 0.22748408831834838, 0.2650275098206074, -0.03779665051750647, 0.10555590388660784, -0.052511673607882656, -0.007981810079809656, -0.04353898870121765, -0.2384123166343895, -0.2922516001277268, -0.25124168062643315, -0.09117739202554255, -0.2564550973491325, 0.0205499767181336, 0.02717651249956198, -0.11807071821075618, 0.011840686172204955, 0.12704914626185676, 0.14482182006361774, -0.1400103575959505, 0.10347393775321562, 0.08379100547714272, 0.1488055469391934, -0.12933546755884456, 0.1166503323026017, -0.06490767069576005, -0.1371460857259336, -0.07112843685991806, -0.22707432623021392, 0.17592030121933755, 0.17950625450333194, -0.05257120275658068, 0.06020488000599439, -0.07157778409469923, -0.2101485848906302, -0.24680182485156818, -0.2517317140227748, -0.17798737142634266, -0.21695734732854427, -0.1912396237093427, 0.046325632458275035, 0.10008050198638088, 0.0966621443878146, 0.1309084128587836, -0.13851085681543426, -0.1567376577874868, -0.0077126977386345165, 0.29447799233663813, 0.11570514570514716, 0.15505226559775045, 0.1886768925784716, 0.02749886013414814, -0.0031879107640555354, -0.03780063845489498, -0.14112933027823904, -0.28510585867172, -0.09419811244863736, -0.15997285297839883, -0.0026214267293081643, -0.030838227610510142, -0.2378295046317004, -0.0807667828940221, -0.16107862160740608, -0.19808689605775237, -0.2879099065903798, -0.34065058408367044, -0.20794974621222298, -0.027511923156568304, -0.09838536537296638, 0.023861067416838303, 0.04133587355407299, -0.17308326567445712, -0.09202464151018983, 0.093590727392446, -0.0071006953300281565, 0.030323374267599748, 0.08711385346472315, 0.12200718557240858, 0.054072648108938394, 0.06704286757103618, -0.0015172549978621347, -0.10140680982297304, 0.05950748757557209, -0.046513224181515975, -0.024523200518302764, -0.24011148038511693, -0.19086525940547616, -0.08387594944105059, 0.14537489431135475, 0.013575655947154677, -0.07917108085170739, -0.3149044691704849, -0.20011154540598647, -0.03283066693500177, -0.04811144013374958, -0.05379132856249125, -0.02860376697102578, -0.02947713435138952, 0.03469431073641053, 0.0220824596182594, 0.023471609588100198, -0.08928128165785605, 0.04240813111687051, -0.07093103554517485, 0.05792389137333795, -0.007285241727354657, 0.029276979572047303, 0.17675768494769473, -0.05733130168555857, 0.2411501767569324, 0.13341623124554, 0.06057628368935368, 0.055105119239343664, -0.08084780014755559, -0.03881176715800238, 0.05919722656958066, 0.06716465032149743, -0.05860291653646148, -0.35873214464224706, -0.09130117717879767, 0.13520739501819035, -0.2406164575147127, -0.046749345542371756, -0.16611413313444162, 0.1737176970466024, 0.23150680162654144, 0.07127330808234476, -0.07417874506286597, -0.05314848720975877, 0.1368060775157186, -0.04036496482624124, 0.005733484390625677, -0.020903506739656057, -0.044921887758981614, 0.033918113421994356, 0.12985070994069983, 0.19887273093402497, 0.038024045555252226, 0.19953561601983344, 0.13145863147404283, 0.09105163339733818, -0.08322778465350857, -0.1668402247745817, -0.2733865633988646, -0.11414029951710829, -0.15090284069335916, -0.1559056430235098, -0.23944768026411717, 0.0040394882012937, 0.024876813667032035, 0.1346095360335975, 0.13130681340097647, 0.15093996669285592, -0.010343962324568539, -0.07953224358847769, 0.18603809804968904, 0.0037923640308782504, -0.08384689594175616, 0.02410668518134186, -0.022614658397319656, -0.1481944399113771, 0.1406424983876618, -0.07046532023581412, 0.05971006352151088, 0.06620271530458281, 0.22202086838258536, 0.1542516213657695, -0.17954200415030735, -0.01743907191049693, -0.1778743694130339, -0.3039799465630816, -0.139030611074493, -0.04327058985290818, -0.4707225072932485, -0.23061139970613373, -0.1334744794764235, -0.060079612568927736, 0.25239509055213777, 0.20158509739594282, 0.08991090517122775, -0.09186522703060984, 0.04354622982358277, -0.001920329312479811, -0.055830810224006745, 0.05628325638543933, 0.17593014962902068, 0.05751065453009627, -0.041966443309628294, -0.06074238961903879, 0.13497485400418507, 0.061493672702802094, 0.0506044980031113, 0.07918537337184527, 0.11540829036290204, 0.032442853478228846, 0.15507690129511958, 0.13234807948615163, -0.28584199837651714, -0.17253363425726237, -0.16094535156465703, -0.2633275320021014, -0.04919990745690802, 0.08518641871281299, -0.08110104537032378, 0.12642762847131592, 0.11977346497361768, -0.01680451912520347, -0.040229867393847867, 0.05031287784774061, 0.13390328266082466, 0.08322913193044004, -0.05887873479879488, -0.044814719201025324, 0.005716381758024265, -0.017535606138324927, -0.16733385102097156, -0.042807049845521396, -0.14950015803302255, -0.1402871147380741, -0.2217493180529271, 0.06300782532055833, 0.08470189820962261, 0.041461499126034654, 0.13326276813461008, 0.04219964510528254, -0.027363897352539662, 0.10273138406136459, -0.1093248919319178, -0.18020903505226843, -0.2697533456851886, -0.025083722855241127, 0.20200956853123658, 0.08520773562350474, 0.08561685842901509, -0.020521851360398864, 0.1111203304600058, 0.0637367019365493, -0.08469061430690379, -0.036929407070266075, -0.09404942824427187, -0.03228517972959616, -0.023911586025385467, -0.0642513024358278, 0.06718799188350828, 0.15354962814481124, -0.08653200674698265, 0.18326605567241155, 0.10395083875443788, 0.007593630807434994, 0.20812840050942186, 0.0959483007559514, -0.08580973328394688, 0.04765270669520886, 0.02341756753358568, 0.05203253744506608, -0.11079588252236862, 0.11375555394572834, 0.05047047895703001, -0.10154943829554298, -0.07255709504837385, 0.029565784186719804, 0.11326850483314078, -0.17453674228761987, 0.043941303951934116, -0.06449393499185348, -0.3665394134736505, 0.1316742250019463, -0.09040595223137528, -0.12398901113147645, 0.03319036782591801, 0.021063072798633318, 0.07297547530913753, -0.06607513849549268, 0.0008321303349687996, -0.0761813770227489, -0.0794512544941784, 0.2016327588778934, 0.1579630757058487, 0.034648675130815466, 0.0629753992489007, -0.04146898451340671, -0.10411542958540917, -0.2149527665912045, -0.005358503175247604, 0.01021971905460324, 0.014041231598563944, 0.0940454603962676, 0.01871247035571054, 0.011260426511839, 0.047435729166848184, 0.03913773448036364, 0.07048559814876505, -0.18143396252520178, -0.2603626721257828, 0.09445455832009081, -0.11223757491137797, 0.008304693893572274], [-0.05512798996020152, -0.02790125738646486, -0.06905648071216172, 0.040034034960713887, 0.017830133025164126, -0.17026131874470923, 0.016044646150922194, 0.10985297605686616, 0.1386451572313983, -0.21180509609027603, 0.15025276173160726, -0.02151142457005248, 0.025934937783821818, 0.06393092662887058, 0.014908620525668635, 0.11749955555286742, 0.204391896942628, 0.05043485011205837, 0.13721332584802415, 0.144110330969649, 0.05284670591085331, 0.07178817754314769, -0.12827214303453202, -0.09620631659447647, -0.1240301903518356, 0.10147137458164557, 0.03899872131337284, 0.034543725869325956, 0.038550555069711084, -0.028519102820391037, -0.04837019298864942, -0.04210498371505459, 0.03653380841157676, -0.06670469551266944, -0.07738155287554288, -0.07239911664734894, 0.28436685267060086, 0.07367064337361469, 0.17850532060433338, -0.0647586660758993, -0.1283813769586163, 0.023875779182792434, 0.185540424080066, -0.0893005159313503, -0.035687914895647425, 0.1905824135742311, 0.051171680789212796, 0.11679523544774, 0.22477387982209518, 0.08437366418547673, 0.06015020554775173, 0.07350564947195849, -0.13119580722947138, -0.0360492989811219, 0.0023520586540728226, -0.050371478186708785, 0.027078841391200644, 0.05692233979655259, 0.07728405205176823, 0.15551378052644105, 0.1374356994222, 0.18907753899861254, 0.09487109915239245, 0.07495446997342059, -0.07934767396880679, 0.099181941569124, 0.0875795333200839, -0.1386022949040403, -0.022461634416420337, 0.04123674841251113, 0.12702109120423488, 0.08329881058899404, -0.1691553819946563, 0.05576107171618167, 0.03607969189488703, 0.10456439096970671, 0.0013097216299276715, 0.2438982161804365, 0.0021729888651335827, 0.0994058159350501, 0.11499697821515426, -0.010626074667427205, -0.05675184355482297, 0.15516088751914375, -0.06654733404455365, -0.0004994155591466224, 0.04539818866109196, -0.022072555841159223, 0.10957260982498722, 0.0037439677568623176, 0.06908335664792488, -0.1198028845798058, 0.11121769320932444, -0.013281117977155468, 0.046272219348607015, 0.05495710617638263, 0.07513647417007911, 0.04525355607345934, 0.04780136797318392, 0.08004078428503328, 0.047348766905682016, 0.01993123566565102, -0.06970647665668363, -0.01909865108361847, -0.16483202102248748, 0.06050428653078032, 0.011289232120301427, 0.06393514120501238, -0.02350193365238733, -0.10048678921745206, 0.06720276441174165, -0.02046195940512902, -0.08986540529998849, -0.15166764420600828, 0.005239623092193867, 0.10588027012406673, -0.05038985628062594, -0.0022717981438590213, -0.053973826355977805, 0.1739098094670136, 0.20628096511871497, 0.07640183487009307, 0.17695141176495355, 0.038143393210194956, 0.013801274527868656, 0.13051989913136502, 0.0960061814193378, -0.017559867539033828, -0.2286120604842911, -0.08506825681469557, -0.030178415279700214, -0.1587984835131934, -0.10526737525769891, -0.06328432271418725, -0.1289980036869323, -0.1334800554711939, -0.0315171734973228, 0.20660805829850273, -0.04283182108281901, -0.02014581765363037, -0.02060003976365253, -0.11112814949909398, -0.13896230812689464, 0.014630598644631773, 0.20487944598897437, 0.19899802041408512, 0.1314317695587176, 0.07309642559770484, -0.021180190381493328, 0.2208885046044458, -0.06302260048697611, 0.02771127886980989, 0.02864478133829205, -0.0722083701336434, -0.04660648564690641, 0.014022089569813741, -0.2371386270597507, -0.2872388438713981, -0.12485453894762696, -0.27446160981319034, -0.14178289602491234, -0.11666917741814736, -0.21995543496044662, 0.03419236962070852, 0.09649126006521387, -0.1306577483373958, -0.009168593354357492, -0.13384841551110382, 0.015708170655345768, 0.1435978495708071, 0.007701741763778467, 0.18426733348047836, -0.07036385538767839, -0.016566176841713277, 0.06281411746362772, -0.1835683835658903, -0.08197951482519507, -0.12675921376871552, -0.05305040824377631, -0.012233453441758663, -0.0004030098071406914, 0.01087409014808291, -0.007661239137648916, -0.014163683048044239, 0.03459025942083517, -0.11593601917416234, -0.1859168156299079, -0.35737885952508014, -0.11450392428728963, -0.2127662863169192, -0.26968115428548317, -0.07908414224646727, -0.09204875638003089, 0.14593770253460916, 0.0014845580844399066, -0.03820291812087822, -0.08692223256846109, -0.11490006969605204, -0.06687353720088667, -0.06631516278643844, -0.014110873225037773, 0.00595944289931067, 0.06989796200992204, 0.07940375965298224, -0.03275359925603621, -0.03107651942624201, 0.07399169811066222, -0.05508416191835519, 0.06225992471501444, -0.2317203858923071, -0.031463936128651816, 0.0305606581821035, -0.12543155083963864, -0.05195737394219246, -0.2721121738631558, -0.2809586319382112, -0.5047897435171013, -0.08993832360145144, -0.16652503207414418, -0.08519637946480212, 0.008220313129615667, 0.03782499714560606, 0.024609417037652213, -0.19630197273035002, -0.08863407372433126, -0.14092622574918692, 0.1219114764658801, 0.18937358981153132, 0.21427982106007787, -0.008469150848604034, 0.03103116254780959, -0.13967446996312655, -0.08597641656968273, -0.13638795835535875, -0.2401456426721268, -0.10212991909973884, -0.07450904150066576, 0.09575338551267018, -0.1295241467161745, 0.005313611112807531, 0.05410781950361156, -0.14213197582523662, -0.11225557132645517, -0.362619716158998, -0.32770087682216636, -0.09371456445064445, -0.297252177532951, -0.01169487329643219, -0.12285660882588902, 0.08872097233836337, -0.17631228577341776, -0.13073283815376424, 0.02646855718009853, -0.2719267823286276, 0.010104531642899954, 0.03207509301081492, 0.11621623365004691, 0.23316651038813277, 0.06375623354700585, 0.09984654621841342, -0.11485725932274823, 0.034106991465337605, 0.007652237771154308, -0.3391544670815452, -0.14963162214571726, 0.2154137795658883, 0.3386192846484049, 0.151732520907662, 0.0010897006647911179, -0.13141864191888888, -0.08206401108410497, -0.1852149984280695, -0.09735589015647451, -0.23612179156974367, -0.1258819605325678, -0.1250644052682014, 0.09932039273566215, 0.0299334879411752, -0.06434803256008752, -0.060488863882552486, 0.0734918398343001, 0.004036317716875619, 0.01939161157057403, -0.08130480231380383, -0.03410818015289508, -0.10963284441585189, 0.06693359368000011, -0.0029148513987846823, -0.027023581689200694, -0.18079753504130844, -0.12386914448599777, 0.05398472555569584, 0.025793945133350878, 0.41170209676910885, 0.3962833681615271, 0.12730444707956026, 0.02635281220468685, -0.19881232636458532, -0.2039328463331148, -0.15056052538721826, -0.03888457222800602, -0.18031287751212985, -0.03101630981976618, -0.15498498009618092, -0.2518950371206098, 0.025831236289838924, -0.14277433130587433, -0.044786910718246774, -0.07383219528548504, -0.03908226609431928, 0.019333575288219662, -0.11077238747019547, 0.13731461789039034, 0.2504893804133982, 0.09414618993586168, -0.11062068270963592, -0.19965012883154168, -0.15093891176644808, -0.037057261664726976, 0.30550792895565043, 0.14381715524286126, 0.25667949992063743, 0.41893593139055335, -0.09381750951253899, -0.0032479990933402614, -0.08234940429108198, -0.12678870257195196, -0.05740324664127507, 0.023975482835911822, 0.0825249517569731, 0.08118112147281228, -0.06597829915390539, -0.06856452975472599, -0.12812808693069047, 0.07833829041497169, 0.04942618533722206, 0.1145624566419375, 0.2445563541762098, -0.09133068672510002, 0.09087770213900087, 0.20374919959473062, -0.2256235201995757, 0.014336310287262245, 0.031997207243947626, -0.05688462297838319, 0.01396207578862455, 0.06860522345993772, 0.054969440211614054, 0.03409278442886036, 0.08056726984039746, 0.23311172019282997, 0.002433351348094614, -0.044342232096237444, -0.11688140673994853, -0.09529080675706049, -0.09378098749073192, -0.13886457805105318, 0.006274593449207225, -0.06693128287279108, 0.06983202101383064, -0.003958611587856923, -0.22978926276147005, -0.12994810439110754, 0.015412798602715355, -0.13103968412247452, -0.017977296593539947, 0.01980720040817136, 0.0743259975574425, 0.0037503470584958846, 0.08590411179040758, 0.10606081189119404, -0.13317099361016344, -0.0011317621862998934, -0.05398708385238039, -0.016044049401298173, -0.03655149631696319, 0.09399187374168483, -0.019483362597087772, 0.03972174490091962, -0.13651897001274244, -0.09298063827466084, -0.17031232599978763, 0.055351787876756195, 0.09372989336016381, 0.1512227751498577, 0.20515133807897706, 0.08138669495411238, 0.10502010420232413, -0.13091100726137975, -0.08644441244649688, -0.20207381694150212, 0.019217626462383577, -0.08354206540453582, -0.13015324624003682, 0.04489662833540055, -0.13232329635047835, -0.21846234876052895, -0.015596137271793296, -0.02758605199857623, -0.23078793100128278, -0.00685455691245415, 0.03926661777265289, 0.0948537860646706, 0.10802400363317069, -0.016083715007630936, -0.04572498596516559, -0.17979245605346894, 0.0368897915801428, -0.15831219729101023, -0.16211791793829292, -0.11884062013027383, -0.06493680649211059, 0.17484565096455854, 0.21773076638535127, 0.11007816261977443, 0.13855527873409118, 0.07006686917366471, 0.008373056067647013, 0.012176472395014699, -0.1520019898425258, 0.12256724832610393, -0.0995946470086312, 0.08306736569600252, 0.06525002094521916, -0.03454577211332468, 0.036847643907073076, -0.029580209932697298, 0.01476745898173172, -0.05114768037806229, 0.18184749724039154, -0.12973016523108102, -0.13940948542957307, -0.15307014983635228, -0.21152546523327045, -0.126043866840859, 0.0226774482033716, -0.21486024092847616, -0.0065400017135824285, 0.17710136305789212, -0.04319899065281567, -0.06279232322313558, 0.20261423041938675, 0.03848120308954427, -0.06480446157701068, 0.12560275074059027, 0.04065467283836183, 0.04198038165159437, -0.03278764583006269, 0.013086729331148284, -0.11319673652596914, -0.1416301233082201, 0.13593031886587578, 0.08042757329671779, -0.05896871043432066, 0.014735664844936054, -0.0004858031388928844, 0.07253053956936681, -0.16505166814295139, 0.2159480525692298, -0.03716417176050819, -0.15374076294684336, -0.046366838784021674, -0.10989473492327, -0.19918503272323546, -0.06889842636568934, 0.012013583963144869, 0.1407068371878033, 0.1463980228193386, -0.049303349419916244, 0.14054060723856746, 0.251394460214084, -0.0025998709074457195, 0.06081861080131977, -0.010477474259507132, 0.01805676883045715, -0.14069080604842962, -0.05326646148532969, -0.13035997095863358, 0.08219660973811616, -0.042683946429143235, 0.009105966781532299, 0.017517467239524305, -0.24313952184132137, -0.21546462607416714, -0.17124756383313738, -0.009690863280808277, -0.04021454547270592, -0.06320957000752904, -0.18958635837894372, -0.423671032313999, -0.046212953343025595, -0.18400893936378032, -0.04404170328064029, 0.05591739470350431, 0.24420705497551592, -0.09541961648529129, 0.1356147675016937, 0.07677281074828365, 0.13538224273113353, -0.046244736934438056, -0.0922144430249987, 0.06144469851068725, -0.1296231079955535, 0.058835450049967604, 0.004055905523585254, -0.018808958488788774, 0.042208576867107384, 0.193037452328571, -0.06586531875858215, 0.06659848578390652, -0.19101396224363068, -0.008067037548173624, -0.0016234480281398977, -0.23614771697510617, -0.1781624338131945, 0.22650197198183686, -0.2339862059279186, -0.003524245690615701, 0.031670667539443365, -0.03366679880587922, 0.11386690728074865, 0.030445877044206652, -0.002107455657773135, 0.1469505073558902, 0.04968121533693833, 0.17463137000096557, -0.02057175395207838, -0.051739011543136905, -0.15843168507332472, 0.12316593644271986, 0.12405925398420682, -0.07466859075265993, 0.018442063284251384, 0.09442195547322539, -0.1042281808594119, 0.20300095975195767, 0.040438183767877056, -0.14858133800056922, -0.00883185933929296, -0.07385827818344354, -0.004680660998197783, -0.07986482436125526, -0.10410361761600738, -0.10272589014014005, -0.2117276704157181, -0.06857808699534379, -0.12786925051159453, -0.011961666821129379, 0.10383806567561125, 0.02717254247286641, 0.20253369207107277, 0.1508211121684751, 0.028398383736785358, 0.14765403836418536, -0.19198324136968653, 0.030432038443662275, 0.0965851687423321, 0.013222524587498913, -0.14515139149725298, -0.1406357413585773, 0.035658617333917945, 0.10336425659353922, 0.007005812557861383, 0.0316861860372206, 0.03488342966448904, -0.1241947051321602, -0.13321301426086368, -0.32518888044368005, -0.2874352838857554, -0.25622486385596926, 0.06417553523692902, -0.13066328637160823, -0.1504416434432074, -0.1590691276260539, 0.13122134920261816, -0.08068527058698989, 0.04006899080141542, -0.026495434334058453, -0.10098187767434466, 0.1362028017805402, 0.0707724509511232, -0.0615326265103353, -0.035713259976285654, -0.1260341111826825, -0.18130418502735915, 0.0435975336490406, -0.07322288804173249, -0.1589337630959577, 0.10201878082762061, -0.15051074343120438, -0.04788287130179522, -0.07423436319688352, -0.06657649590995832, -0.1932663059705895, -0.1826045240186958, -0.11911150869933308, -0.20896723513377838, -0.15875072773170962, -0.2744995052166161, -0.06908707103144086, -0.0933381617460485, 0.0667251534700234, 0.14215254441118652, 0.1509679867851848, 0.1932823440396182, -0.013976151575185839, -0.0003617023746413311, 0.011730834132673649, -0.10509409045143096, -0.01151869176234839, 0.07931179631721065, -0.19983362676269262, 0.08480608542564415, 0.09714596405742221, 0.07398001623153422, -0.06384187767010087, -0.13388885264590583, 0.009193511994798322, -0.0203119256933686, -0.06504521729854804, 0.06626456225335414, -0.10455237467751143, 0.043465346495201486, -0.09936616070754445, -0.4071635428786598, -0.22891744038423986, -0.14146974125167364, -0.1561635915396212, -0.0751364336772193, 0.09940448886318297, -0.020334307649467132, -0.061037451246040944, 0.03104908227748964, 0.07060882679715809, 0.12242816537705946, -0.01712038894610831, -0.050459646308129796, -0.21416539948479946, -0.01756286043561748, 0.08969052838777317, -0.05319527580347227, 0.05256866186090458, -0.01729943720115802, 0.1411471290920519, -0.02259153527026525, -0.01724959077980494, 0.02541108080479285, -0.06559113273948841, 0.1119940410062614, -0.0962031299943021, 0.03240186670226528, -0.0568933802651014, -0.08947697480445127, -0.11297580242793273, -0.13262552896669325, -0.1661594505292357, -0.4036821543657517, -0.046996576431822604, -0.0164304551330447, -0.05040654008485046, 0.006773083182212564, -0.12757241811115433, 0.17929158344844423, -0.034014691409336655, -0.09476690854800503, -0.051523372498750455, -0.0016553350059999295, 0.08021310452130337, 0.02561261090581953, 0.07175811952808372, -0.10485853178914957, 0.16834628943802488, -0.12880646997835896, 0.03270179150754287, 0.09160507482504576, -0.10878998696235644, -0.08984827001778031, 0.047837308105518554, 0.18636099884602134, -0.1443531247728031, 0.011903368613612918, -0.1572130625697104, 0.033134987915471835, 0.0106990337868288, -0.007862957957206798, 0.16599465478144526, 0.13644623795376282, -0.07086599923571356, 0.03498513903649516, 0.027515172637383067, -0.0480715015680726, -0.07116060061027696, 0.06218761003995349, 0.11388021308148925, 0.04048991018130932, 0.03139399773087602, -0.019953199089605363, 0.12577923236943417, 0.010215220922012536, 0.032955235241030494, 0.07768273025004262, 0.03215346053496567, 0.08352554967320783, 0.048385084401075786, 0.11463683440578094, 0.0022869068847026614, -0.1462565975086719, 0.032890490868585566, -0.14812018669154775, -0.05163040759002253, 0.16545951241519852, -0.09628161474271607, 0.05909755653936247, 0.03423021313103536, 0.15393005869732881, 0.18894408599443974, -0.10949443075485582, 0.17546115604700177, -0.11300625220959669, -0.050176756932039004, -0.09825430926671531, -0.17506566963470396, -0.051323260079929156, -0.07782113244421247, -0.1077476450989298, -0.16511759374948726, -0.03147803353879944, -0.012998513636944056, 0.0919170014518205, -0.09566201240585331, 0.07083067034846466, 0.11968114784049813, -0.2607452929308058, 0.06865334816778318, 0.05571927096442205, 0.04805724088423142, 0.04692141038006064, -0.0011643664578882224, -0.041809426988705815, 0.014349434273103881, -0.17053051144949502, -0.16519449220282037, -0.18237677042497163, 0.05964291837012368, 0.009895580856122412, -0.09030709605507457, -0.05797328311797981, 0.05117057192377539, -0.0977670725557858, 0.007629273517513617, -0.008225103354081876, -0.13741627188794237, -0.12331939004998076, 0.17366276297197697, -0.20343974289663003, -0.11241698758260375, 0.07479161470252126, 0.10038422627769956, -0.013386764840655627, -0.055216504435523985, 0.05706516733636, 0.025986701029703463, 0.165774574538248, -0.20015901279524778, -0.07597897436558196, 0.0041780240427716974, 0.20106426204675126, 0.11751742878093759, -0.07136733503614232, 0.021418028995226587, -0.05387878004536869, 0.22207438604505628, -0.12310139267404918, 0.12448511495003803, 0.004034461988256707, 0.05695449045055438, 0.007438769878178899, 0.04889662258195471, 0.10218272606633867, 0.06722605779546872, -0.1921462636089269, 0.14755683423307434, 0.04430747322945799, 0.1829527355727301], [0.22407592346824534, 0.10232268074401603, 0.10177018330951573, 0.21569771379739278, 0.10823422903376743, 0.02160599256385394, -0.09648250488137093, 0.1252971725265691, 0.06770493521092545, -0.07082243322420671, 0.031056399648902756, 0.019475790967520907, -0.2429875687144612, 0.01462965286100834, -0.030295454945604715, -0.16232742550376508, -0.022047600027335454, -0.23383517600391795, -0.1709849892329065, -0.02734829029598475, -0.06315958004073625, -0.05122600835819896, -0.1771815579829208, -0.06652152481377743, 0.008267413335570462, -0.01667890032983337, 0.06207324431108249, -0.18938892054691214, 0.057494284440061785, 0.07279629891783213, -0.016734726344813208, -0.21496271944976983, -0.020259547979558964, -0.2025780092547538, 0.10728793133232417, 0.02594631631180712, 0.13409505358768217, -0.00419269123545136, 0.13718068463567837, -0.11762754751842792, 0.058031784348497394, -0.11957044364054446, -0.010959691789220837, 0.2064963083474879, -0.010735470904067013, -0.056992291889975316, -0.07624888213651555, 0.05695477662517508, -0.15848436626063908, 0.09108435312729961, 0.09157448897331291, 0.03543165822736615, 0.07737958732124511, 0.07587853492301166, -0.2000962063694312, 0.13391180553628884, -0.05876807815622259, 0.05706962927835677, -0.05645727074952486, -0.11904642392488098, -0.06940372587774035, 0.10312944929336015, -0.15883074882799406, 0.09262848451190439, 0.059124608677107934, 0.169008347819023, -0.0306582586931571, -0.07185507816150945, 0.11981612028675416, -0.14907270368747166, 0.09131572774534982, 0.0958385740355955, 0.2289066240628755, 0.03634507282827179, 0.13863324559931675, -0.0333624165103189, -0.0077875688614610465, -0.005901707110310178, -0.10293019717105067, 0.0813495251253167, -0.10734700289382483, 0.019871945153372206, -0.11856687645446173, 0.12579016217136582, -0.02425947630285326, 0.07752078281999567, -0.17645434037377158, 0.099619348080845, 0.04302935824554719, 0.06467595363695126, 0.014212105441538007, -0.013721420217436298, -0.07234853561204092, 0.05827535982711064, -0.1274455938317327, -0.06031342776405046, -0.07502645316198975, -0.1784101234418898, -0.11031717951535519, -0.20279541986012695, -0.046379886297675824, -0.01046679225658587, -0.09360297111204527, 0.21140567300731108, 0.06968137178767951, 0.16742255753720026, 0.03498150720942596, 0.0014403610632903866, 0.1657403674712687, 0.16720028871586187, 0.023827480758317577, 0.1664557879571271, 0.0024885554383569583, 0.11291967407171108, -0.08900051513997032, -0.06657487218151471, -0.13975139928702163, -0.10611485220158648, -0.20037417742567346, 0.03357852478825484, 0.07802513894946371, -0.04860544588028304, -0.17322850326635716, -0.03355963734282035, -0.14350754821171247, -0.06669380357301515, -0.08557060554643396, -0.11994817866194314, 0.12684227716669721, 0.0547414970032108, 0.22912126356202453, 0.10749232369499133, 0.36679493389422035, 0.027480536908977254, 0.0776874937164127, 0.07988467835717443, -0.009330007195460746, -0.06525401012467938, -0.06294742471140376, -0.15381232099870268, 0.0518039690116103, 0.007877910027434048, 0.009317955608464367, -0.1013152440947387, -0.003211435971336656, 0.07699698587634382, -0.11238726690184807, -0.013685157465546577, -0.07482709225299455, -0.06367308649597138, -0.06331917699659181, -0.1452072149600138, 0.00927911314895519, -0.23280721802523205, -0.09912109238761281, -0.0958476021495895, 0.09416341284137546, 0.23425618083819952, 0.1953821862123714, 0.015350085388149628, -0.03265076785418014, 0.011094326955160072, 0.07594427488304994, 0.07259584114164834, 0.027459340804364775, 0.07694528388600473, 0.10592216178705896, 0.15825187883097733, 0.14685798964709262, -0.08604514463076768, -0.04088655800858285, 0.08034491026833998, -0.26915277460266035, -0.13348495967789986, 0.08428653306252498, -0.09136008409043737, -0.06662417567853128, 0.1169989694988521, -0.21076486429646682, -0.04313935550326445, -0.3929843941435708, -0.30611717106706954, -0.19971346182556066, -0.20967220939401832, -0.11853880846786796, -0.02185909217306103, -0.28403635127431526, -0.08261128296316914, -0.12970825275697212, -0.12284044912992148, 0.0904474208232222, 0.2369684907462276, 0.02938736433000788, 0.024343522583050326, 0.1701909440746646, 0.09539618137135732, 0.20064889149214352, 0.01448985667701722, -0.14572205425315365, -0.2792319521658703, 0.015220303632219429, -0.04839950325516149, -0.14428032113447184, 0.08469247129548531, 0.07975938257746207, 0.08645829407981336, -0.07448524492795493, -0.032693896186720535, -0.25464382337363123, -0.35485383342445065, -0.519605381697996, -0.010442238692920327, -0.16259853442227504, -0.1605392846719667, -0.12053472343913889, -0.26007174647541703, -0.20280078231997783, -0.13807504205986212, 0.1042195976520194, 0.2569235822632451, 0.02507187970114948, 0.07249643299971459, -0.1624410688276916, -0.13602961978365558, -0.061092712298242556, 0.08536711696746387, -0.050742472066069584, -0.05522228794142223, -0.13136862245264705, -0.10782684293462187, -0.24591806286190365, -0.13043649992261322, -0.034816775917272266, -0.051223822909840976, -0.029113429144932382, -0.13398272816455584, -0.40499740561482067, -0.17927751395088193, -0.33252611930878306, -0.24872182384741393, -0.21525458664636016, -0.2522609612246417, -0.25731518385873786, -0.2810665652903033, -0.3431502827069495, 0.03267669002836005, 0.031077975938571607, 0.08055113444728806, -0.02962426442401507, 0.16223836627232083, -0.07837314833600198, 0.002268821817218683, 0.044576510050097315, 0.011816334092630467, -0.18647122385087456, -0.08283718689633705, 0.061007241679633416, 0.006144446846944844, -0.21607607802670228, -0.21126281131944868, -0.19748635204829498, -0.09677516154742853, 0.041632382320743164, -0.09787797719067383, -0.07308059056776652, -0.4154708125767213, -0.6716171209818381, -0.24174547409023525, -0.07652033633362534, -0.3905465046699112, -0.330984395148942, -0.19437580655619222, -0.18364568094643843, -0.23792451570632714, 0.09804097938599052, 0.22314525873703422, 0.12958072153624065, 0.06640211320997294, 0.04617878980825511, -0.0701143058224382, -0.14204730640864183, 0.027549404239034694, 0.0005021761696593808, -0.03166653100673089, 0.005008149006858022, -0.07634965530459614, -0.17300935533384085, 0.0711790617617975, 0.13101464814749206, -0.06571261718034026, -0.01706696756376948, 0.05195344097975397, -0.14145369237704708, -0.4315739256271481, -0.35485633550404205, -0.09823287711768215, -0.15354749454258004, -0.4094889043672204, -0.15624187448158308, -0.17164480578859678, -0.0441076964313506, -0.11928826122170677, -0.1392498874922135, -0.011748743199902883, -0.19053591442054324, -0.0021791743271797753, -0.02703015197316673, -0.007147042082493682, -0.11318171651722558, 0.026668922234995483, -0.12560417171280527, 0.051046591998568286, -0.07867089681455844, -0.23482537818713364, -0.21992338922141477, -0.081212688899322, 0.035687394561975845, -0.07002645621969478, 0.2476498691861823, -0.17908497589169917, 0.08658800231135676, -0.12379344296304522, -0.3881204007531742, -0.025604764422506466, -0.11839206510196834, -0.18273112515188572, -0.37016733862752466, -0.2690040170112955, -0.1590181554289147, -0.23504550688343775, -0.3301759109620971, 0.07425408607992492, 0.008689800665178441, 0.059568072399113686, 0.03922647166146965, -0.07361604412880873, 0.08070099752319153, -0.022201598135122357, 0.004134348442431916, -0.008736958706251914, -0.26572965330511217, -0.11742384054352263, -0.07587103719535827, 0.14841595345960445, 0.3103204491092208, 0.0755462140988108, 0.5219288145232959, 0.38386997457483746, 0.24576893481262257, 0.02649181737512307, -0.3208121880371678, -0.0022299313976559708, -0.03134692699990988, -0.17558075929170103, -0.12902620890112337, -0.2454592876002736, -0.2577123801241574, -0.19452057041235316, -0.08449015581314318, -0.10019055487559651, -0.10515871712196259, -0.027511829663485365, -0.07848832942349264, -0.1217030191860149, 0.06434948736273423, 0.0032676047738609748, -0.03936476677998218, -0.030565802553666626, -0.14627748735584817, 0.13158340741274785, 0.072571372973435, 0.17534838006945483, 0.12107298791697439, 0.06617064085162346, 0.19384316185351633, 0.3750227224100263, 0.27612100054348065, -0.13545416205238925, -0.3058321603216385, 0.06765832604957207, -0.10068978270382505, 0.022411199687519902, -0.17231015711848713, 0.010977261873564478, -0.17075535607962722, -0.00039171810177904737, 0.07975977993498642, 0.011362834944984024, -0.15285829894266983, 0.08443298776627209, -0.04138006111881162, 0.009363549012683905, -0.06904383800994839, 0.023798965037828294, -0.15172243396017165, 0.023211279797224232, -0.0039625339887921565, -0.0683525971340235, 0.16175679280353022, 0.25927587284638376, 0.30552563220707124, 0.27409944644877543, 0.23590961598896598, 0.17480207243474466, 0.09278845906652243, -0.1594699167551635, -0.2285134515794684, 0.017136264076414068, -0.012583127072707569, -0.060633742986491164, -0.024178295694901902, 0.045239968073032884, 0.09632479797636752, 0.16769086609160916, 0.1688282182662989, 0.07763938742052381, 0.1101621006987844, -0.1045529302416055, 0.05785867117365187, 0.16717733533795429, 0.017064168755894518, 0.044221576699260016, -0.09616382727199221, 0.14348496152828766, 0.10259032602150217, 0.17828547216867163, 0.07043283001980324, 0.15466608925327513, 0.1881960741628773, 0.35956734216929004, 0.189666645919754, 0.22889300635206566, 0.17753509982063137, -0.1890350790259204, -0.3100106802464684, 0.053519532194566885, 0.015816492980205828, -0.07136869565429743, 0.04773896079548939, 0.32225987047733673, -0.048560164128021194, 0.115888426898319, 0.1849830996229296, 0.1096084057078836, -0.033037420969739384, 0.07701583338195582, 0.008765658148891914, -0.12013494179123618, -0.15076020175652655, 0.19108906037677065, 0.06470660189752257, -0.029234597933465258, 0.08876161506583383, -0.05578272495235387, 0.01684836279991767, -0.01753806941574901, -0.1755984409468136, 0.27103047955560383, 0.13403118671008465, 0.164279484468587, 0.04523774345477435, -0.18665349818224822, -0.09540126026384951, 0.23591383641049085, 0.14879244869994382, 0.14647022722792413, 0.11272735144076586, 0.11245914213671612, 0.17629112629651517, -0.02553699309962884, 0.008101193447802827, 0.22409460686658295, 0.17904697960233318, -0.04261297583483715, 0.06598922047565028, 0.05355468052557616, 0.11927944514674334, -0.06331105164997303, -0.03687421968838211, 0.023206049674143664, 0.05260416675519667, -0.16645530732678088, 0.1107105188387912, 0.039783853244330473, -0.03591159249779176, 0.0023973525072931664, 0.125637412282312, -0.13424075113374384, 0.01955945642209621, -0.08241125715070981, 0.1955447745223156, 0.19118403584694377, 0.01951930095624731, 0.2597293646622759, 0.159889334206954, 0.2827763901725832, 0.19352555311586564, 0.05694073488557856, 0.024040684858339108, -0.03996180454416484, -0.02463442747522204, 0.04896399544932083, -0.14388112745222756, -0.006385604507072107, 0.06128881817233284, -0.03514106117088835, -0.28869131092949224, -0.1747824138057989, 0.030638550221744585, 0.14099501369967093, 0.16608535563403526, 0.1618141306133539, -0.06670908260704224, -0.14238437367190648, -0.018427561896014067, 0.03862390459379165, -0.056540415716048946, 0.08649653153090195, 0.2159053849580052, 0.2748382125677838, 0.1969497791551118, 0.09488341846203882, 0.06324589183678926, 0.01681531906332535, 0.2061896903093981, 0.00457704203215584, -0.11226275256184391, -0.2061824370328816, 0.22620928987768477, -0.15954698009789042, -0.06475164583926808, 0.09407878605822473, -0.1111482064768463, 0.018349679497379413, 0.0015936930464157779, -0.16195261294345897, -0.2167830733005024, 0.07944726139196293, -0.002994599030337583, 0.03737912984340666, 0.025825487537227354, -0.01790020890158722, 0.09485376160718398, 0.06678870057330623, 0.043754659376934554, -0.07846540923837235, -0.006643247617928634, 0.1934382779181449, -0.09029302034521683, -0.37171568977712033, 0.12476081055992037, -0.09702767249908306, -0.1128654066643327, -0.08082871730072307, -0.04246081843263062, -0.11070849875580703, -0.23699662368855653, -0.18650349557165458, 0.025730249977456123, 0.07652097550032526, 0.06533523919847674, -0.006019273392288026, 0.07746323324152037, -0.07693543235663532, -0.04670166694048689, -0.1541560868366944, -0.1311918463390074, -0.20156093010554524, 0.22866601347594287, -0.10954106220826265, 0.079611510624326, 0.24489876419368184, 0.06129637090172799, 0.1254839440658506, -0.055185281789154314, -0.04768094714548721, -0.0720670820581858, -0.013388123075171841, 0.0870016005848715, -0.17722343691824805, -0.23923767166480858, 0.039439692951658736, -0.19842802379464552, -0.19946872377417835, -0.22274424559168077, -0.1644726252237107, 0.08024145565607393, -0.023520115731196046, 0.07053659531411395, -0.07619769797091107, -0.10210759761430735, 0.02942584189465767, -0.18642503119720205, -0.0036557764183326852, -0.019455973341582986, 0.003560054616970287, -0.2026982590072195, -0.04935890942056471, -0.07985907357100189, 0.021703687037021857, 0.015697320017147996, 0.04503473841251648, -0.0746129876569178, -0.12937509862175078, -0.14381218565458295, 0.11231216770898685, -0.1266808646783672, -0.22818593333237708, -0.20435130774540558, 0.09883334057221192, 0.034961242085052996, 0.019326072668432465, -0.1399325946051453, -0.06791565529983144, -0.1293539448297228, 0.1236099637790497, -0.27708342193980223, 0.0013937413548911317, -0.12835976915804603, -0.010173971863266988, -0.21030706440521976, -0.10256607233039255, -0.25318049138617443, 0.18450617509549366, -0.11184844739929023, -0.11838614697662793, -0.1769610823130819, 0.03158539813844228, -0.20215820707235313, -0.11888218151531199, -0.04411931773343601, -0.10066973138886207, -0.07841780495028197, -0.045833592497006845, -0.013440045927393953, 0.11293481279717747, 0.042148685543135715, -0.0501021103102488, 0.04116670271519241, -0.1094365372288802, 0.13179348496351118, 0.06272359799407479, 0.02746372059181552, 0.09647164828452785, 0.024743817537094672, -0.12360571302815462, -0.026397936739211675, -0.25142222284151805, 0.00047762621096291444, -0.1972777176597996, -0.009475842362123527, 0.017604093056875183, -0.08847345143243163, -0.18061643806894648, -0.1319930822953975, -0.1297858281458089, -0.23024825673671384, -0.06840857535157804, -0.165189093077094, 0.007934396669150126, 0.20730330129274785, 0.03916735344733537, -0.023921181276805002, -0.18013992649280916, -0.0597539137006685, -0.024120879144593245, 0.054178367220282374, 0.008397942485290084, 0.04470726342399229, -0.014013126222140716, 0.03785680697878787, -0.06769963974591807, -0.1075218190807139, 0.002392612266349006, 0.17366162771973384, 0.028156075084541526, -0.06693072285483119, -0.04115651663046829, -0.021485821228951, -0.07749656078574671, -0.10324941485929608, 0.07976663069737351, -0.20442323193158185, 0.031465821864201465, -0.0006727685138834286, -0.1982175890320753, -0.05756475168287058, -0.06173148395238479, 0.14879779110274735, -0.3595887581378584, 0.12257722806042835, 0.04474900463122922, 0.058835127057104135, -0.0833329367223189, 0.06565152090612665, 0.04917431558116326, 0.13983263322751155, 0.07511362905311963, -0.02971248655705549, 0.04685345847780176, 0.02126607457872473, 0.08002188463654855, -0.13520234408760862, 0.15962152142531014, 0.040562386382693695, 0.146410877799728, 0.07722070732664954, -0.3410842704957742, -0.12607851921453758, -0.06964394224386371, -0.08160027488609196, -0.26117808233849, -0.1442568599106784, -0.11251039840571196, -0.11840448607315646, -0.06938112500891311, -0.12032743938903023, -0.040857451180287344, 0.23311987725581865, -0.075395782176666, -0.16905148737655595, -0.06738507597469857, -0.019236601672204433, 0.00893013784900406, 0.14698463408080453, -0.04228934456432482, 0.07186753589929529, -0.0789528169806997, -0.2926953576961108, -0.10389793653070589, 0.09095164262348877, 0.024569819790454354, 0.08212641666114887, -0.09818948800446657, -0.08679133428215471, -0.2573763063869213, -0.1272686935781315, -0.09726471522258238, -0.06337626048019122, -0.07121036761079097, -0.1679439288324051, -0.11865450568336117, -0.027091279831524324, -0.1704385504374564, -0.11532219361578262, -0.06051688773476628, -0.12543505145946204, -0.08391681520338712, -0.1653842611060263, -0.0547381657840382, -0.00493149327808305, -0.023550026439388864, -0.19113017062665077, -0.06100250680286372, -0.014373619966650684, 0.018934594870443015, 0.012458157799905147, 0.07784479476213932, 0.07103483957677914, 0.020351374034093973, 0.035925882677078656, 0.08037054541742429, -0.12797901599142458, 0.040778302913827766, 0.061727589429897166, 0.05196497481903105, -0.09619385154023626, 0.019803474952338505, -0.2203105695995074, 0.07813401238296386, 0.023106482818278012, -0.004011551683711071, -0.019297473121266742, -0.1632134046063723, -0.11026335431883785, 0.1719926965245392, 0.005553573388412647, -0.029575479837040324, -0.0904402874877935, 0.008191668532268185, -0.10052598623189753, 0.041380071852795075, 0.22454233690219097, 0.11972843345430798], [-0.048508885264685886, -0.014182462527515398, -0.11025685177185901, 0.05260845049457206, -0.030956979057679454, -0.055545040851555184, -0.013779004859699413, -0.006894445792601802, 0.016608306228550737, -0.06607772458305942, -0.06768555767834887, -0.026714626040416842, 0.0873546323625602, -0.09258679849437153, 0.032427314808324836, 0.1617477337008197, -0.20368452680114785, 0.10389695648931295, -0.040489251417066004, 0.17422223014640162, 0.08569478981823019, 0.05183404543775897, 0.04487456185882353, 0.08600992848671712, 0.00883373539629914, 0.04356842830055235, -0.17506959878308068, 0.08203344229129819, 0.006411400146530884, 0.05556885762929839, 0.05103015592134004, 0.011732992671812423, -0.045472916944593086, -0.06366634687391001, -0.06571093891170815, 0.11616733532994378, 0.002001729414646073, -0.011041985896083356, -0.05581700755781155, -0.05308212830357038, -0.16090462977493653, -0.033764455905076575, -0.07704650058730086, -0.12559228536085512, 0.22402607216871487, -0.03921119005193825, -0.022947880690712158, 0.01585494243710604, 0.027745401793520582, 0.14517487179107197, -0.16102407955430342, -0.042965907572311425, -0.05267281754424616, 0.18491835552146435, -0.09218441720208387, -0.06474831469004609, -0.11356886107012552, -0.013248376504596994, -0.0834164723511544, -0.031375579729180716, -0.0958410121706772, -0.18110579384604722, -0.10413473293355152, 0.050813463990832516, 0.000699289408739711, -0.024873072799945106, 0.1464671874710964, 0.22722998467453084, 0.04978601469503761, -0.1391318804505876, -0.028710922997913297, -0.15896214767343006, -0.0680063408145744, -0.16170895365589935, 0.02399887968507133, -0.2038816249707216, -0.02008991882123137, 0.010488311544327016, -0.028615981061175706, 0.050466674281874485, 0.10211678329268423, 0.008347795279062518, -0.012553526168233861, -0.024046068642800192, -0.04646133488825062, -0.09731831495097391, -0.02828473829119937, -0.0033592210704141996, -0.1427354147798533, -0.004956180058925247, 0.04288169421939932, -0.13345583181176185, -0.01782733241357457, -0.11862710829348524, 0.10359678617867765, 0.009402201063389444, 0.10546652624089979, 0.011325300163621365, -0.030329737390486246, 0.047423865080445916, 0.18605887632814389, -0.03913187665894596, 0.12178094419720731, -0.1860235714462834, -0.019320410745642027, -0.05992296953317473, -0.09443821115016836, 0.009755302834764685, -0.13008151999452536, -0.18082746602506408, -0.0788678969492036, 0.06638645288130822, -0.00958665157235181, -0.11378232110006235, -0.10357089216379732, 0.01644038938675714, -0.12144947295412577, -0.011819178711872816, 0.03345476518090116, 0.05569741996478675, 0.0313493264113141, -0.14809912115233037, 0.2034562461744511, 0.08571885825811466, 0.09474358853792313, 0.009759842682930776, 0.06947551785896205, 0.13959138630955276, 0.12028970971508607, 0.005661808588629085, 0.033312278662364594, -0.1332642586660642, 0.0314583448889558, -0.06593043522293437, -0.23073293971679557, -0.13861231414339203, -0.04784948505368599, -0.11030022832185443, 0.032200993054931196, -0.037369567167048943, -0.15154603368119757, -0.006338037043466535, -0.04568198308512052, 0.15061187259338166, -0.15584998298183356, 0.09751018426082037, 0.055675685619585434, -0.1100431805832146, -0.02057338162551083, 0.06252023175102721, -0.035254320141298257, -0.19074561086729175, 0.054578121277182846, 0.08287409567184735, 0.12727206107003006, 0.188052629915487, 0.04157213716355683, 0.10637473384527792, 0.12544604764413753, -0.0006095714314255834, 0.0736583216360329, -0.04827454211530918, -0.00564242756683769, -0.2565384127708642, -0.19996530465604176, -0.03778787559753246, -0.07517098820198624, 0.23929876174444167, -0.006318981023142706, -0.05452696469322902, -0.06430515496031376, 0.12724219664862954, 0.13793505358724337, 0.3401651127402951, -0.09334660128783016, -0.033951507286082074, -0.06262190515195443, -0.08332711385894989, -0.1488509062332863, -0.09938280581974883, 0.026051670703974315, -0.11596032939691599, -0.08427958563876138, -0.11571462742055783, -0.1996828800914934, -0.018514141708859955, 0.0030437437887121405, 0.07049429499720652, -0.13272965811391163, 0.09806901754789502, 0.13768052232552902, -0.1285780666637895, -0.2089922398839577, -0.05197032584279963, -0.022062134381647853, 0.15172382054142852, 0.011130089724309934, 0.0821352663696424, -0.17259212844565083, -0.07721519992975426, 0.0611538560290108, 0.4411503743435516, 0.23998353400714875, -0.07015224121338239, 0.021882854512967904, -0.2741518485894302, -0.33815618996542934, -0.11794180602151076, 0.04381937403518745, -0.25514198808378064, -0.05256839467656252, -0.2958463196677225, -0.028922479675169973, -0.12349689044323722, -0.08814443211240272, 0.04226297519929636, 0.024662417071571737, 0.12121528147537085, -0.09717989849573266, 0.0691229358571218, -0.16056554477841353, 0.0004313866646442253, 0.12920582987143808, 0.08399445363484727, 0.10368313112631189, 0.127413832319547, 0.12879337375082056, -0.0085581032232444, 0.11900331807491736, 0.05285406106536519, 0.23145165903285947, 0.00985970257886681, -0.11156528335806294, -0.07494559710972584, -0.03105184158262684, -0.24318435400829663, -0.2166162040848283, 0.03393272503783769, 0.04998233937846077, 0.018648445645550255, 0.09611106386063382, 0.10318981306925408, 0.08243254693686207, 0.0037715927099817967, 0.00586891178270501, 0.1890226493241287, 0.10142430173214571, 0.09576011552587635, -0.15458779618711418, -0.15440966364990835, -0.12897393860562842, -0.048443314294358, 0.016465141600984057, 0.04327594397484252, 0.044997539157187294, 0.15559355785001328, -0.0857163967929893, 0.13995058276234645, 0.008623869784309117, 0.022442462304948813, 0.010481796392200721, -0.21543504491973242, 0.046023771633751355, -0.1206454320160351, -0.017857446386368128, 0.0014841232279014553, 0.30994633134325184, 0.1719125626365086, 0.323270615947214, 0.2236973764057544, 0.1346766822101534, -0.03608964760797108, 0.0891618845650717, 0.17227544990131774, -0.01675286290431517, 0.02842342221047114, -0.025272233957525016, -0.13676221590465823, -0.03242153221899363, -0.05534936024675139, -0.05354982659269515, 0.13735302040971104, -0.2035289584905383, 0.16191386422006973, 0.15767783453754894, -0.010691372081170636, 0.03724609206060706, -0.02691577674303664, -0.14062789060943628, -0.27370145164756743, 0.12568067956451476, -0.10735494639598293, 0.1452770692004943, 0.5148989007035615, 0.4454738862724806, 0.16688270130672947, 0.2147795914390897, 0.07585060631895223, 0.1509712210992463, 0.2053738009165553, -0.032590565996096554, 0.21785367675742845, 0.22604515759326885, 0.038422548819707435, 0.27814928771021546, -0.2868295723729691, -0.05588145127758343, -0.0598090356267792, 0.011562117451469076, -0.04389072227314194, 0.025904789280689237, 0.005711932077090328, 0.17706204260226355, -0.07118479550462535, -0.1297498052809816, 0.1259172728591327, -0.10047774951323632, 0.11667204413641256, 0.046298245195730794, 0.2776814554546912, 0.36841650747881294, 0.3190752835972743, 0.147807552731041, 0.0024054526395103156, -0.032784616288710274, 0.1279545978810483, 0.210976859769856, 0.4440724639443061, 0.3932019093931669, 0.20039153328203116, 0.2164542665722384, 0.1846757138003797, 0.1216137809608533, 0.1297927875776284, 0.1146493638811908, -0.023171692847468395, -0.20514980988811854, 0.061079572703679356, 0.011954170234450737, 0.08463086901025871, -0.08369392292243297, 0.08321925233289014, 0.12406600497194471, 0.05292872595983216, 0.14134295320484314, 0.19728365381598, 0.31474970693198057, 0.33497986978630623, 0.217355395002717, -0.04619358385243778, -0.2844041648818945, -0.38403524983077886, -0.02708410004366244, -0.09077595731312652, 0.06933642674886673, 0.19740376883177208, -0.019695541225553125, 0.11851636616215781, -0.17849941347303303, 0.09140148226527987, 0.2538647523281029, -0.07436843211123455, 0.015144546088930063, 0.14083874168843719, -0.03751155146434829, 0.029705839101955303, -0.054192369056123346, 0.09606362863695632, -0.1300575274041113, 0.0289278091666118, -0.011704655415393532, 0.1352711484129269, 0.3198716590429937, 0.21513265143218774, 0.3584361725156358, 0.08315497343738906, 0.011045285163845685, -0.4465482053088967, -0.38115766521693745, -0.42159297578863353, -0.3223701868218878, -0.03384189671812883, -0.145284778698632, 0.04257710841725374, 0.04315520770146305, 0.19295779165358304, 0.08796907489965705, 0.10903471691578978, 0.16932920696614345, 0.02321235974028862, -0.02101152507388727, 0.16467451363673083, -0.07152306892148902, 0.09667923905166338, 0.06588848408248964, 0.03952093000066589, 0.09724962097708566, -0.06996260326208055, -0.051831219029073124, 0.09312564253854361, 0.22502785298174116, -0.026765738625631627, -0.05023220310002559, -0.10147423902678136, -0.3394802971943021, -0.34512524375243053, -0.6504962994143992, -0.23404340942491625, -0.17674400989783096, -0.09868590530408311, 0.04308039928362854, -0.038646056676217636, -0.03959050835592228, 0.08734404163373471, 0.3088260669576611, 0.24614286721909087, 0.0354204398906884, 0.09806171632220004, 0.045293210316050915, -0.16575990623415185, 0.0008737751800029412, -0.17457647159128434, -0.02821118579343792, 0.2532518173150234, -0.06622056133293704, -0.03279348056219073, -0.08454681256081902, -0.08623892212650529, -0.049792191671024284, 0.06014363768230283, -0.2025854793215664, -0.2523922551479003, -0.2951710301528365, -0.6967599091032854, -0.6184579052098282, -0.258315040039292, -0.30322693498452735, -0.1352275719575741, -0.15262298355955398, 0.09152328248712031, 0.12681508926378546, 0.3110299476486227, 0.11196756356570284, 0.038850503078337616, 0.23363096106642775, -0.11192480141059856, 0.017062740040640033, -0.1372650633251404, 0.021243365988474625, -0.08844355000300826, 0.17150589704212843, -0.09066728833396445, 0.1633239945539652, -0.06280768297698527, -0.020763739280069204, -0.026167601503017585, -0.0970010774144227, -0.2530260536628268, -0.09617880135673247, -0.4250395671935255, -0.5844347881475435, -0.3743987861981959, -0.43990488383924203, -0.11967174732149703, -0.27192972707927926, -0.1751466894709326, -0.057246366805118916, 0.02586876956886225, -0.060060164688239284, 0.09874093581509163, 0.1350186832690474, -0.05022926356016366, 0.143713894379355, 0.10974349967089549, 0.013395684749277431, -0.04128562852030627, 0.05625720763934133, 0.02590622539444927, -0.032674968894841006, 0.11820959685972592, 0.16250567008189637, 0.0016818511112348378, -0.2014738389554307, 0.0010714381728645717, -0.10793157946851194, -0.06396354937311138, 0.09808499009709461, -0.08216512146108541, -0.38872729425574243, -0.26890654301745953, -0.30671844588582986, -0.5217300500900038, -0.11208873878017984, 0.03386012692761257, -0.013440882675946468, -0.12092223360999818, -0.09364812781487161, 0.14872261110477628, 0.11630677826576723, 0.11940712186161143, -0.1400728379569988, 0.07017939944888019, 0.14220467000710343, -0.2555224557333562, 0.04488590994100259, 0.0854997059460336, -0.14624670128397468, -0.16404231530315752, -0.08471867999051025, -0.06774433195794803, -0.17018186361249737, -0.02102283369357937, -0.116314918087312, 0.06854413580833633, -0.00744332795498323, -0.12449296760134183, 0.07547929587805774, -0.2579493249466961, -0.3158477709278614, -0.2115485256726885, -0.25207232719584416, -0.11351743372306015, 0.07021031802250845, 0.017726493435406186, -0.17548934135128208, 0.06531498703253641, -0.12975201045121726, -0.01626435568055223, -0.009408506892376059, -0.10208065589727502, -0.07918693062747126, 0.1552700922182514, -0.06803157560112501, -0.12965916930704605, -0.11544132208601487, 0.20917274489385929, -0.08851096844345542, 0.062495850762098244, -0.2621285330928135, -0.007964931658396129, 0.03351417488992704, 0.05681322418185684, 0.18133617610401012, 0.20563452448542915, -0.007714001837090945, -0.09460799093360717, -0.006446769678956726, -0.18842421024847242, -0.18306045356410688, -0.18724273815715642, -0.1504625690402521, -0.11466400344523207, -0.03560543392530983, 0.17156597393812187, -0.18961509614199157, -0.11160756169371916, -0.09807912731117928, 0.11432840117340508, -0.05936600270750681, -0.006144659600507142, 0.0866934969513769, 0.11775545446693142, -0.14734115777926102, 0.08902561874601785, 0.08644392367250274, 0.08743000907974571, -0.03582504207073645, -0.02696958634549828, 0.04104633804514901, 0.07792652599996812, 0.3866116870290729, 0.3581884855755588, 0.19455318588906695, 0.2709251556548194, 0.01232919852050412, -0.0431974727571172, -0.34661437725461963, -0.15392063824116137, -0.037364333632258204, -0.12637144154597496, -0.14245349072516925, -0.24117946716492644, 0.07160796974398075, -0.14939777135361015, 0.05464730868033431, -0.024640258243651257, -0.011499095632960312, 0.07324830390091305, 0.014213788052267595, 0.04253638736938291, -0.02941552953647902, -0.06679748817174067, -0.10724807349566781, 0.08570855287755855, 0.09681889362520563, -0.03990224660528741, 0.1902347325589266, 0.12052307540949157, 0.19234146722129603, 0.3926836678821639, -0.06276560761758483, 0.08405374597615405, 0.13187036349120848, -0.2823729663407138, -0.07294963851202739, 0.047498100037223295, -0.03755216778185748, -0.005809651138995714, -0.16309278233192004, 0.005566515439219469, 0.04667942394913428, 0.018674049883456778, -0.003673634182485276, 0.02865480238344936, 0.17768936601287655, -0.0540729077185615, 0.04692432027750312, -0.13535068077307136, -0.04393053142242367, 0.21866713886204692, 0.19280175592027857, 0.07978069878892843, 0.026384293060559363, -0.057536105746724346, -0.008509893737967495, 0.006633491162208931, -0.010400937762702333, 0.027487562410830977, -0.08014691979013482, 0.03048584886821263, 0.01771927441174195, 0.04586366438512586, 0.07090111937252537, 0.029734101655721334, 0.08968145215698178, 0.08244053297896548, -0.27118275891630816, -0.10628266763688364, 0.030295624354558758, -0.2764179773622078, 0.22766253373112771, 0.008775435351529429, -0.0205784644385014, -0.061451578412657526, -0.10239878288185372, 0.012658242437452262, 0.018991429357702354, 0.1543479322046848, 0.029564637009396752, 0.015551487993605659, 0.09237221041530932, 0.2888110215983444, -0.11867995556224763, 0.08906259643568597, -0.03696919487114591, -0.009898140833094359, 0.12456432869247591, 0.09700455114819491, 0.021765189935222414, -0.0015799413322189358, 0.035462202833046935, 0.12569215735083172, -0.03200913861847322, -0.1888226729633596, -0.1172692708617362, 0.00676663134006673, -0.0661106038770197, 0.0191024829791247, 0.033999525161145495, -0.039661056599516124, -0.10524803966637465, -0.13615559440942368, -0.08299259427146477, -0.03747123838235888, 0.12104096958360444, 0.13851759959450555, 0.15142384151839616, -0.018370378808920538, 0.13076577258479954, 0.12541254128303686, -0.05752511522638888, -0.1837450299842198, -0.12353892587097726, -0.0415761939816249, 0.06642102368411988, -0.03933191847373967, 0.18207057696726967, -0.006565053979110252, 0.1454811683796258, 0.2341161896907984, 0.005431606228930921, -0.08396098243485585, -0.11968867211069688, -0.10836122059710089, 0.0004266022790467002, -0.01654785983916842, 0.02098382428443502, 0.13202032891245563, 0.027409715001118762, -0.008782902123477935, -0.1420870667143109, 0.10774088370838175, -0.22175805435893073, 0.13836793208083337, 0.08146463165445092, -0.06889775614666259, 0.0785879771823886, 0.06787055553320766, 0.09656374596826678, -0.31185875571147226, 0.09579342500927583, 0.15518032171211618, 0.0057065806672657125, 0.02438746610630256, 0.10504267288118915, 0.09548129860105092, 0.16754583525522512, 0.07339010038731252, 0.04407381902247112, -0.04585851350124534, -0.09939553722746057, 0.017726544106236863, -0.12681174176950047, -0.13938396729954441, -0.15805234072791788, 0.18241929102544635, -0.09286259698487971, -0.11987928093703502, 0.00986335680371304, 0.022099370803416393, -0.09447067409146703, -0.03214445225201454, -0.08749857311010058, -0.025276645700349668, -0.0677242608867091, -0.16663144819341466, -0.027679201656963318, -0.14081504317494933, -0.053741359320379115, 0.20414126423573234, -0.19046805141091683, -0.10562281542154538, 0.1727357689762588, 0.18001504205379176, 0.023660665704191224, 0.010947479387417403, 0.13623693651928453, -0.002784840648309633, -0.12314333149082692, -0.0865578013754125, 0.07081749941281941, -0.24108343359028522, -0.1002109120704412, -0.11940023993553629, 0.05648984846676722, -0.017448146099387114, -0.11296318714960932, 0.1490428747015474, 0.015577569061224662, 0.03844617773238594, -0.18185564697351017, 0.07520381916319628, 0.04973376978401638, -0.06059324267428263, 0.12716278236825038, 0.03817778104795082, -0.16531076114330037, 0.24380579414051579, -0.1200089110876408, 0.023180854656581353, 0.05811187636938895, 0.0027395432812689184, 0.0959318922900728, -0.07120551528056317, 0.000655853946583585, 0.11659583882659053, 0.07322196771787211, 0.06374850676819303, 0.10074325302929431, -0.06934162541390053, -0.15773083002775704, -0.12987839378031962, -0.11760721137554464, 0.21862463447190855], [-0.03586725761864518, 0.058742822017174304, 0.03602469589868281, 0.05857359625253903, -0.044582373783054366, -0.06567439728864542, 0.0339512001608145, 0.028021165589696473, -0.026143531665048993, 0.09804850171774532, 0.06402993348376244, -0.02052518040344982, -0.03975308517464094, 0.0575743107579775, -0.06410176268527247, -0.16181503330871322, -0.07706712715941194, -0.048263721410607974, -0.01744936412222626, -0.1450336998737743, 0.12405051743336724, -0.13746460649602982, 0.07653973641060766, -0.08410164593264409, -0.0014308437420993973, -0.05495412464846164, -0.033580862225363176, -0.07113267546516044, -0.10988208249263867, -0.006992514930302009, -0.10773287219708903, 0.09225937470909949, -0.16501718018082723, 0.12614293682630556, -0.0032939397811267055, -0.054606325549966944, 0.034169002247332554, 0.00875783253395209, -0.1258922779085959, -0.015672836702635647, -0.0031777954123637193, -0.06448400572186277, -0.0009004400894255394, -0.09434291972727958, 0.041606456132847976, -0.09662717494035684, 0.32630723553587027, -0.18564383937723816, 0.02287222688191889, -0.09723246909221782, -0.025423021055368426, 0.04919720214372415, 0.0008971534112780908, 0.06120548395913416, -0.05471632351818881, -0.029762313651601043, 0.042269371738518344, 0.01633000122630423, -0.07187215996535448, 0.045827531834418796, -0.03552085224448502, -0.06135336127956159, 0.05409343683568182, 0.028369679195442647, 0.04020509243683663, -0.02311155031797389, 0.02034509271689579, -0.10039257433044438, 0.06650004660577295, -0.12515701014176478, -0.036176330869863056, 0.09161860240712122, -0.03518880007729303, -0.10262703465426311, 0.11176780296486968, 0.03730200654035081, -0.035524408611208806, 0.04406611493541282, 0.05117661627548782, -0.04330647543358418, -0.17450685787108736, -0.1893681020150713, -0.1735457620712929, 0.25711926664177787, -0.1620197012307569, -0.08135713409491874, -0.051844477858639076, -0.10841789464560797, 0.08679056405654799, 0.0006207422881056011, -0.07691150877015514, 0.061934002148589365, 0.24870804583062356, -0.09275810031322003, -0.03299847691819002, -0.07974823442123068, -0.05751212254980758, -0.03890840979794537, -0.24519212944573143, -0.015477702652456148, -0.1905704350405746, 0.09844053622644408, 0.10041758475740152, -0.06015311386105941, 0.09341728798709754, -0.019080884124497387, 0.012530389357785955, 0.12473919792963262, 0.014647907088855988, -0.19755476882838263, -0.025038101574801318, 0.04064549777946266, -0.055276146225114675, -0.033828448206900424, -0.0655192507198866, -0.08163127427456379, 2.198787865680677e-06, 0.156036101728058, 0.08392109018073338, 0.02679854330358605, -0.0397478106298238, -0.16041522908951833, -0.16339327408055287, -0.21745217851292395, -0.31818385624558815, 0.02064631472259089, -0.14457617140854162, -0.2264068853355595, -0.09603482837698094, -0.23175008764083588, -0.08264771235217694, -0.06302225729790906, -0.07939715422013752, 0.14688848128976104, 0.26353255583296537, 0.08119602956751536, -0.08232604034884577, 0.04002176852214935, 0.06686829994765009, 0.1946897248169635, -0.014929622425107012, 0.04900524558970838, 0.015173495918252636, 0.007390880652912814, -0.009569020941786528, 0.0011157611115308933, 0.027938541822072147, -0.10051387571594905, 0.003568553672128042, -0.2938299833958911, -0.27183044099094567, -0.3779747816793124, -0.20807132428885067, -0.11675609737421201, -0.2835892244668622, -0.1484137784189599, -0.03313449156386482, 0.033504782354751204, 0.06861325672493977, 0.02542912398074199, 0.014294941002230119, 0.07002299307149625, 0.08777257993268046, -0.050581741853105315, -0.017663011031307786, 0.08146415503167694, 0.1900171412456901, -0.28954868528237093, 0.04539044962459416, 0.06915349211251702, 0.09889827455833357, -0.11850652364268137, -0.05765994344063933, -0.1014201115208305, -0.039294556449484735, -0.251747422411094, -0.13870591800725174, -0.27578023520673717, -0.2215200912762529, -0.1859360872908837, -0.2316363649925595, -0.4057896328367448, -0.1166059816031802, -0.2455593529093851, -0.16169615370538157, -0.011143126330636287, -0.17618093418222858, 0.07610154577776668, 0.07018738836285095, 0.014597442131565712, -0.06684148517991972, 0.040682807461557904, -0.02138220725372573, 0.11360659459225311, 0.05486544591829174, -0.14182853429608697, -0.1340107101145394, -0.05420359085087525, -0.005606650098405723, 0.015345151807101522, 0.06926155168199478, -0.09888821964393929, -0.013699796559382272, -0.025847985615331442, 0.0023360091076954485, -0.29706381014883515, -0.41307852680497686, -0.29817012134199955, -0.24041907364947457, -0.0974961521519151, -0.1744588458096629, -0.19085411711284606, -0.1906520778926133, -0.15773768926663442, -0.22680779848813618, -0.28043459988650926, -0.15051322682947368, -0.11387975694243674, 0.1424291172798865, -0.09152311034900874, -0.0016089071708751382, -0.0289509337035581, -0.032449173545457004, 0.1631870723789275, 0.006323547815395789, -0.03765208710722533, 0.0031578183431197233, -0.10509351892531074, 0.07581334884328253, 0.19684134613659507, -0.0009964286170843614, -0.06530710074776513, -0.23665187095164922, -0.21349564058586898, -0.11733122907249116, -0.29601203431418555, -0.4362920399182726, -0.3753087762488261, -0.14985845527101402, -0.03461854261405084, -0.07781384700991059, 0.08604800557783313, -0.18868074982835714, -0.1497912911470971, -0.10086816825567282, -0.11875287274492873, -0.011630467440407919, -0.05130700336603345, 0.2543263335846845, 0.11832132657141868, -0.059164928749806514, 0.0015250703186907798, -0.022085388697015366, 0.07245046736610275, 0.029755915452579912, -0.12775206795534313, 0.0996028401083117, 0.1671956369522146, -0.253961031280136, 0.023847051952673233, -0.07889297114117971, -0.26375988502660097, -0.3495636359808494, -0.25427929694230295, -0.27638375385422476, -0.2977127381031631, -0.08070956693017248, 0.15859775521470285, 0.06872392410725871, 0.254794101980109, 0.025378879168013818, 0.10461036933983801, -0.11625177037078949, -0.034281656769237605, 0.05136734218329968, 0.12703668338395105, 0.20700809015603727, 0.04681613386566294, 0.1605171057637693, -0.006424702758425057, 0.08488629209321255, 0.02009922098157991, 0.00918305398916182, -0.0023371362982536024, 0.1292424141924366, 0.0634749669867215, -0.14271355879244407, -0.16998255123434058, 0.0631971659902402, -0.24081983843704893, -0.040882256417723244, -0.0015093801981546705, -0.2546793226827263, 0.058733813089712504, 0.3340988615148955, 0.2617487517872112, 0.3204740833566505, 0.2603137740719754, 0.2661522254874994, 0.19636178907364218, -0.03609999679914579, 0.10444195034152513, 0.16783380493351605, 0.04487387466865595, 0.1450805768348621, 0.09707014956289232, -0.030332283473530827, -0.2048953947336933, -0.11443676596861933, 0.14026256993644715, 0.05747219194635251, 0.07255676886074762, 0.00849458727944029, 0.08716499713319634, 0.14067908955943992, -0.02666040513763613, -0.07358020845668321, -0.11363017552139373, -0.3652887145482174, -0.11192787560598753, -0.09005026231692476, 0.20301920693681513, 0.22722869418994726, 0.37928842637730714, 0.15811510306423773, 0.03911891626036278, 0.19197229411319153, -0.053215542635217904, -0.1264461649806236, 0.12384069655291732, -0.09724582867482116, 0.13890999807916943, 0.09098895465633902, 0.18317022952824555, 0.02206720407406191, -0.05068738425351699, 0.03526302755389087, -0.06751172626324611, -0.05354341318663118, -0.0071292043391357075, -0.10480374514734674, 0.25247805767431936, -0.1221574082992631, -0.11575994202217349, -0.059847302693649705, 0.004070371954262326, -0.17375000746468627, -0.08581878350215548, -0.09995973580033043, 0.1604805039914228, 0.2189811932873101, 0.20577956889382684, 0.09024918391863668, -0.10607074924133483, -0.24689748135754552, -0.23932195891211502, -0.162911916904397, -0.21475236240820103, -0.31644085864844285, -0.13417898272596918, -0.19883678719141895, 0.026186807382207074, 0.1329257669018648, 0.19950559211473923, 0.19392045808689762, 0.04776449344704918, 0.02238322414540679, 0.012248136494244223, 0.06626569103184704, -0.018248819239842146, 0.021218942177515326, 0.011423955885820828, -0.055022887678246785, -0.04068035772792594, -0.15235812916475566, -0.08269355031501066, 0.0019956963144945076, 0.03911253746422515, 0.09755088324373465, -0.12686672349021885, -0.12819008454474023, -0.2632443265055701, -0.15387615149103323, -0.14834186761579254, -0.11657133357205082, -0.1711689939165534, -0.2501703390550202, 0.1265218173788561, -0.12502717290264165, -0.2588999781201997, -0.1387549427884205, -0.015156287728310165, -0.04695123026207631, 0.15264887181120138, 0.18579959796069007, 0.03376181061636318, -0.10930892674599199, -0.22527799916120256, -0.11869429422466808, -0.11234898901370428, -0.051005222822069735, -0.04915441571894607, -0.11017960194940857, -0.059786348611637216, 0.00557329013227376, -0.2166356910338026, 0.08049447337988286, 0.05211704089681916, -0.14702117464540396, -0.18240363414668198, -0.30904984896869053, -0.27980968654522914, -0.14057206547816817, -0.09549611523510292, -0.1673928978741263, -0.08808163627061474, -0.17666584744979535, 0.06850927478098359, -0.1720439529157503, 0.07618395779210584, 0.023077602163301184, -0.09751828542638898, 0.08134551452668248, -0.07999040443919729, -0.003945634704921849, 0.13588907882227597, 0.06754712631948476, 0.07222644387341255, -0.24033334521602645, -0.15352138375405794, -0.17341275402471135, -0.027389951755737475, 0.08790300773810347, 0.0589137868793919, -0.059428225802648976, -0.16216589071109944, 0.01305542566538509, -0.35949637614223034, -0.40301119822661086, -0.18456833138975903, -0.1580872564314489, -0.07365093571774033, 0.09690814469748997, -0.05955020671096629, 0.1145266011563669, 0.048733771141401504, -0.1415208020866205, 0.09468633388275663, 0.030956525936995844, -0.019147743368550546, 0.2759670369019268, 0.19719640710241904, 0.1167997409756353, -0.15668414667850225, 0.0668500456712412, -0.27711082168408235, -0.06499863622612138, -0.22970254738870832, -0.08936182590759348, 0.06182795739842747, -0.04910681943494405, -0.006670390104469866, 0.025803342472108883, -0.2572384592721568, -0.3417416427593413, -0.2537695298913104, -0.27672924281193034, -0.30259708078425257, 0.01652547471447742, -0.11244366471502885, -0.1736011876989448, -0.2090126122909607, -0.05247499929808992, 0.08867371408606498, -0.007255565558148095, -0.03273533688901158, 0.08018390504992953, -0.04306343850915879, -0.22829824937578094, -0.043516107672452765, 0.05009684649881623, 0.07481582035620675, -0.05865092440017808, -0.0923429717267863, -0.08015596834857577, -0.043853277543528295, -0.1677920594701532, -0.08967382059103417, -0.03946127671486899, 0.11566101389915025, 0.06421037526888786, -0.12325423464527684, -0.2093371108204771, -0.25022330241098883, -0.22803613409998455, -0.2882297642065489, -0.018411011888695185, -0.016458121831075024, -0.018776923788809644, -0.12736506756483004, -0.026288500022963755, -0.09000246808144599, 0.0037026345420900796, 0.020122671268626918, 0.031960307217062875, -0.038642166780381106, -0.15857009297104485, 0.15176626818198752, -0.04549754108182664, -0.009940610922142287, 0.012233288681723404, 0.06571126004584693, -0.049528795824494286, 0.003261241519538539, -0.04229024629902245, 0.13935835178261471, 0.32676126886921214, 0.4109936169735973, -0.173574391416554, -0.12840236582173478, -0.354221803749798, -0.29705855911989615, -0.07333209011253138, -0.057061086410172414, -0.05783357533169344, -0.06717581296864245, -0.2831395940724954, -0.004954751241908338, 0.037438249791827326, -0.07667944645273166, -0.051819342440502694, 0.1695909533248416, 0.0846856532682202, -0.07686910617047876, 0.08543155474411702, -0.22422488861345768, -0.1133658231208021, -0.012100574921419596, 0.02775535441647114, 0.028115275243784783, 0.11509461123231726, 0.1738298737407591, 0.11285355889176094, 0.35041735272813906, 0.22116580983658804, 0.051664457102099715, 0.03535476419551119, -0.3277743262434512, -0.33587453471948225, -0.11931864321830223, -0.08429721162112243, -0.009238329866886403, -0.07871543704558068, -0.0330150157965485, 0.01613796729298201, -0.322856618049093, -0.1524218022087904, -0.08870262140419513, -0.14848914265602628, 0.14551882958275192, -0.17374548954311597, -0.0967782555498714, 0.037763235363169806, -0.10635580688925622, -0.03614541943273054, -0.022121120551088665, 0.0013255693312986883, -0.09016235702218206, 0.16993954120604743, 0.02809714237015974, -0.05470066388680743, 0.19983599743043579, 0.13326406068457536, 0.021823724665047606, -0.02838676787052521, -0.3290192470501734, -0.4148284024131441, -0.0657404774401282, -0.30798667543076363, -0.1513842246772505, -0.24841384989042442, -0.089969347156342, -0.025778800226562804, -0.17836688462849934, 0.025952350499393845, 0.14724782569135192, -0.025338842561595402, -0.10809567741639235, -0.03791659484825153, -0.09321316726515762, 0.08161448535684626, -0.03108244870479509, 0.012994403132971868, 0.09191441677601268, 0.19891112378182724, 0.005137493815318758, 0.03581299791582065, -0.04734708716030375, 0.06709679338528714, -0.1630093013317309, 0.05142988558525332, -0.27472488077434704, -0.19561576328234895, -0.24301266484302875, -0.1147702261112143, -0.2663388175655685, -0.22295315396129634, -0.07955514296182638, -0.15980191947559283, -0.3089530349837497, 0.050030994528685944, -0.11998667750307412, -0.11285479971763455, 0.19021042634554772, -0.2699916009604993, 0.08527542409737705, 0.04179238533826951, -0.08604850060424135, 0.05344907071547656, -0.15825089324046823, 0.03219098942288734, 0.13697321523629122, 0.06809807223671475, -0.10506263520587991, -0.16162620286946722, 0.00542850078297884, -0.08129919281365497, -0.05034834182180831, -0.12027134224853482, -0.21772608249843972, 0.0032082883887441962, -0.1294758511399624, -0.2120357764699141, -0.1483532913544865, -0.04288630042054251, -0.15518611242525354, -0.015120055623036175, -0.24427570968844156, -0.07106075716820086, -0.06501763602294373, 0.1289728951326528, -0.022263984351656586, -0.21596240951344245, 0.08365355844494485, 0.046730441913576184, 0.07572991119468125, -0.02258184391530108, 0.03976175029377732, 0.04819578871547633, 0.09262278461000945, 0.18323752589058476, 0.058019575518652666, 0.0764835430984054, -0.07410745008349374, -0.012673336294017703, -0.2763015836725961, -0.049719717863669216, -0.20795994837979892, -0.05155458105050551, -0.0016837782789760358, -0.03534487857509098, -0.09427907257967781, 0.04006800842365408, 0.021023626221608503, -0.16858902589161376, 0.043754314603343586, 0.04006926969467927, -0.012881037420019295, -0.07500769907194338, 0.05434716952197781, -0.01932589063265161, 0.027247584871624955, -0.05102963695173162, 0.10027328366237796, 0.0071128293473881705, -0.08522162771631675, 0.015747712861034865, 0.07121730467096359, 0.17415085634570468, 0.12770737855549996, 0.037889211356853504, -0.16298351308374864, -0.3197927639046886, -0.1541050838524874, -0.20391871191925307, 0.02811274807723453, -0.15915875090568335, -0.022280646280390257, -0.25455504614712166, -0.0913640430509346, 0.06854966649881838, 0.1162991778756194, 0.10647482565958986, 0.07298607761866986, 0.09392922482813494, -0.1655375957215658, -0.07491383928094734, 0.10413771827033891, 0.06409033026598704, -0.030604110687763794, -0.051422041297149994, -0.0707376324478832, 0.10298858331153064, 0.053234249216463914, 0.2236969898744194, 0.0348097607101739, -0.13239715562032875, -0.05511352781285322, 0.027494334575585838, 0.01965194271279879, -0.11338354188151016, -0.2665385195251875, -0.03866010631250418, -0.06797741870273853, -0.20930548107914884, -0.27127667060867316, -0.09650410492765386, -0.10754167354194152, 0.010630705283187183, -0.14505833899421644, 0.19044583504808532, -0.14898361029222013, 0.05202180600410036, -0.13870569467154123, 0.005250968997769048, -0.008291072779841507, -0.05540402296550002, -0.19477898785439463, 0.010900853272725452, 0.08285389177081413, 0.10307360048080459, -0.05313296139963201, -0.000872116242261552, 0.0853487937306268, 0.06049067901600249, 0.043705252366884946, 0.04790072089401125, -0.12928181649376247, 0.11528079372238137, 0.004118805137184663, -0.006573019043220924, -0.11007151578571295, -0.12060993948780997, 0.008416198681141959, 0.10996794497981689, 0.19729246612630863, -0.1175257781588289, -0.10107907820462177, -0.01168992195056322, 0.0951541271123189, 0.25297719607729136, 0.04781764019856645, 0.04626557187218161, -0.0010211337636159422, 0.08566190088247662, -0.08936205946783451, -0.05701090905910945, 0.12769863687958313, 0.05532499738325536, 0.12957085201380425, 0.03619040656302325, 0.0670523549828261, 0.016243613053290293, 0.049446451334579485, 0.08714491493465436, 0.01213906759801995, 0.045216967419444316, -0.1659859018714585, 0.1068615995272359, -0.038102913637898535, -0.08491169322376566, 0.1335543791413748, 0.04366564679769122, -0.15539233134239824, 0.08273560232871821, -0.034599599667842325, 0.12688119296314324, 0.05442319802014385, -0.02349396202602479, 0.052263655925485715, -0.0922453984647467, -0.055409667650637456, -0.06528876156889024, 0.0250711633266235], [0.11556392930607812, 0.1166372450830884, 0.046678897340082695, 0.09735446085840059, -0.09005826356516806, -0.06358326771832601, -0.18953836614500172, -0.0007882402164429065, -0.08350805487638155, -0.03053897655583228, 0.04120427682017255, -0.03800086143183112, -0.0730390953170464, 0.03483761148036374, 0.046481308434868564, -0.06017616931437491, -0.03768842241210449, -0.006414330445132838, -0.06851793455092661, 0.1783090059653643, 0.006812344949600498, -0.09440148825933689, -0.032427675580230055, 0.1008528718231498, -0.07714340012777374, 0.07074602716073684, 0.018624541254475834, 0.19817428746043186, 0.10059107204405114, -0.032527518620703404, -0.041050576085101674, -0.24886907656940785, -0.01518050658627103, 0.05953741172537042, -0.09024513497043565, -0.10983109860527837, -0.06039571008514505, 0.04951002045305262, -0.024779609104987395, -0.004656883190304954, -0.001486992974198987, 0.035175112509813915, -0.14122005145600922, -0.09722180681531253, 0.0717034671483254, -0.004841761015459803, 0.14445113712735777, 0.16761456334047356, -0.025391870316924803, -0.15438419210295698, -0.024637528120912158, 0.23111423734631514, -0.11630715762516741, 0.07057419304094058, -0.10682880954469523, -0.0395582792011577, 0.15320865405075648, -0.09798506790717511, 0.023069572173547364, 0.11881566556731735, 0.3359562036610746, 0.09758026767519275, -0.020624574451151085, 0.01801390603844822, 0.09347703319308441, 0.0905287969851728, -0.10639703446718603, 0.06390690094125315, -0.04798843352458785, -0.16912395180140477, -0.045704980700152456, 0.03954521018041383, -0.03613089395976011, -0.021594375156085446, 0.03759907292758415, -0.04340597881615414, -0.11811545201804913, -0.10319748047133889, -0.02086709067129032, 0.07557302092571494, 0.2676074409449743, -0.05267602285532663, -0.06182071926257901, -0.04134870924166419, -0.1608794125078593, -3.690254903903964e-05, -0.06530833416656018, 0.15790923292881998, 0.03096767061027171, -0.05824054338177266, -0.06555232708403337, -0.039194697190251704, -0.0373433367694748, 0.025777817137905168, 0.1778118931411806, 0.1765053229098467, 0.102330698233261, 0.05896918378562969, 0.02805272590812115, 0.008364077805122484, -0.09213497349281141, -0.026375197939185146, -0.013221245931327778, 0.07810006466323526, 0.1323688800385564, -0.0434010527006639, -0.06906916750244654, -0.106476045751388, -0.18518273873898544, -0.12638521257248445, 0.05076961906937843, 0.038373619222151295, -0.027307685503767533, 0.1386953963240648, -0.1171546703136968, -0.1385552864810895, 0.13780490707936693, -0.030766087021107433, -0.10827989578295456, 0.0544793364332696, 0.03844034315935832, 0.0687302698780387, 0.07517119155112692, 0.06177877177362689, 0.09310479669995107, 0.12980298589192427, 0.018822123034546737, 0.1834823240317216, -0.002223784965850345, -0.05478668294268228, 0.1895421244342738, -0.07917349489832592, -0.1288794839379798, 0.08111139091077933, -0.04530872535833838, -0.01734666943734225, -0.008404494367765433, -0.04785869982924891, 0.02069313151495131, 0.12254563183300053, 0.06690000467898598, -0.028316292277899842, -0.11760385822237346, 0.10864047974010599, 0.08665689047812854, -0.09084962912132354, 0.019243806439953177, 0.18469412963445722, 0.1936558978312364, 0.2903688836661265, 0.16836185220444413, 0.14817045206227195, 0.006123741109654558, 0.1983214270824642, 0.03812500191309923, -0.015413759614488001, 0.21587806348463265, 0.13607594867011094, 0.06798412039555138, -0.1435509219227377, -0.054180994440939816, 0.012376412027035717, -0.13927617706046458, -0.024642270557845115, -0.09784169715394567, -0.04448998253741448, 0.1417378985094994, -0.005792915026806059, 0.014811979656776135, -0.009430273294405673, -0.09069449033537423, -0.13521784890370336, -0.02866183560089175, 0.08751008966397229, 0.13297064965736996, 0.2062453020888156, 0.10287706764631266, -0.05017518109496469, 0.06697487770027172, 0.23960743247490154, 0.1701863165876122, 0.08027883656094582, 0.04322046830299198, -0.06367693121739953, 0.12057446600665377, 0.05864536750453921, 0.16051443140099125, -0.06697096934582089, 0.03717739153975441, 0.15605612874024435, -0.15929795020116558, -0.08769661442227415, 0.10932408841385247, 0.02551228379120206, -0.20425242369541574, -0.01589212126819166, 0.0505371119889434, -0.21440067962962717, -0.05212439651075444, 0.0988147343306269, 0.13391070980634748, 0.12729193451249451, 0.02190287670090499, 0.10910950981337143, 0.09377131705351047, -0.10598785111804818, -0.0743705860525697, -0.023255414011936912, -0.17540429769684535, 0.07313706825459089, -0.17926728325876487, -0.02345658307123773, -0.1112429663198491, -0.2590134175158713, 0.09075641787450213, -0.17023486977392122, 0.005825406509334722, -0.12352849113774013, -0.00253647751317563, -0.10557738419163126, -0.14526798673380484, 0.04455828036561047, -0.1031718046831287, 0.010205782702440996, -0.03979197378438561, -0.11174356247468992, -0.026498181989059833, -0.0020049634299920903, -0.08553798687236297, 0.11815447760723058, 0.014901627353968867, -0.002022007688764809, 0.14260635606431424, 0.09674729379138551, 0.0847578856950137, -0.021668721760183324, -0.1526016010447796, -0.08837671173838531, 0.0006333452702049805, -0.12068826937054719, -0.08934319700323, -0.020951539070479915, -0.0012848421543599406, 0.10402427388427263, 0.11589474604429613, 0.10611260897746659, 0.03535485073085173, -0.051382649939800254, -0.03563496453361602, -0.0971971277287039, -0.09115387100572421, -0.11639127506882109, 0.11212119053494425, 0.13696962163806492, -0.02265736388764568, -0.035271726350037516, 0.03660574043715239, -0.056025308329997636, -0.11614181978209513, -0.24278605836192188, 0.0168626924594147, -0.21983331991350316, -0.023715232418483882, -0.13160202755874523, -0.25651237532593624, 0.10266460310833994, 0.1405056470801699, 0.21747559930740176, 0.1628726379283145, 0.057722326882715606, 0.19671321666463887, 0.12318202505025375, 0.027691742172448647, 0.09110546348445726, 0.09126399177613244, 0.052551347340488254, 0.05131624180909677, 0.0114830783786859, -0.12659389321384618, 0.24766098955256582, 0.004726320419035348, -0.0226816625311579, -0.06373492890040922, 0.09787427071471867, -0.17028297292819278, -0.14564524533955986, 0.2452648213041518, -0.03773248627768466, -0.012781959231580646, -0.15617072576354876, 0.019234083128252942, -0.297928127264987, -0.0025019287128179813, -0.102806876385211, -0.110955398593925, 0.201292450755736, 0.21472678675454474, 0.23405443714125973, 0.24759023418116968, 0.050181917704829895, 0.06782374545515522, 0.1431230763506783, 0.08405376169298219, 0.045661807140306855, 0.03173400818370153, -0.01514098834501628, -0.17170528055759657, 0.11572563881845507, -0.07594109568941453, 0.0773764265983156, 0.053964498362323726, 0.023153673756185374, -0.04096601674385443, -0.24588387772181716, -0.04346348578715827, -0.3754609649782505, -0.18981201763084662, -0.3350477253729581, -0.25354135715699805, -0.2132873990435184, -0.12146278020377806, -0.21190209756220452, -0.3039150374930617, -0.1529793502820739, 0.07783599709758379, 0.19680707024552554, 0.05159797081099023, 0.06607422606729894, -0.0180038224823326, -0.10715682160886178, -0.09601961360071352, -0.03533828623465759, 0.019440610232155087, -0.1691652688414445, 0.08082348256844654, 0.11899969579179079, 0.0028866909893430254, -0.19074469763443647, 0.02963407470079302, 0.021517461832680777, -0.17423615689350905, -0.10883070250141057, -0.15210527659109355, -0.10392021262597823, -0.15644834635032326, -0.07949045378757372, -0.12010474023868337, -0.10096537389556873, -0.06483231600256313, -0.34397917678950063, -0.4009833139563667, -0.27233432868374785, -0.14403669229561375, 0.11086760170441087, 0.06774705992519132, 0.012447415384457539, 0.09153740562557867, -0.037130862495821794, -0.25011480257102786, 0.19652570877373715, 0.05428477701570365, 0.31128147078723756, 0.04989259958688246, -0.001644014387548196, 0.0045265704042036356, -0.05594598965773432, -0.08440483979160719, -0.08102454001006477, -0.004320872344056888, -0.12874958251960322, -0.03736658366140276, -0.05514395356824641, -0.06201254775998798, 0.012517223048968715, 0.03941834211670159, -0.10797563440378534, -0.23406573442046383, -0.3479611278073002, -0.3459096849298277, -0.3500009442908015, -0.06423963960586573, -0.07835514441803079, 0.15497182242934887, -0.0992840169423971, -0.2504180920457354, 0.06055844751344482, -0.1666736509820534, 0.011099250544166687, 0.007396462345073103, 0.26789783532629075, -0.007947540360726516, -0.199852012267282, 0.10634362837452242, -0.08942932204232203, 0.011878830599178125, 0.17643500480178292, -0.0473478225829946, 0.11836843285013605, 0.13821845622490747, -0.0036817657267517183, -0.1375978045099757, 0.03978987834973983, -0.023472972537162056, -0.15739291030004973, -0.2334898240160925, -0.21760981409611652, -0.3918431128211869, -0.2591471883391072, -0.025316300432040664, -0.20774090061042721, -0.203217427397801, -0.2384661902205026, -0.22947943172145777, -0.016414585183433188, 0.03618426436017747, -0.05019443333520306, 0.07607797415712193, 0.11922146362798593, 0.11283316583997434, 0.07055286734854684, -0.12767186359594793, 0.10828389462834141, 0.07686000013098417, -0.09886679981690569, -0.15297433988553014, 0.08678469389766598, 0.06190120584564587, -0.1471453277841283, -0.17549137857352784, -0.18997283323594782, -0.18986628170885775, -0.30564307339448377, -0.3190664794562318, -0.2721866786998444, -0.3281594216390965, -0.07213318711567988, 0.01052676044556095, -0.14836904751943913, -0.034181786200350804, -0.10352990502051809, -0.049448609931288655, 0.02188248277081188, -0.0874597203461857, -0.004455589428521769, 0.22903102767533265, 0.12411947915320025, -0.17318708991453113, 0.16780128254884782, 0.008337287931826072, -0.0832784021043563, -0.12847988923706619, 0.10864719750698494, 0.09015731094567431, 0.15028084680261938, -0.20206304849459797, -0.12641095328876287, -0.2011556011323746, -0.4351038904542717, -0.12754000314126876, -0.07312887805773484, -0.40052806976522776, -0.33426806128611597, -0.24361378533804798, -0.06888316228814967, -0.02855170911313701, -0.013132704388108197, 0.008725414140996842, -0.07340472692271158, -0.02473153065551191, 0.03531723477910423, 0.05138433011316921, 0.033448963260319556, 0.3278667434746694, 0.17195665810115127, 0.04281657491712325, 0.0018004869239680627, 0.04811264401103544, -0.03302683244790453, -0.029093839664008456, 0.05546095408467111, -0.0651577418866373, 0.1566272633697459, 0.267530697019859, -0.0774912777374848, -0.23008413883071593, -0.18845240620314493, -0.24151591585734322, 0.02082218511113609, -0.2045357138298529, -0.25541108526912465, -0.2009677530064653, 0.0421922633341034, -0.08463371105468567, -0.12266131477392213, -0.23462791701864197, 0.03536928240835107, 0.02635465699296744, -0.04997863855799071, 0.05704309944500997, 0.20711492415407126, 0.2413748300226438, -0.0006735903891103889, -0.10910373937867272, -0.03624339772692842, 0.20277333040446077, 0.058221195972120054, 0.1325895883356611, 0.021159318396282406, 0.20553950445972846, 0.2721824191283138, 0.10989274227651967, 0.0721916664705311, 0.06967385502715544, 0.10761992854009715, 0.09137753815928965, 0.14577222079700108, -0.04613596586220611, -0.17734195885343446, -0.010832802412718775, 0.00025634045903819106, 0.18056462024850847, -0.02780729426667678, -0.0023585840801734117, -0.23251813528679444, -0.12072409319386765, -0.12707729833562809, 0.04125193091674173, 0.025018732084810896, 0.11984352581737155, -0.17837621971943102, 0.0167292978236126, -0.17340702055320542, 0.09127306480400238, 0.06628707742873921, 0.04316343323107358, 0.062043755172082736, -0.07124273118466869, 0.3690911430092869, 0.1552021632161963, 0.22063718052665143, 0.14383012591042776, 0.21221868296754634, 0.4804028657230833, 0.3010337095860493, 0.19628208762533528, 0.24607928551000474, 0.12373042490413431, 0.021778678567620405, 0.12751327817094238, 0.025526439671220893, -0.18533665829054988, -0.048708281937354304, 0.05022245999019729, 0.165907611128246, 0.10476823159464374, 0.16006810948010936, -0.040836398615817476, 0.036400440577703363, 0.054411134310809135, -0.025292285001910827, 0.022445008659904054, -0.05601940453945329, -0.14226604078864044, 0.09314635412810503, 0.16046078683988887, 0.16232236774154515, 0.18258266800685205, 0.2539410020028025, 0.10087888433860964, 0.27098452923408983, 0.38908053643104173, 0.39263765053886207, 0.18561643617779883, 0.21837897325664848, 0.21113158555330233, 0.1401737662193375, 0.21421858335375304, 0.059345087639158745, 0.11550096318336864, -0.10252602203506725, 0.07058236043978738, 0.2718570971136299, 0.21894621160238692, -0.005943915402379203, 0.018847381895374635, -0.016188519342258584, -0.03285637795275799, 0.0686514413915646, -0.04255984640263161, -0.07815927672168231, -0.0930783556776851, 0.040903070003008406, 0.07008175873520178, 0.21600938461431335, 0.11938496665453797, -0.012991289939668254, 0.02641198248641559, 0.1301559677574148, 0.14732553182578784, 0.11283855560595026, 0.2729707287669146, 0.2826405283891116, 0.18783273253206695, 0.14589763247759996, -0.10976107643738116, -0.07910470987756033, 0.20047081823325769, -0.07313727494896331, 0.11888272652789522, 0.18343234832179836, 0.26233779802135987, 0.34296251799717714, -0.11177653232981659, 0.17554143413037712, 0.07248301042992486, 0.05362793428942092, 0.10357229230285434, 0.002156812841538113, 0.09265717874035861, 0.12593529046121202, 0.120229105949442, 0.11338672411310437, -0.016395581294951285, 0.012790874409929496, 0.02701838344362027, 0.18167396167622524, 0.035274559178024904, 0.17472899470186293, 0.11707039202649566, 0.05369171774197723, -0.005079931784128876, -0.014480209661154961, -0.051228381114782874, -0.030796226372181972, 0.07243398981210472, -0.01608472652434529, -0.014261303268169876, -0.020432595078834184, 0.12627391955555176, 0.03641050699151606, 0.053395064127218825, -0.06320236538057719, 0.021814218869289397, -0.08316881839158621, 0.1016226724103674, -0.010772721505742353, -0.28053992879986706, 0.05560661885707931, -0.07311495534243312, -0.112976901294239, 0.046703327274649285, -0.014375449607596106, -0.14633138075323263, -0.07112511374586548, 0.059804771059924586, 0.16156067162036286, 0.05062317149767924, -0.2973125907496513, -0.16216540197548912, -0.12893568138243292, -0.11268931316549519, -0.06229145194776225, -0.21500799705045254, -0.04919700508209414, 0.0005024508841376205, 0.07663324372660514, 0.1583787215862324, -0.11798004224397647, 0.021903910420677568, 0.0006587672931899817, 0.08092547337280678, 0.010153028595112468, 0.03421590495607997, -0.010910268861348202, 0.029215922318061336, 0.06889019749091826, 0.07041511616140882, -0.11590773893189088, -0.09887482745934707, -0.2220976568800284, -0.12042413048129254, -0.15911938472189285, -0.04155649214374563, -0.11090423359632559, -0.2145570893534725, 0.039041226633194745, -0.0687732342075348, 0.03349694131716009, -0.014537273151342229, 0.08489380811091665, 0.13973216752044365, -0.18055321698727286, -0.11872886942656692, -0.08351494280839392, 0.11476346554257134, -0.14646450194891766, -0.05586604533166998, -0.10387215893190797, -0.02014647312356267, 0.0749665627246953, -0.007137202431175104, 0.13038328247846412, -0.04298401716211226, -0.07292116522256654, -0.23324966580752055, -0.034594110610282586, 