{"internal_architecture": [{"inputNodes": 784}, {"hiddenNodes": 128, "activation": "sigmoid"}, {"hiddenNodes": 64, "activation": "sigmoid"}, {"outputLayers": 10, "activation": "sigmoid"}], "learning_rate": 0.01, "network_values": {"w0": [[0.08750660558562168, 0.01825107649299156, 0.03853298033540355, -0.2441953351012794, 0.01632037102626238, 0.007585454282736718, -0.18312981273929999, -0.08517196357675295, 0.14976204506052318, 0.15261311609336115, -0.002298488317323569, 0.03467361458772694, -0.06853239669252073, 0.08955308326984848, -0.18544264199925758, -0.02767112618745134, 0.009710441512531497, 0.01301560512517756, 0.12037647632354471, -0.07465812272341309, 0.0973347309572236, -0.017211743786510466, 0.04451292171576682, 0.22405281529287902, 0.053093183115636114, 0.1482044244066662, 0.08974440703968836, 0.009905766814508811, 0.1383318149668021, 0.1215361490450942, -0.02019968875418105, -0.02117404546181175, 0.06388965366822155, 0.045792947772912256, 0.12176473046240632, 0.011991157785716935, 0.1805354433634458, -0.1315926918520888, -0.15601909482701962, -0.21083800396199362, 0.022972972643275847, 0.19301447355089757, -0.030470956472573342, 0.027292587506940098, 0.06608764780806689, -0.033000810286078285, 0.04054648951233895, -0.07821846591922516, -0.10433156039664784, 0.11667494572903128, -0.091638366571102, -0.06989443233373817, -0.015578069955334457, 0.06307862787458622, -0.09124262907263082, -0.028502697455212916, -0.12932019683374993, 0.09077261011585014, 0.027096246770671337, -0.019644867590707042, 0.07578571809833785, -0.09888842888258383, 0.034908780591765394, 0.05767600043237206, 0.012128363033191265, 0.13301652449974216, 0.06986455004433913, -0.1286529422326511, -0.07500854162068915, -0.014602231189555928, -0.19623259143201724, -0.1743882917496259, 0.004856953677894505, -0.08497248661083359, 0.06628992214853806, -0.15640933296586387, -0.16220707781489285, -0.023593996986856148, -0.2212014471135116, -0.003553673948087987, -0.047225544157731496, -0.1319210770935334, -0.1801623253367052, 0.03791292070273024, -0.03710411133222352, -0.036835405179757356, 0.017094768284875047, 0.058265379048662955, 0.054306335834401295, -0.11108419373726172, -0.1375490497663871, -0.1657682570229989, -0.12144252574068527, -0.08201004321994572, -0.07663851861364925, -0.06777994390965048, 0.04067785676989926, 0.005049360692783958, -0.16839829005800364, 0.05848166438157054, -0.08948478867037434, -0.08649560577481351, 0.10923086011650748, 0.007891606258898927, -0.3036276571614761, -0.0861476834070545, -0.03758766133874986, -0.18568861691619798, 0.059278256634691294, -0.05663427730451515, 0.14246937442245047, 0.18706466836616029, 0.14776402877674283, -0.0016068456136005898, -0.2193003229616963, -0.0021811664344215877, 0.07154071452139026, -0.09529729597523136, -0.004696769941532829, 0.055970737433946594, 0.0224373616042877, -0.19539987798777853, -0.137493582929845, -0.26912131656146404, -0.14354767522826897, 0.14145757359693645, -0.06899209423794882, 6.670752278065032e-05, 0.2096125950052139, 0.2441306927558989, 0.26468556597838744, 0.029562060919318078, 0.11567625811711126, 0.10826229439713024, 0.020514205730441572, -0.04879745159686009, -0.15880372148998095, -0.18237819957513338, -0.06859807116623383, 0.0034946726948456137, -0.2190978319057012, 0.13576680618799356, 0.1152044454611741, -0.14654720376763705, 0.07659671109680731, 0.07306068560572922, -0.04780161645722871, -0.02452127797156201, -0.039933728834436986, -0.22147186544878458, -0.1684504665270749, -0.08264782131762927, -0.3181008464167621, -0.20984913337606703, -0.15679187142447254, -0.06695316129344152, 0.16097815854960043, -0.006706018556221073, 0.12715112173661156, 0.186327966556393, 0.2586446062191657, 0.19676896494102178, 0.02469405662348933, -0.12760554658943438, -0.30178684387469257, -0.0683716478478942, -0.1206467047727489, 0.1118709459554531, -0.007960975942596695, 0.027554895452797077, -0.002411546380877039, 0.13851614198346943, -0.19556526967369248, -0.24847779020527852, 0.014996862521287862, -0.08539946298769262, -0.2956373786585903, -0.1957341052586521, 0.024618677353964443, -0.197160612655015, -0.011877074805139366, 0.0974922506688334, -0.16398774521337303, 0.12590243988569552, 0.09766605253423251, 0.15742225985514022, 0.2707945745249905, 0.2975447430406727, 0.13977121031250725, 0.19210806534239408, 0.07850524316669324, -0.06909933926462576, -0.020896746348555564, -0.09513098126228144, -0.04391942981027394, -0.16948314385300234, -0.09296215937901366, 0.05380776264555374, 0.0439620254237226, -0.10767346655380128, -0.06605916778152175, -0.05097568684746122, -0.06904741028169985, -0.14768974557972772, -0.02274484972183406, -0.04798206481919684, 0.0964971605021497, 0.02973414052259732, -0.05953828004134582, 0.02111302671390668, -0.11040810620577274, -0.23958583420948157, -0.17078328913322122, -0.12637662708077385, 0.19312654361713485, 0.47219015524325003, 0.4333021169794824, 0.0994418176999134, -0.0075638028209120455, -0.0335815426964421, -0.15550340549307695, -0.29299642141505927, 0.16363472122538017, -0.11694905055853744, 0.1543624138078244, -0.04376222347411331, -0.14325645823124145, -0.14210565598511596, 0.05473711227657115, 0.09680826894635941, -0.14342834897267198, 0.09972732565406249, -0.03655171060662383, 0.029002906537974642, 0.28183935779644037, 0.2096580218444096, 0.1161024832961803, 0.09444718661000673, -0.16955865118929067, -0.4416501457242779, -0.21563081304108933, 0.0884056574531312, 0.358922881403536, 0.4701726002465314, 0.31167594780361624, 0.36928780268368655, 0.216293147233462, 0.013531672203068846, -0.28927410066398407, -0.018537107316613746, 0.17285546264945575, -0.009771817276147529, 0.024575773163464595, -0.001335416095007155, 0.21390378183936226, -0.16643841206108095, 0.010741280083769959, 0.13412734675963675, 0.0015099930409742087, 0.07604620228938862, 0.015137815940506718, 0.2671853964096354, 0.2514892905858515, 0.06982854393168857, -0.006009612212743107, -0.13805878041164812, -0.34871651610498705, -0.4719811769592772, -0.13985740095624036, 0.22932662063391032, 0.6029939198974131, 0.6937131569712788, 0.44603758688931266, 0.25090410576845623, 0.13888981023916164, -0.09259606262963897, -0.3028843277311912, -0.0698809256275927, 0.05914189921079662, 0.07019929397824293, -0.1303560054560617, -0.033621963934916614, -0.010024772979249027, 0.06203043790359635, 0.0790776102351269, -0.04973989273500058, -0.027025507834830764, 0.04857544212218738, 0.03785231157057495, 0.20283659179268615, 0.03313853542454356, -0.02742612214990559, -0.39246901784072136, -0.6150399838561955, -0.8067085268695773, -0.5204764829167395, -0.03881755434468235, 0.2668953792347673, 0.5538395512752086, 0.38637346969140823, 0.21892892277635007, 0.3412482806404078, 0.15940622416126674, 0.0009739614709095816, -0.2699365087498731, -0.00607627890626901, 0.13115490608246977, 0.05221398009708297, 0.01803612727377089, -0.11097508139594385, -0.0659993098619959, -0.08636200319643361, 0.06285990390952254, -0.07911151034428562, -0.16289616626152958, 0.12666625473597623, 0.21902246346022178, -0.08408226519144338, -0.08719540930318666, -0.2386393145206524, -0.49213740982912246, -0.7097254628400019, -0.6782926018346279, -0.25966743031594103, -0.05650117642827859, 0.3369574355664986, 0.5003292605606662, 0.3063654839714208, 0.3410557805453326, 0.11339634183889824, 0.025919626425707123, -0.07726676945042077, -0.21724949060721163, 0.0799076776347586, -0.015743034043620225, -0.07605926451513177, 0.11345239575979305, -0.1395900019473898, -0.032931552997430114, 0.09699108349755761, 0.024508421618995954, -0.12125316261138094, -0.07891967013565726, -0.3009411604584341, 0.03031308124807016, -0.2258238230572089, -0.13115291758645253, -0.23393965922050167, -0.39717992592759827, -0.5835667701156297, -0.4037236491863412, -0.16288784867420134, 0.0626867305532866, 0.09115160010369443, 0.29957212571648517, 0.44303344543169376, 0.39190046864681405, 0.2212214212603089, 0.10710156683437032, -0.17435035629336224, -0.17180374404510249, -0.0870933921215646, -0.007671026991529133, -0.0072812749449864544, 0.06393789053299459, 0.140138765365675, 0.06069572191136894, -0.14822098371039566, -0.061792799525799115, -0.09342951551033929, -0.1624191293203583, 0.00580582728627035, 0.04613133838197417, -0.32158381475185494, -0.21802249134526092, -0.0635447781815566, -0.19501428561917183, -0.20957594813018252, -0.11940205903303139, -0.18500981558032628, -0.03995021753780222, 0.3121894677176592, 0.2227018600266518, 0.35725769807691915, 0.3334968792413495, 0.2389772553768974, -0.07776688336352867, -0.4040341408731816, -0.0676660241932421, -0.05727238426743234, -0.13421077267378034, -0.0778688792081404, 0.10984200158142554, 0.0513827393153556, -0.2079788654976453, -0.014244897961010639, 0.16843440697123715, 0.025800275239008474, -0.213945953137573, 0.10009935147821142, -0.006820474255205606, 0.0019114099094109179, -0.1004991965550621, -0.23581938715951517, 0.05128937731885122, 0.09715008021662734, 0.11230969432583979, -0.10181474804532903, 0.070525967573157, 0.35953606013980755, 0.4749358576419717, 0.3040851114460955, 0.23988682101393563, 0.1673922307010534, -0.23683193052526552, -0.22829891328888194, -0.20220885207209816, -0.21250528283781003, 0.012099458881430858, -0.160877808524882, 0.02822692119445012, -0.24212650977055608, 0.08354952177613297, -0.11497082861510367, 0.06663529225085438, 0.16101262021787593, 0.16195624899832883, 0.020520306302942524, 0.14649665153405192, -0.20294251856155424, -0.31138442098703556, 0.14783034661129832, 0.10195499177675678, 0.1630902794266036, -0.126596693892193, 0.1075613493762386, 0.31095350613393347, 0.3760012018195442, 0.2901883544870565, 0.21066801076719321, 0.044235052594596036, -0.09443514985641271, -0.30285627732817233, -0.007498790822405904, -0.11714337245690644, 0.11769828900146172, 0.021918795736886963, -0.1361756235594181, -0.1931254144686279, -0.05369207572996341, 0.1648067320783475, -0.02089313688094013, 0.05690433674692114, 0.1404260497786675, -0.07255440210359251, 0.08802494019952357, -0.04428450930539763, 0.0760838019021846, -0.17466793321942894, -0.05453236701701862, 0.06967393779114571, 0.4246016934549458, 0.1258819300134649, 0.01599866639723427, 0.23916507077272084, 0.1284752466660554, 0.12707262861800875, -0.09660607676215764, -0.09451245207735365, -0.09259821422383507, -0.24558128599989265, -0.21862839315325308, -0.07974703708615857, 0.006574610606735713, -0.07964199636033313, 0.0940778154522522, 0.03500299681325253, 0.16512901076270467, 0.011426659929974289, -0.17551899870516877, 0.1434722919665055, -0.0162705630621708, -0.01562624402389151, 0.0034855288322677945, 0.10800160320165202, -0.03923392763826879, -0.30029654067702954, -0.06424192747993404, 0.19614253985252894, 0.26647837746891934, -0.07351718581052052, 0.024817482549762054, -0.13423602135018017, -0.02921380725140586, -0.01465912080721525, -0.21599433401323498, -0.30125087149248103, -0.24932027415228394, -0.1145292462547512, -0.2772056803015743, 0.014695704276003403, 0.027154204444115503, -0.11767400822824789, 0.011830991093488646, 0.1270319703395774, 0.14482185089140942, -0.141359678493086, 0.08963458885462496, 0.031922829824025126, 0.08598073965002258, -0.1699094813096236, 0.10482639337051919, -0.10500936032884287, -0.15775059871052632, -0.05681691214111294, -0.18339362929801523, 0.20597008996434846, 0.2016464719654462, -0.04079560774121868, 0.008929302899589264, -0.16125872590744555, -0.2342067058103854, -0.19991969297614973, -0.23143712611573575, -0.17701579968581801, -0.23908029808363856, -0.21081727216870738, 0.023401260503837305, 0.09942773460988698, 0.09676869871573959, 0.13083584678927668, -0.13851237718088197, -0.15673766341686365, -0.007957221990451312, 0.2902820504571737, 0.10224165687171623, 0.08705138718814301, 0.11496593114307789, 0.00574803638156845, 0.023480961875229, -0.00439762605702447, -0.0601333081742161, -0.1870846490362696, -0.011006364968093596, -0.11520308710406905, 0.03508811780200545, -0.007022947512339406, -0.24081490533809932, -0.09298790279674668, -0.16214547683879882, -0.14588480357871034, -0.2556104308318219, -0.35650941029819594, -0.22175008828899098, -0.02934360656634503, -0.10128734376211403, 0.025429545865563785, 0.043847666243914694, -0.17306208847082055, -0.09202560909331522, 0.093590727392446, -0.0076214214206115315, 0.02689226787492339, 0.08176042575333957, 0.07808430349203464, -0.013020877801611826, 0.041235620054495346, 0.0432003872576955, -0.0436079872151683, 0.13689367027504168, 0.016080727023578975, 0.03637357739174016, -0.1987520376181071, -0.1361563316439408, -0.05629373729688957, 0.14240750734863952, 0.024765825903574214, -0.06323488529617073, -0.2479745712169051, -0.16330204195787448, -0.04247860272941565, -0.042222421965277146, -0.0478123894797313, -0.024652585746750715, -0.01988158318026836, 0.03791946119038943, 0.0221072566007632, 0.02347165223316767, -0.08928131356141127, 0.04240872033997408, -0.07079016648458936, 0.052280497504122114, -0.036579558619900934, -0.014301051114672506, 0.14759835404348484, -0.05609532038224428, 0.28429080438359017, 0.16836042489075764, 0.0764781060601851, 0.07071628437345605, -0.05885546917850602, -0.013242483062356257, 0.06201691830874717, 0.052165552517052335, -0.042741162524873415, -0.30020364967587143, -0.027033770430596977, 0.16255898453893364, -0.25993379452513643, -0.04042027884644422, -0.14771266098020203, 0.1912964869637869, 0.23897218474838794, 0.07067755414683952, -0.07423712710135613, -0.05314903328290352, 0.1368060466091495, -0.0403649377708891, 0.0058587785799516, -0.023306243895007687, -0.055768434922477995, 0.016012217991084644, 0.11985934052571504, 0.20660301571437356, 0.062092333889453614, 0.20804879148048533, 0.15067824284397618, 0.1305936031075346, -0.060711517133453866, -0.14076160482431294, -0.26154443142279504, -0.12603780530949768, -0.1382653611219244, -0.1114011358066715, -0.20629939713209972, 0.009986997621296899, 0.018526373515968992, 0.1399494434665479, 0.15886626309335727, 0.16345683084714477, -0.00642977304841395, -0.07886567171923038, 0.18565401363013825, 0.0037913558958417907, -0.08384689594175616, 0.02410668518134186, -0.02254076416441488, -0.14861160755044803, 0.136711916868924, -0.07187728495007575, 0.05074469468607602, 0.07260819167745637, 0.2310839306167578, 0.1635975300562409, -0.15072124226202513, 0.01903156100279564, -0.1941441928525793, -0.3111606931609756, -0.16416821071631135, -0.0581573671036071, -0.44087214020547894, -0.19987898554101124, -0.09979504617460268, -0.0563500733064773, 0.2503878973956324, 0.20626744921957754, 0.1158369507191832, -0.07686833459191862, 0.04727611234175477, -0.0007059184206732303, -0.056067013347989435, 0.05628325638543933, 0.17593014962902068, 0.05751065453009627, -0.04198716711759942, -0.060582369955254047, 0.14022198821388962, 0.06807145792946451, 0.05639198983680385, 0.06411847443157428, 0.1081756643424363, 0.009837149365842623, 0.14601239369229682, 0.11491653299500913, -0.34194834619917336, -0.20720121916152576, -0.17424853379263133, -0.2570659922699909, -0.02993776399839581, 0.09499932752197507, -0.07287465056545946, 0.12230704094752314, 0.11719914574004621, -0.01637497648467998, -0.030782859175170044, 0.062390240335042015, 0.1353685825342527, 0.08456715641186364, -0.05867234777882779, -0.044814719201025324, 0.005716381758024265, -0.017535606138324927, -0.16733384557737632, -0.04278306598803097, -0.14553175532164253, -0.13190635849060683, -0.2077517344001398, 0.06907927718465717, 0.09079513940248812, 0.039676437228075685, 0.13300752950837322, 0.02705292728247226, -0.06285392099625879, 0.07016458745015604, -0.11154808202706581, -0.18556181675480005, -0.27717588692074885, -0.0409790566495867, 0.19772228899415956, 0.0733393036112996, 0.08808070439072399, -0.011546514617351147, 0.11375912481962444, 0.0664391295315926, -0.08560611411100484, -0.03674729551045871, -0.09383039654434795, -0.03228517972959616, -0.023911586025385467, -0.0642513024358278, 0.06718799188350828, 0.15354843466274723, -0.0863628924525285, 0.1857551238156209, 0.10800418890900287, 0.011420410695801854, 0.21316344391952435, 0.10417830509875083, -0.07365486996546332, 0.05364895664957768, 0.015587122021300292, 0.060378213558605086, -0.09321642082935386, 0.11565221109327849, 0.05183832571794376, -0.09810127025451543, -0.06823315384441674, 0.025081087378789967, 0.11241761103761343, -0.16889424454025842, 0.04583641951149824, -0.06443062682129173, -0.36651550217320134, 0.13167422499501294, -0.09040595223137528, -0.12398901113147645, 0.03319036782591801, 0.021063072798633318, 0.07297547530913753, -0.06607513849549268, 0.0008321306599679915, -0.07619360561596447, -0.07938711617514345, 0.20208385860375283, 0.15836645557544066, 0.034737338461857274, 0.06381364490898135, -0.04093275108339607, -0.10403349788480314, -0.21484544761206067, -0.004071500206257902, 0.010749352980852472, 0.0136564639149034, 0.09442400114506595, 0.024991984804667532, 0.014630763982236372, 0.04724906570710933, 0.039160677982455955, 0.07138206769367371, -0.18119918977183183, -0.2603626721257828, 0.09445455832009081, -0.11223757491137797, 0.008304693893572274], [-0.05512798996020152, -0.02790125738646486, -0.06905648071216172, 0.040034034960713887, 0.017830133025164126, -0.17026131874470923, 0.016044646150922194, 0.10985297605686616, 0.1386451572313983, -0.21180509609027603, 0.15025276173160726, -0.02151142457005248, 0.0259397524391185, 0.06394145522508464, 0.014908605125888173, 0.1174995549112099, 0.204391896942628, 0.05043485011205837, 0.13721332584802415, 0.144110330969649, 0.05284670591085331, 0.07178817754314769, -0.12827214303453202, -0.09620631659447647, -0.1240301903518356, 0.10147137458164557, 0.03899872131337284, 0.034543725869325956, 0.038550555069711084, -0.028519102820391037, -0.04837019298864942, -0.04210498371505459, 0.03653380791940729, -0.06670372008342729, -0.0771854774039087, -0.07207629902758489, 0.2850304010425548, 0.07382019673957141, 0.1784809624513843, -0.06469969066042254, -0.12833798491755366, 0.023769623692262955, 0.18458425061506487, -0.08963259232417302, -0.035572778617719895, 0.19064647361543316, 0.051231703833550385, 0.11765130005023669, 0.22527227821185294, 0.08441630424576121, 0.06018152168161553, 0.07350765286646574, -0.13119580722947138, -0.0360492989811219, 0.0023520586540728226, -0.050371478186708785, 0.027078841391200644, 0.05692233979655259, 0.07728405438562269, 0.1555149927828477, 0.13743556589809158, 0.18908094220961338, 0.0949357967809503, 0.0753526973309187, -0.07859397068064297, 0.09955295035593827, 0.08931294168308274, -0.1358977964800484, -0.020709102483152577, 0.0417571582499815, 0.12751372233508096, 0.08158179047202906, -0.17403212739308033, 0.04879844528922907, 0.030540571927988012, 0.10287178963453845, 0.0012648420749911003, 0.24420231968790196, 0.0023463751455711423, 0.0995403200731257, 0.1150975840937075, -0.010622923751124008, -0.05675184355482297, 0.15516088751914375, -0.06654733404455365, -0.0004994155591466224, 0.045426039253468165, -0.022059582915995656, 0.10960340602694689, 0.0037779447159726185, 0.07010418278551823, -0.11867008348085263, 0.11124592670106861, -0.013018461211740958, 0.050260647665787445, 0.06856811062741729, 0.09745992697008714, 0.06320633120339166, 0.049806413884648494, 0.06656349664998902, 0.02555357094514631, 0.00048406375864646614, -0.0861053644463664, -0.03029394078804892, -0.16676999052042693, 0.060004250970117884, 0.011093401439310452, 0.06397703522434416, -0.023589492065379723, -0.10073141091516322, 0.06714613228245726, -0.02046195940512902, -0.08986540529998849, -0.15166764420944034, 0.00533515170221219, 0.10605568211233646, -0.049877120485678494, -0.002433249754978315, -0.04693750550207616, 0.1825168640909621, 0.22100645411666792, 0.0792084445142668, 0.17616250892741528, 0.03659376663901585, 0.013416900694166034, 0.13839133207676008, 0.08229413047917716, -0.030825041711729183, -0.24975593415890684, -0.11066006668697168, -0.051640214558603965, -0.17143087858364087, -0.11081511306585004, -0.06706296717188726, -0.13313632262132852, -0.1350663704916266, -0.032493436286912224, 0.20612748387151023, -0.04285416040169722, -0.02014012442945321, -0.02060003976365253, -0.11112814949909398, -0.13894882074185655, 0.015124939952261824, 0.20864712362325696, 0.20455486821230742, 0.14753820927312594, 0.08371640331348228, -0.022012759322414463, 0.2110262455411155, -0.08645044397620455, 0.006768354705818004, 0.029837076372015183, -0.06387794024434156, -0.060795110785370685, 0.007673674916338414, -0.2498025999672154, -0.30396751480519735, -0.1387034665710547, -0.28180219073697377, -0.15185794977544428, -0.12577430500701733, -0.2264959983858051, 0.0310291645898645, 0.09571233980968755, -0.13100487823190932, -0.009224157747314004, -0.13388608722321438, 0.015708170655345768, 0.14359785269326775, 0.00774440794764308, 0.18716989482657015, -0.06462543174231751, -0.013142624845653804, 0.07022634117191968, -0.18783492423776127, -0.10477494940316266, -0.1428151972021901, -0.06880766549810795, -0.008681013499884791, -0.003273514244267298, -0.009307194607740833, -0.032353221889425056, -0.03770234062489693, 0.026231679158287426, -0.1274243551671317, -0.19089883983682288, -0.3718818791905934, -0.12977689920184135, -0.22206579261866471, -0.27755706707325156, -0.08248814570998707, -0.09269903293082266, 0.14556892089282036, 0.0012242501119598312, -0.0383256462390488, -0.0869222371860044, -0.11489741668918489, -0.06683695951039129, -0.06424655705457659, -0.008542876969955539, 0.0006083260041425009, 0.059236572495278784, 0.0522111217636695, -0.07321565375603176, -0.04849765415451837, 0.06942453393079652, -0.06740882171126604, 0.04437026625771548, -0.24926394116144016, -0.041698559019154716, 0.022021506639363298, -0.14661540553948554, -0.07112326763319922, -0.2924642015148823, -0.31040920378364245, -0.5323000486534553, -0.11065824689743739, -0.17713645147175985, -0.0897719770663139, 0.006112869795359042, 0.0371352932825253, 0.024387796341746877, -0.19632370714470954, -0.08863800056723849, -0.1404763318023199, 0.12202552480793138, 0.19147582301919083, 0.2214898062299327, -0.01638566898291354, 0.010909907350427085, -0.1624181678146543, -0.10921802831234606, -0.12653213681040903, -0.2146800032167382, -0.10980047533895186, -0.08090768465001147, 0.1155598991572532, -0.10643574455198833, 0.0012864573726674416, 0.02860231287862838, -0.16732570568173344, -0.1482299256241234, -0.39840809859453513, -0.350609436979399, -0.1098531465483137, -0.3066016250850071, -0.019898539440175375, -0.12755534058099677, 0.0861342984098699, -0.1766664051426879, -0.13074220671452888, 0.02646843480299065, -0.2713195507846817, 0.011067009154343931, 0.03517476584018138, 0.12001277844733658, 0.2325926664839664, 0.05226181670950079, 0.09589209955620523, -0.12033733134852902, 0.05037499735030719, 0.05015477365154654, -0.29414195783683145, -0.11870397607215787, 0.25583707214856516, 0.3610878992491878, 0.12030309639730676, -0.047013592153428804, -0.17030637021737066, -0.10887622902533314, -0.2048438884899786, -0.11135432970963341, -0.24301251157682977, -0.13344915240951177, -0.13162115353054132, 0.09526889092637451, 0.027038900102897393, -0.06523996467328279, -0.060525825661234156, 0.07349132425769495, 0.004636475375229671, 0.021390082333832796, -0.07751547480632903, -0.03381073966005405, -0.10600581460467638, 0.06590716101119021, 0.00723218234468658, -0.022283215280818856, -0.16509763998588647, -0.04724269296735011, 0.12356220401781061, 0.07314686589948945, 0.44126637397208485, 0.3841695891336502, 0.07117106334664351, -0.039489668050358036, -0.2583347536516913, -0.25182541972067896, -0.17965533830949756, -0.051247049063044406, -0.1801839996932218, -0.02818478099542986, -0.15738538946467398, -0.25980895524725717, 0.02199826786158277, -0.14319472630960717, -0.04499672670326378, -0.07383262252607935, -0.03860561058951133, 0.023854814658261694, -0.10559286543880124, 0.14376010467676498, 0.25797779768952384, 0.09896647154703629, -0.09460504072639514, -0.17042531128541333, -0.11043018726658439, 0.03202375013623716, 0.3751118016422551, 0.17666128744153775, 0.24902802635515986, 0.38700170844633996, -0.14055603424366042, -0.06440318977614466, -0.13460182720273872, -0.16115551394423086, -0.08464995495021817, 0.010445243078883618, 0.07770699640620031, 0.08326808603777597, -0.06673911981377068, -0.07595268564439821, -0.13253006000964135, 0.07836700881171718, 0.04932742030617929, 0.11456234805888171, 0.24471743320676784, -0.08807132621282085, 0.09495001546495752, 0.20958949140568844, -0.21657356935318584, 0.018004920626632146, 0.04053628686701257, -0.030924214322620484, 0.05964285246984776, 0.12636125750939306, 0.09842019670423632, 0.043465945110229845, 0.07286203479951162, 0.21779737561979604, -0.03143267603754446, -0.06837714604397443, -0.13391986111065932, -0.10439487648193332, -0.10845864597495704, -0.15057422415489713, 0.009359353706587937, -0.05792056450770661, 0.07634823340837585, -0.004427770813841462, -0.2307889655232884, -0.1297530702880093, 0.015546860794282321, -0.13103973112610617, -0.017947069230420602, 0.022223110395897562, 0.07504445537647833, 0.0063906496451430405, 0.0895810983681725, 0.11432767342442754, -0.1313686834142542, 0.005434150380199853, -0.026847301318424225, 0.0255146332205257, -0.008417952387689717, 0.11067708795765373, -0.013561233801478735, 0.03245826505139953, -0.15592820791615558, -0.09367825194877623, -0.16912017645800245, 0.07256666771122405, 0.09948630408198324, 0.15697344785062914, 0.21630315630277996, 0.09640688858286008, 0.1244983008022792, -0.12296537496688617, -0.08369680388578184, -0.2003250235291699, 0.01972583466357261, -0.08354612528267762, -0.13013511790680565, 0.04572707877572075, -0.13286001496302433, -0.22451489167241315, -0.019399156872000833, -0.022617382629587873, -0.23203731437338418, -0.0032938722964595654, 0.056378768823081814, 0.13183583916959732, 0.13207906322126903, -0.004552910347437821, -0.037442323579876736, -0.1773146416228891, 0.02126458632507284, -0.17964165327668133, -0.1755077196472372, -0.11930911094242849, -0.049725532332044506, 0.1857010955280499, 0.23204683762948564, 0.12497391315396257, 0.1680823801002939, 0.08069051454394015, 0.010953849523426736, 0.013398084385976306, -0.15195768284739386, 0.1225659215646173, -0.09958499808638553, 0.0830382699850914, 0.06279632651927239, -0.03898769750645356, 0.036374951789826956, -0.018890496260913252, 0.020843778325932077, -0.04821366364003769, 0.19318151120132074, -0.10382831916031283, -0.11548689317033592, -0.15331728081962948, -0.20978498902843798, -0.1226951590144452, 0.011427290015790962, -0.23657172313835664, -0.011446398009929835, 0.18739456786661415, -0.01144816341138442, -0.03849694077180868, 0.2085359442522813, 0.06095671886147042, -0.03842771283329106, 0.13217232404119447, 0.04184393013496559, 0.04288057201879663, -0.03259735458019763, 0.013086744069113344, -0.1131921345766587, -0.14159646544403717, 0.1325211639531788, 0.07848304768049133, -0.0618916711151578, 0.021984675619550604, 0.014196737113485725, 0.07568276851575256, -0.15377490196265173, 0.23334374161926763, -0.0174380802245419, -0.15864254215164714, -0.05128304063590671, -0.10633660790551697, -0.2102594498574809, -0.06617073858458758, 0.00728501046869145, 0.15726848526025297, 0.1730187720915616, -0.03529380147967923, 0.13529493011281035, 0.263801046719035, 0.015404966264693828, 0.06537023805577231, -0.008496920174872987, 0.020225281366793118, -0.1403342040722791, -0.05326646148532969, -0.13035840028566922, 0.08215254476149247, -0.04655209911305176, 0.004707664838148046, 0.01002190929647569, -0.2486057382947073, -0.21399181456569838, -0.1795925890628329, -0.011244164456203614, -0.034220939838281665, -0.06203822277443311, -0.190797873038503, -0.42400603871611153, -0.040031199040160476, -0.1827513947760383, -0.03122205874592291, 0.06880396226656106, 0.24678931544423696, -0.08909259937554843, 0.13226602124984452, 0.07292758146224429, 0.15182999853478038, -0.03246113635932598, -0.0935200292334023, 0.06377906835806824, -0.1278959055673739, 0.05886142680306054, 0.0040838378273981, -0.01880896139226944, 0.04233879578714192, 0.1884483547611711, -0.0699479803102798, 0.05964435391419443, -0.19943053062692426, -0.018744244455864704, -0.009873642966237297, -0.24821038325478964, -0.18205486276248464, 0.2098630547230004, -0.2499493117173896, -0.016059866012418395, 0.026798005957482548, -0.03283352311726895, 0.12856022305251757, 0.06373692328334668, 0.00788429179282588, 0.13833550811275017, 0.016392159081498422, 0.17119734519991875, -0.009844903544470688, -0.049604669978984016, -0.16468875995771406, 0.12470192790984011, 0.12445389512029592, -0.0745847455081674, 0.018442063296400902, 0.09498420180103813, -0.10582215743416454, 0.19006545255371576, 0.03339108096940381, -0.1522851145468801, -0.022165931537857397, -0.07610169644139615, 0.0011167195757943533, -0.07779262806120289, -0.10766878340299317, -0.1261723713482849, -0.23251771215990016, -0.0959658432847464, -0.14136524441406934, -0.006470983319043264, 0.12158729471724829, 0.06718300447215793, 0.23107349552284223, 0.1464178731651769, -0.0035416771563675058, 0.1306495399032397, -0.19582023794236547, 0.02375973358203305, 0.09062500857443836, 0.013726604716861551, -0.14504569016158486, -0.14060528184332788, 0.035658617333917945, 0.10320323169994372, 0.005092286161618771, 0.020464910166345534, 0.022000681158765693, -0.13969507288694427, -0.14901222149738563, -0.3084800369877506, -0.2689800527339198, -0.2435446897646076, 0.07605670864270557, -0.14768797376792434, -0.16114755289261576, -0.16514432049522063, 0.1428365290869843, -0.06085106431959992, 0.08334673612982692, 0.009285436149599648, -0.06555951864874814, 0.1315048317393502, 0.0461409874652654, -0.08713862739184884, -0.055058612964586355, -0.1386002765091939, -0.18468946209101816, 0.04307939179212586, -0.07317167065029123, -0.15893376231347675, 0.10201878076012116, -0.1505107559966548, -0.04789658796857622, -0.07828756466286553, -0.07384023239682255, -0.21176817517253507, -0.21109201090939875, -0.11860047111671063, -0.18227370992375774, -0.14292153652437303, -0.28022749579557876, -0.08881481325793689, -0.10100134818009868, 0.05714232149179321, 0.14428035280446105, 0.17681199514661028, 0.2203870841825899, -0.004884218796420567, 0.00760497309878796, 0.005202071320655054, -0.1313647636351077, -0.050586484177590235, 0.0516269086319384, -0.2163135582418317, 0.08267056921722298, 0.09665112884305017, 0.07396066561832451, -0.06384188587202659, -0.1338888527112959, 0.009193511658685165, -0.02030643971483115, -0.06683614604929572, 0.06331361088852397, -0.11573863871142583, 0.025021942774562947, -0.1093495926519883, -0.3856700452283329, -0.19987504358053884, -0.13800774405570904, -0.16041359437675287, -0.07210353885244386, 0.10050487812764079, -0.023789427369273263, -0.056418667007832636, 0.026051606677103118, 0.05806838302584677, 0.12957791433845758, -0.023626279296601316, -0.06687418335050047, -0.243294383010086, -0.04192402690387316, 0.07493612873342466, -0.05543128202747846, 0.052581524289471646, -0.01735682434659102, 0.14114711395003518, -0.02259153527026525, -0.01724959077980494, 0.02541416969024135, -0.06556402686855563, 0.11207152640251665, -0.1008054538716784, 0.022394014327514946, -0.0689861412585003, -0.09564816623757394, -0.10432028562690725, -0.1278146857263687, -0.16149857225896128, -0.4039666853169992, -0.058869785444402106, -0.034654824560774705, -0.059835067091474604, 0.004133453052060088, -0.11045666167053791, 0.18283991888399373, -0.04503159508643816, -0.11235380678420813, -0.06855084617315829, -0.0199042539592318, 0.06957145733037233, 0.023184649871003677, 0.07191655058585432, -0.10488191850807661, 0.16834628943802488, -0.12880646997835896, 0.03270179150754287, 0.09174356636997631, -0.10856143822832394, -0.0878731589631271, 0.05011864273245446, 0.18624328116902686, -0.14343824609843644, 0.009342708643220838, -0.15759699405690292, 0.02619608168415347, 0.006437823306447316, -0.020562979335397955, 0.14297249859072522, 0.1284951322212733, -0.08183327059685254, 0.031358863854096454, 0.04072795866954377, -0.04422010207874505, -0.07580881487260399, 0.05324927170282528, 0.11225290020039277, 0.03464881368462835, 0.024948782150211443, -0.021521306455371373, 0.1259111227177339, 0.010234820269864423, 0.032955235241030494, 0.07768273025004262, 0.03215346053496567, 0.08352554680872186, 0.04839660794602143, 0.11658965376516231, 0.007432408579854808, -0.14094791978392943, 0.04021289752549295, -0.14275397678178664, -0.05308108516630275, 0.16049334218039907, -0.10485626585771088, 0.046339823129951746, 0.02034335926960607, 0.1537078072753306, 0.1861912743441566, -0.11008244953375763, 0.18114491208001557, -0.10551813031803242, -0.04921463853176686, -0.1023530141350163, -0.1761141820959185, -0.053197983958429354, -0.08109484851116977, -0.10837270359340789, -0.16511514156311044, -0.03147538719390598, -0.012998513636944056, 0.0919170014518205, -0.09566201240585331, 0.07083067034846466, 0.11968119541280844, -0.26075103517371057, 0.06907617402392839, 0.05640118769614006, 0.04881299514012402, 0.04804030158556681, -0.0007436582246956926, -0.04232988906875159, 0.01226439748143534, -0.17471347666088755, -0.1656041915932878, -0.17814330281759053, 0.05854595952144412, 0.009942856068324147, -0.08714724546041773, -0.054450715923319785, 0.05157032209837727, -0.09961458920123435, 0.008630485058220151, -0.006433704939390651, -0.13741119766874485, -0.12331531666126129, 0.17366276296282812, -0.20343974289663003, -0.11241698758260375, 0.07479161470252126, 0.10038422627769956, -0.013386764840655627, -0.055216504435523985, 0.057065167584600486, 0.02598690105299658, 0.16587157374569647, -0.1996064062022498, -0.07547478234803784, 0.0042825934311004265, 0.20113713863186836, 0.11735990557836792, -0.07152612060630266, 0.02164344462727785, -0.05400167979293023, 0.22069077551011507, -0.12300044665416003, 0.12509586581157892, 0.0076251580482783795, 0.0586190626708915, 0.0074682937329110825, 0.05076435536317684, 0.10433158364644496, 0.06749614837717346, -0.1921462636089269, 0.14755683423307434, 0.04430747322945799, 0.1829527355727301], [0.22407592346824534, 0.10232268074401603, 0.10177018330951573, 0.21569771379739278, 0.10823422903376743, 0.02160599256385394, -0.09648250488137093, 0.1252971725265691, 0.06770493521092545, -0.07082243322420671, 0.031056399648902756, 0.019475790967520907, -0.242986297229074, 0.014631409037605084, -0.03029659884387583, -0.16232747316619306, -0.022047600027335454, -0.23383517600391795, -0.1709849892329065, -0.02734829029598475, -0.06315958004073625, -0.05122600835819896, -0.1771815579829208, -0.06652152481377743, 0.008267413335570462, -0.01667890032983337, 0.06207324431108249, -0.18938892054691214, 0.057494284440061785, 0.07279629891783213, -0.016734726344813208, -0.21496271944976983, -0.020259544943777904, -0.2025780371892851, 0.10727752360858617, 0.02594772369370562, 0.1341725275370348, -0.004166527520912541, 0.1372413701218714, -0.11770775467372566, 0.05788963576688794, -0.11952378249681715, -0.010987277682808447, 0.20568130923831762, -0.011493140745572167, -0.057155027552817705, -0.07585166102373449, 0.05708514624541797, -0.1584160597734511, 0.09127383017858845, 0.09166615379311754, 0.03543870416434828, 0.07737958732124511, 0.07587853492301166, -0.2000962063694312, 0.13391180553628884, -0.05876807815622259, 0.05706962927835677, -0.056457272369668944, -0.11907194397273096, -0.06941184299638999, 0.10312998665469175, -0.15876959476316083, 0.09280274039394903, 0.059205877454246526, 0.1684709392794511, -0.031161243453649665, -0.07127800995982381, 0.12064633010005313, -0.14819123553804978, 0.09320446896752278, 0.09717598663198104, 0.22977941774506022, 0.037609588506495296, 0.14021766889001056, -0.03211644535471481, -0.007475523906837345, -0.0053009956674407764, -0.1025457020382372, 0.0813110069456837, -0.10750059685724052, 0.019795913255563152, -0.11856687645446173, 0.12579016217136582, -0.02425947630285326, 0.07752078281999567, -0.17648231063036415, 0.09953837884257263, 0.04305193480663077, 0.06471477388934126, 0.014109862416273223, -0.01375383305045436, -0.07313875780650189, 0.05719627758412258, -0.1284363714303303, -0.05906604368798577, -0.07518519565563857, -0.1791865512970859, -0.11204515072184267, -0.20870204998262576, -0.051935648463234806, -0.016034911133868616, -0.09590117675940708, 0.2120162710713125, 0.07035465221015429, 0.16810865488329993, 0.03492584075869424, 0.0008047255887799389, 0.1654653821261841, 0.1670351008952027, 0.023728267919769102, 0.1664557879571271, 0.0024885554383569583, 0.11291967399991767, -0.08909646886755733, -0.06667333756649958, -0.13994138698892286, -0.10699783618125769, -0.20222149101399323, 0.03139647317310339, 0.07539144368308778, -0.044912047171729225, -0.16545065728384178, -0.02043824136346151, -0.12362357793253785, -0.04127960500967012, -0.06914523857470334, -0.10595208850931606, 0.14117934531028514, 0.06465433835422758, 0.2305815647596413, 0.10646625786228424, 0.36557017297892225, 0.02964303029355651, 0.07739480817972884, 0.08133171104745647, -0.008426841710597424, -0.06517038779585588, -0.06330066398843807, -0.1539458731616999, 0.0518039690116103, 0.007877910027434048, 0.009304220945809709, -0.10136589744382164, -0.003717942201612444, 0.07488402616992494, -0.11604892156642807, -0.017833400954512933, -0.07555882842883666, -0.05810714256933709, -0.05428360219523998, -0.140798995498431, 0.0011614687277239234, -0.26417550352169245, -0.13411733563835077, -0.1261768590682536, 0.09585410564079881, 0.23896437763012698, 0.17899549689348832, -0.010058399263605387, -0.054990015520508834, -0.008152762249000495, 0.0675075734536783, 0.07144842810960059, 0.0278180355967558, 0.07667186435611098, 0.10580486394198924, 0.15809677721917514, 0.14685798964709262, -0.08604515221373434, -0.04088508609556734, 0.0799910063311943, -0.2691155491308732, -0.13477356607790827, 0.08010799410300062, -0.09014038720268853, -0.060593095548239655, 0.12561901027318143, -0.21442780327572097, -0.06554692636613388, -0.42299049731709293, -0.3467282372050796, -0.21949862651762425, -0.2016397932745817, -0.09970485640052712, -0.0077366910936476465, -0.3088434731372656, -0.10978322174722752, -0.15139267813887772, -0.14905654132535606, 0.07562932765241577, 0.2352761949130342, 0.03382550604016852, 0.02800461887041644, 0.17252622039063886, 0.09502427829903361, 0.20064889149263848, 0.014489862536592284, -0.1457109028406594, -0.2798608348116649, 0.014237911184207662, -0.048475149362762524, -0.148024878933025, 0.08797610507465667, 0.0904634284676976, 0.09343601013790798, -0.0753707210145228, -0.034459846859039946, -0.27023131119903576, -0.3630197698225195, -0.5056934595319651, 0.033989946419762024, -0.0938909017497253, -0.10521972015392066, -0.11976339993918661, -0.2699811633530847, -0.21273438577446552, -0.1540500556451441, 0.09250108789030059, 0.2583744806540885, 0.03885971575589396, 0.08471163953771216, -0.15748991880623195, -0.1362610505209453, -0.06105638101541923, 0.08539532570627342, -0.050688362816025734, -0.057034763345505474, -0.13432938259763721, -0.10857591320562704, -0.2520253577210015, -0.13531832978099156, -0.03674959231438001, -0.04357103448964807, -0.018971372547555498, -0.1284809980000392, -0.41305530446533656, -0.20050444627307284, -0.340868292471664, -0.2033711125079647, -0.15085527879531827, -0.20421396823032334, -0.2575340316654969, -0.2890116246077934, -0.337813546134749, 0.03372751448401032, 0.02742642688978783, 0.08490652802046399, -0.016586129849830135, 0.17114961488455677, -0.07842644684380869, 0.0015361470310611648, 0.04457667677125892, 0.011861903732376158, -0.18663776268429333, -0.08664290657269569, 0.060243940648123696, 0.003978845904033687, -0.22223466225450783, -0.21602262252278873, -0.19477982189414222, -0.07217162093149122, 0.05884773901816594, -0.10291443457778614, -0.10170973813150312, -0.4573325732439963, -0.692426736034347, -0.20321326030421985, -0.037175553754811415, -0.3665678060522886, -0.35271354351616696, -0.21526532117656258, -0.18402060684267096, -0.2236606367096737, 0.10311860188585344, 0.2282737656898188, 0.13444886762395483, 0.06710767573373447, 0.04642233217109796, -0.07000721992817213, -0.14204711194564795, 0.02759677315194048, -0.00021803381835780081, -0.03456278843088302, 0.0030385216353377674, -0.07632096983069211, -0.17978157436560793, 0.06324766323777335, 0.14245826060123598, -0.02425600424886747, -0.01241824356434545, 0.023997855303270674, -0.19131658257283715, -0.48008972281576723, -0.3649075174972816, -0.06939421410061801, -0.14069731203736535, -0.41302420212171026, -0.18932070595268113, -0.19767707525115424, -0.037467618054940276, -0.09906777364062272, -0.12586131461550848, -0.01322680325916488, -0.1888982395203516, 0.0007146840528129146, -0.027954899214512153, -0.007458220003013429, -0.11318169413867195, 0.026814424114853252, -0.12678967316212286, 0.047684081256490755, -0.08290685145765647, -0.237311685325041, -0.23151822194003743, -0.09309489903712802, 0.043766845375459856, -0.05116771966969512, 0.23800047405270047, -0.21899629507684948, 0.04595406263902758, -0.14827158316352027, -0.383804737950966, -0.0038995378710993717, -0.1009419820126777, -0.19989147712470273, -0.3980586238514549, -0.2716314305132593, -0.14063349830615166, -0.21487019608839034, -0.32634212613643543, 0.06760119803909943, 0.0030492283068454893, 0.05769455493638992, 0.035970784751504704, -0.07400786704580707, 0.0807009967486893, -0.02214538802785715, 0.003588847093660381, -0.011664317458968225, -0.27354124173780525, -0.1257041457858713, -0.08190041854625661, 0.1415792166173658, 0.31465144142023843, 0.0855746895655156, 0.5075354770730169, 0.36664111313802583, 0.24029848817526803, 0.03823583134012236, -0.2872783157751923, 0.041645856471012065, -0.009751745070720191, -0.1849501689251891, -0.12749650397476134, -0.23719327808010374, -0.2446013515596666, -0.195247749177994, -0.09216207723838107, -0.11224526651852701, -0.11294459869662218, -0.031003640506349878, -0.08014864087653484, -0.12182794847084695, 0.06434948795164286, 0.0032795930431558226, -0.03995712344639386, -0.03362150411791931, -0.1524828769935942, 0.13393909989355612, 0.07397469195017047, 0.1702666716089206, 0.12552048569565244, 0.06473581493546975, 0.1650576543060615, 0.36528854639495334, 0.2830746331401862, -0.1302543998370922, -0.28083643161200134, 0.10850278271362643, -0.0892625303415418, 0.04658293960678875, -0.13782521469140888, 0.02319623532102271, -0.1828334702747904, -0.0029113432660188994, 0.08120446616613261, 0.0102867094009111, -0.15332578476223527, 0.0824474108049474, -0.04252650228352123, 0.009375777735402402, -0.06904173343648955, 0.023796930309638076, -0.15188762323478983, 0.023158121317122568, -0.0030751515676147984, -0.05678934230671136, 0.16426264053608633, 0.2647169458794341, 0.316365992921403, 0.2656204387286422, 0.19194471339060776, 0.1461946791544563, 0.0848353240391986, -0.16924188575325588, -0.21819750342863609, 0.02977019970686254, -0.01351912534979224, -0.02345910588977852, 0.014097781115638731, 0.054884400696702904, 0.08485897995703032, 0.1575724143971072, 0.17689513456107586, 0.08552757408081325, 0.11671567439544929, -0.10493692491322641, 0.057151391747095236, 0.1671816876142645, 0.0170648576582898, 0.04421194576120178, -0.09533823037260104, 0.14798555091477567, 0.10342494339009962, 0.17887950692775254, 0.0695474296936114, 0.17916741276398312, 0.20957818516666324, 0.3818303580173249, 0.17892609044820745, 0.19708493731225657, 0.17507029351450007, -0.19377273865828798, -0.3163290767177797, 0.013592194577589822, -0.012716810649910582, -0.04872806830257924, 0.07895152504883322, 0.3363562708053535, -0.05178214073927239, 0.1221513401849137, 0.2009614595179526, 0.12001470028423641, -0.030763498149465076, 0.07909845691914738, 0.010427581876446297, -0.12018182449797961, -0.15076020293211748, 0.19108432736683187, 0.06486449513234932, -0.024255427892662225, 0.08635703127797668, -0.05796331870849117, 0.014978961763011892, -0.0028418570113750486, -0.14340290684571888, 0.3156559173264141, 0.15932675597260548, 0.1659535501587212, 0.04880087118819789, -0.18683756391619563, -0.12295335314747183, 0.19330653720908103, 0.12314233541259176, 0.1588457680893359, 0.14521215062534534, 0.13773945306138063, 0.19361069883653725, -0.017665255276531993, 0.011735410067216505, 0.22925905714185985, 0.18447620612092006, -0.03800489142922326, 0.06807715456472666, 0.05341142106314785, 0.11927944514674334, -0.06331269048058243, -0.036148633839891586, 0.02682566123659727, 0.05774280109400049, -0.16357636826798497, 0.107391782708702, 0.047676138769472375, -0.019562594893480424, 0.044029165450125425, 0.15575110136338804, -0.13345364813078986, 0.0060826597839809815, -0.09713431229228298, 0.16172189217319288, 0.14109677171283533, 0.006850456544230894, 0.2578125672387134, 0.18409605710961746, 0.29631818818251254, 0.20143553421079904, 0.056725479505787324, 0.025591347733876457, -0.03480256838918643, -0.021142202040797847, 0.050295572585120386, -0.1433392070166005, -0.006362874817173737, 0.06126011089323102, -0.035141061859891645, -0.2885729939368923, -0.17194678576570585, 0.0367362421419518, 0.14537210437134662, 0.16585313293542964, 0.17188336208427588, -0.051819455282412746, -0.12913421257614252, -0.005381149515461324, 0.04592203035711268, -0.05222530164103033, 0.0816618905341289, 0.19523780058968654, 0.24830431943729595, 0.20304962270487045, 0.07397692366818145, 0.05192644839591416, 0.015713077650820563, 0.22366163541196374, 0.009979290939445527, -0.11184633030536625, -0.20144580863020947, 0.2280409763766652, -0.16042930516324, -0.0648804075156608, 0.09406881727192525, -0.11114820679079113, 0.01840797920931595, 0.0013360743825304795, -0.15978720125996446, -0.21074417777153248, 0.08029139610584486, -0.001464659338398434, 0.04743963917902184, 0.028655993055782984, -0.008238730549613672, 0.10489427031432468, 0.08062888344855423, 0.04699204282976347, -0.070571125220373, -0.0020123223641486995, 0.19490684713803516, -0.1076151104625137, -0.40324069662881407, 0.10092630091278022, -0.10232785245091092, -0.09273059036063118, -0.06834404007948905, -0.041735636302798425, -0.11170750199849183, -0.236776657528932, -0.1880369608725035, 0.025616232162795936, 0.07652070336088107, 0.06533523919847674, -0.005706367820557903, 0.07779653663309469, -0.07616999954459695, -0.041209866910435315, -0.1492273817366068, -0.1310150660192924, -0.19834948044336692, 0.22969917566362308, -0.1013135659110024, 0.09301518877281365, 0.25308370856818796, 0.06123204855162914, 0.11863590640555152, -0.06364355497244255, -0.06585536399222598, -0.11544211009028021, -0.05491375912317283, 0.07058465153968609, -0.17653237807048314, -0.218698745878954, 0.05392768588475514, -0.19771476460525847, -0.20350218976120527, -0.22616178086544078, -0.16628610030556548, 0.08021640876856846, -0.0235201302554487, 0.07053659493741324, -0.0761976989534578, -0.10210579295932679, 0.029933803940937625, -0.18389791972960018, -0.0026388925310504153, -0.01717737885275241, 0.0026801898557942214, -0.2061062138058994, -0.04973676793436438, -0.07179203989152429, 0.03536859529994565, 0.020415983076865846, 0.04436636367596763, -0.09075557282123911, -0.15395791059262715, -0.17642904941909707, 0.08246238130116824, -0.1423137920270863, -0.2161864711787422, -0.18496883346001944, 0.11486738351328118, 0.039098208813393466, 0.01548226550224318, -0.14888925309279313, -0.07007753778928949, -0.12919225955719832, 0.12360996430600246, -0.27708342230473104, 0.0013937412305981185, -0.12835837638600173, -0.01004936116289768, -0.21035219506697656, -0.10348228821750392, -0.2559647548303382, 0.1845945408464198, -0.11473389923989727, -0.12234785148698987, -0.1722246956667172, 0.045882172301598814, -0.1907145058963205, -0.10964611862199816, -0.05241261053072843, -0.09281568682730225, -0.07693173263408827, -0.067265806483866, -0.03158154154537801, 0.13003356894636542, 0.05386823747985374, -0.04104582997784197, 0.04511293623709467, -0.11094486870665632, 0.12522650086767154, 0.06042766200197432, 0.02770070963717613, 0.09647164925736372, 0.024743817537094672, -0.12360571302815462, -0.026397772079798938, -0.251385826607569, 8.731815533553601e-05, -0.1982924224557045, -0.011052981205200815, 0.019651066986492213, -0.08504192784163113, -0.175115465637393, -0.13032010117115858, -0.13108964479889101, -0.21983110622763752, -0.053244796241687715, -0.15219305395555957, 0.030180301517433655, 0.2155434429672506, 0.01075278383144503, -0.048796711314758705, -0.18285643709367183, -0.05616132133375806, -0.021345029639988484, 0.05479644325640272, 0.007757688481894916, 0.04238479227131133, -0.014256812020503032, 0.037995090859609976, -0.06769963974591807, -0.1075218190807139, 0.002392612266349006, 0.17355979570722338, 0.02801899580429888, -0.06740313998547678, -0.040606535905865646, -0.023109445492718598, -0.08061567573177113, -0.10877401632892258, 0.07717688016042942, -0.2105792444819695, 0.023591934569315694, -0.0017883665988403965, -0.1962330457483072, -0.06555359944071454, -0.06038490770953979, 0.14320794721688046, -0.37764634612325443, 0.10682248206150449, 0.04256241460597731, 0.06002413056958813, -0.08507241991643008, 0.06391270606205919, 0.04898118370634012, 0.13934019228331299, 0.07512349544033985, -0.029705357880880145, 0.04685345847780176, 0.02126607457872473, 0.08002188463654855, -0.13520235587294224, 0.15961272252934763, 0.04021441856689186, 0.14578330785639493, 0.07689682546422355, -0.3420352676946037, -0.12799877248868002, -0.07323215513908946, -0.08691994137601, -0.2591849599470767, -0.1395106700023254, -0.10094435059690915, -0.11527173554740935, -0.04465881169012666, -0.09215701775280949, -0.028521148980132676, 0.2355873645866103, -0.06504038713766619, -0.16303441082264267, -0.06573677478239354, -0.018487419628330826, 0.00891006939052735, 0.14645975275722034, -0.04228293921181138, 0.07187516336714125, -0.0789528169806997, -0.2926953576961108, -0.10389793653070589, 0.09095164262348877, 0.024569820822900997, 0.08206282781937183, -0.0987153135187338, -0.08745512658220361, -0.258882062137644, -0.13237460259171807, -0.1013789546268362, -0.06711209723061222, -0.07315539879247349, -0.16869768619019643, -0.12309423747642537, -0.04263943724618074, -0.17466585308725135, -0.1221306496506834, -0.07066553346494794, -0.1310735801360574, -0.08439891260993906, -0.16495302828233546, -0.05412969872129043, -0.0047895674674751105, -0.023548633106043125, -0.19115524492461416, -0.061002506799494885, -0.014373619966650684, 0.018934594870443015, 0.012458157799905147, 0.07784479476213932, 0.07103483957677914, 0.020351374034093973, 0.03592588264292265, 0.08037055614065448, -0.1286795383233728, 0.036796393009590235, 0.05810460730261789, 0.05127841764800855, -0.09650768332738166, 0.019540995887122457, -0.22053555009859005, 0.07760349251522748, 0.019807812841132547, -0.004540681268197446, -0.019498776496934357, -0.16347768517753958, -0.1119320474369282, 0.17114061246634976, 0.005568664538010155, -0.02931589982573063, -0.09037538084918444, 0.008161537255700388, -0.10052598623189753, 0.041380071852795075, 0.22454233690219097, 0.11972843345430798], [-0.048508885264685886, -0.014182462527515398, -0.11025685177185901, 0.05260845049457206, -0.030956979057679454, -0.055545040851555184, -0.013779004859699413, -0.006894445792601802, 0.016608306228550737, -0.06607772458305942, -0.06768555767834887, -0.026714626040416842, 0.08735461988807186, -0.09258681990485583, 0.03242732137872964, 0.16174773397458658, -0.20368452680114785, 0.10389695648931295, -0.040489251417066004, 0.17422223014640162, 0.08569478981823019, 0.05183404543775897, 0.04487456185882353, 0.08600992848671712, 0.00883373539629914, 0.04356842830055235, -0.17506959878308068, 0.08203344229129819, 0.006411400146530884, 0.05556885762929839, 0.05103015592134004, 0.011732992671812423, -0.04547291699522437, -0.06366642997520451, -0.06571337232891299, 0.11616249613174476, 0.0019987080987870654, -0.011044088497282657, -0.055830782850219425, -0.05306426162330239, -0.1608761747364329, -0.033749876211300496, -0.0772768883975405, -0.12527760594707738, 0.22553746744585595, -0.038491142182844676, -0.023028945925260676, 0.015825972799412745, 0.027722083840359273, 0.1450765176816514, -0.16105930474298974, -0.04296593678873984, -0.05267281754424616, 0.18491835552146435, -0.09218441720208387, -0.06474831469004609, -0.11356886107012552, -0.013248376504596994, -0.08341647221774118, -0.0313155108149454, -0.0958201010118887, -0.18111140168634124, -0.1042220648171513, 0.04981494287457224, -0.0021493862994686093, -0.027807364177960276, 0.14452220457956388, 0.22418615491428165, 0.04644654346757532, -0.14037671981298838, -0.02797052493821256, -0.15847973898542755, -0.06521548448570881, -0.16130022471048644, 0.02109212096068517, -0.20755611328309917, -0.02264683239529098, 0.008624215328982847, -0.02979047326955279, 0.049797751037232746, 0.10183379283062703, 0.00834793062034503, -0.012553526168233861, -0.024046068642800192, -0.04646133488825062, -0.09731831495097391, -0.02828228596840282, -0.003192120316574287, -0.14389628978045174, -0.008016569053912818, 0.03800418434777922, -0.1394812517160424, -0.0189055448522981, -0.11701579883572606, 0.10752616971135373, 0.016028066171861033, 0.12329563765599236, 0.038901155731388096, 0.00023124012622838185, 0.0773455166966506, 0.21683895969756034, -0.01541942490617693, 0.13125497828508895, -0.18795438108966578, -0.02390423666887315, -0.06742567517633284, -0.09973942943360521, 0.005710005565453828, -0.13159690997029394, -0.17928877585824407, -0.07851003065262482, 0.06638645288130822, -0.00958665157235181, -0.11378232107186542, -0.10356121887800575, 0.016484379477207805, -0.1231966816732791, -0.018478394712054185, 0.028243254793711814, 0.04848981243656524, 0.03183943712476468, -0.13952504495183202, 0.20826942456789788, 0.08484081606403782, 0.11230730583787224, 0.03917800734545309, 0.08511684331424259, 0.1824000064704188, 0.1583042910206019, 0.02732181471582638, 0.039010784860626854, -0.13680002268391278, 0.016237418070751377, -0.08058011484644458, -0.2345375827837107, -0.14371654779573578, -0.04783307691484488, -0.10933971625974731, 0.03231488013339158, -0.03742933212647077, -0.15154603368119757, -0.006338037043466535, -0.04568367351169346, 0.1507765077464441, -0.1565428460942347, 0.09680554837750294, 0.05448032895777271, -0.1160022348869081, -0.02105851086588426, 0.06031139306356685, -0.060311324415268965, -0.21625694767705542, 0.046899913553631725, 0.09437892702869334, 0.10894400402424456, 0.17152337635865467, 0.0314078916711315, 0.10991493296529256, 0.15422763062511607, 0.028749725550209354, 0.08696278472928047, -0.03929131953055309, 0.0015000664622344478, -0.259028570653326, -0.2015516277499754, -0.037798128985209935, -0.07508912885983168, 0.23919304937228908, -0.006318981023142706, -0.054526886178743725, -0.06389400532124882, 0.1330166123246238, 0.1417587944119211, 0.33717546375162794, -0.10885385339772881, -0.06104400432074118, -0.09489765165297669, -0.12015432190695968, -0.1864218772842959, -0.11746703242720849, 0.014756642551375737, -0.11624993110393292, -0.09341307563155238, -0.16222672992124518, -0.22391458559263974, 0.004859285404050032, 0.05847367056990891, 0.10328428503382531, -0.10919519772890914, 0.14644495095230714, 0.16711909969599134, -0.12850117538017758, -0.22235375109987043, -0.057301179557933964, -0.022863722832065985, 0.15171145238604342, 0.011130099468134522, 0.08218113357855968, -0.17179201553617837, -0.06871032029473555, 0.06514236824600676, 0.4216560077274635, 0.21112891864214103, -0.10316170715100426, -0.011386154302104774, -0.2828340705973421, -0.3456300266500225, -0.14619174659800582, 0.014228923574351416, -0.2776760911146671, -0.08185700434780073, -0.3540152618007775, -0.07220142310774234, -0.11737655421772387, -0.019314855885226807, 0.09709038499503524, 0.04596870012337582, 0.14213989516709025, -0.0859657679487484, 0.07452368264167697, -0.17522476035245035, -0.007925172480293377, 0.12521859943932145, 0.08395836188245932, 0.10379789878011081, 0.12765839709909876, 0.12907359999611503, -0.0038220366054186054, 0.1193296992010646, 0.023578491155575615, 0.19092426748711733, -0.02189047633558802, -0.12006597164826384, -0.06425968327413795, -0.039973308257063425, -0.30296930255351867, -0.22858227272202208, 0.0037600403395495145, 0.027083057647594198, -8.976435906028386e-05, 0.10377293650472368, 0.11806363051115684, 0.11717266486872327, 0.012440481334248011, 0.013981888746823887, 0.19107355659385467, 0.12103326714238373, 0.09979546635030137, -0.1713003066549113, -0.16255685852122645, -0.13269696035259712, -0.04849680130140138, 0.016465977028419405, 0.04359287642322051, 0.04528775594972076, 0.15878896470999423, -0.09009995267209156, 0.11867521723447608, -0.013714341715467223, -0.005419308813608536, -0.003540598096886116, -0.22241259927654497, 0.02420157311049792, -0.15092403800516008, -0.011628702861451493, 0.017174264482283277, 0.2941272714063036, 0.15692937611090818, 0.34809271416584936, 0.25401104123643387, 0.12192545577461694, -0.07756612617588737, 0.0497840947213965, 0.1571302288905754, -0.017507589825235773, 0.02584268511415646, -0.030007805421729105, -0.13857073936519793, -0.03620701302457853, -0.05536961111012211, -0.05354876012236738, 0.13763721821789668, -0.19997036865734852, 0.16978362735107963, 0.1535987139833415, -0.029821054614604645, 0.011865486438108272, -0.07249879306041661, -0.17455990142683522, -0.28679787763318115, 0.13704923495748894, -0.056693455707099036, 0.1969648305006934, 0.5593287793288361, 0.4249696478517515, 0.14526897317041093, 0.22837721534644048, 0.0881280339360896, 0.13255104776675194, 0.1636544834095946, -0.07164230096556631, 0.22843189851599646, 0.22964666789697424, 0.03292696943402933, 0.2710282298159147, -0.28476707125334605, -0.05642477666939476, -0.05964138142306767, 0.011562360635753804, -0.0430868622917091, 0.03843633895137588, 0.021152598497093746, 0.1825025578720886, -0.08221116972986277, -0.14899681088967984, 0.10002232310168382, -0.12428820215514375, 0.1288272496563389, 0.0989597073938458, 0.36929018081969495, 0.4232870381374426, 0.33428614790364813, 0.1344741099507476, -0.002615869405955602, -0.03772920364038523, 0.14850955602093513, 0.21634398334175708, 0.437419592370967, 0.3952075285037487, 0.22376268710931282, 0.22638728766544972, 0.16640226614849796, 0.11004604067503353, 0.1346267303421124, 0.11552424814698475, -0.02303974273833413, -0.20514952923541008, 0.06202561437466757, 0.01982286417820522, 0.0944341290190927, -0.0831717111380233, 0.08999591250071642, 0.10406094945631827, 0.038892990490560005, 0.14006022755554282, 0.2320567407241143, 0.3761041197816472, 0.3723068611256911, 0.2312265838625634, -0.06839927805415214, -0.293493379126864, -0.3722477352063118, 0.009174089291895799, -0.07048623685483892, 0.06310704904763056, 0.1807847883781608, -0.007423095615722631, 0.12978885377967592, -0.16670113272628426, 0.07310776616610662, 0.2404046262462746, -0.0729673022943518, 0.015567472158634278, 0.14083916576219377, -0.03751155589369392, 0.029817748510095093, -0.050069554090749514, 0.09557632129625214, -0.13225609357253476, 0.05514982983977679, -0.00765897896616062, 0.12391050729721646, 0.3020699897039989, 0.22485731195722405, 0.3882045560597813, 0.08966244518613785, -0.008301692710121008, -0.4619158314149798, -0.36422732431168386, -0.40335665822325034, -0.2910560649174523, -0.05494471172809444, -0.17214398249336899, 0.01853408609698746, 0.05055350365639017, 0.20402303167095898, 0.09775442071254448, 0.09603968377669345, 0.1651703208639755, 0.022640185925252482, -0.02116474122759229, 0.1646649675941588, -0.0715230230745706, 0.09676079867467804, 0.06807617989900258, 0.03420818530297554, 0.09139755220463347, -0.05036148786960469, -0.04218856408566239, 0.06257797091259597, 0.16903311477198432, -0.05423727490503251, -0.030741747527487602, -0.06687471959907444, -0.2734308886670449, -0.2900823079607565, -0.5892514271702889, -0.20407052283109042, -0.18636228440343866, -0.1249533281502187, 0.022745959370530026, -0.03386568019177102, -0.0380099352418822, 0.08531860893360894, 0.320723310672917, 0.25834553667971477, 0.04634074085440524, 0.09761253125905388, 0.04690939935561463, -0.1657599477596526, 0.0008737922720508422, -0.17440811165263953, -0.02832052232650268, 0.24307911034433163, -0.06338098691742719, -0.00966930707407446, -0.07645142154873943, -0.09608972955314062, -0.09475566212700388, 0.03644363654123903, -0.1553365075437718, -0.1960088074015182, -0.2467020880520379, -0.6518301158784121, -0.5754137966175317, -0.21982682334157366, -0.34865592542567886, -0.16361819488296572, -0.1604301096868583, 0.10772023654782664, 0.13639944883235555, 0.2913709501541684, 0.12409189235682315, 0.0561059864104091, 0.25226130934176905, -0.11335819483674035, 0.019447173109637384, -0.13720094011819214, 0.021243377875474954, -0.08836365378521027, 0.17166853946308486, -0.10013185600755839, 0.17137767667176687, -0.043725088124147736, -0.03147215351720822, -0.043204750747413964, -0.10639214788261496, -0.22928145374515518, -0.02138235348127083, -0.3642917075324724, -0.5456771963840183, -0.3477115150065713, -0.4237997082754973, -0.12317763301715047, -0.3271269208421153, -0.18430627111276005, -0.06956201885785354, 0.033329414360757474, -0.08204219122952662, 0.06922805441015067, 0.135799290775926, -0.043675917901591976, 0.14974383974250224, 0.10396446097731074, 0.013085372117104059, -0.041088785143437064, 0.05625720763934133, 0.025933803309889866, -0.03333977859440085, 0.11083529207921988, 0.16025612869648562, -0.0025274074937207476, -0.22199437589658075, -0.027037653437927203, -0.12476810251452738, -0.03492879398141147, 0.16498624922242558, -0.014672399017104725, -0.3402288699641388, -0.2426020337310993, -0.30451848937583564, -0.5580311316844935, -0.16762207931390272, 0.011269513080149125, -0.034263334005135364, -0.13822369203971158, -0.12340112295376622, 0.12979566894394745, 0.12399915910763705, 0.13321855986362113, -0.14164316588954326, 0.0678321232501002, 0.14199379868582543, -0.2552065670302309, 0.04492362542531762, 0.0854997355553017, -0.14634750188681922, -0.17064361321952906, -0.0969486540792294, -0.07875273995766394, -0.18604394154963783, -0.02870709383308017, -0.10816831201873449, 0.08705688327444781, 0.037888158003931784, -0.08361196242008524, 0.10737064637225176, -0.23153149518503033, -0.30299061553070455, -0.222387168755278, -0.2865422736620224, -0.11467378147958984, 0.08653914196687647, 0.01004191587716028, -0.19326373742470973, 0.06277964194780801, -0.11080259924223024, -0.013265644313518203, -0.01699220522088205, -0.105025039505578, -0.07922761281580552, 0.15524536594535104, -0.06803157599628429, -0.1272963195598052, -0.11571980483213182, 0.20250448823867476, -0.0978773057095416, 0.054857106734188955, -0.26121560885760137, 0.02137479257160349, 0.0797811184198634, 0.09189127114553083, 0.2203842142657577, 0.21767826020146414, 0.022041012853180792, -0.05115093592874998, 0.02289953176896008, -0.20093882476373515, -0.22098410694632667, -0.18173461919715295, -0.14537133893838525, -0.12046892241890061, -0.054656342066543157, 0.16169492708288974, -0.19330228911491373, -0.11923367225688566, -0.10098346123467974, 0.11208118956839512, -0.05943055528556984, -0.006144874266815065, 0.0866934969513769, 0.11944243515987643, -0.14803823482447812, 0.08349267387205678, 0.07240401131445584, 0.07547925415637377, -0.021124465672979528, 0.009529911662448565, 0.09680560054012238, 0.09153812475268999, 0.3914403272809334, 0.36298937112824875, 0.22397609480721792, 0.3202415728652368, 0.0509058935299256, -0.06103599903693436, -0.3782713852295868, -0.16414790516563632, -0.062208623950698164, -0.15358477648931318, -0.18115326201852244, -0.26431259498756315, 0.053570731350902984, -0.15723286949576032, 0.05169970273914841, -0.026360003968897653, -0.011507865162941378, 0.0732482911913449, 0.014213786438071157, 0.04253686056586664, -0.030722333698193407, -0.07441289972927391, -0.13234199743761582, 0.059118845343337875, 0.09259141787534685, -0.004903580276401592, 0.23388698939644642, 0.1263273206362015, 0.1620468436394951, 0.36744759269229216, -0.06235739764887778, 0.10994897175112921, 0.14128531663776417, -0.3164554728199243, -0.10681359886792892, 0.014395945628221787, -0.06740209037242897, -0.030809444795312543, -0.19041696253363205, -0.026790245701348667, 0.036501969613525635, 0.012618200431144434, -0.004081894216580365, 0.028562708903950216, 0.17750892317666775, -0.054072907797019586, 0.04692431871375032, -0.13535065508375718, -0.04541600278450617, 0.21397798114236216, 0.17800966251443603, 0.057904083810258807, 0.012139786854993784, -0.05308673385638023, 0.006502105279882534, 0.01838144294411633, -0.01865860386561257, 0.017280856061138643, -0.0952389297385815, 0.016475156443963298, 0.008036434880726324, 0.011825326646490794, 0.031017249158174262, 0.006134428356930162, 0.0944334738030555, 0.0709105598427037, -0.2998978760165027, -0.12767672667825278, 0.0202514530523695, -0.2790865699980259, 0.22691812017594043, 0.00935206747288681, -0.020605338799164253, -0.06145157855750323, -0.10239878288185372, 0.012658242437452262, 0.019052160077767177, 0.15422563688291716, 0.026535222741013137, 0.01464954168369632, 0.09441168224238648, 0.2917403592733657, -0.12498229441216854, 0.09440692570673402, -0.008361668272262009, 0.020251090398729184, 0.14354925993281603, 0.07628076590800167, -0.01208701431057625, -0.0309121295998311, 0.006992937441994996, 0.13297344257812724, -0.03407544081804069, -0.21284186651422268, -0.14844928310570435, -0.012153401806952908, -0.08437162679242079, 0.013348116201522734, 0.0329899085114309, -0.03854898917526429, -0.10529229807558323, -0.13615559440942368, -0.08299259427146477, -0.03747123838235888, 0.12206171136674461, 0.14044802935631404, 0.15711986082374949, -0.010020670056435348, 0.1367977422640434, 0.12832264302457982, -0.06368538691036275, -0.18864662598980836, -0.10444326698830626, -0.01919533987611984, 0.08684289016874065, -0.04325602325238394, 0.17229918635567723, -0.023168527098557618, 0.12891144290101028, 0.23805952326698707, 0.005136369119271594, -0.09843491432223551, -0.14343833821617208, -0.11923579708117063, -0.006859009624878632, -0.0188580917948493, 0.02103259295339685, 0.13215035666506772, 0.02740962495775789, -0.008782902123477935, -0.1420870667143109, 0.10774088370838175, -0.22175830387261153, 0.13866989635390542, 0.08544664696988133, -0.06358293550418433, 0.07904150354139859, 0.07126102246114452, 0.10105553415837808, -0.31184654185504546, 0.10058751003125004, 0.17472736401606756, 0.016632032306003523, 0.01765302148319957, 0.09679001729954331, 0.0835707859892365, 0.16545129980583964, 0.08329100210427133, 0.053633027341100044, -0.04415146966857597, -0.10990218809407906, 0.012278543737869418, -0.12771868159874952, -0.13978626402087688, -0.15802926065549933, 0.18241930407945708, -0.09286259155528612, -0.11987928093703502, 0.00986335680371304, 0.022099370803416393, -0.09447067409146703, -0.03214561588814368, -0.08780923336970278, -0.025061067131977463, -0.06983779311658517, -0.1685404744431859, -0.024016568524142794, -0.14337391304644836, -0.06313326801073423, 0.19486546214163336, -0.20045792481987737, -0.11099740238998684, 0.1699836552873775, 0.1734514940814152, 0.027427804787886794, 0.014385019665265907, 0.13784719514775867, 0.0004207335299650334, -0.12706959766838372, -0.08694357521133657, 0.07171828523015504, -0.24111824868608028, -0.10021108940276903, -0.11940023857460451, 0.05648984846676722, -0.017448146099387114, -0.11296318714960932, 0.1490428747015474, 0.015577569061224662, 0.03844617773238594, -0.18185563815317635, 0.07520409273654806, 0.050244733064957615, -0.05769085174918888, 0.12980974341468388, 0.0387426509020692, -0.16406314241210912, 0.24159894732073295, -0.12380512171291484, 0.023996928570745524, 0.05779244587596838, -2.466870161888054e-05, 0.09678157723627002, -0.07116674349726045, -0.0013694538994148081, 0.1166898821126596, 0.07201693439674449, 0.06488723435744037, 0.10206029824995672, -0.06928921270300213, -0.15773083002775704, -0.12987839378031962, -0.11760721137554464, 0.21862463447190855], [-0.03586725761864518, 0.058742822017174304, 0.03602469589868281, 0.05857359625253903, -0.044582373783054366, -0.06567439728864542, 0.0339512001608145, 0.028021165589696473, -0.026143531665048993, 0.09804850171774532, 0.06402993348376244, -0.02052518040344982, -0.03975292984772178, 0.05757469764767068, -0.06410171063108612, -0.1618150311397888, -0.07706712715941194, -0.048263721410607974, -0.01744936412222626, -0.1450336998737743, 0.12405051743336724, -0.13746460649602982, 0.07653973641060766, -0.08410164593264409, -0.0014308437420993973, -0.05495412464846164, -0.033580862225363176, -0.07113267546516044, -0.10988208249263867, -0.006992514930302009, -0.10773287219708903, 0.09225937470909949, -0.1650171801791376, 0.12614293694598847, -0.0032938922184500624, -0.05460623382347014, 0.034168958855695764, 0.008757826945461162, -0.12589178199349502, -0.01575981641851392, -0.0033513354444246538, -0.06455712313186356, 0.00021807456839694072, -0.09181541317258546, 0.041905592678363794, -0.09662861190051993, 0.32631943737677943, -0.18562793849556558, 0.022899020356862258, -0.09715919147966423, -0.0254134178098707, 0.04919751060045705, 0.0008971534112780908, 0.06120548395913416, -0.05471632351818881, -0.029762313651601043, 0.042269371738518344, 0.01633000122630423, -0.07187215996517504, 0.045827485848446606, -0.035520839293969694, -0.061353352380968236, 0.054094167925637045, 0.028429271277929095, 0.04059784592130434, -0.02249877670484965, 0.020348965375797664, -0.10098327805407353, 0.06560859899122597, -0.12849844239214364, -0.04219215842824667, 0.08918774485556615, -0.03487453054953484, -0.10225322046762325, 0.1128651441821144, 0.038483827316854256, -0.03511241989736825, 0.04491101876081941, 0.05167128606108448, -0.04320788237216208, -0.17450072594924923, -0.18936867052447046, -0.1735457620712929, 0.25711926664177787, -0.1620197012307569, -0.08135713409491874, -0.05174336934763955, -0.10839396736809356, 0.08688561912907525, 0.0007112646144904719, -0.07686296227132891, 0.06272112777675153, 0.250417585783148, -0.09189625741928452, -0.03306485077488229, -0.08181975427155037, -0.060477136649586316, -0.05743481372582981, -0.2734675845756661, -0.04163265056220323, -0.21542404947139163, 0.08587199411520557, 0.09310663173686073, -0.06738198753589225, 0.08353879616031586, -0.02969873433916849, 0.009788944465188677, 0.12029630492387695, 0.009214863694485629, -0.1981652471504896, -0.025804533928402464, 0.04064549777946266, -0.055276146225114675, -0.03382844820797658, -0.0651726103391059, -0.08151404295592697, 0.00041648106535612547, 0.15638941010754137, 0.08475608954763449, 0.029780791559793327, -0.037763194780790287, -0.16188882014558253, -0.1673528494411654, -0.22436100069368195, -0.3298778598293927, 0.006080848003215365, -0.16304030285874496, -0.24409694985321348, -0.11704424626196366, -0.24259735945674255, -0.0981179269725283, -0.07422051382583875, -0.09326417065625645, 0.13137331668320337, 0.24772519845656665, 0.07642701322053061, -0.08516763162857247, 0.03198991553405121, 0.06300063584009698, 0.1942062410269851, -0.014929622425107012, 0.04900524558970838, 0.015224691055577307, 0.008178755937494432, -0.008498098918500476, 0.0018508479912565923, 0.030210544056905705, -0.0975096990111752, 0.001826129149268432, -0.2975117359791909, -0.2825496697435908, -0.39898588719383693, -0.23215473599553402, -0.13215942388889307, -0.28871627759313445, -0.14821647670644572, -0.05168730535932528, 0.021214827021386638, 0.06373619241560607, 0.02459325141452095, 0.014907140734365523, 0.07662103534749828, 0.08602311999863112, -0.05534514413989539, -0.028061721719290566, 0.0654674298482792, 0.18816137243236228, -0.28995327123727604, 0.04539044962459416, 0.06915348433237878, 0.09887231711283562, -0.11626862947625724, -0.055844030489112566, -0.10031421006665475, -0.03685225003225559, -0.24975902923602505, -0.1371616050779856, -0.2760767350010932, -0.23125672235429204, -0.20257134903546695, -0.2456557908712011, -0.4190131012497679, -0.1112645489184142, -0.24682015270463195, -0.15018531491588696, 0.018993181432850184, -0.14405499099843114, 0.09370282806613893, 0.08319054809296239, 0.021880505112178955, -0.07594938335292241, 0.032385550038141274, -0.031798652930542716, 0.09826114548531033, 0.05251036654120604, -0.14330571099127437, -0.13401071011178084, -0.05422214208740372, -0.005627003043139189, 0.015310572899444166, 0.07039238299005575, -0.09691184942731622, -0.011417425897370338, -0.021717206602843164, 0.0050276869668944854, -0.29540550694504353, -0.42205751292750543, -0.31103174817551893, -0.24702077591221852, -0.09489125664484889, -0.14094008935245475, -0.16269649787911794, -0.15031307805924282, -0.11529104943173804, -0.2143703291131057, -0.26341286594762053, -0.13354015959258259, -0.11059812207421374, 0.1355936805624392, -0.11000586735439406, -0.026749048086215227, -0.043471687124767996, -0.034386508442300845, 0.16206895704989618, 0.006318957386974846, -0.03767291425175715, 0.0031553227550676984, -0.10513061729142116, 0.07705633773066982, 0.20018320203245932, 0.0020333786141968602, -0.061378955588096334, -0.23506920824506622, -0.21411782924004988, -0.1216149392207621, -0.3059737425129272, -0.45173890544288375, -0.3833547835695495, -0.13106066317327922, -0.0045015629429729755, -0.05678685411929533, 0.1234807713451544, -0.187529332470111, -0.1513491519866096, -0.09956581364489957, -0.12490022078982513, -0.02094258830397482, -0.07036704022846703, 0.23205243032785228, 0.10983071979914788, -0.06110950542896832, 0.0015009306424385587, -0.0220854526672309, 0.07242419744436106, 0.029771046353647593, -0.12788998357100095, 0.10087246560126906, 0.17095185541553565, -0.2504660889688897, 0.026269139537385702, -0.0803019937025709, -0.26631654396132615, -0.35298775820544054, -0.27398211046606263, -0.313130374981681, -0.31822177158115716, -0.07567692704213934, 0.1726014164285221, 0.1066314366470047, 0.28134638745256496, 0.02536616722713265, 0.09707497024031356, -0.12424313490346926, -0.03283027155859899, 0.04788112446531236, 0.10978816612278353, 0.18679386466987233, 0.036927636945226223, 0.16200040361316645, -0.006253019291573435, 0.08488621895085813, 0.02012025087091101, 0.009330807924577581, -0.002584865669945197, 0.12985502685838338, 0.06734099319948512, -0.14196609513639066, -0.1705651357544511, 0.059366434956283305, -0.24656280641461237, -0.045138919856208035, -0.03315805323027045, -0.28993829860870934, 0.0458143808331801, 0.33741420488630774, 0.27773141911403854, 0.3416046411601388, 0.27256647372000564, 0.2752346326137676, 0.1970041960816102, -0.033488158094864294, 0.10795197533756906, 0.17086297844373635, 0.050240770188312, 0.15103964016024882, 0.10418249622466406, -0.029793972238728605, -0.2048711356102662, -0.11443676461440874, 0.14022005173631874, 0.05751614001781681, 0.07197451752604195, 0.010707001701058311, 0.0904139170917003, 0.14038907130026837, -0.02833677861922544, -0.07685566082125833, -0.1169845417939392, -0.3774470600633293, -0.149664343329865, -0.11653881488952338, 0.22777983176350655, 0.25052346076676746, 0.37338280412884833, 0.1496186051037605, 0.04279804126411254, 0.2087779299816982, -0.04075657140591513, -0.11542796216822362, 0.1355399120066115, -0.08942502058442034, 0.15256725010121175, 0.10211301043783995, 0.1867959874174024, 0.019263661752752778, -0.05067696149233944, 0.035263027665983146, -0.06752967371306223, -0.053968196235586484, -0.008929036855042987, -0.10358915472031237, 0.2522435286336753, -0.12240182307640703, -0.11531352653606763, -0.06543424680479902, 0.007200788349429819, -0.18440846050509074, -0.12585187916013288, -0.09370940452698157, 0.20980139584509133, 0.24349401293502024, 0.17404430877431654, 0.09291841235370843, -0.08247202059624228, -0.2303952472512613, -0.22747952620252318, -0.1635534325819459, -0.21953068111663135, -0.3218371534523975, -0.13315027726343626, -0.19763115156400696, 0.02886425580610004, 0.13394865058105065, 0.19949853617480098, 0.1939206526244194, 0.04776060865724707, 0.021212429845264846, 0.010638881962343954, 0.06688481832248838, -0.01406319545664359, 0.024528520200231146, 0.013788347795726366, -0.0489997766507063, -0.037754996302610644, -0.16062006708987397, -0.08297920114299319, 0.06270929324725512, 0.10674665006174831, 0.08672533054156603, -0.16751183355113958, -0.12561471544697975, -0.21958883787364913, -0.14404154971489755, -0.1592667204410525, -0.13936878482758763, -0.17927564350709901, -0.25610428367079996, 0.12416095140106652, -0.12747248286406535, -0.25859012909814355, -0.13867253344169317, -0.015150924924904836, -0.04695122992339643, 0.152647095031797, 0.18567401605704548, 0.03337037961299998, -0.11086223880280907, -0.2172455405728441, -0.11550352372070233, -0.11145696549330295, -0.043453714247422795, -0.045082789404934896, -0.1088931908827323, -0.03106213859605605, 0.06360634937589521, -0.19539233977793904, 0.0322033660050821, 0.006487202898874464, -0.1317278141880766, -0.16376167545408055, -0.3153556332018701, -0.30252343529257647, -0.15771017106341467, -0.09901498584133929, -0.1649585200817981, -0.08551637589041369, -0.1745540975499498, 0.06846639280624026, -0.1721875404408346, 0.0761867305463659, 0.02307760226665136, -0.09751831598130004, 0.08181633731047315, -0.07886584779933524, -0.0025658372377313373, 0.14111194859250273, 0.07195210273426574, 0.08147546794897104, -0.23359576333171098, -0.15336806887483875, -0.17005790934660292, -0.004029973479197522, 0.12178778573082352, 0.05416405310310682, -0.11834308501817355, -0.19505327198361783, 0.020352471601078156, -0.35373816316282763, -0.4183169292786464, -0.20857329745337028, -0.1691575288118302, -0.07036382770944931, 0.09830613822963659, -0.060314312060367095, 0.11416766693828449, 0.0482222482685049, -0.14161841224092586, 0.09467231065139733, 0.030956525893881544, -0.01914776915259618, 0.2762566589979411, 0.20036962063917022, 0.1243894381502271, -0.13955775886458582, 0.08823448891594558, -0.26605049344146936, -0.06643674542782685, -0.2261787788176045, -0.08234481342471414, 0.10281120476875548, -0.024189521310889944, -0.015098325004872903, -0.019879330621583695, -0.26346977797236926, -0.32811506762383785, -0.2531643082915138, -0.2812121304898599, -0.3112418263364315, 0.014615129110002597, -0.10803568324712255, -0.17352853960561507, -0.20969244385870006, -0.0508894941748396, 0.08896518352410512, -0.005721189785910697, -0.03276389939043636, 0.08018390504992953, -0.04306341808876051, -0.22833308732933918, -0.04261808283744422, 0.06024524389528054, 0.09196598165817632, -0.03337498336522891, -0.08184995354947439, -0.07653005717806573, -0.013696992454167535, -0.11239960296860792, -0.046078639702894594, -0.02427057265340807, 0.10219836599928377, 0.037813753378439424, -0.13772734948550525, -0.2130329178879357, -0.2552753157535608, -0.2282727906540843, -0.2871478665193506, -0.015395071117616134, -0.011068090195990959, -0.014309177600415956, -0.12444289289623263, -0.02319592903983301, -0.08732880585113859, 0.006261888230992845, 0.020140735052851032, 0.03194852309968663, -0.038642158684890335, -0.1585414851688549, 0.1501823517039587, -0.04324080372093939, -0.0106984962731303, 0.0016033047211401065, 0.06320381555355031, -0.029953530392092358, 0.051661736338052246, 0.029890187772380627, 0.18163525223594332, 0.34023570844089523, 0.39246243242615, -0.22366231256287836, -0.1462767930993768, -0.3811763187726165, -0.2998846382533287, -0.06846010974161311, -0.05032021320810551, -0.05621443976397943, -0.06035730983143833, -0.2781404876143231, 0.0021460984112625886, 0.039963718577900265, -0.07326378512970193, -0.048947904126443564, 0.16966148327259584, 0.08468566003320609, -0.07691478831267265, 0.08549763782898326, -0.2260679086655119, -0.11426360386057319, -0.023792083359782352, -0.006138511340281575, -0.009737861978940224, 0.089846450958358, 0.19156498813283515, 0.12233848605504993, 0.35665137964845983, 0.20618853055929973, 0.003938144548271102, -0.03372661885517688, -0.3657621930446133, -0.35545561432097517, -0.12242041166150992, -0.08047030967754483, -0.009318301882364675, -0.08177426754180411, -0.032696464899680186, 0.018055817635410323, -0.3168371492713662, -0.1459331166242546, -0.08568835754194226, -0.14604341201095736, 0.1455492142265579, -0.17374548954311597, -0.09689271496886812, 0.037470329935174206, -0.10911678214661867, -0.03695187554346826, -0.028313606209224722, -0.022346653421465558, -0.14356375638635094, 0.14897267934497405, 0.00790353442932581, -0.0831214234242698, 0.16704681335249982, 0.09913933884278904, -0.03044279021338018, -0.06158253819818264, -0.3648757397364814, -0.4278435378306887, -0.07152603725939373, -0.31052293052749647, -0.14960025610588795, -0.245441067931721, -0.0906634944335972, -0.023381825688382558, -0.1726151940608126, 0.031228130756740247, 0.14792910490551037, -0.02322946098714678, -0.10809564593680905, -0.03791653038600054, -0.09321314855588499, 0.08115658132011842, -0.03372299161374422, 0.010412632669336216, 0.0970516743762215, 0.18175729535671356, -0.028831635058645833, 0.018387847702713025, -0.07131640474112093, 0.04550441405809742, -0.21768855724927763, 0.02180126542928584, -0.27498944651830715, -0.18844922573845474, -0.25418199034076205, -0.13059617296008094, -0.2738249337256123, -0.2250037894876947, -0.07852432817528465, -0.1582319433550371, -0.3089043802000058, 0.05012833056857475, -0.114735104446638, -0.10646320073930444, 0.1907993005878654, -0.26974907623933986, 0.08527542409775725, 0.04179244778607516, -0.08604848058268565, 0.05304791617761626, -0.15939495263916198, 0.030327708042650076, 0.14550214692247238, 0.06552811890900297, -0.12839736353888992, -0.17275018423542385, 0.011038982969088286, -0.11459201269262906, -0.09854153001310219, -0.11456819855690693, -0.1702354208977314, 0.0417748830495046, -0.12149168930304341, -0.21570472381931288, -0.15113202051947175, -0.04417154292843118, -0.1538123635942442, -0.01477227493606603, -0.2440277815937011, -0.07117714871631689, -0.06367044401453444, 0.1292654072523966, -0.02192136695875235, -0.21567940286614426, 0.08365355844564676, 0.046730441913576184, 0.07572991119468125, -0.02258258143457178, 0.036919977156682306, 0.046797434737502336, 0.09779263226360807, 0.18481925645048344, 0.055819730265837024, 0.08726470247441445, -0.052846608984734436, -0.009524429128992862, -0.26939138923413897, -0.009328765962875954, -0.1642068680858695, -0.01607836722009785, 0.017589841679888255, -0.02616819059381108, -0.09039476835259287, 0.03992781049067447, 0.020147552926260557, -0.1681222986294208, 0.04404391719402216, 0.0392396947457856, -0.012929245231932347, -0.0747366945031085, 0.054675637053348505, -0.01773079942337686, 0.027247584871624955, -0.05102963695173162, 0.10027328366237796, 0.007113154393396039, -0.08675497953277386, 0.01565633700684078, 0.06898653063279729, 0.16975619853867002, 0.12853247019309103, 0.047604082290710094, -0.1385392847991084, -0.311558596273143, -0.14386843354991938, -0.18467305559462438, 0.05822300103340468, -0.13144848334624787, -0.009754178954921752, -0.2539213438300741, -0.09140090629704281, 0.06765126224887487, 0.11635344538276865, 0.10616003353873155, 0.0745201217745731, 0.09388965662719265, -0.1655848426828204, -0.07489752251773454, 0.10419403631705589, 0.06410001670954546, -0.030604110687763794, -0.051422041297149994, -0.0707376324478832, 0.1029885841174286, 0.05327234242681121, 0.22477907406573105, 0.034246647418595136, -0.13884983412804242, -0.06033624416420634, 0.030157113718261276, 0.027589807892276302, -0.11984008781736018, -0.27309471366355076, -0.034637675366238636, -0.05956830831620535, -0.20547204795740256, -0.27358604170778666, -0.09715484404499848, -0.10757851682023586, 0.010502961236089188, -0.14508957386671104, 0.19035698107795854, -0.14869036589773743, 0.05190002174081628, -0.1386404761881453, 0.005277287658860813, -0.008291231678406152, -0.055404212953221905, -0.19477898785439463, 0.010900853272725452, 0.08285389177081413, 0.10307360048080459, -0.05313231683656635, -0.0008683171261668903, 0.08455762227549733, 0.05953460052419696, 0.043251577298321436, 0.04740235315713105, -0.13012046282153794, 0.11258641960866085, 0.002111837017512247, -0.007666349649686427, -0.11146886485536454, -0.1230435273642072, 0.00632338844567202, 0.1094324473485031, 0.19714480207978402, -0.11751830587700668, -0.1009899077586274, -0.011708003607826149, 0.0953670889368477, 0.25354114670842887, 0.04785278832277034, 0.04626556863725854, -0.0010211337730712752, 0.08566190088247662, -0.08936205946783451, -0.05701090905910945, 0.12769863687958313, 0.05532499738325536, 0.12957085201380425, 0.03619039546366204, 0.06705239424529033, 0.016241412750047115, 0.049432040622827036, 0.0871321041013054, 0.012136340295806002, 0.044392139568085444, -0.16610442435059272, 0.10665423994687931, -0.03831124767060977, -0.08508196978660387, 0.13354826116714924, 0.04367168234450395, -0.1553556635626754, 0.08281633678698068, -0.03461436435490406, 0.12683538349958937, 0.054687292610571515, -0.022552174848779975, 0.052478430858604874, -0.0922453984647467, -0.055409667650637456, -0.06528876156889024, 0.0250711633266235], [0.11556392930607812, 0.1166372450830884, 0.046678897340082695, 0.09735446085840059, -0.09005826356516806, -0.06358326771832601, -0.18953836614500172, -0.0007882402164429065, -0.08350805487638155, -0.03053897655583228, 0.04120427682017255, -0.03800086143183112, -0.07303927267965021, 0.03483963216800404, 0.04648398924724249, -0.060176057613859336, -0.03768842241210449, -0.006414330445132838, -0.06851793455092661, 0.1783090059653643, 0.006812344949600498, -0.09440148825933689, -0.032427675580230055, 0.1008528718231498, -0.07714340012777374, 0.07074602716073684, 0.018624541254475834, 0.19817428746043186, 0.10059107204405114, -0.032527518620703404, -0.041050576085101674, -0.24886907656940785, -0.015180506548024386, 0.059537705936951554, -0.0902192328929182, -0.10978366347019393, -0.060370877245613686, 0.0494770266280994, -0.024854071794228844, -0.004434130988909103, -0.001027887720469647, 0.03536022203966729, -0.14188538818135324, -0.09841207357636172, 0.07151847922868854, -0.004940135733870539, 0.14404708723743195, 0.1669716425059477, -0.02576388726417653, -0.1544550158109264, -0.024642071021245132, 0.2311141636771897, -0.11630715762516741, 0.07057419304094058, -0.10682880954469523, -0.0395582792011577, 0.15320865405075648, -0.09798506790717511, 0.023069572198235324, 0.11895440953076875, 0.3360030315821932, 0.09757902147346303, -0.020621829643483382, 0.018032716962767214, 0.0940161886152653, 0.09110038772462734, -0.10643887096690696, 0.0628309553846853, -0.04979069266191055, -0.1713205761003684, -0.049632201244756924, 0.03162838107102221, -0.03904956815319698, -0.02123872200591672, 0.03568703653505661, -0.047826445575226924, -0.12154286523570466, -0.1052473137204387, -0.021963714882581954, 0.07486990224530295, 0.26729973719463107, -0.05262908684661686, -0.06182071926257901, -0.04134870924166419, -0.1608794125078593, -3.690254903903964e-05, -0.06535563597489209, 0.1582897094759751, 0.031005822697817192, -0.05838752391991938, -0.06591240914369034, -0.04106208886279305, -0.03696585727835711, 0.02926798419375899, 0.1811176483380345, 0.1775921244387292, 0.10194101632601135, 0.0595888783956262, 0.029504783391274516, 0.007450360793457384, -0.09175743545170699, -0.03880114006084651, -0.024709571045774092, 0.07322294482265132, 0.1259808224482079, -0.05813492507461483, -0.08149155832801214, -0.11282205220452667, -0.18757322050809366, -0.12376555997312381, 0.051250919561141355, 0.038373619222151295, -0.027307685503767533, 0.13869539522784713, -0.11731685597077107, -0.13873950168334576, 0.13734292413995047, -0.03146781088061564, -0.10821378511427598, 0.05343543225127303, 0.040641181402981987, 0.079894643921179, 0.0867525312317906, 0.0681868317201173, 0.10232346454736321, 0.13473927456391663, 0.01077741540025211, 0.16955171354725398, -0.00562168337233908, -0.059258981215252984, 0.1832858644886666, -0.08941153778923998, -0.1430683599291501, 0.06900882605212957, -0.059992199626210295, -0.025424668016679128, -0.007319878985205172, -0.045564642415807245, 0.019991798410591212, 0.12216026583785432, 0.06690000467898598, -0.028316292277899842, -0.11762704304165336, 0.10839254787241141, 0.08781119775726526, -0.08921359033244709, 0.020973931101831912, 0.1816018571505657, 0.20350197133257136, 0.3056438563478415, 0.19771509479630797, 0.16618705136466191, 0.005597422630397733, 0.1963496822743632, 0.027731358969085483, -0.03505279204254602, 0.21070183426774186, 0.12138576417601131, 0.06890651280672185, -0.14971887416238067, -0.059958986335815846, 0.012689560792123748, -0.13591594914888633, -0.02792411318353832, -0.09947050152711943, -0.04574966632796263, 0.14076449864505838, -0.006309714896666501, 0.014811979656776135, -0.009430320357047555, -0.09111271778916044, -0.13601978013947066, -0.02653664606402633, 0.09040300201503143, 0.14017005798572424, 0.21298525692693612, 0.12310575384196448, -0.027659979935094926, 0.07821113850978557, 0.24469278199898215, 0.1839793070187648, 0.10105787998578948, 0.05228930131189221, -0.06642293551569461, 0.1329731848537208, 0.07199377006313086, 0.1636095742350365, -0.07247058859939315, 0.036684125009643596, 0.1625102067105411, -0.1565690206981795, -0.09140168556969204, 0.11284266016679843, 0.023050984953074994, -0.2046540825146057, -0.016347524423755627, 0.050537110446057354, -0.2143230465453042, -0.053706397953484385, 0.09720774091543599, 0.13583651733782215, 0.13502263081766125, 0.03896672305502273, 0.11677544751261537, 0.10925580860568215, -0.10091747296630682, -0.08466114125495704, -0.020657511278788253, -0.17824003474514388, 0.09390973175786507, -0.1516268688933626, -0.010859837325668961, -0.10137971716213205, -0.2715219765490745, 0.07237353457507789, -0.20025707684974892, -0.0162158507035847, -0.13213959270552855, 0.001476603477042085, -0.11447903005115095, -0.14671279396932219, 0.04375771153069233, -0.10428071039966329, 0.009882534664496711, -0.039508007989415665, -0.11166460785963543, -0.027395051909921635, -0.0029981838412559744, -0.08468957623009583, 0.12020412340601215, 0.015359320235795556, -0.01664665139338426, 0.12756328925143404, 0.06398701516586026, 0.0463127673256046, -0.06707698199294565, -0.16456075125354255, -0.09888146068638137, 0.011645357204715805, -0.09145498582569475, -0.062020028882042604, -0.017829590977637335, -0.013224801809887738, 0.056318260779949905, 0.08873208011979483, 0.10375355407397352, 0.043621430367503995, -0.04865994804148204, -0.03722250434903063, -0.09733595566385755, -0.09240120067442664, -0.11649028747268629, 0.1121221409102347, 0.1370237436772727, -0.022929358734784872, -0.03531618606361361, 0.036968665387313276, -0.05593489790362947, -0.12953088133868412, -0.26614832625901436, -0.007541725118979735, -0.2514756365947563, -0.08202416003968034, -0.1714653543122086, -0.25468694808014986, 0.09033840588526366, 0.1252549236476329, 0.23636342760428197, 0.1951643990461786, 0.07193465379817772, 0.2075594950548145, 0.10112016059138998, 0.002535683721419744, 0.09474072423730527, 0.09519720611901439, 0.04905237017690036, 0.04893542807719341, 0.010778775236502607, -0.12784372670834865, 0.2476768474835179, 0.004727440225002267, -0.022683690561055018, -0.06262868321794933, 0.09897675962258187, -0.17074301041165751, -0.13704387245877697, 0.2477732832725376, -0.04982230885480773, -0.024037911596685082, -0.15698562014890663, -0.004253602274012043, -0.29146133102456384, 0.024019786990268164, -0.10230580831459778, -0.15367155683502653, 0.16570072966953267, 0.2140123945859833, 0.2597803205588668, 0.2691831972513657, 0.06255258875324038, 0.07624319384072871, 0.1531125562217104, 0.08012326299964573, 0.050361151836032174, 0.037989739569834355, -0.011882011357919763, -0.1714014226206029, 0.11572563536778611, -0.07594120746478006, 0.0774382134575931, 0.05507829849514947, 0.02368807729350492, -0.039985615745451404, -0.23230765582394267, -0.02975922052074739, -0.3634076394680172, -0.1758700902831683, -0.3224806055599276, -0.2537039101773997, -0.20120122227806805, -0.09982937659483813, -0.20600631303221204, -0.3265390405126141, -0.17263900117210496, 0.07065854894222223, 0.20687041240233198, 0.09229971654657468, 0.1124803461761591, 0.026894111334699163, -0.07873983884015057, -0.08561906365221321, -0.02730923339479603, 0.02285201453908084, -0.16595723415982283, 0.0826661500377503, 0.11898861992438581, 0.00288642790718726, -0.1907438845902273, 0.02969775467097194, 0.02132471728561505, -0.17425925668902628, -0.0991400236775263, -0.1286607835199458, -0.06355994352474305, -0.11497712019875458, -0.05533619039218031, -0.115540421715406, -0.09010971108315749, -0.035704071545498386, -0.3079512849058562, -0.3720305227739211, -0.25787113086504443, -0.13870982990110284, 0.12681637908519014, 0.11546482418330212, 0.07087990075109933, 0.14904531641913485, -0.014459336684600435, -0.23603007375937718, 0.20518505760738032, 0.05733985715249663, 0.31632851533759354, 0.054219388064462484, -0.0016462710808808623, 0.004526574886197248, -0.05595547092954649, -0.08435103740764023, -0.07936610731229432, -0.0035795295988697577, -0.1051324669680641, -0.011255541731059379, -0.02885289224945494, -0.04166392280812058, 0.009314948741918636, 0.04260660168383031, -0.09708934013165849, -0.19811317945120835, -0.281180485691138, -0.29386590576874827, -0.32077122142754105, -0.06172010071239318, -0.06250588021986536, 0.1898918919030323, -0.061262723890156356, -0.22870095998444687, 0.06400129003332919, -0.15119793327926104, 0.021892546241841237, 0.010770129610297642, 0.26979213935453866, -0.0072029570766754545, -0.19980647050912703, 0.10634399747176247, -0.08981709822870579, 0.01159570234007946, 0.18049200758852946, -0.04602295007635375, 0.13684591694628997, 0.15554029153423035, 0.0032803687456487815, -0.1595383562418781, 0.01422662399443627, -0.036514556028967436, -0.16351929421860098, -0.2248088121131402, -0.18693018227122016, -0.34384520203351326, -0.2206685893064395, -0.009170192966802443, -0.1847657781277875, -0.1829647740807966, -0.24149729984138635, -0.23662590573986664, -0.020371426569230095, 0.04890047626354911, -0.04170080740873663, 0.08101164714300595, 0.12061889244345156, 0.11420651713401998, 0.07056741233483246, -0.1276717443303201, 0.1074095958933167, 0.07611677624207472, -0.09316039070424263, -0.14842875955710477, 0.0974947989559478, 0.05630067548068514, -0.17035950112639722, -0.2233864522477515, -0.22436655017947416, -0.21045441989580582, -0.33918776454651217, -0.3371389354163632, -0.2432686233058769, -0.2986443569683733, -0.032058723700880414, 0.04770044176131208, -0.12369351622235136, -0.036651361472730286, -0.10868881654759664, -0.0585365173722393, 0.02168073826955816, -0.09054702172546797, -0.0018789398172928294, 0.23843004014390887, 0.1265591643864021, -0.17072038465107234, 0.16832575333033187, 0.008337278850564877, -0.08369193659054547, -0.1292592648901577, 0.11490208108779802, 0.09861201849933535, 0.15373136391988715, -0.22096768420811155, -0.16260235501058493, -0.24533387508576623, -0.4625166176070876, -0.1671438135022114, -0.11780276416631039, -0.41701211420943496, -0.3134516027982303, -0.22378157267735457, -0.041058253121710575, -0.007984141411646333, 0.002219788092117517, -0.002941828032939268, -0.08205622284979616, -0.023224633561816293, 0.03900491977415581, 0.057915794903034334, 0.04497361176392739, 0.34198608027870453, 0.17719949204803462, 0.04586285554862754, 0.00301466411399376, 0.04811264401103544, -0.0331699665566512, -0.02933900233107004, 0.059654056024288665, -0.054152771426537204, 0.15961793669344765, 0.25738562933080517, -0.10737671853654496, -0.25796981454615475, -0.21922178879216783, -0.2744847683867791, -0.010497330272126161, -0.22509622454683206, -0.2505856337361239, -0.20160472134161195, 0.047231791885800435, -0.09467461584286535, -0.14482129860597365, -0.2626707666970413, 0.032267742497310306, 0.024764382740227034, -0.05112861636104002, 0.05540026766195288, 0.2108080038862166, 0.25158118922068967, 0.0063420645106474684, -0.10798567301425385, -0.03603956914779686, 0.20278221197777538, 0.05822117861367104, 0.13320725090724667, 0.028041831385858272, 0.22200623763769242, 0.2721641817889899, 0.10788748495193129, 0.08311787845685226, 0.07730240565823666, 0.08434495498214338, 0.06195397422572051, 0.11900483089405656, -0.04224871048474266, -0.15964729361534502, 0.011512069504773072, 0.0038379497069271403, 0.15696754135347518, -0.05008929709473528, -0.0139299014412741, -0.24144388204892536, -0.11919876826757833, -0.11564936082353118, 0.05274223806847873, 0.02844778670422567, 0.12937668618215933, -0.18004768334647145, 0.01634440800346981, -0.17342543332688018, 0.09127305429913841, 0.0664819055154739, 0.044695487186168274, 0.0734732554086669, -0.05277403233457985, 0.3604733358157234, 0.16080411639107167, 0.2315478648981781, 0.1511002851107884, 0.21160431703920896, 0.4745879258169652, 0.29986971383458233, 0.21348647549257244, 0.28477860827940865, 0.14466135574151778, 0.030045401176550142, 0.11762333292805717, 0.018274736828931867, -0.19485259228385807, -0.05446132750142915, 0.04645445969702451, 0.17073586585633133, 0.11234611155377203, 0.16380599002229504, -0.04205241773835451, 0.03388753366291932, 0.05440695819969858, -0.025308222087098785, 0.022445008659904054, -0.05611407170156569, -0.14130500250269085, 0.10672671019267045, 0.185622609105111, 0.1760196103130517, 0.1805621276128706, 0.25114207622357076, 0.12192398247251063, 0.3002759228359612, 0.4118356620292751, 0.41858355590831176, 0.20953999598588596, 0.2324973392790403, 0.21029637506290688, 0.13618206151551857, 0.20974407834801548, 0.05832191710219405, 0.10616137275743089, -0.11970420375011569, 0.03960024139731229, 0.26009832144672174, 0.2297773559713273, 0.002572352485988901, 0.020727878603467764, -0.016136487436677147, -0.03284162288458126, 0.0686512100171526, -0.04255985430769336, -0.0781591012523923, -0.0919154337894469, 0.05065757771775654, 0.08810247696435915, 0.23584234521374772, 0.10595486607003243, -0.02773096794197811, 0.04019642102144898, 0.16591481703921593, 0.1761270647501261, 0.12421027512603436, 0.27966580356585347, 0.27765048453395874, 0.19004214667303562, 0.1316851680016274, -0.11405361467708172, -0.06246424603912325, 0.20276979600525505, -0.06945837093910325, 0.10765437349026984, 0.1843870642005904, 0.2778384044175067, 0.35722129599591756, -0.10698160748793313, 0.17608257100305819, 0.07280897333945166, 0.05362776478414178, 0.10357228464482578, 0.002156820841624576, 0.09327952425598332, 0.13084718032235976, 0.12428044114499542, 0.11626731794215762, -0.040295857695800456, -0.00845232624058214, 0.03920662719408066, 0.22682413961221437, 0.08303520400393759, 0.20217053890570416, 0.12770474123428163, 0.05697242812887936, 0.00015668145983594825, -0.020681000572104057, -0.036322636285874184, 0.003171153809887573, 0.10703173981936447, 0.011362400717554405, -0.0007385939393677221, -0.008665256074948266, 0.13622627624550215, 0.04645229636603054, 0.057904921025442, -0.06287925488930184, 0.021738743874426068, -0.08316913132440924, 0.1016226724103674, -0.010772721505742353, -0.2805024030982776, 0.05790726264659445, -0.07108846732618085, -0.11463569831172099, 0.0320201132304376, -0.031290564987601785, -0.14054071757487996, -0.03843730617808956, 0.09508978310138325, 0.19439479677685184, 0.06794390527805949, -0.2914282091177811, -0.15394880694577248, -0.13149444879772748, -0.10034653006132749, -0.026123274360524744, -0.1859853462675891, -0.0207772350519273, 0.021441686703151924, 0.09348696532913105, 0.16786699596299418, -0.1140333697242996, 0.02660585428904116, 0.0012195083861563075, 0.08091983573176156, 0.010153028595112468, 0.03421590495607997, -0.010910268861348202, 0.028596369541296997, 0.06798635314087478, 0.06688471325750961, -0.12165730132666702, -0.10379691258509209, -0.22544139841596228, -0.1242448317907102, -0.16273640012978663, -0.06580554677226676, -0.13793742902636177, -0.24300527181392947, 0.019045612628641247, -0.07247767495781583, 0.03066679132718682, -0.008983298108768191, 0.11057568935799267, 0.1640405609581459, -0.17106742596251864, -0.11456409013101679, -0.07610872356503293, 0.12027785158872953, -0.14594766917463106, -0.05261051436457155, -0.10267635980006255, -0.020145200496208895, 0.0749665627246953, -0.007137202431175104, 0.13038328247846412, -0.04298476142498358, -0.07331696665485775, -0.23538082028088966, -0.03701998512874923, 