{"internal_architecture": [{"inputNodes": 784}, {"hiddenNodes": 128, "activation": "sigmoid"}, {"hiddenNodes": 64, "activation": "sigmoid"}, {"outputLayers": 10, "activation": "sigmoid"}], "learning_rate": 0.0003125, "network_values": {"w0": [[-0.006730528352658748, 0.09850642966757833, 0.014813164417046436, 0.08051866080272585, 0.006751526209182394, -0.06418101955611125, 0.05105641809809262, -0.18076637288708752, -0.04847003678067019, 0.010127488270315625, -0.027689565461023365, -0.050149670558125525, 0.061632038505607056, -0.0686422929349873, 0.1358341093659018, 0.07373986647739847, 0.17413645133522038, -0.043729602709811195, 0.19611958358506487, 0.05293079378492915, 0.023050799553036534, -0.025413204757031432, 0.05157090056508845, -0.015131048585276283, -0.004308271617203302, 0.12807167903185646, -0.03581746455999479, -0.10321045913780012, -0.03905764115108122, 0.010722317844389817, 0.15139784041333315, 0.0015830188561842193, 0.30168557685220737, 0.11715802574392091, -0.046123648491594275, -0.03466431788490456, -0.2111704328031286, 0.02761420051279042, 0.03193773157760442, -0.21584362651441336, 0.019161264792436357, -0.038618139822826206, -0.010551465279063324, 0.14737496333323938, 0.04619345156959632, -0.01870172167107499, -0.009078350336149824, 0.014045256828114605, -0.12735609989908103, -0.1837554236413769, 0.13995040395044708, -0.02897333122653862, -0.00955769339851079, -0.02765249713360797, -0.09393833583212417, -0.1407773005374044, 0.003642414626335947, 0.09759401046424451, -0.006390165862056798, -0.10702143821569364, 0.020600476865028965, 0.011089002882151689, 0.02288027198142131, 0.1538408798265256, -0.13285228011365996, 0.07288904620426767, -0.13447604808449176, -0.11373771113952959, -0.12624873986003995, -0.12591158657163504, -0.1752247076282466, 0.05939371268851152, -0.11888317358645098, -0.2802305752989545, -0.2500625697841673, -0.3012358709030412, -0.5210928113642562, -0.26201457924994914, -0.18988766393886752, 0.05452962196433607, 0.08456907131669261, 0.11574201370912343, -0.08129624159698895, -0.06094984840209214, -0.06284862991243953, -0.08488520274011652, -0.03517693248658047, -0.05549651506744369, -0.0806693763685467, -0.06738819121335578, 0.10826356106106373, -0.09426663769458318, -0.05141539960701865, 0.3746579167622728, 0.011454327876043084, 0.19392631739410734, 0.318620848132561, 0.24897604220674566, 0.24600229504971902, 0.25386453050206054, 0.05274706020130679, -0.46679551602006836, -0.43251412710719317, -0.510716887050244, -0.4467760172399042, -0.32281651007650974, -0.1968238727961081, 0.04527975162498903, -0.07631370647968388, -0.010136092198845837, -0.052618061218725316, 0.018409483346258023, -0.10307311688252081, -0.10490889652624157, -0.0976920275658659, -0.008631312277515788, 0.10709595690811372, 0.18446502073728704, 0.15054283442196137, 0.32768048507090564, 0.42723613680769573, 0.2502354287782078, 0.3599106108261844, 0.28224344041189836, 0.059267845332696155, 0.3927994597485154, 0.12344843349862154, 0.12496050725795393, -0.37453004309819704, -0.5386872897458815, -0.45715859395639247, -0.528745249601544, -0.5242122692222311, -0.5278064056437561, -0.3641838866692089, -0.2972249147032582, -0.2879270786625631, 0.02661548959396471, 0.13554757279544652, -0.019543914937686743, 0.13568053935360255, -0.02683550369292875, -0.03352648071609055, 0.10383252791894763, 0.12266597127197311, 0.3435397625012528, 0.24877124432025713, -0.02868115045613075, 0.14030607774283252, 0.23951208353721823, 0.254219908347721, 0.03522777463096515, 0.12680798203388957, 0.0031021525581701463, 0.250388879091702, -0.02967722510266235, -0.2611649889717924, -0.23662041246079024, -0.32140523210033883, -0.5826215907745743, -0.636255397161085, -0.6631653685152427, -0.5233287147172115, -0.30036863491906457, -0.2553774443080766, 0.023496275309414456, -0.11537564819892857, 0.07903004087357669, -0.03079983954197518, 0.18688132962450882, -0.27904354383023056, 0.20167558891877901, 0.14730214263739239, 0.4406015767577851, 0.27727875282438885, -0.2134179932698297, 0.1289215904064396, 0.239612575888832, 0.21689708421494744, 0.061208992757780266, 0.39547908896645934, 0.2257341952432392, 0.26856141953864254, 0.13630400921769925, 0.127621198538414, -0.18867818476024023, -0.07247740718070259, -0.7615540770190855, -0.7525638982871471, -1.0170896226815087, -0.9109882497850518, -0.6519950264557149, -0.4856932133702516, -0.21676715493220988, 0.03694540683763918, -0.03529682001394143, 0.04040905879269648, 0.00431716150369764, -0.14459242938677924, -0.02703729054028527, 0.4992115847564739, 0.1460182079877217, -0.15006688592661066, -0.3182342477479581, -0.2218910834389132, 0.0013375326744211357, 0.006897967241910942, -0.1439723437030738, 0.0942661034559421, 0.14920101509964542, 0.217755913792214, 0.1947812767827898, -0.012611185002777879, 0.04923977884607124, -0.32487505837849767, -0.48921820043705627, -0.644430672277404, -1.014949939289862, -1.2068777854778818, -0.9291922301562402, -0.6454403293400207, -0.1607797511546402, -0.02032136539664424, -0.0878926542470024, 0.02272398223072037, -0.027199902179744016, 0.041858751673315146, 0.022237882753749685, 0.29174663143973334, -0.09749673927826956, -0.13270550636658393, 0.0003211208057486849, -0.22750902078726096, -0.20763094143913766, 0.04917056094511331, -0.046358125405567406, -0.07914583538928828, 0.2892669262937919, 0.35501430259226335, 0.5539141497403993, 0.20114669703496857, 0.3444681409255156, -0.2544327928004371, -0.20117898810560997, -0.6719049569021445, -0.5742274923359583, -0.8280524966821438, -0.8979813323544575, -0.7973513544947461, -0.2643811766153415, -0.20358888263412053, 0.043994393857562646, 0.054189205112178715, 0.07119099926557682, -0.07286593579921119, 0.2506245199615903, 0.16056445879540876, 0.0591855437888038, 0.06662900903213204, -0.07208327975772011, -0.1439107470612831, 0.03420647963143199, -0.06650691762679672, -0.295810017007082, -0.16367608969623754, 0.35611527638573387, 0.6364972564518916, 0.4661969508679488, 0.44462266413235313, 0.3396507797732397, -0.11437144908217478, -0.3151541527041648, -0.16347244425241622, -0.44282490070853225, -0.6314600187336441, -1.0071858699143414, -1.2496523536795463, -0.35431075672266926, 0.057681818359891356, 0.015259842134684565, -0.06308695306924089, -0.08128956703978443, -0.07716115888814734, 0.030477644764554935, 0.06352871327477226, -0.04266899081548629, -0.0967806477361837, -0.37637875621037886, -0.25945699085694834, -0.36764698625804404, -0.2887373777237205, -0.2055267280166243, -0.01742653552074503, 0.2856116011055889, 0.3805936658125652, 0.4751859767157863, 0.29016994161100745, 0.18080826330713487, 0.22473987108645935, 0.1723773318639414, 0.048454278729499756, -0.08952743613892776, -0.674025205867799, -0.9211308321583362, -0.7656358301170917, -0.2681983305621048, -0.11745717015722211, -0.10114339544301675, -0.08508339724459496, -0.03166436409400498, 0.025464070367415402, 0.19636222629676373, 0.2204438182477635, 0.01711805858313751, -0.2663741341100795, -0.21652112206200086, -0.14790719823405127, -0.33386032171788155, -0.2727893369114742, -0.2147736915932109, -0.1957106134707317, 0.32876624534259286, 0.2834721660269735, 0.4103977182852635, 0.1854376181764042, 0.3059139487828198, 0.3252465011174528, 0.16350459595995023, 0.4532464628610951, -0.44191919371954413, -0.8592318826261073, -1.0076491434218313, -0.6030414495191873, 0.11484737018547586, 0.0798179147186398, -0.05701677667873622, -0.07857756130169506, 0.07045754753916744, 0.023214446475749453, 0.15087376450278672, 0.1634466646901468, -0.1819922796060342, -0.17775440991205563, -0.02383711500084981, -0.19404681167993737, -0.002080776706106179, -0.03414758156535009, -0.2940029319990737, -0.3490825891984431, -0.010619651177620749, 0.48553876077680697, 0.43188075475112386, 0.12740554937842571, 0.22849781877151662, 0.3073372277898056, -0.13005373680470933, -0.20501680923419072, -1.0136054790090567, -0.8512558999991302, -0.9126565982417827, -0.36151987391249524, 0.34102777526724687, -0.04957865468030426, 0.005412694270739308, -0.02236269644819764, -0.03469218489542595, -0.003886223458288812, -0.06861093392850956, -0.05459244128905859, -0.3391222829867887, -0.050383680900369536, 0.004447215765887415, 0.15130644055952217, 0.26432950089586765, -0.1798761956897362, -0.3243627192986955, -0.1956949115828139, 0.20378940582258748, 0.6184761284990785, 0.3698944057824942, 0.38568630126308207, 0.3147641307577342, 0.04694449955362802, -0.2954780960452557, -0.4725780053908544, -0.8887214421503238, -0.4893127263995486, -0.47507374926766094, 0.0686203145706824, 0.22732701387107485, 0.040908574426990085, -0.059870276264919656, -0.06634780799413331, 0.027778699468718877, 0.13042872617185655, 0.016747709335019244, -0.17372831483190734, -0.46830846719665126, -0.24458120088057506, -0.20925414603465153, 0.23945835479653807, -0.20552316822502176, -0.321486112185602, -0.1582095054194356, -0.14663563019070947, 0.27587999069133884, 0.15645224236909921, 0.11280388309793489, 0.24976948218745973, 0.07394552858242437, -0.09318344212508284, -0.3299264617932976, -0.44258888783403255, -0.48784408651530287, -0.5064418152883987, -0.14926493848535544, -0.15228376514896708, 0.20208832028642099, 0.043740243543862856, 0.12349282530101462, 0.0038974862750789487, -0.0035677303054420396, -0.21943444704869522, 0.2718694139769362, -0.036113238732576436, -0.5739044631410563, -0.015813531972527342, -0.18783113043468846, -0.11709666103506536, -0.002338999913485907, -0.24106513814318023, -0.05521375821655737, 0.23101833030630875, 0.27960979828573207, -0.0015089059911372181, 0.1480121294882281, 0.22321801459441984, 0.29811128136134735, 0.08714299579197204, -0.14888541514668538, -0.18658922265983485, -0.1536560313692524, -0.14575335350888258, -0.14194489792536766, 0.16150945324999377, 0.271014370777508, 0.261420804038158, 0.19014202102156444, 0.009440764958845757, -0.014880143728134287, 0.20827609432423283, 0.09230050037924561, 0.1800394593324633, -0.3452216629708792, -0.37272686430121427, -0.3674147021509136, -0.2819071154397581, -0.13573460713234445, -0.12592637573992727, -0.11035654947388637, 0.08033167476295604, -0.1286243851407936, -0.038865353973417054, -0.04856572310136296, 0.05260088785197596, 0.020755939828734558, -0.051536016551069756, -0.20083449764340458, 0.06375294294159525, -0.05289618695882325, -0.004122200292036544, -0.08289422895149096, 0.20954373316074346, 0.5003049411135976, 0.28295912688301, 0.03857485648282171, -0.011066909579171324, 0.2562092879496988, 0.06407932207010031, 0.5063350807794266, 0.035426314000329445, -0.13772541656117002, -0.29852150441953207, -0.40891600734227, -0.40624940551966776, -0.1215172860305341, -0.24861582607155253, -0.23262024652926622, 0.01399358106191522, -0.1078180153711561, -0.40719465661692417, -0.26026259055143236, -0.11841697564368202, -0.10401435047070254, -0.2262849712136764, -0.1274979752558274, -0.010191503663620755, 0.33827365051570796, 0.40217591334575936, 0.039882265691046435, 0.18720853818514593, 0.38375401451175944, 0.26607284215864435, 0.047794292722216455, -0.03079111576754232, -0.03661338069236907, 0.1728158081143229, 0.2844197842054993, 0.2573948511399144, -0.22654774223351276, 0.13711785136257884, -0.17500424858342448, -0.20198851560245296, 0.05324124204637774, -0.32020066151292975, -0.2297719595733232, -0.21370828408933945, -0.3060709205501709, -0.14796301800637843, -0.1572368432645173, -0.02830434718589298, -0.22207018247451962, 0.01988756702926969, 0.09941158584905517, 0.23064987903950707, 0.27275301287633585, 0.29762490416892995, 0.19963443015390517, 0.09742405112500097, 0.1655972593137735, -0.16517279042001487, 0.05683182673979078, 0.17477258512136476, -0.06403621129518935, 0.025591388941772743, 0.2824964555660781, 0.12748511924047157, 0.13163960442357975, -0.24972800135806986, -0.015809502548253303, 0.07710985967769504, 0.012998383366339563, -0.001249696803834599, -0.3317676375533391, -0.35708310837110135, -0.059955729404928264, -0.27177430655562473, -0.25395266953019774, 0.018778546883018072, 0.13223800266665384, 0.10144758963111007, 0.36598462624492545, 0.44417486313336174, 0.21720832062632534, 0.0927649700026992, 0.2166673567698471, 0.18291713730432954, 0.3802331871985882, -0.004601390642627682, -0.06976991133033686, 0.050243998552054164, 0.07181091952848907, 0.07604186505504693, 0.17385063602282455, 0.06358002545720313, -0.08441465345115005, 0.0016648916523988963, -0.15583470237876038, -0.04861234926771745, -0.0065294699442654015, 0.23037309940639586, -0.01742787054453783, -0.07303351140961006, 0.09270154355314171, -0.06688491166913832, 0.07990289994900761, -0.015250120359702522, 0.041861333917437155, 0.013465060097430023, 0.0038878421668924554, 0.26979918663123015, 0.04099299330635932, -0.03260629608639801, 0.2742678416208715, 0.01765662381465825, 0.2197562689014857, 0.008490000958810258, -0.11136116181894049, -0.006573764304017286, 0.013962391216545562, 0.12524589873474812, 0.19193984081792279, 0.2776455383338735, -0.09392169588770151, 0.10546927679383261, -0.11759895083242773, -0.12095093727873163, -0.17029381418437609, -0.0858775033730342, -0.10559550577486015, -0.04780714377174492, -0.06819762605711249, -0.249245652862462, -0.30933710236746936, -0.041566457236278005, -0.021540905269677196, 0.1022243026906993, 0.249149717210677, 0.19185015921405366, 0.006114471935497034, -0.11235461282298803, 0.050029878865720794, 0.02702947830682516, -0.04309752513268027, 0.10897718203955986, -0.03188183656560169, 0.003342053870392803, -0.07633147629654544, 0.06961185987619553, 0.34293849829818235, 0.2148344785921417, 0.13658526331501794, -0.20842791630413676, 0.18997752840062504, -0.1065291602101636, 0.11379049660488055, -0.14180138149921573, -0.14254632638345607, -0.15298428804872075, -0.27576896057080413, -0.14952332656915768, -0.23198604921826288, -0.14013010324102648, -0.1572330214839537, 0.20022708526320415, -0.02780140909293752, 0.20185623636493089, -0.17172460294732256, 0.06374858145225064, 0.10927975278856655, 0.032875564440618274, -0.022941936259161095, -0.14907435994153434, 0.06621772843651952, 0.007977344409895724, 0.0467838649601497, 0.17561679328313612, 0.40023994401429475, 0.3713037152470015, -0.019631791319314706, 0.12079954079314906, 0.02015201214712569, 0.02667256421178138, -0.009676008952557224, -0.12286687548479383, -0.13125491608195827, -0.1632412621310864, 0.06233783879839239, -0.27844857487586183, -0.27996648815532266, -0.20327457163300205, 0.01799849189368213, 0.11098738181515769, 0.2968838026976891, -0.10337655421452396, 0.104015121072526, 0.049266824128739756, 0.19749456675892044, 0.14851850232162053, -0.07089992348279656, 0.1428354045647797, 0.1050865332703383, -0.011815293829893554, -0.043386881990445283, -0.028268650681416263, 0.14235052760869923, -0.07185829078508023, 0.2882457483865542, 0.43237533632391795, 0.3333007984533845, 0.05534115628588133, -0.12058992563600644, -0.0008193496734428592, -0.17501476271631428, -0.2741769594224667, -0.09410675426129171, -0.16383465957393054, -0.3009921674014064, -0.06105366435414068, -0.02120154518979112, -0.02456442489917491, -0.06591495842932762, 0.13127197498748067, 0.3547052223216399, 0.3184051555068792, 0.25355706581243775, -0.10155049287421576, -0.014515730491462809, -0.03992302375862153, 0.18054462677215954, 0.046001845613408206, -0.053574390584877556, 0.02040830553990923, -0.028014131226935385, 0.23029878412307322, 0.2557371919580395, 0.3841149540431331, 0.5330629402456267, 0.41768529400650034, 0.19855372308575042, 0.27641460971962795, -0.4192770664096336, -0.05830216607232212, -0.14827877805602668, -0.09528918758153525, -0.20100123472150344, -0.0018453089034777225, 0.18560750627007877, 0.057092760605992166, 0.17630995146159287, 0.26655074105204685, 0.43824489378732606, 0.17220101531292228, 0.13215512909530788, 0.19666070734005026, 0.10268671928659058, -0.12983751302818813, 0.03188239293228621, 0.05759509122463881, -0.10393038941101385, -0.09909104249736442, 0.08837500816534372, 0.10626250875053095, 0.18460471894546154, 0.23185136253320837, 0.16369308507227867, 0.21705612253026027, 0.4680382283556119, 0.5102421460234422, 0.4134594945109435, 0.3852126385793413, 0.4904922510261405, 0.4522218476477192, 0.6054812500233551, 0.44946417537078026, 0.6778037684253275, 0.46417577806336024, 0.23961010870379978, 0.29253725759880533, 0.18701201321529654, 0.12238833501543632, 0.04756882027123756, -0.1424683081563217, 0.01373456756386994, -0.061695279524985984, -0.12020777163447985, 0.18772283784266752, -0.07485196812281211, -0.14595340225038061, 0.24485878974203185, -0.12838120939856262, 0.0755421663339313, 0.07023944410282794, -0.033200573489351466, 0.13979055746918445, 0.21898133743943757, -0.054348709406251645, 0.218804682225287, 0.06531303353790181, 0.09121226623550464, 0.22097155316178776, 0.1379081958527876, 0.06999856182974544, 0.12335232214781268, 0.07284876920073935, -0.11859986612581831, -0.03567167699688787, 0.057231366494273066, 0.171599578292907, -0.10842738304580248, -0.06023170800715997, -0.017547254097010412, -0.12812197775994108, -0.05158833788494328], [0.12101936968507894, 0.2871786202582848, 0.11024436330169916, 0.1518363713719231, 0.10529561278699494, 0.10223640105356602, -0.08713720842531257, -0.08724642167640406, 0.02909831341870239, 0.012942649582052443, 0.028393233645003818, 0.16152638448201329, 0.04734032783837715, -0.038306787501129626, -0.13156910199793678, -0.041067524732519504, 0.07645106667269044, -0.13063381345911734, -0.19714826569909366, 0.060722164829065, -0.08427650405501852, 0.01311923798687641, -0.025162505811292264, -0.040674879453772655, -0.0022025101803116436, -0.06430614931165628, -0.021735334362804795, 0.07799520681549696, 0.08627809473131734, 0.09839762455958856, 0.14003191513133637, -0.14283686012491945, 0.032277249137944636, 0.027594279532511395, 0.11654994036930186, -0.26263274915604656, 0.014912835002159995, 0.013640543533843079, -0.111212736450501, -0.060144035499157714, 0.03494065890011206, 0.052421206090109, 0.10245769771229349, 0.10724210504669522, -0.0715918470125711, 0.05082339901926472, -0.24989764069830148, 0.013139754543033575, 0.1295072073823266, -0.11535861856144146, -0.01630846963676728, -0.06961720703527352, 0.11971883865109399, 0.0859896005216802, -0.0761108782842869, 0.06243962246830488, 0.16933363484301558, 0.18409353028026842, -0.016702721003412205, -0.038245132961841954, 0.09271859676083913, -0.07526147770883443, -0.25902614569601157, -0.07600199671063441, 0.18461912376805323, -0.01709542557277667, 0.08918723505404112, 0.11450190323356571, 0.1583354328668326, 0.15435144543099705, 0.46728339493741955, 0.39673346202370957, 0.35558575730856556, 0.4565449684339971, 0.36255663536453175, 0.24870400158606962, 0.2263483988513482, -0.013587356326368262, 0.14119550324765548, 0.028951044555603468, -0.19875213885230752, 0.11812499835153811, 0.13505583031011476, -0.05449559622875963, -0.13851904283864372, -0.24216957986581603, -0.10776685250417188, 0.018893199301139273, 0.06567259356749722, 0.020731706047950153, 0.0866538040985646, 0.21961791765617772, 0.22874561790730402, 0.6015007171931867, 0.44661953819664313, 0.5915925471800911, 0.6494931472668228, 0.6926178752808445, 0.8278412953418053, 0.5215230813803233, 0.700811263081532, 0.6843362654450603, 0.7266979510153097, 0.5140510740110743, 0.46193354461565556, 0.42962612990688354, 0.3296302998038347, 0.18606391298617161, 0.10367357533022784, 0.0021398041059029834, -0.0953631913737052, 0.011799987292597127, -0.06983114306833672, -0.23681143054438228, 0.06389379134446611, 0.13863406435834608, 0.06310436987982693, 0.12338183415189491, 0.054578141856097134, 0.23550933561564233, 0.7662297063497894, 0.5970687324974032, 0.6186136297282462, 0.41642850574619444, 0.26731488795174985, 0.29652449348823795, 0.3531029435956396, 0.15841938008604312, -0.028595281995246087, 0.21104470627762614, -0.14554178611990423, 0.3177108709899411, 0.3135938969947495, 0.40425151644095636, 0.25658493348247075, 0.09717739465223213, -0.0014943945749346147, 0.060906541817926714, -0.04273701859655215, -0.01146319111774239, 0.07197628549065536, 0.08228808851880881, -0.10154852025496405, 0.10771604994200847, 0.044183419362623585, 0.17913806739279028, 0.32531270120321987, 0.5481966639815244, 0.31122305670092376, 0.39200552854149434, 0.22405455251653592, 0.26353612541492344, 0.11770703065145086, -0.09091301053332664, -0.1307487758216878, 0.1525507158157047, 0.05983941687696252, -0.010831135750826604, -0.2880937250003833, -0.13219739794270655, 0.12556822832030884, -0.017991487726666356, -0.06546747976302393, -0.13770257724804644, -0.2856513471883017, -0.04014896753509782, 0.06611380501597709, 0.14567220414603782, 0.09044340656207245, 0.2092765260730177, 0.09043880081833432, 0.15549042397436041, 0.1063501471798852, -0.0856732602258781, 0.17286029054816723, 0.08387259596475632, 0.28909488856736715, 0.3219413919534916, 0.4228794974697239, 0.35155378745331306, 0.17414991393957033, -0.0006610428198696659, 0.040290223031071416, 0.2420426984921311, -0.029003014811315384, 0.023592384938990917, -0.09943280637678586, -0.012786433810804803, 0.08113068503976018, -0.30931892227227775, -0.2010504159188805, -0.046076193436595095, -0.17269737572653215, -0.0645256489031347, -0.13298002579090712, -0.032583980333861395, -0.14808675452129713, -0.19401913485028952, 0.009173318359407405, 0.035841865768060956, 0.17633233170161938, -0.018629818931598267, 0.2040382672989047, -0.06636690169094477, -0.12497682516412896, 0.18522512904773225, -0.005512433562006983, 0.16232188060063063, -0.09388917645197392, -0.0033464033203399217, -0.08968357607006233, -0.008489956134487565, 0.1291211602246015, 0.154401008524659, -0.19820657938475364, 0.14891382816726131, -0.014947615016182152, 0.2070186741186209, 0.007628672349967087, -0.21716799226046843, -0.04389694257788595, -0.1250286022320777, -0.07454062054065937, -0.015658492663082006, -0.1037243502717992, -0.20446447670262968, -0.02787733355753223, -0.3878767137484275, 0.2042547819561659, -0.09024030298787397, 0.04593419129896304, -0.29075626838207014, -0.05937754280044439, -0.023730194247294407, -0.1314127768113314, -0.04080089739009626, -0.3391665457438204, -0.03947974148345168, -0.03921078784048036, 0.0783471724950025, 0.05508511388055315, -0.079291353906857, -0.13044967270571822, -0.12497046051883817, -0.23357801281379367, 0.10801722495485011, -0.20163259486403992, -0.15919794441663218, -0.1474978863613392, -0.2229290865090934, 0.02279496423668704, 0.14241385004859763, 0.10509927894698118, 0.06813444824713503, -0.2008030765510527, -0.22752499174037202, -0.11260143185565709, -0.28305039880273025, -0.21196310038925292, -0.19945833191845572, -0.07715846246235322, -0.10103893587966836, -0.2917065692403378, -0.2698572232465068, -0.1191114909240039, -0.24436292178473554, -0.11882218100308567, -0.3174203456897578, -0.21434224642982858, -0.4301617293185707, -0.41659693835682354, -0.007398844876463125, -0.17353240616416182, -0.22717694262742372, -0.095004447268426, -0.21342047316126658, -0.42634956330008117, -0.374927061976526, -0.31515796820383124, -0.06859631976947318, -0.06174739378277816, -0.12533722542660547, -0.20829245188713355, -0.33901660178243237, -0.32001688876073603, -0.3605178703252185, 0.04502568855626092, -0.0025708172417572075, -0.31072787902105176, 0.05135653653764645, -0.07517015259895071, -0.31446819063168674, -0.6409330363730559, -0.3677575940468814, -0.45931610563960973, -0.23915297804069177, -0.17862050990658512, -0.40799182607946877, -0.27275984464835523, -0.38416600121984923, -0.22728602569499093, -0.24473776173260078, -0.22158285694961155, -0.17994207873248957, -0.331076760323567, -0.311734295178558, -0.22164010993142794, -0.10342760312005764, -0.07847115416325712, -0.10605636990102928, -0.14988325342879888, -0.20807334082951534, -0.08955249972591323, -0.10801470027592287, -0.1428148298176088, -0.022039460612621065, 0.07433640969528091, -0.2056271343114293, -0.14148443816205464, -0.3242863257140131, -0.7030675442062124, -0.526146325234448, -0.20163372504070423, -0.06688917115490066, -0.0924900319056718, -0.2716186561388547, -0.30571178377045966, -0.13466562430881646, -0.10416984998343554, -0.04453597631893103, 0.28328122618946283, -0.06932724470744739, 0.013574145951074458, -0.17628580216958656, -0.16144541659709355, -0.03323914767781763, -0.030717649307982074, -0.09048305280919614, -0.19713107371292754, -0.19918756244524258, 0.02432594109318722, -0.2109224140831482, -0.1770172027098653, -0.3739560808393632, -0.08336340251960057, -0.21996267348115003, -0.2959643987240548, -0.39485232453161656, -0.6239080472881265, 0.23150252985560082, 0.5297841540950347, 0.5423798768982735, 0.16634309429634508, -0.16304759383694908, -0.14583459623117676, 0.011669963511983789, 0.2809763803665803, 0.03295493063791481, 0.09026660404924017, 0.5707164938377159, 0.27840525829795887, 0.07540690043827757, -0.13208394589068667, -0.0985295971969073, 0.19228175299709516, -0.2259389837623495, -0.19961578156077708, 0.019831185690134576, 0.2539291351270327, -0.2546226490459312, -0.3036111806025275, -0.34096769297747026, 0.10002509835417958, -0.1497909735341025, -0.14251510384088206, 0.01372027612715815, 0.2555348729898056, 0.6951184206870272, 0.9972379769212816, 0.971799814910776, 0.3333638972925936, 0.12001147551048841, 0.14114821105408687, 0.4828321862619542, 0.22992250783136362, 0.16410340718376865, 0.0710013888445107, 0.08950540646428723, -0.03539857067656838, 0.055808031054948824, -0.09096494044301551, -0.107904961930526, -0.129082462155363, 0.10558415202503557, -0.07025490436941177, 0.13205345017087505, 0.23647493432003058, -0.13220045441292205, 0.1831706972091496, -0.1841836827946047, 0.3478912739518231, 0.21128424608066498, 0.34182868234976077, 0.4362234661926213, 0.6713809026833121, 1.0950526483358627, 1.0532893370993133, 0.8128603389034703, 0.48686800541574426, 0.3142238617075485, 0.35911859330362944, 0.5929296718347704, 0.44909628947846275, 0.20536201962387238, -0.1621827429515577, -0.15937343188452924, -0.11016159272706418, 0.0030325680163451486, -0.13227626852551905, -0.04478178907970287, 0.06314793595482364, -0.07366460916555419, -0.17410498920712592, -0.010062331670983169, 0.11469680666493416, 0.09925074363289911, 0.3826984244321776, 0.22661607038883871, 0.4027356937420518, 0.23773618022184984, 0.32384033549163727, 0.44207383898410707, 0.6353982537519892, 0.8380574192644199, 0.9481246818903749, 0.6429900293202123, 0.37364187628920775, 0.32817458396396765, 0.32682431000259254, 0.5758196833429355, 0.18059727668251535, 0.1206514633278376, -0.09009147550563656, 0.03577903722789129, -0.07322447795253435, 0.0010776493372260663, 0.007549576905659475, -0.017533520565778133, 0.056539462824610434, 0.036401283816435266, -0.25779484430001953, 0.1167992035475991, 0.18879694801235541, 0.27143996698549444, 0.5238541108591843, 0.28687948941364744, 0.4051146085651705, 0.3563078219327598, 0.4260318038821176, 0.3666480061824962, 0.5899400958263123, 0.7325634311219004, 0.452244364928769, 0.3120596944269907, 0.12782955595152465, 0.04466394980436329, 0.21287515627747963, 0.1498028994540928, 0.03864274705198257, 0.05113864180565622, 0.0972670928000631, -0.24446149176857604, -0.215886696689271, -0.08213586000318904, -0.23520477898289616, 0.13686861760713095, 0.19034933788590314, -0.12641446879166862, 0.12033173133691316, 0.12389653768355983, 0.04556979605824418, 0.062214854473274496, 0.30414219230719153, 0.33477004145361366, 0.30304196654750537, 0.2973414472656415, 0.0940622289637254, 0.16602123913171682, 0.2395598794159195, 0.4458675891120882, 0.34885938012166645, 0.1829952783176791, 0.11107670779995012, 0.02014949459726502, 0.010080402616801829, -0.06392860603425309, -0.02040190294250498, 0.04109686009252548, 0.05206909721555818, -0.006009135421813893, -0.25643722466855895, -0.039060474768682116, -0.047223699742735055, -0.08765518564566106, -0.02899438304195537, -0.1299388827440951, -0.2853862810613957, 0.20499857901896867, 0.22125404545964472, 0.12236347263242908, 0.14518103275533983, 0.2419212275496575, 0.2235561381886743, 0.38691827771363596, 0.17797164940311597, 0.1943118116445973, 0.45452815471728664, 0.5836778876349611, 0.3048913916573985, 0.05765851804184292, -0.16203048350350485, -0.3173366785562582, -0.17164299247956943, 0.03788937141542969, 0.343846310216282, 0.11285021145458415, 0.05282166067219794, -0.12677911242138754, -0.23954277483946065, 0.12862314042129028, 0.04666144344500823, -0.07658658363016307, -0.08117664334714493, 0.04972680339975551, 0.015142661112972225, 0.3105749792646145, 0.05012215786444498, -0.040277491875782216, -0.15989329444615435, -0.12297501630065698, 0.20791960547919752, 0.005067303535180069, 0.18716599694468114, 0.29672091531567124, 0.16292218032903508, 0.3092327418270876, 0.09818163828118563, -0.1920682128474671, -0.018506562782135996, -0.31825376638729796, -0.07215018985066063, -0.05796479927089372, 0.23432582109908245, -0.00808955269312373, -0.05111832030336766, -0.32663695531845627, -0.003409362551733251, 0.07316837833154871, -0.12955811299834688, -0.06102163082523883, -0.045781425191959775, -0.0738208910415924, 0.005850657410017492, 0.34196472629188573, 0.011769345044423032, -0.013812391857698728, -0.07039573198787578, -0.17648742152794022, -0.15402760617303887, 0.029080620039406785, -0.18962588287305782, -0.27523258629437375, -0.14831125117981708, -0.08158054441858234, -0.0521792235445318, -0.16876473586564394, -0.10743834613873178, -0.01660987218426509, -0.05570420650832278, 0.0013230543131335492, 0.029075325422720254, 0.17135601776911033, -0.20788301632480458, -0.033559051507335624, 0.0011180327285490153, -0.059827492702369964, 0.09641187349838687, 0.12955035964807632, 0.013676165438405446, 0.032376535940179155, 0.04524214729175358, 0.2474642043632291, -0.056539762857514775, -0.1264411440595757, -0.1704595203834905, -0.12191992398520225, -0.3760698764628257, -0.3367786534426801, -0.13045791147320987, -0.3015655225206129, -0.23733041808034802, -0.1413456314467973, -0.09177853942591058, -0.12405294241829708, -0.23606606954159395, -0.08677458054234082, -0.03401099348918793, -0.018815964182924347, 0.03513844861183662, -0.04241447597280749, -0.21578448753936338, -0.2509619163408217, -0.07856532590848415, 0.08485315683148464, -0.06360007564504333, 0.06333252988582798, 0.049094871873238, -0.06372819726703029, 0.20502759769297013, 0.1530523552702275, -0.09204718858817261, -0.20714220832095542, -0.2125822082272734, -0.32706891753369566, -0.47104220753132436, -0.3314973418271249, -0.25463211158778976, -0.11486875019397277, -0.22632865854268563, -0.2880449334583101, -0.34075458683698295, -0.08061035117250295, -0.16885552183716437, -0.06657592866393298, -0.44956894950093856, -0.21316790088970405, -0.16479264641969918, -0.09018439880954006, -0.3431345906802356, -0.05987475525755082, -0.12815873456813665, -0.048558724365450064, -0.05610617501047564, 0.08497290939099977, 0.07415373469373668, 0.13532278702388345, -0.047800047413372376, 0.013240357708522684, -0.21293529877948178, -0.48293100270032424, -0.3530556855224028, -0.1618034686095853, -0.44001000202607415, -0.48966849917200095, -0.5599262081953662, -0.37869047697416813, -0.3829667848466343, -0.2342762385981142, -0.06577962585302237, -0.21068847085335532, -0.009182409638527358, -0.10723313901441126, -0.49623990644931065, -0.06518590820785068, -0.006806686169822714, 0.016644685130067192, 0.02627060027380391, 0.21450185591377582, -0.03419057907501497, -0.011823370223028921, 0.041192816532095215, 0.17383833272067425, -0.12907190349877926, 0.06340776791353284, -0.021869774480173847, -0.07511132676683378, -0.21131755906017188, -0.3425755591981374, -0.2567349631903156, -0.028258791095941364, 0.03303041264878686, -0.0668912395122851, 0.017737341923529094, 0.06856435161916274, 0.20081609828336064, 0.06132650038180012, -0.14847815026973507, 0.1582455036716051, 0.18609901472257853, -0.025117657133798713, -0.19447744673618894, -0.11935719060912202, 0.09061201004619611, 0.20410112921871004, 0.20742560581144748, 0.31313263456373763, 0.0026856197544461555, -0.022092541128031756, -0.16791376820113108, -0.05700778958858658, -0.09544693871505645, 0.04769046631117303, 0.03426381692738735, 0.10068736266247948, -0.25709266002728925, -0.09050416277939954, 0.09825703193646865, -0.032958460772378566, 0.32291088141402086, 0.11385583108680374, 0.18660291019849226, -0.09038572260719828, 0.13061439950622106, -0.03060706058099808, -0.0327146337610502, -0.09703851948937581, -0.2991896761207647, -0.27624931962341465, 0.017635796168486328, 0.16169252030527756, 0.23594277356342747, 0.10623132260210597, 0.0923404083877863, 0.13930180099785797, -0.09834805687221822, 0.048335625473725885, 0.07761250066500615, -0.19977940820202292, -0.0771295786138729, 0.03423679349262997, 0.06214902097050652, -0.004374630217251433, 0.09632177192138827, 0.049638149771893667, -0.008547739913745762, 0.11912585698044381, 0.2586149705064621, 0.28061953848057297, 0.21201668355323802, 0.07510104527151598, 0.11564864108915933, 0.13320609586036158, 0.056131350726712666, 0.04330890774863621, -0.16865624356548492, 0.06804832469520553, -0.07952599800482867, -0.09807494518833902, -0.02728409954276261, 0.17026839724486492, -0.026412485050473302, 0.13555219816730107, 0.1623043220413949, 0.05240188163706331, 0.009442959286759, -0.0939585234549321, 0.010259832587495216, 0.09147758740655654, 0.014634202903850473, 0.0546708110682142, 0.03890296554575874, -0.07101203230069254, -0.23641466160490532, -0.03655440914505451, 0.05571031910682087, -0.05896692012405167, -0.2162061969696662, 0.07852970456486928, 0.07687365372109678, 4.677627458773065e-05, -0.140336871260887, -0.04225996222087521, -0.027789053706458084, 0.10502111694277197, -0.10039561631424108, 0.25120755992454624, 0.03388443472176166, 0.157971811150885, -0.12513011741427915, 0.07489397527187677, 0.1271662824375104, 0.06867523011815066, -0.053826946663762455, 0.059247256528766314], [-0.18326573376443125, 0.11764998234566648, -0.03192118197256405, 0.008811200413081394, -0.027320476922520577, 0.06390381503575801, -0.17372234293010713, -0.030773303060606202, 0.2129421196984263, -0.03231304279438701, -0.12304859509339397, -0.0262168786735819, -0.03571752312392793, -0.051262565421121696, 0.008916541447144297, -0.15184315043782776, 0.12563157076080209, -0.019306210982959933, -0.12279489346203104, -0.04051089789281053, 0.0937584611372908, -0.06765277310408754, 0.12122706510551591, -0.030802692534703354, 0.10114737177702599, 0.01154009482811726, 0.04308560158903132, -0.030648723706127274, 0.14810449136855666, -0.06869101230620603, 0.05089200451183833, 0.005304231396007115, 0.09929503785078252, -0.05874224566680423, 0.18726492107905388, 0.08266640040378231, -0.09623440372142576, -0.24256756365626694, -0.05107666347036658, 0.004683926998278281, -0.17916737291571908, -0.04125106829288603, 0.011400595590191897, -0.03235153068116776, -0.12440444503046891, -0.0002804379779524598, -0.08586778900016392, 0.044991163309304055, -0.13286289942761187, 0.07578489813744635, 0.19530346128700643, 0.09607721204471129, 0.22900338956850275, -0.0919410263154565, 0.0782128542149447, 0.0034337872916964766, -0.039553339046260474, 0.03165244500839547, -0.09043808235926776, -0.05612516504136835, -0.0406143055163037, 0.06191828751709687, -0.13095848414291988, 0.001706116380675747, -0.04575271913142611, -0.12412018421894656, -0.25090639656979163, -0.4140299782569248, -0.2787333719572631, -0.17901575291528374, -0.34567974441004057, -0.37565683355570695, -0.3678615648918209, -0.47390293508838127, -0.32059344735138745, -0.2912634740853668, -0.1253601691622353, 0.011227433985852915, 0.08561227881411658, 0.18720498490954995, 0.1845290269076762, -0.030723493693377478, -0.006509258579148807, 0.054374764551483296, 0.005111839910287239, 0.09050968475344995, -0.1245599898053215, -0.06971569274050582, -0.0013232961165848336, -0.08058340773932744, 0.009562679424882196, -0.13641788376238634, -0.11163461228247976, -0.0035068986350141134, -0.09434514790102197, -0.02555820063434426, 0.1030968035446323, 0.0028143723936577547, -0.2699324931376634, -0.36872530767580936, -0.3155883135311544, -0.4461529747451429, -0.441819652352547, -0.23486852484302265, -0.2607238100914106, -0.2782053965673552, -0.24450309940125386, -0.09516771971945492, 0.269583230819282, -0.10855740467717148, 0.05479209949163808, 0.02265092742083825, 0.02035181710577707, -0.2277819545409646, -0.1376016912477532, 0.10612268104140259, 0.07196304787481234, -0.20354591385031148, -0.2856840640948272, -0.06795948247818098, -0.15304823494798964, -0.24378317488508963, -0.14495119734668727, -0.12088806578486411, 3.253569219627379e-05, 0.17603133639043256, 0.4296498730278479, 0.1184792598531095, 0.22240667361595828, 0.2919747328335637, 0.09809846210691713, 0.159269503038441, 0.10389142207134079, 0.17525021567783142, 0.039202945698057046, -0.32854884856526473, -0.1065055982190059, 0.05264947532234692, -0.0660793483135976, 0.16753584083964138, -0.10383130879300978, 0.08331986701702072, -0.02423137372240921, 0.08588725958582498, 0.12099817841275377, -0.2714421315997386, -0.3411254450560557, -0.6975098138197782, -0.6887717916088313, -0.6579733482112743, -0.5002407360706449, -0.5823216710693121, -0.4612013954509093, -0.38697871861324784, -0.45113439985734255, -0.050622381254052766, 0.26622654651390204, 0.39624280237880705, 0.33001744405695993, 0.3513904847532253, 0.16566076114310435, -0.07826887605028075, -0.12055120485989339, -0.21459092643021685, -0.14423892913056613, -0.014942216710536176, 0.0690097712355559, 0.07956246686629012, 0.09577854675239494, -0.13934803862310535, -0.17978716086077084, 0.013099597548668343, -0.018385506599685773, -0.1762430965786471, -0.42131968108455203, -0.3965828980701342, -0.4663801729954296, -0.2735052328777725, -0.1167898321936993, -0.6252604171396674, -0.5115705571670208, -0.3890921156465195, -0.43845512178309565, -0.21503337712233617, 0.0223426297442266, 0.07742599454649118, 0.390851629281611, 0.47519566068102753, 0.3867051310227535, 0.16140449098226112, -0.14032938620395383, -0.03488875921758104, -0.23769513600481726, -0.013985947856166941, -0.009143386817314109, -0.059496941815729426, 0.02887617337412484, -0.04786726665324272, -0.10245211747385144, 0.0522219839773366, 0.3451644165636363, -0.03520414139422923, -0.4200855192928441, -0.33846407699156933, -0.1572072029966638, -0.1889648889816007, -0.21306290581199286, -0.11017738701913006, -0.17697101548708533, -0.40512157860231696, -0.4145479931506598, -0.3069151588423882, -0.07157144349140863, 0.03341439498464832, 0.37054843788741604, 0.27842278324752606, 0.19377107586444317, 0.04604852607528786, 0.1313030686461451, -0.04289689291028389, -0.39360824609370926, -0.5096981107479123, 0.014733453367394988, 0.06495751011412396, -0.09751528116440251, 0.0936912328055272, 0.12237335102709361, 0.027118109475843737, 0.12340339959547215, 0.11538922331614339, 0.024749463705747814, 0.1864027561374841, 0.154538326875152, 0.22862089154473117, 0.1510949767314587, -0.019203446271899537, -0.13329592541797286, -0.4265715982517457, -0.5480802189775037, -0.09287715940476833, 0.1971012788209834, 0.1868825956376695, 0.11204729624948667, 0.22692636665645044, -0.23477752840900792, 0.18690619057717395, 0.10833192887059685, -0.07798679187121235, -0.5034303734633654, -0.2673079921011466, -0.03280652737215106, 0.07939222103123256, 0.2664136137956367, -0.016030562065065212, -0.12865013460821564, 0.1528840649187585, 0.4249676648267765, 0.3680869649913003, 0.40280217658470796, 0.14309477777600557, 0.22020361431138868, 0.23331827574516611, 0.040028563860462336, -0.1895779415410517, -0.41480181863299037, -0.6609737032177502, -0.3171443542994696, 0.33933900969549846, 0.5390320179842968, 0.40066655188011846, 0.3558894822534843, 0.05115463336491817, 0.22589099703103888, 0.17270685091965374, 0.22557569433359884, -0.19238770638565017, -0.1922873509984412, -0.31223111184126545, -0.2660085856474374, -0.19447742918312427, -0.11922022327154397, 0.014615375134535352, -0.1353501384790919, 0.04266847926668785, 0.36587518637839106, 0.3144836202120008, 0.3688316631203051, 0.0309335249466858, 0.09866077408097268, -0.16648509950348325, -0.16919630766872015, -0.5577778772520352, -0.6938325215661664, -0.5674379005330962, 0.28359263667382645, 0.583572056132487, 0.44353626711208605, 0.21433043322294176, 0.16642566827643962, 0.19121567968475664, 0.3106632435906157, 0.07874941099666662, 0.16714378214408987, 0.00018179199536828654, -0.2176340803820969, -0.23209984267078293, 0.004907115144410552, 0.19812021611915726, -0.11758531738019974, 0.002348517890550134, 0.02941929866793155, 0.19117669680098054, 0.20778178267971606, -0.02351686653697975, 0.06191624546801793, 0.07764866633672639, -0.0008654402586936476, -0.05620370808417723, -0.3621060335700609, -0.6814847570358896, -0.5453875329812712, 0.3720584052986487, 0.8097463385056297, 0.3458399483448233, 0.040688372588603944, -0.251550552699332, -0.0028836210937866636, 0.19530721551214017, -0.08421193096985165, 0.2845619547315397, 0.1238101228092855, -0.10382002085524657, 0.04174031311598001, 0.26181300049531914, 0.1538554668343089, -0.08528201915617782, 0.16372462127147172, 0.08179221746377324, 0.06509053768305244, -0.03036943775855797, -0.1437491073121619, -0.2772650542782356, -0.49625388168973456, -0.23698949953121598, -0.41705950057364827, -0.4319443010745132, -0.3556892318307531, -0.4598363899105384, -0.049575195777745044, 0.6449002147592497, 0.6350885391003123, 0.24233579180918752, 0.010213352924715337, -0.4861688218352613, 0.07828216903711897, 0.08430408451583815, 0.05570405684095512, 0.28378103716777536, -0.01506508423404406, -0.13394690954536953, 0.1159777846753796, 0.3932608357195639, 0.3112461466299527, -0.1309975658605541, -0.08491990645935162, -0.0015460003406035908, -0.19753072564582524, 0.024581647924655215, -0.4072531751529626, -0.5581551117511256, -0.49893165616494345, -0.6125022985076154, -0.5172416665678954, -0.4880410790510342, -0.36868999928629004, -0.07675190595423605, 0.31937003161689725, 0.6334896278592397, 0.39819691311270305, 0.1113062103300117, 0.10541064416003772, -0.03601790559317967, 0.0622130226769868, -0.03539057392670786, 0.10554250132063767, -0.1024540878877531, -0.24126273922717653, -0.17219434180611487, -0.09473857212661274, 0.14093104351295452, 0.11428303143253958, -0.004419771335314047, 0.004506992546049601, -0.013610437459890696, -0.0772384743040192, -0.22797111692895378, -0.4150950677393158, -0.6851567339850351, -0.8111626866180821, -0.6267913969140154, -0.408406390789252, -0.26742844250071224, -0.11191046332158848, 0.14195040105150164, 0.4252838266600202, 0.6173408613056139, 0.38950902804870163, 0.19812188620341686, -0.0865359057035039, -0.06336537405497314, 0.06207447967628466, -0.0161372708560675, -0.0050122676270751955, -0.10818897225083203, -0.3613998454293541, -0.5213070061996301, -0.1914798036201629, -0.13022584607851703, 0.28990748356085394, -0.054149957562878805, -0.02319180059238266, -0.09440110057056339, -0.003910573381557447, 0.15336755974029267, -0.36953485657746044, -0.43903759620805666, -0.4096445257394368, -0.4388693939647281, 0.058532935213067606, 0.07008922151197675, -0.15968286680188085, 0.5683001077660971, 0.45210972532520727, 0.6441516056951286, 0.7445861260979642, 0.29220256154655644, -0.07648031849031968, -0.08009214716476376, 0.08060334930806554, 0.020221197664254047, -0.003924877504779913, -0.04657002141363205, -0.159294907193754, -0.15652301506058017, -0.0027722749473849347, 0.1747266263443823, 0.20752704047386647, 0.13571968377417784, 0.15786915705698626, 0.0014606986937665413, -0.04236124674140609, 0.08137538502353786, -0.09822934767238271, -0.21356013129541232, -0.0013967523277349419, 0.0034851033196583578, 0.14529686466544817, 0.1905682913013008, -0.016957119238888336, 0.2554520302992919, 0.3244894572728157, 0.6744972873916456, 0.40637106965880365, 0.10314634592299811, 0.17029350541731292, -0.1063427093769019, -0.10881201140060147, 0.23409817841941086, -0.09921189524829858, -0.08124350760338425, 0.10522046558353705, 0.32905696645018545, 0.18327503228780576, 0.4285741514230899, 0.39321432126664474, 0.20095756535672513, -0.25908489373220506, -0.13771664256781846, 0.05611848117125608, 0.1287561100903284, -0.07382035999504886, -0.2149732879298016, -0.035129902332307957, 0.1101566643666857, -0.10561024957923111, 0.14546368750592464, 0.13012066674447545, 0.16576245618077895, 0.6279022562316195, 0.5141337825524609, 0.07930483990312802, -0.19125498413240172, -0.07348591844421486, -0.10969757229098802, -0.3483543274769951, 0.05561829595694584, -0.042389498668988085, -0.2584314824778049, 0.11274390233294063, 0.14026920554816516, 0.07373518357584606, 0.3340600010825909, 0.2928441605287007, -0.08173694948386256, 0.062149250281819904, 0.21433439894535244, -0.06602470449137514, 0.08394832287519347, -0.04940349311283133, 0.03655748789809527, -0.22306496341548945, 0.1792007694451731, 0.02135500026953637, 0.1671781282806241, 0.1373500207585549, 0.15476455411286608, 0.548397479917548, 0.41414763896167367, -0.38959780539071953, -0.3661903866091158, -0.09672823073311297, -0.19856776994970166, -0.1696459429330614, -0.0166251997118584, -0.16701358684868764, -0.17435958161011578, -0.068912765219883, 0.19059554680927648, 0.201698788453078, 0.09866857462876473, 0.14621533145655446, -0.12905780215806284, -0.11833205888573708, 0.08848299554514402, -0.16617314033766045, -0.02396709044034455, 0.0421815600252842, 0.01181226647474315, 0.25517677277097195, 0.15331043622325166, 0.042640646360168746, 0.19997516134513568, 0.2788778772164191, 0.3967819005873986, 0.19520205717499883, 0.20358174605319876, -0.47220674844463595, -0.2541834589627208, -0.25498316966639367, -0.10133933659690114, -0.1490665242533608, -0.23224115634018644, -0.09898001802363872, -0.06543640059904961, -0.049359242212046045, -0.047500533443261134, 0.2453671603362702, 0.10937058660699081, 0.10385858644707456, -0.021928719975046206, 0.09501430623716811, -0.018808621122746175, -0.15493524342705686, 0.0038067674529989343, -0.004998896652857903, 0.2626240200811378, 0.1358405111013146, 0.38877350173123826, 0.24490787693652133, 0.34023621646698304, 0.4430384877280663, 0.2017206122058406, 0.0027553448706744642, -0.2935861996610143, -0.5438122309746108, -0.45097554441447196, -0.35896856633007085, -0.0859035929199333, -0.18695269837354897, -0.06604239825708695, -0.19827002959646606, 0.08948646565060915, 0.19629576554263134, 0.2505233364524028, -0.028272068143868873, -0.10119941553990673, -0.07875239872344018, -0.04319300479941973, 0.1415836311888598, -0.0034837081627792743, 0.09896603214698248, 0.17162690381788098, -0.23639381716274951, -0.21083127727882112, 0.3628752976105687, 0.27016130701152485, 0.3765123995481376, 0.2673296202857078, 0.21274565413940053, 0.0638687711178348, -0.13494969000788928, -0.22671948106157022, -0.4968723989992522, -0.4241508342648405, -0.19829816059874147, 0.010599286586956025, -0.14936131906798308, -0.3373613928383083, -0.1259422088191925, -0.20465880940843428, 0.2571895985319349, 0.1620384850352463, -0.2726403386131943, -0.08860262341769623, -0.02500630835740232, -0.05588146195234445, 0.1615212340186706, -0.061869416615110785, 0.1436450427246512, -0.060691268057647095, -0.2807183090075005, 0.018184574942617875, 0.4361954561935307, 0.38019015480177004, 0.24255373030518335, 0.20996248507211407, 0.21443125177133984, -0.03715197988192681, -0.14608576451854832, -0.1364499189608656, -0.0018319985378237795, -0.13710637702865822, -0.07413934471979179, -0.16910698004013283, -0.2456262178718048, -0.048453149264800835, 0.0013722581512631941, -0.2797187900410625, 0.24855599978794624, -0.08903539083933577, -0.003779816843473868, -0.04844968622513081, -0.05138676213078819, -0.06678517149498077, -0.08018420070117305, -0.09518354329321622, 0.057328381753271984, 0.1010915262130357, 0.2938942988542679, 0.3313531798304261, 0.280639322093755, 0.5878400057530888, 0.22221362306052708, 0.17682275713196968, -0.09529931312624912, 0.049708193353254576, -0.08773259099032384, -0.12127413621664614, -0.09658328837550456, -0.04869002327545318, 0.013310518283266466, 0.2079837770229746, 0.024652386128154704, 0.21567444774786448, 0.035166496434237526, -0.06672607710323118, -0.13830450231739402, -0.13149321842831055, -0.10614444486510789, -0.12281144062319715, 0.03823372443181362, 0.006247708322339291, -0.10664028171124662, -0.2632132784871347, 0.14956544249611983, 0.0026899513405594737, 0.13699921393755599, 0.2587360351779666, 0.35286195216715593, 0.30622823858652, 0.10789066979057459, 0.05943394082195616, -0.13999827153349514, -0.2809570623070638, -0.03204764472355075, -0.3086694063113567, -0.017800599246991816, 0.0500382773571588, 0.16428275857131988, -0.20029346445763735, -0.020339433793860186, -0.12405013206889828, -0.17152314611517694, -0.15681213187265505, -0.1824702096967116, -0.2818422018186606, -0.07304829872125192, 0.03617966421606616, -0.023424643799347982, 0.023513828943569445, -0.04582178161752628, -0.09389749536654812, -0.05176714274956358, 0.11928075819128746, 0.23020483380521908, -0.07004615902925486, -0.0568405916614567, 0.19074363054061805, 0.04899865844481776, -0.26032569357527696, -0.32522222535610107, -0.45149603307985536, -0.17457965803340847, -0.2353701356597435, -0.0683185041320872, -0.2764271435375498, -0.30388889178159445, -0.3055088654311766, -0.483367120558513, -0.42575812127789614, -0.4970018530733719, -0.7479623286317968, -0.23694102618247823, 0.09085806168434793, -0.08642478223961984, 0.017651226413566673, -0.008762035191587076, 0.10417255256948742, -0.167355199822306, -0.12856265107798462, 0.18503776947813835, -0.022803042474730327, 0.09398722405317295, -0.031045360395418324, -0.29867128640134116, -0.28788244186299394, -0.45090638859229215, -0.41865907533922475, -0.5287161872045297, -0.8583647981789111, -0.9626469395114411, -0.7520111218976449, -0.679477417754977, -0.5333201641801865, -0.6633474957318051, -0.7438711226044886, -0.6897240232275892, -0.4486052120642294, -0.5949194261452642, -0.33135372565907373, -0.020030727543668022, 0.04594207436581216, 0.11699416060462506, 0.060583970750841036, -0.16746701094594124, -0.16765491690503137, 0.08628808847820066, -0.07979535657728026, -0.08013558843165997, 0.13965613136063523, -0.07520953481482057, 0.02524717128148083, 0.013813910331426095, -0.09262659337256379, -0.14214510012611023, 0.003280618963228635, -0.2655337622971977, -0.04483150830338113, -0.18013270032235132, 0.06884136741943422, -0.16407452962105074, -0.10546513763718235, -0.04665981328554559, 0.19514028824094085, 0.1367363372844637, 0.023999634765527633, -0.030824642333430522, 0.04545368292359541, -0.012048464808369677, 0.08732338429404729, 0.06400524951602836, 0.051763264520704004, 0.05333174200429678, 0.1384565520415452], [0.07437942159317278, -0.03339709933171955, -0.13761398468638897, 0.10780786756591476, -0.048591405230607815, -0.019635081332018123, -0.09379798964270336, -0.04194091350462136, 0.12225166660712239, 0.056705008789634484, 0.14708814084963123, -0.08985077330488503, -0.13159138733275427, -0.06479160324846649, -0.20550561458009883, 0.08746929811961923, 0.06432091291053517, 0.08946962935348357, -0.03660452754121668, 0.1331875228746503, 0.1533654890910617, -0.10787146476433601, -0.01545864848133685, 0.043286513633589, 0.12980372195877118, -0.06201102683496253, 0.21449298248116602, -0.010818629963449527, 0.10099981067808167, 0.014695931075785757, 0.10951979790545863, -0.003996816997043097, -0.10996032472580923, 0.2152793669555778, 0.09065171865153927, 0.03120702502255453, -0.17138055646899802, -0.059845083259343186, 0.05441300627411927, -0.1483280233007209, 0.04613976740243584, 0.025745051241829388, -0.03633684686112132, -0.07811672322199702, -0.013865419428806909, 0.12458367485134891, -0.08559681055369166, -0.16245331888921147, -0.10533024358974268, -0.06478113022601521, -0.04892739138474089, 0.09615185121746306, 0.07055524943738357, -0.061981898872413024, 0.04049663219637442, -0.017348867094651336, 0.2118848543295051, 0.10914746252249129, 0.034138383662049604, 0.11988983034922045, -0.061597878071754986, 0.13315529265387957, -0.06367368918758819, 0.014477461988422684, -0.010279823491767232, -0.12523228796065822, -0.27226622695765, -0.17255051529200072, -0.11543002416941585, -0.04514998139277906, 0.006462318943409161, -0.049045036565070664, -0.1359284307681552, -0.2516374776756734, -0.3143304549031344, -0.09606938737476772, -0.010208029415971652, -0.1716043574850626, -0.11775648441515954, 0.1359817541431697, 0.10114556037779389, 0.0029793963553122068, -0.006380479215338072, 0.1631287577125309, -0.0764177960434192, -0.16854804007957086, 0.21796601947447558, 0.1422798413749531, 0.0013281114459332312, -0.03952214838501463, 0.06909796537424037, -0.10533009935134938, 0.006907523500758381, -0.035651315369762016, -0.19592626284007061, 0.03620175243352609, 0.24346262840167696, 0.24217639091651078, 0.2183564630508717, -0.033596425132141776, 0.041356722206318086, -0.02082303767006301, -0.4313356597637137, -0.6889008310435663, -0.14821883570919528, -0.3848375416300189, -0.3166612027211322, -0.22175265388559734, -0.033198262417026114, -0.0659067546307764, 0.0671414146831149, 0.22197790280233295, -0.05493928774132795, -0.1327439966818366, -0.11599406926840138, 0.07203835111902797, 0.07467098458433225, -0.2627153391697989, -0.0090918610009931, -0.12742051832717358, -0.09383192494003373, -0.13401168903125948, -0.23319846076580303, 0.029317353752272245, -0.027210919918318636, 0.2650175809541122, 0.254216288541145, 0.3055939280693416, -0.09032331042706865, -0.271074182558221, -0.08790784787079885, -0.4999973650356224, -0.6395971096174854, -0.34255346552515836, -0.2041360278058817, -0.3513308760937212, -0.04703405913150693, 0.0259175296480054, -0.16919237968958503, 0.11575330067001934, -0.02160922701568477, -0.05478473878263627, -0.07360088303634978, -0.1176165555655704, 0.1205240937593541, 0.04231191873762555, -0.028028565425768915, 0.04020608639756269, -0.0689958571985829, -0.35337856161535103, -0.15710841217491353, -0.04201876073803903, -0.08931543202728233, 0.03393894106769954, -0.33568161607780306, -0.21827270706696672, -0.711864010631856, -0.7220733993896773, -0.41747350557213797, -0.290912424177647, -0.30954964339011504, -0.252791952953821, -0.4419484458266621, -0.4375076253210531, -0.3446862598935229, -0.21531519705212002, 0.010459068501083323, 0.17775246812260767, -0.13579263373237072, 0.10184023783284717, -0.004608951921695857, 0.13081886676845064, 0.034250637748278245, 0.1236555519005011, 0.0432758020136702, -0.4063029619108982, -0.23788324554214163, -0.053829233595209816, 0.11275610860924547, 0.1799035677528338, 0.26312009485948223, 0.2164993266182254, -0.04565680250792132, 0.03318476587723592, 0.15278731946429833, 0.04140179962273754, 0.20204035291441405, 0.27991194109138773, 0.21722045848489407, 0.18456660015285628, -0.05734264632480894, -0.444715667418188, -0.40046311132418944, -0.34161835286411224, 0.10119599345615321, -0.04296025066070168, -0.06948860188496, 0.1420487260627851, 0.06982932029460051, 0.16556091732147266, -0.19803405317197123, -0.10631890416592243, -0.26890476904354815, -0.15554182612603754, -0.294335203439958, -0.01304151346625649, 0.3035837147224203, 0.13010544399104695, 0.19037452036415792, 0.36371411219156097, 0.5532288762063438, 0.5208612448210637, 0.5897408620392891, 0.4430229180570363, 0.4818243342888136, 0.5589930704954736, 0.6568980157877554, 0.4115593445959145, 0.2050726319332088, -0.2744931398555544, -0.41597809677510267, -0.648487998582699, -0.2191940449081285, -0.08914250168369962, 0.06515630661926342, 0.06656124318957017, 0.004020422980846438, -0.007697871644404128, -0.07754955885063851, -0.2488266211723975, -0.1282958171420851, -0.14850155768706358, -0.11838638259408965, 0.09302193378316173, 0.18136331924422924, 0.011204317550117023, 0.33135516145101707, 0.6336429744187, 0.4754902544601554, 0.6627009125672668, 0.7466315780288332, 0.37101911688216793, 0.3692119653754506, 0.4097241109676466, 0.18214170329446547, 0.4402076050520902, 0.06818497626260282, 0.14482632326891476, -0.15064193840506207, -0.22288277412286242, 0.15070051888978372, 0.04686978136684006, 0.0224158983182455, 0.06829343654945161, -0.02657609561498463, 0.27550512586558273, 0.14804366278243258, -0.24382552520932327, 0.10500630679901726, 0.04025278456086531, -0.18538818601058354, 0.23609910076403895, 0.20015823786780312, -0.008045350066080176, 0.16958276202396577, 0.4539372397845009, 0.691659597947739, 0.6774915160596413, 0.3425163538852142, 0.35825374799691384, 0.1649786262792634, 0.10004154484558253, 0.0766435134133881, 0.1032032869859066, 0.08742003618672457, 0.40790307416368005, 0.23086482086444313, -0.11992604996358465, 0.27266127451045297, -0.044591760605279016, -0.14169314218657938, 0.23076414960411543, 0.01958534762261275, 0.43243407619019997, 0.05954436165178173, 0.02361989436513053, -0.14673448972546724, -0.07319069839822433, -0.0326681221428933, 0.09692654235739027, 0.07549821718301766, 0.05803063977541758, 0.15606952567283647, 0.15606916136161864, 0.7786109415397742, 0.4566570890907801, 0.29995901237764516, 0.28630738813333645, 0.006256308547779684, -0.07093519180056206, -0.0045448351358168505, 0.1852782095487151, 0.34192883139290614, 0.3448023764535879, 0.5991194874514519, 0.06416887319448764, 0.32933087918787796, 0.0751377512195897, 0.057718562216549536, 0.09011800261057408, 0.18226094363927323, 0.18800112540516287, 0.07574398592745082, 0.2144861558270711, 0.00014550013671738143, -0.09143228244238036, 0.23218835417760622, 0.09062144123563586, -0.1054137250648189, 0.016368431889239945, -0.007093284582621489, 0.3088576499949176, 0.4637442437236726, 0.28981858898525864, 0.01500007924923562, -0.08978241291860402, 0.1302900875577402, 0.11723654189132332, 0.2444906935688301, 0.3219121995494529, 0.3448671106887249, 0.35769335793943846, 0.3449324061933622, 0.060112491273332444, 0.18168225703590385, 0.06318390972552845, -0.0011102563836031015, 0.08414366143254144, 0.027275362948743016, 0.016588233281285485, 0.30166357419966205, 0.1765483822375912, -0.12614177240168878, 0.0023344727423188234, -0.04792623633148646, -0.17559401033737682, -0.3352453803574694, -0.1946400111439707, -0.21333549572000365, -0.02804390841893508, 0.33260503352442045, -0.015659445075076082, -0.16252925573591032, -0.11492451467780969, -0.01715026313763635, 0.08336150688289908, 0.17526920425629025, 0.15852662727697056, 0.16160569448531267, -0.009750072733159684, -0.16157215300132563, 0.07313643800012051, 0.1038312006773936, -0.04594894350680145, 0.017118336399192108, -0.024623104522860158, 0.06896288699968775, 0.2022881525130433, 0.27320855000610555, 0.19203763737632296, -0.04092439609224977, -0.0659475165484666, -0.17397473234598207, -0.043781716566267614, -0.2691637148307893, -0.4580929769319324, -0.531507163447414, 0.029778155870809394, 0.05148394015155397, -0.2399095660444801, -0.41924702671411107, -0.29204076789165223, -0.24275411331699073, -0.023881817328710073, 0.042372546721308205, 0.21400298834571724, -0.055077517377038164, -0.05402235701727267, -0.25980193042315, -0.061288087387970536, 0.0735576065261745, -0.04137446098581861, 0.06433469104575743, 0.12847230280943833, 0.07986767536888717, -0.05306574736159111, 0.16633053336161482, 0.07181721497686117, -0.1334086724313976, -0.15336048014391437, -0.35394204134512935, -0.14248150306063165, -0.2781172802902087, -0.08905218924388206, -0.2323929079120949, -0.53393778896053, -0.25133120625278854, -0.1498071727224911, -0.21820740585284024, -0.2527344751780152, -0.10288132794935073, -0.12799958021552915, 0.2685435865433391, 0.23301323765759516, -0.20897510562217073, -0.08484990798222045, -0.034949023118850106, -0.06145542511748156, -0.08426828734074898, -0.04648235846546269, -0.15160438326621284, 0.07597866943732524, -0.2756331367133252, -0.19099111967498042, 0.005269291394645966, 0.05938127334509362, -0.1700538162166074, -0.22165942334753705, -0.24257824683521936, -0.284303248912247, -0.15414091851788633, -0.12292540905165081, -0.3232500466584195, -0.37187467521288303, -0.47959170626222397, -0.517603114373241, -0.4212631447623846, -0.17290192359647588, 0.09389186295816564, 0.11992615397116338, 0.12690646158139413, 0.2951315020809101, 0.05725323946621483, -0.08634117929571873, -0.012738322274942588, -0.18677301353941414, -0.1496385308575491, 0.010660641143614931, 0.10223275197374687, -0.1719570676539191, 0.07876767920720236, -0.28101819658037663, 0.2827377897160023, 0.14118435255960748, -0.13084597439969245, -0.20721874220092185, -0.1061117132149826, -0.34147129206824534, -0.023782199917195927, -0.05219824382621256, -0.09796169388987773, -0.33214547793307725, -0.6667439934514358, -0.5262020766352803, -0.30523467809107424, -0.10418353938428748, 0.04525846686554719, 0.17012142349024412, 0.09697180116989498, 0.009006292714743586, 0.022687642540418957, 0.1422963273088879, -0.320643367455899, -0.4289136067470961, -0.2705032298590734, -0.0823691560033513, -0.08450832646379242, 0.24162878472724486, -0.03691938944480499, 0.09606382482025945, -0.006145752630418967, 0.1369942350422976, -0.044467934990392435, -0.152667842428215, -0.14768515243093783, 0.02571723892780303, 0.034218086593433006, 0.02154898029023389, -0.21921357516860912, -0.37342826222156844, -0.4838713814220326, -0.3005033755523412, -0.15915746344649698, -0.08867137679975287, -0.05948251460787238, 0.06470934379276319, -0.09027482182990897, 0.07822923488259885, 0.175138045805304, 0.19231019585310885, -0.18484397346864892, -0.2862734578113443, -0.2165268137426554, -0.03641760567335298, -0.04023096376388972, 0.09959976063744022, 0.08789682727807331, 0.043657388959036814, -0.06991649749222167, -0.016618831055487192, -0.10130480940801931, -0.18945398178005904, 0.12783954862139688, 0.013340616866083498, 0.05676474980604154, 0.042684033783264505, -0.22952223959173165, -0.30746627812150307, -0.4659108429086108, -0.1046942341311384, -0.11676371728693738, 0.2211171877122428, 0.14815642201976725, 0.29168506998596816, 0.022895113595193396, 0.06822564344903204, 0.08025186836262581, -0.44287770789689573, -0.6420541013531967, -0.2795898214226073, -0.19225605239882387, -0.01804149084688656, -0.04449874646241501, 0.031166486152759305, -0.004985297100800907, 0.08260595246140474, -0.34501079660782563, 0.05538278860391846, -0.05526083503060546, -0.1542530730050889, -0.06510329932707802, -0.06132442756979428, -0.16936519714708906, -0.27393087782489495, 0.25495774739941285, -0.018476804067709702, -0.17467103912697018, -0.11787002697357492, -0.19776424197079734, 0.1514403397559792, 0.06832146985998595, 0.11030980946336173, 0.05247864064910419, 0.2418782931088671, -0.18396300182658254, -0.26867775143565276, -0.25237965110131394, -0.1890321029985621, -0.09265516527163589, 0.07423651448101541, -0.037033134999506646, 0.16949781881879888, 0.041120200151652214, 0.031880137108958616, -0.42634601450721205, -0.16054725157602104, 0.11526964612805744, -0.08576467926848895, -0.12724038948778651, -0.15436686717828718, -0.0305950196044245, -0.07276362581263385, -0.13196934841568045, -0.4844292732650191, -0.16534613583658173, -0.2821407680045315, -0.14492977373300725, -0.1838452979100761, -0.1236520919340014, 0.16059769490110207, 0.02819557987748286, -0.05442627046177735, -0.2667957987064301, -0.5628043298767924, -0.1383463269534524, -0.20936015936782765, -0.025824776657691482, -0.11472706881944537, -0.1346472401540071, 0.10096503917310427, 0.10425490797993738, -0.19759336272954953, -0.34522462442756285, -0.14491491342378846, 0.3267388219562984, 0.14954923923680868, 0.2615333250542723, -0.2276584738217017, -0.1091332852639346, -0.24961039339067215, -0.24502846916544863, -0.20245940877410878, -0.14820347160289954, -0.09458150718488322, -0.16755201062497935, -0.11696376540947456, -0.10049624175501339, -0.02562506531997519, -0.11087434792720788, -0.2677799197054515, -0.4539765838123527, -0.7068317066670983, -0.13337467097749428, -0.12428193974233746, -0.1318066630599773, 0.20969215490405593, -0.08835859456937074, 0.07296437413183218, -0.14847613828908246, -0.1260084022113883, -0.2555048594129407, 0.08526303721089404, 0.4258037841185269, 0.2850955834853174, 0.3295524229261192, 0.22217530411578315, -0.11813202781954982, -0.1793020819032806, -0.17480457641968086, -0.09102326367368065, -0.09747942593701453, -0.044751304325934396, -0.060188042100816457, -0.18360088565265442, -0.35424353472622433, -0.11908592010124379, -0.2913878748393715, -0.4112314672180423, -0.5010308458172812, -0.3795399476884969, -0.2214210551132266, -0.012775105219326106, 0.02957154891552543, -0.0865680662630508, -0.05434201250762963, 0.11372889653965618, -0.1577950282379932, -0.15692562374931987, 0.009799310590035321, 0.09513215354782778, 0.4251641827402987, 0.7004821759049367, 0.3379958739478061, 0.4087384025347074, 0.41562823451416253, 0.21568286711854406, 0.25965361850027346, 0.1343195474173492, 0.14877231026169951, 0.1100059321077337, -0.0174955979093912, 0.13071564852884338, -0.10187934924320868, -0.4952522468079406, -0.3526195888613949, -0.552952056061759, -0.35770755299777635, 0.026583826671779106, -0.10074070081047484, -0.16271209584572965, 0.002179920316060559, 0.18551653670766996, 0.12361363711321956, -0.04490262353975419, -0.033137304682359335, 0.13057293081487023, 0.0972446191839598, 0.21648693059073307, 0.25959882739190265, 0.40842817758382904, 0.3392859422988862, -0.003994182925976257, 0.25764936320197446, 0.172539409388509, 0.21574239374015605, 0.4091564166596457, 0.3905558363525706, 0.44314167409567395, 0.2870480481639829, 0.07131778189116972, -0.2560751061515538, -0.13368801576643907, -0.2782594469349975, -0.013165661522733432, 0.0923526031947671, -0.13924091713652975, 0.014612263334950791, -0.009786093559527493, -0.11336298843993303, -0.006383786834600698, 0.07859664469355931, -0.10780962753319606, 0.006336360098238189, -0.1701047153322109, 0.25038535799262357, 0.30040169639322306, 0.4501242744320663, 0.5711176760242648, 0.7323414319608005, 0.6455006665678565, 0.6099720362895766, 0.6715397583285433, 0.7604221945358918, 0.5748222645696341, 0.7479420200015751, 0.42991454847116434, 0.603948251457412, 0.5685853344739442, 0.7026114847600312, 0.48001740084677413, 0.3472944588145422, 0.32244472148753256, 0.5815746380457797, -0.09210817954659574, -0.024756337250153915, -0.0284706968344835, 0.01675989912135132, 0.010392902439802657, 0.13397172671954802, 0.14870537217861993, -0.009470451950450223, -0.17858291579118227, 0.007397481278323136, 0.02809199565921787, 0.08450466291736626, 0.25198661208295803, 0.30630365165509416, 0.26886624377473217, 0.5546261097874166, 0.593209712107252, 0.6962589032042643, 0.5626005159501356, 0.8216795453990393, 0.7989358265539225, 0.5262577075549112, 0.6965837264616808, 0.71978890311803, 0.5049954994556449, 0.22872026275525809, 0.12296461816442952, 0.18596563201541982, 0.03811314643343385, -0.02548035439022652, -0.04452544957181186, -0.039569993252764675, 0.1830397837894731, -0.021675444399589423, -0.13852877065177913, 0.2416829290152614, -0.11308146902445265, -0.1221759041076311, 0.06978242203242233, 0.20966224294712066, 0.015654158521395244, 0.033253226091011445, -0.06958442578906124, 0.057664859794242754, -0.0386682066689655, 0.10256177401687139, 0.24403672680307714, 0.3167745708243895, -0.018655788934225252, 0.3533959110305715, 0.054756705706121886, 0.21683483899713624, 0.022374076603763542, -0.019447608374927622, -0.06904187833026762, 0.00869256935051984, -0.06739687389228441, -0.18182954183896613, 0.04075576635317305, -0.13814985551742712, 0.14925615641250098], [0.1560798520058236, -0.007683518515192023, -0.07578883746169651, 0.10559107586609878, -0.06589160189514846, -0.10224411150496787, -0.18054285623200889, 0.0990442660162842, -0.13053026335574414, -0.005622884391687166, -0.026905359648128242, 0.006157499714929151, 0.03884614749717345, -0.14111075742009505, 0.09268776990652522, 0.14617756003149987, -0.22642794501611682, -0.058272785926762084, 0.04691230701286233, 0.2119662555541476, 0.09470224595518403, -0.22513365363497764, -0.013528352292590301, -0.02819873266808695, 0.026946518017864254, -0.03336651642098095, 0.1131556736544715, 0.010302120869037529, -0.017997273931644703, -0.10290079719163532, 0.032235417392812576, -0.14012131752088783, 0.1768833750036343, 0.011517468219732615, -0.0026185114121570333, 0.027805408950601317, 0.043894247881693015, -0.01903099087334963, -0.2441931580249323, -0.22372117030484012, -0.07572117666100436, -0.0006368680129155293, -0.04214815822414463, 0.12006457076691329, 0.13335588695730605, -0.14289006343479885, -0.14946363768796114, -0.2366629559777296, 0.025968128187241094, -0.19386197623934057, -0.24046106515849192, -0.017303185681442422, -0.13535882939259467, -0.11285537325679312, -0.023983200215130535, -0.0036139733991874634, 0.06949426138709168, -0.15600871273392242, 0.08203164289543734, -0.18036603989811598, -0.04311133562895858, -0.003619857689353732, -0.08725534537268977, 0.14550266730172912, 0.10682466080433348, -0.15260443340933028, -0.35690425141499116, -0.18168638574140197, -0.21869677777385854, -0.32084798730513675, -0.23551308012186412, -0.2520852142644139, 0.004671559906890611, -0.2554909725656768, -0.3817876489454556, -0.2913783443759661, -0.22944067742257412, -0.2512806455703003, -0.23626874313181637, 0.013316987085292909, 0.03688665043786676, 0.16256463818382544, 0.10239848261955556, -0.07279757916772987, -0.14781055426544024, 0.015520491210216071, -0.055421320171497014, 0.07882918408475807, 0.1329961027994613, 0.030169341755468232, -0.13382768767300343, 0.19737944185752634, -0.11306199571210858, -0.2610184128904455, -0.24324615042576953, -0.3130874705298158, -0.32478760513500293, -0.09599460384305528, -0.16405535315735154, -0.24356428733612767, -0.27250147198635355, -0.49823668824310186, -0.39352209984411757, -0.5173250763973622, -0.31086290420539736, -0.25850724279490767, -0.11304957643582077, -0.10086836138470383, 0.003832223612624764, -0.20316408403255987, -0.10033814429019917, 0.11655814647804048, -0.2013506421324913, -0.07555706137518937, -0.0909918107968045, 0.037187744579907644, -0.10427270239579585, 0.011785627751014095, 0.3294947930097468, 0.1496144406696722, 0.08565131997936848, 0.25447142371321163, -0.009371505448199936, 0.1745935226758495, 0.12899560452747508, 0.3813552427037489, 0.06251187623984372, 0.32430220357798384, -0.25434100283325023, -0.2653704659004927, -0.35368592199371424, -0.3270886501198232, -0.08504549351472111, 0.06686439493254455, -0.013399786878691094, 0.0001431186581239363, 0.18494550028819587, 0.21274717633010004, -0.11966517770165833, 0.002422273827422046, 0.0867075660920342, 0.012373143031643321, -0.1635311503992178, 0.0017890346795003404, 0.07543161696846384, 0.0823413461357252, 0.2796500711743787, 0.36513111905180384, 0.2070076953122629, 0.061607690366025154, 0.010195463640944315, -0.12320846642346107, -0.17111446515609158, -0.22770930044066318, -0.03433201521936926, -0.2541917351417256, 0.055776328426094486, -0.11065854808817178, 0.0645607788539049, -0.1567541205330427, 0.3507114360105372, 0.07325888470479631, 0.1391579695607861, 0.45571349676465434, 0.5354405316510301, 0.29021282633304, 0.0847581067954483, 0.05909536836534489, -0.11080533110245441, -0.17175208344585216, 0.038045893960251966, 0.22706984010501163, 0.2967734551810125, -0.07501401109089631, 0.21809495296516007, 0.32513714848869024, 0.04158235228886808, -0.005891037482358217, -0.22680153404204625, -0.19317447997784215, -0.06031665260884693, -0.48295657505353046, -0.20757808124722113, -0.20447333417426758, -0.21893222801640524, 0.022161523219374653, 0.17947146104314074, 0.15303930232078372, 0.25244349275148387, 0.2649772060220763, 0.2400833188037395, 0.3751898490787239, 0.5906766053505957, 0.261163408826145, 0.15314811216125707, -0.06452627824768652, 0.1067646079314645, 0.034871788176583665, -0.10930637527818476, -0.030565827168230367, 0.3553527485636029, 0.08039871577485055, 0.0914578910685684, 0.22393850470797105, -0.017356433882949322, -0.09335826689528784, -0.1700221551729125, -0.10515966202605928, -0.26097651207405237, -0.1781356035036375, -0.18231648952987756, 0.058579444299652776, 0.3091863955758392, 0.12435901468098852, 0.2373924228185394, 0.39749891367435924, 0.40857321748299513, 0.22523312724728126, 0.3016117320846018, 0.5781932709385348, 0.39110151832801726, 0.4359753055627366, 0.16521076530107068, -0.018468199096347844, -0.005727133953601907, 0.0186017576965406, -0.03570283541019853, 0.19848110961421117, 0.2694941014415998, 0.3123356086046806, 0.3609716317012393, 0.26247940203321973, -0.16220611893649597, 0.07294402696042686, -0.12743461855771468, -0.3570761455098394, -0.06732731369996403, 0.17759782332032806, 0.1602700025166216, 0.20214795009382464, 0.12239611396917613, 0.152577686037744, 0.19092230371578692, 0.1338476030826422, 0.28517298450756956, -0.04219426616291469, 0.37657178983316236, 0.37594775387027257, 0.4170145061715236, 0.5685063664559824, 0.2341350049471733, 0.07324244320316753, -0.01444925097314673, -0.07725023554845778, -0.300021978947144, -0.03482919823031231, 0.3962060353474001, 0.16316878635253704, 0.44004345791731564, -0.1990713084308665, -0.20192081177538693, -0.23395853849467044, -0.19270509107575942, -0.029906126477303282, -0.04811678478564065, 0.23482342691788233, 0.29748938760835164, 0.2981482343876725, 0.16559090884257824, 0.13717743376289204, 0.08782137540218622, 0.11095575719993954, -0.006175013673403014, 0.2971971789601538, 0.17788028195518005, 0.23299868819179087, 0.19178807861431454, 0.39615573133224213, 0.19121313780310123, -0.0834643388713777, 0.060680190147929136, -0.08693265214003745, 0.042240065090946376, 0.059083436464918634, 0.11817020398212935, 0.1950980662789518, 0.4631694640183539, 0.21324608535933248, -0.12633515296991038, -0.24029626733841547, -0.19832203882226196, -0.15553341524561193, -0.0051753841455028085, 0.5256061094303496, 0.5882281876904564, 0.2651687212463281, -0.11897636024167582, -0.2979292346033881, 0.0020763293578007587, 0.09309085763535623, 0.276298838658777, -0.17163142511898138, -0.05195624048086608, -0.20719104291533214, 0.3569463537990842, 0.5522495251699723, 0.2923333045410545, 0.08226576702468992, 0.003272161840721525, -0.14191959193939593, 0.029658272451535232, -0.01258458549427604, 0.0011691333791330103, 0.3749466088457391, 0.25585197287797745, -0.029089183465232767, -0.3056216231070386, -0.23502422948203228, -0.43771246230166977, -0.2674478953296308, 0.11087027963274264, 0.7310238184860484, 0.4753136633087261, 0.036425907440369935, -0.48853924249384534, -0.596650172696497, -0.1302625265858554, -0.04475033508670536, -0.3787006526551728, -0.4084716722938467, -0.2557074962681756, -0.38756898326221095, 0.10711510183451885, 0.4395611335724543, 0.46556408031867347, 0.06146116500173498, 0.032352738572004165, -0.06636908050860052, -0.21540765375802148, -0.07034555818209023, -0.09544811647436598, 0.09058033062885931, -0.10377576235680352, -0.07616766762076595, -0.496997303104169, -0.41820117971893045, -0.35640431005697115, -0.3297648576408661, 0.27188069857701935, 0.6975699899963406, 0.5268403521320066, -0.10339430641846294, -0.44151458058674325, -0.588922156305751, -0.12528601196168135, -0.2093025531840633, -0.13567566865118158, -0.21468514901231717, -0.6585501455616081, -0.5738713091921512, -0.07456688157899029, 0.3498392306610983, 0.030470326016671052, 0.03461268199305954, 0.0007123612246077606, 0.00635836818396744, 0.06868464647654547, 0.08535443209969082, -0.27381204590270297, -0.40956895894413137, -0.47887319063888345, -0.3312246622284123, -0.6367608647720842, -0.3222860288419008, -0.31589467446466113, 0.03604252338270465, 0.6582335100603587, 0.5979085827052836, 0.30332966789618115, 0.012050431272161146, -0.24935434775944426, -0.33248456021291795, -0.02884224194204608, -0.1961528190055489, -0.2465553348577129, -0.2900882346051623, -0.5107118584813137, -0.2428300365631043, -0.32885373172425714, 0.1900458099731301, 0.19718346427982444, 0.04329841887080714, -0.04964025847987996, -0.255117337846257, 0.049280982639261624, -0.0006448317800312096, -0.3753526317889188, -0.273328072065932, -0.25666734943186, -0.3895422997738569, -0.49362113831407123, -0.3557504030201827, -0.15534307823399066, 0.2130984387853551, 0.40587304197676766, 0.5169360397382609, 0.4196298436630749, 0.24191464893039555, -0.01671198786696192, -0.26913395244358923, -0.10791908619756808, -0.03167220460918398, -0.3501951670128924, -0.635035022191983, -0.5623356033239687, -0.2781168216803006, 0.06766099816507436, 0.06805271844164168, 0.2655743041843039, -0.04619206453836657, 0.08745311588523408, 0.04704353944245404, 0.1364061573112515, 0.0991938887093155, 0.00038651599611670765, -0.2731600213988526, -0.05825053360250131, -0.3411042496824095, -0.20772093764872634, 0.0641280933364951, -0.14308836293179303, 0.04201153019016798, 0.19124915689656793, 0.577679025639753, 0.678614346393916, 0.31384512282216187, -0.17926220386759747, -0.37114303697010115, -0.10156081238135074, -0.16257057023106491, -0.21918644769130446, -0.29856567853620103, -0.15116753114831077, -0.038975789944867445, 0.12343921070704297, 0.18058038519633576, 0.2947295452552442, -0.08592206872005355, -0.08746092653476943, 0.1896268752530267, -0.10264654048664934, -0.08794449546721765, -0.01811637009777157, 0.014749944509498429, -0.012715385806984215, -0.30202378584678846, -0.1657209358331829, 0.2024224140682588, -0.10871465915710438, -0.04142022555192265, 0.2121512930295526, 0.8273383928043506, 0.8270838450874263, 0.31479517690683195, 0.1658922852097974, -0.02830166482813311, -0.01299444573997578, 0.027818021051523884, -0.09766372659217869, -0.17260583887663786, 0.15482731886883327, 0.2906761084223855, 0.21266963927955004, 0.47585701560291405, 0.44830561255949547, 0.1029073192014264, 0.06174762641489972, -0.08345196630927909, -0.021836206297425043, 0.3963948493449186, 0.007738642430558812, -0.15960517545552716, -0.08359622171968466, -0.044482608431558816, -0.17264539674122187, 0.05572793890183896, -0.00024412895039182774, -0.31846533907024627, 0.22881606921018713, 0.3813124728570537, 0.3550510677805166, 0.06816655243152803, 0.024824203213408932, -0.13667005835371282, 0.20279348027667052, -0.14375482350283672, -0.0018975246806548606, 0.034115566625459094, 0.19232241163820962, 0.30261182430013955, 0.353173023451469, 0.10795346789237145, 0.001030664915186333, -0.11553423225196847, 0.05211778303186294, -0.2586684817475891, 0.08189883945024062, 0.09081158176042925, 0.07970254982795308, 0.29565776970112806, 0.38598759130665483, -0.013765077966036203, 0.08322238583790735, 0.3189573697987165, -0.002208580243168323, -0.2765764908397369, 0.27078696703070954, 0.5961772947414883, 0.11222567755853745, -0.11103840409636093, -0.03527032286170363, -0.09659182937244208, -0.09384085367741953, 0.18329788316773504, -0.009558526042610475, 0.35541629757955173, 0.28734347233922924, 0.3889193853706041, 0.41280257282223143, 0.1764637226822857, 0.07728285317336432, 0.3005693425477519, -0.13424444776835856, -0.07430864608901032, -0.2931722465763768, 0.37726683360510904, -0.25870575093567355, 0.032869987274199465, 0.17262910981292354, 0.2553358663952035, 0.04298323779730882, 0.10406189035772863, 0.15724641092179525, 0.0839504869020999, 0.08194771475135974, 0.3137663134882834, -0.11485367107769762, 0.10936261904256976, -0.29639901842014943, -0.08671892730705996, 0.09056366595827721, -0.07755174811154059, 0.18088448207247873, 0.1651239012237827, 0.515165152518719, 0.46497229800356643, 0.11676660978415801, 0.20591200702969598, 0.09294366389425804, -0.09170629349167929, -0.04779269349495627, 0.03763352822109771, 0.02627727205651741, 0.05683399954991157, -0.2834649083191775, -0.011189860033520462, 0.1817074709696157, 0.5628119571598643, 0.5530999441337012, 0.5107719011957208, 0.014252327638383303, 0.10978119017809765, 0.17225404558319024, 0.044180775556986525, -0.012818026229432353, -0.0789800559356783, 0.02026002307202857, -0.008653786653397867, 0.1059609769149386, -0.09676235384342168, 0.27271987472540293, 0.5232540109553202, 0.3870119391740679, 0.47099762091482533, 0.021618444713792772, -0.04426830113581313, -0.08024253678388318, 0.016445320896671924, 0.13546133990942463, 0.00614863959844818, 0.009198555958160038, 0.16056078344659722, 0.024697877875015036, 0.004277339031688226, 0.15993813518269873, 0.3323131325608695, 0.5925798304557931, 0.4724028147257865, 0.38129460893428463, 0.1781083999879852, 0.1951228865610976, 0.06863181009258931, -0.15125719735662724, 0.08401544291035587, 0.05209554049491835, 0.0865685087367188, -0.03898149717187438, 0.052810247307114616, 0.2634649455194704, 0.3401756265972927, 0.4386915587652692, 0.553759299172833, -0.2006520978341816, -0.2429807281766041, -0.05903417815239138, 0.09293263167382167, -0.07696360689376647, 0.10989729773987897, -0.20202566275664793, 0.32252658513300814, 0.24258108479389606, 0.03980841772760796, 0.14569558613360845, 0.36379649226649974, 0.44024389247274315, 0.4702733766806072, 0.27899951175880433, 0.08127995289281481, -0.13181716876691776, -0.13874531037278046, -0.15995623155760677, -0.2836375816420539, 0.031240451174159533, 0.283632532362632, 0.11919890268034264, 0.13938317262099978, 0.046846532446108084, 0.13484858880195805, 0.21065316684936558, 0.01799217346079434, 0.1002643095299559, -0.22231923820690744, -0.16319681222912463, -0.08300677464274758, -0.01584631291952914, 0.029593378477231563, -0.04015707871014372, 0.24789048462690214, 0.17834202841463193, 0.303117857625474, 0.19498783020055058, 0.34531636732715604, 0.21222998655440603, 0.44383627478790005, 0.15813365250458414, -0.12055037883828819, -0.3268306193260238, -0.10796307146739713, -0.12639281968573982, -0.07246211357215242, 0.23162447940204411, 0.007678530766779489, 0.05421184051896143, 0.36333002682186427, -0.016413443364877087, 0.002143513584199274, -0.01238857606723761, 0.1960125176117026, -0.11491198898695464, -0.22006767188104737, -0.14213493507392969, -0.03255802125932551, 0.03965984762536987, 0.010784617758450738, 0.036733754053076606, 0.1876911228745476, -0.1954634889068409, 0.11890084108721528, 0.28753728409588475, 0.2983579012439346, 0.16363920537596424, 0.37044059622108044, 0.1547656207728714, 0.21018018291668183, -0.08619929888737925, 0.17268362820845914, 0.13064106811906828, 0.15462431246263886, 0.16224083376487924, -0.14189270563186196, 0.18108636384726987, -0.12459410364008287, -0.09598878847374538, -0.3522255052729503, -0.29526359406897645, -0.01411040503276624, 0.03570804086891878, 0.08320379609677835, 0.15455571111414002, 0.036532370765510296, -0.09593334396604912, 0.06520767908267809, -0.008310469076270009, 0.03947007083874632, 0.05767271504056864, -0.15059297209064004, -0.056783988562339634, -0.24974572704752235, -0.006526577947679653, 0.11199330310653263, 0.08094080034237539, 0.08585721435143309, -0.22245182435635863, 0.0328057273494008, -0.1251521437278807, 0.025892301434547776, 0.03653391366106604, -0.12672877581614692, -0.1348213296321441, -0.28290889133647074, -0.31059181000506786, -0.18438686440297422, -0.17319071044433193, 0.02234369041266404, 0.05663892194946695, 0.014113917011878202, -0.058476288959267306, 0.03425071169703449, 0.09108324214895938, 0.03718859765848264, 0.12395813831817426, -0.027571941024832045, 0.03501668171196183, -0.1764706151418786, -0.32121678639509715, -0.2083807757918413, -0.3616132948269586, -0.5178318242978126, -0.23960447462280485, -0.6239232962015628, -0.8087163904909911, -0.6269673116596575, -0.7164122392847263, -0.549700046362992, -0.46934766422042157, -0.5387986088395623, -0.7410950031126123, -0.32024534156304363, -0.3056043608879711, -0.12082466358118316, 0.08456856417716503, -0.21009136323658328, 0.13160323018344894, -0.01784206406798693, -0.14300481893969702, 0.023879382317868326, -0.04773728325702575, 0.16053834985787804, 0.09114764453885417, -0.060530197123398057, -0.013722716190395782, 0.05353325190716002, -0.04345455790907774, -0.039933729336595315, -0.028648433127424284, -0.02907291429190015, 0.19450185303150294, 0.03805792596626164, -0.08494673212501284, 0.028395637209114807, -0.1775157573243668, -0.008631784352195516, -0.15660475724187412, 0.09799955822464144, -0.04101093938138882, 0.01153776964460759, -0.03313427349475416, 0.012155781158555172, -0.003073701461044327, -0.08793374081385416, -0.16413631751463864, -0.044762655228508856, -0.00018387808923869562, 0.050282487027942246], [0.17109762788011473, 0.008122807445801116, -0.011241165268961906, -0.0030323424115856444, 0.09994673023459799, 0.009546536580445011, -0.1525444789102983, -0.050213947761948055, 0.12589794738218937, -0.17312806491185082, -0.10640944854196661, 0.06356068020351072, 0.08483292112614157, 0.019062568665601295, -0.03834762377668297, 0.13721995287535876, -0.16745373846624798, 0.048998493966281524, 0.03859116029749256, 0.037204577411251646, -0.1505458287825011, 0.09755377522999772, -0.07763044589785338, -0.05420463231730554, 0.04970234955049516, 0.03893872473265377, -0.13764939795568193, -0.16257395026538907, 0.13721070667391302, 0.18309274529909705, 0.019257729489608914, 0.064707567683908, -0.03345210566349389, 0.024021064688472017, -0.09414935041564292, 0.09387320161823054, -0.018228920380843623, -0.16634804549315005, -0.01247741547369757, -0.12872590816149165, -0.12886664653708155, 0.12193070160573112, -0.1135895959114955, 0.11141534235751194, -0.119672049943763, 0.015175834428967002, -0.013630608725071673, -0.17596701564672476, -0.025138129415359423, -0.1599073530459766, 0.1540751291605368, 0.023929222836300657, 0.16107165214947597, -0.0300968429075828, 0.037728843351131, -0.06832753646355269, 0.029802740575840883, -0.0640135151894713, -0.08489607352224782, -0.03318750501042469, -0.11706301123102232, 0.0012552789142188268, -0.03156588445497537, -0.05627678119809487, 0.013930340532920844, 0.09881379063240961, 0.11956613965576982, 0.23614823087144918, 0.1173062954247244, 0.4233046488538978, 0.025343522076253976, 0.22520743087074666, 0.21376813347771087, 0.19284817089904302, 0.2995481206365525, -0.03462876956222586, -0.022688917774907967, -0.07172818434104335, 0.11530746827067884, -0.05014793135606403, -0.007719203357960782, -0.05483055696381956, 0.08979704537347283, 0.07706654130469345, -0.037418661788755324, -0.04792714078793539, -0.18492300671364387, -0.015895550626495482, -0.01535005523721101, 0.019012768976601264, -0.15387205966454756, -0.06141528418479801, 0.051872896385297074, 0.12483878047205364, 0.2331828420296121, 0.2712349806044173, 0.07082779035802544, 0.1121039253271664, 0.2572216379226735, 0.23085002683575098, 0.35862959609349965, 0.005438262156577995, 0.04257734398829749, 0.35369796091174305, 0.17088468218193859, 0.0996572668121743, 0.183150621453779, -0.19273697468034362, 0.0017269584428287355, 0.0578481294524487, -0.1269330503917788, -0.06414795931338232, 0.13215915191937044, 0.0963759606467797, -0.021483335401972913, 0.1729295384139064, 0.17537235585428582, 0.0921257759894893, 0.11178847835844809, 0.12101216538505093, 0.04224143501731708, 0.0023250484441108715, 0.38638162289759076, 0.5047695431888369, 0.41969412958943964, 0.2454129365021264, 0.8490826354088941, 0.6749511123915312, 0.7565349321116499, 0.4630622246933258, 0.5713379497216831, 0.35379417297079974, 0.2564992781435286, 0.21923280711315463, 0.11390098406645541, 0.05914970992923793, 0.11837053225599563, 0.10450916649737886, 0.013345713131110729, -0.07176644912801332, -0.09949527773135705, -0.09819510068613785, 0.08032582821934789, 0.005896907374420986, 0.1729593851115735, 0.2154562462295335, 0.07176819711798854, -0.005276554530296373, -0.03608105676434491, -0.007867108355705647, -0.09666797533686433, -0.046264953187821464, 0.2180769151437468, 0.28530785078723964, 0.4602407274044223, 0.6254826866337246, 0.8849509204834576, 0.7620923681923844, 1.0388354845268302, 0.9955445507286429, 0.8328376745427013, 0.43542927786439867, 0.177103489668472, 0.20378482812450854, 0.10596944816638477, 0.02293933942003337, 0.1378837981419794, -0.03527686468912609, -0.17185004373751367, -0.11463152874265711, 0.021002714219906453, -0.23551881341619185, 0.07840436944890966, -0.2587095629736286, -0.18870228145404017, -0.13428264406610357, -0.1621035544677826, -0.25447546105818486, 0.12630061017824656, -0.0026663534284914045, 0.1911507028965144, 0.41880137811354123, 0.32651538898116805, 0.32483855355394414, 0.3091864177413274, 0.10557780597243277, 0.25483724693881826, 0.028750128783769365, 0.3196823242201137, -0.011653986816013475, 0.12061697071732341, 0.08971924676337548, 0.2746679104539582, 0.08954539842193915, -0.0017937451425862896, 0.04901005657894391, 0.007175388939659178, 0.03540618927287799, 0.029995696666644235, -0.1836351902397429, -0.28952403447775715, -0.16254183408407252, -0.18882581808507812, -0.21409393767983362, -0.2974734319307376, -0.1153873212184359, -0.05185046708158827, 0.17156043110511582, 0.08234027624473858, 0.13373876758427705, 0.29283166364349406, 0.3241825858267079, 0.2144544854270254, -0.03356382762241964, -0.2596899608173453, -0.12238366221545521, 0.026749449472924403, -0.03897935170275505, 0.022643240132558876, 0.02873863035312224, 0.3425054915459136, 0.11674628590830262, 0.0624780144252638, 0.10341053238622264, -0.08862361253228543, -0.012744913445336094, -0.19987039927586478, -0.19933110199567647, -0.2201143737792114, -0.2949876746359349, -0.54494960957469, -0.7886487345937347, -0.38524304648862834, -0.12807764040637354, -0.1806984136930119, 0.16226777290711653, -0.025307409405614534, 0.12993720332976277, 0.07208961066490875, 0.2457501102475541, 0.3506702312237291, 0.05834744950824516, -0.014509091288866871, 0.10897790647018746, -0.06729015628503496, -0.0047692619109952605, 0.046606524027105245, 0.1482094688571301, 0.19748942399598535, 0.22601520202835615, 0.10029212552716366, 0.07284631697110604, 0.09436277406139555, -0.03098554299107118, -0.14646806742043839, -0.08319083739604495, -0.2743198593605037, -0.35668015577603507, -0.21288185933428613, -0.09489417133392258, -0.16203885363756884, -0.2865488104345957, -0.11069776908228217, -0.162307726749138, -0.40187349408631545, -0.38351565745263455, -0.5044727040785948, 0.07307620570904842, 0.22411369850735968, -0.19073855433819892, -0.1672782683436889, -0.1628289257960222, -0.1834427424598298, -0.007972431725261221, 0.0469356626238005, 0.056088624692519615, 0.33582033544023526, 0.3862829312795161, 0.046855112183536704, -0.20790747542403587, -0.12098382619815834, 0.06630370251482552, -0.18758632513338316, -0.2290550108427079, -0.2638219562559915, -0.44744875789650773, -0.4373914579346517, -0.062469829818517765, -0.10832475974309912, -0.020833269118136197, -0.34823593131045916, -0.17366582755088208, -0.25041146715732326, -0.47730263252906235, -0.2250190434316021, -0.13122309127628498, -0.17798707282093593, -0.149859077583566, -0.10463584564847864, -0.13986259206102516, -0.24078350368306561, -0.22859401070393454, -0.11063432999370261, 0.1548240996064697, 0.1980231267337208, 0.030908116376976512, 0.2585809592428337, 0.16219263643358223, -0.08852876212355727, -0.20566630373050646, -0.19921020483799426, -0.33512982438565353, -0.3860215330631593, -0.09069599928517696, -0.15259850692811036, -0.18061218000617757, -0.0341952573465083, -0.04800702934800651, -0.34140545168630837, -0.3389085576933415, -0.07016423727742789, -0.03127951319072265, 0.23623496435354752, 0.04212275770140593, 0.20238010455118036, -0.14895540414306452, -0.2432245894196232, -0.29362831824420804, -0.17596691391807892, -0.056056771339629025, 0.19725877186288843, 0.16490997549003453, 0.5475660849031269, 0.18890811810908079, 0.06495426628023643, -0.0643733249221979, -0.05045711276204138, -0.24123700587603858, -0.14000372011659618, -0.2827243217635507, -0.22963796625534627, -0.04396292861011921, 0.01090582912390554, -0.2709231403499911, -0.1357611555552843, -0.30239203212839527, -0.14432353237574766, -0.14251902907837674, 0.2679945062099786, 0.5837851320606788, 0.7385598771988834, 0.3107197940708146, -0.29350442203067645, -0.0755790097596873, -0.2497844584656358, 0.272149257826137, -0.16100984993481798, 0.23077045862342105, 0.282847703257845, 0.12503274220475266, 0.2760448913027724, -0.07258048025690836, -0.0382121471344124, -0.047399498400501894, -0.153172487787915, -0.12522306333977207, -0.06333808895366581, -0.3046415425316183, -0.15876465945724816, 0.049921978697194315, -0.04138137588178802, 0.034784994843959104, -0.06901992843595708, -0.0956118628780348, -0.0818945923887442, 0.3853886917794679, 0.6877461890460046, 1.2240893532655546, 0.8964685263408184, 0.3287948892491343, 0.07783174007736102, -0.1228925567624489, -0.19756554555345532, 0.22175037054912486, 0.12658381606915597, 0.36324276524644966, 0.3813021863913358, 0.5480073279230905, 0.45667778420103866, -0.1286965774469321, -0.010829442766575064, -0.19900986735057188, -0.07134094937775363, 0.03278186637155889, -0.1139358270262776, -0.15993955115690214, 0.11216045371048354, 0.33450465779840177, 0.35741189494746384, 0.3916202797702025, 0.22632692763839846, 0.2549504077006601, 0.3377054548499526, 0.619537114095182, 0.9921527834716364, 1.01371218889665, 0.42056059853135563, 0.03461910701302687, -0.09856696805788953, 0.13355172347748262, 0.03470565562991921, 0.09093338169738484, 0.15078630257751763, 0.4468926980752025, 0.17357295828438477, 0.2894828509154519, 0.29703150519694893, -0.11518885632036037, -0.057650206453974236, -0.11512338563516103, -0.01785624405015709, 0.11875875972245765, 0.06690224609269188, -0.30706524155685794, 0.04085449016834107, 0.2702186542507016, 0.26133797820567356, 0.10749066149395899, 0.5767074196004761, 0.3492297572264079, 0.5674598923090038, 1.043895896271115, 1.0887695112174396, 0.8845377695470761, -0.050058412750613845, -0.04309891533177285, 0.15188661529236125, -0.11466459913462747, -0.14549909229548538, -0.31277756503245296, -0.1757252235582326, -0.20974688991082385, 0.07352674004231974, 0.04963568814076993, -0.16982009194023107, -0.21064333511674546, -0.12261527656070638, -0.07713565911052724, 0.1819624100951307, 0.08553329289651317, 0.11555513279650036, -0.09819756593016453, 0.06585736525453204, 0.311315018796245, 0.2610053494544947, 0.1303190013800927, 0.3802082420023408, 0.7558047367922617, 0.7308048936275234, 0.9006356231156664, 0.8594772290935554, 0.2077183230211432, 0.03822078934626553, 0.004567846344722713, 0.04310091573035785, -0.12246889763903439, -0.20637752645121069, -0.3362852388798929, -0.31659404828744414, -0.2824927179275742, -0.33051766958493933, -0.14226221194097233, -0.0830479335732383, -0.15253754705415204, 0.009857746419734775, 0.10807087785765429, 0.08348086802090349, 0.1070503441081405, 0.046935906123905816, 0.12298492997978559, 0.2793683026564014, 0.3591924015418285, 0.4730793123936205, 0.3821624145291048, 0.49654350095089156, 0.7724603763765743, 0.9820918488922952, 0.5079917480295675, 0.16304129485920288, -0.20094505580828254, -0.31869338354129784, 0.02414088850240971, -0.028503789626849026, -0.053916476800288354, -0.2648253269225491, -0.3698026613170049, -0.26571142268459425, 0.018205208447617156, -0.147590497002353, -0.05460128818032845, -0.34106974926511274, -0.047647732376153364, -0.008329908111155322, 0.14859045239240465, -0.03315361890948691, 0.18733474796695695, -0.05022340664543611, -0.07795217892709946, 0.37937422051428454, 0.504564716084331, 0.6552302979466957, 0.31049353772206917, 0.7561136041489681, 1.1013579364303474, 0.6813139008306721, 0.21143441837922955, -0.10119800823120585, -0.4531741848200021, -0.309971968966172, -0.11809573240101923, -0.06376425298468874, -0.24703024349358557, -0.38397436237953325, -0.05758609085002017, 0.035650302526285746, 0.18567091126612462, 0.06231164871345222, 0.22531957449245485, -0.0289439013889411, -0.09581677919966411, -0.03601726777030741, -0.15744951214679465, 0.08391183237932219, -0.13405330350935007, 0.08371663498460494, -0.052204224219906975, 0.06324941799913328, 0.3072183640724508, 0.6173287950997504, 0.718009978071472, 0.6933047082191092, 0.5129476414624201, 0.2190391465886611, -0.036946225111168546, -0.281245101640344, -0.19822078934536508, -0.30937160671973296, 0.12012507535385421, -0.0028820929904505273, 0.08995168718794234, 0.027223604088328062, 0.18541357276895107, 0.15765371472139425, 0.5105204354558293, 0.1994613727951237, 0.02421514059220186, 0.22064009481306118, -0.031214622142425714, -0.032029785506406255, -0.06770240825599973, 0.0030588214202849247, -0.05291483141494057, -0.05186101871230125, 0.049090044743574694, 0.09805442628294078, 0.33289093056365365, 0.7039156752798478, 0.6192790967168621, 0.5149262567978674, 0.2691865499538189, -0.001836629400344497, -0.038895257165333326, -0.2139190698242926, -0.05299344528207208, 0.155882636495475, -0.04585158287916159, 0.27130221895335377, 0.05832944626599721, 0.21941284113956688, 0.32702734006030304, 0.3775910363779953, 0.4675169703539906, 0.2675336073286741, 0.10493775534697122, 0.11925682691640511, 0.05065133329457848, -0.05895567609069619, 0.021096697950770106, 0.05230609221417685, 0.07480138325540886, 0.027796137071061367, 0.2628320616166142, -0.0036781025510020525, 0.392576161354999, 0.49083313224677894, 0.4315877537616493, 0.4521143191978924, 0.2197510764673124, 0.1314896746375754, 0.1229330450482337, 0.15262368183482738, 0.07233326431200121, 0.16362549083704692, 0.1427303528152596, -0.017059641877871373, 0.09616564561944933, 0.3774063912106913, 0.34005609270785003, 0.47561142715487803, 0.7646109173679952, 0.665046703634215, 0.13895590553228845, 0.04254107771608485, 0.02938019792571642, -0.031140851916998943, 0.044332410184657355, -0.016555931603059345, 0.057618562195131146, 0.01342731745313386, 0.07559444243891161, 0.1580830560895131, 0.03372309984881472, 0.2803641800979147, 0.02081731005409548, 0.06914372559532894, 0.07137791360453549, 0.21678816459737163, 0.06187362504065825, -0.05042524904668592, 0.04459992794344218, 0.09312784945697665, 0.09142017794156387, 0.24086067162818717, 0.19144564295442876, 0.3737305204922862, 0.39839668949133833, 0.6281134924264522, 0.7026303428504834, 0.5206799338555698, 0.333273765391288, -0.04580540280394927, 0.12384072051840449, -0.04509842141109215, 0.033942048995577394, -0.1600659185123201, 0.03390290454361796, 0.12141324732337745, 0.040566465777504675, -0.011435109612736633, -0.08742118228226893, -0.2098030317812639, 0.03935696886326366, 0.26238907823558133, 0.10277936831671891, 0.0014794254414649119, 0.16129361002255393, 0.04392815000053296, 0.13346212445475653, 0.05543619603845738, 0.07150870132772129, 0.2215028652707741, 0.13598000484462472, 0.05261177554021615, 0.3177272969977101, 0.5065334379826925, 0.36401780533614486, 0.43788661709670906, 0.23710611209877702, 0.03661729860656366, 0.04837504651602817, -0.015112977725307153, -0.0885055868560326, -0.05425667318839397, 0.09651846442060898, -0.06558875608848747, -0.09799094285729326, -0.14295364873804509, -0.16100960374496587, -0.11164983983778405, -0.1912380650577039, 0.1114765755238003, 0.002864565050037525, 0.1108080053039955, 0.03790510584289906, 0.02272755364242238, -0.04691014802147934, 0.061431370446977045, 0.12996530215368318, 0.40255148928086826, 0.21607138742030244, 0.3169639863595327, 0.37750575501953687, 0.27189246593870287, 0.4789059373385713, 0.37288419105294474, 0.23837753069325973, 0.14865282613457464, 0.009839934843125774, -0.1502444675020477, -0.11506337275945551, -0.06731451464402687, 0.019923494216753674, 0.01068288219314167, 0.05297141222403772, -0.16349458200694625, -0.22716301696198282, -0.0993591763975591, -0.18983313861028295, -0.009980092055945335, -0.12143092069357987, -0.11601080097244516, -0.12909672852867624, -0.04870307895332254, -0.15936517278056106, -0.012668673763933184, -0.19930111136583598, -0.14557008718164074, -0.1234497160189521, 0.12574841101846185, 0.12859472433948363, 0.07965195913178817, 0.13137271118970487, 0.217750218058686, -0.09998525273556205, 0.05783579387210927, -0.08770113300583832, 0.1606393653493373, -0.04465688665538687, -0.11099901182172389, 0.02695115822087248, 0.11011603872986242, 0.0521281764960973, 0.22841584452575428, 0.029868385802336958, -0.0038229999311982436, -0.030873842543296264, 0.0511313173064506, 0.1599089214884212, 0.010395977583667238, 0.33056304593971425, 0.0841631283482802, 0.11436792431708538, -0.010377946178180693, -0.1573112541127997, -0.017911296200501324, -0.11543867909979526, -0.1355285167028964, -0.22759231913013941, -0.10446704260054643, 0.07915051912955734, -0.06218056835076134, 0.07639002132861446, 