{"internal_architecture": [{"inputNodes": 784}, {"hiddenNodes": 128, "activation": "sigmoid"}, {"hiddenNodes": 64, "activation": "sigmoid"}, {"outputLayers": 10, "activation": "sigmoid"}], "learning_rate": 0.001, "network_values": {"w0": [[0.06595112716017501, -0.10355417995166838, -0.13118055662815398, 0.17909411077002566, 0.011417767403314771, 0.03435246698084182, -0.05297240241394474, 0.019828723950528104, 0.04696436363004935, -0.09323374886567122, -0.07017550468634694, -0.07378380384118075, 0.16704452172496623, 0.1167383190175562, -0.095337004613923, -0.20319994191750154, 0.12763774248595408, -0.03884907067752371, 0.08255612719611773, 0.00290234710909923, -0.03568744815798939, 0.04444346306036915, 0.1495829343292516, -0.048548198607873135, -0.16702874150894023, 0.014380651451060775, -0.05330287077021373, 0.14789695747229376, -0.12224208132906866, 0.007518904535773469, -0.03250640421978286, 0.2435426350193184, -0.06123759475314834, -0.10034356534525055, -0.08308599406082708, 0.04954915352984065, 0.05930016183448934, -0.03175017199394341, 0.07102644871712963, 0.06285694350652524, 0.01762924590341145, -0.03079543178634076, -0.12901533180875466, 0.007405034752241015, 0.17593616233807563, -0.16512610141125023, 0.1826205899854112, -0.1068363972653589, 0.02227599670705897, -0.04555756492025219, -0.08222332035509108, 0.20328219120737945, 0.06825935219065342, 0.034274676667685765, 0.0003887064222591141, 0.01834571964597904, -0.011196062809714719, 0.028273553055794123, 0.1609143701574486, 0.055613607595753144, 0.003410405539116018, 0.12571248433391655, -0.17150027246345223, 0.012768393588697469, -0.139446801749939, -0.15092284544206425, -0.2591652794341018, -0.29766797626052327, -0.23568119874671584, -0.4476858929961914, -0.6983332992161589, -0.3408217440881108, -0.47296563454857454, -0.09007879301138279, 0.037242505940399226, -0.06750042585570928, -0.2558064095616422, -0.1170322189525913, -0.0696974959981183, 0.24968047913731534, -0.17870290406643546, -0.0917818067529273, 0.022053069546779512, 0.07317780455823211, 0.0953016872678551, 0.015566021823423638, -0.1268968019265132, -0.07049599374722929, 0.14983982962540668, 0.052969600485888606, 0.01757896515504241, -0.12169169494100676, -0.21792182505347657, -0.39721194056975034, -0.7444427391414268, -0.5329179818766687, -0.3184057983430651, -0.2179330322763031, -0.33831262373643084, -0.24086839203072336, -0.6134166393139405, -0.12390324920494425, 0.2561273222210324, -0.42591699893825574, -0.3892917917902169, -0.2522654700368635, -0.21027206045620742, -0.7216347492361028, -0.17309838600722752, -0.3709703873369411, 0.22095752996606027, 0.01781488159986892, -0.023170732306218304, 0.046355516752101346, -0.11406259444728317, 0.19017387007184045, -0.023297005003987153, -0.0813787687761312, -0.3523408791434287, -0.5438841903779986, -0.6292372362472399, -0.40392111150030197, -0.42694207577149657, -0.37381056598511464, -0.08565255857588944, -0.05456657184086918, -0.33664836101204104, -0.23769358995992756, -0.524257508362532, -0.372580991080433, -0.2745928770777746, -0.5592852745201707, -0.25682045636721784, -0.34920088775784786, -0.5646172113829222, -0.06897016542659364, 0.19845426238546246, 0.3144025760724796, 0.10873910527869868, 0.09164821745136663, -0.044843641884337926, 0.08685339508939988, -0.12466152952025043, -0.14414117651170918, -0.28153432561257036, -0.10331411982990672, -0.9895665329767543, -1.2761583129099119, -0.5757472391821624, -0.09036623949167198, -0.2636561379516302, 0.013172409717081057, -0.20701685773970457, -0.333822585885571, -0.11045632599244047, -0.10260338807993785, -0.1572738028742691, 0.002007723505871234, -0.1538031182442639, -0.12818813796187184, 0.0009473842462938002, -0.1266934600867142, -0.11844436042556557, -0.11119065696245509, 0.16598761244792776, 0.3156241225067746, 0.1449531140749898, 0.11918736736538073, -0.07547388587183794, 0.09405017549039095, 0.1464012106122404, -0.18790368714734498, -0.43316480279933556, -0.40447346236535764, -0.8574555080013107, -0.47275501318132546, -0.5065870709257809, -0.05829951713150181, 0.2986346387884126, -0.18421425894395493, -0.07666245801286452, -0.17788790467193943, -0.06165815000593386, -0.23587232215639636, -0.053969356722461136, -0.21702085378453484, 0.05256744459018175, 0.33871350310665443, 0.2533193578299199, 0.06622021639197456, 0.09471188965202275, -0.1230416084697338, 0.04267353980018786, 0.3025624804758894, 0.159932931761058, 0.07904108717433422, 0.11753001159274083, 0.04225725478453566, 0.24718605530958368, -0.5485110833404263, -0.7048060058702142, -0.5233937073884899, -0.6238819503515233, -0.2356312542944658, -0.05909779693170335, 0.2301171226364228, 0.28151851652013293, 0.011029152519199715, -0.12256533434588956, -0.15420340007640096, 0.1550734773783291, 0.06513526413042152, 0.08923340891276293, 0.14670983745585106, 0.0048404466356790285, 0.1792555290896246, 0.2007079818739833, 0.17360782469508454, 0.07602040138161013, -0.04160791855606553, -0.14849956243703388, -0.028782211574281246, 0.523801081154899, 0.09353468834920296, -0.11833565299980761, 0.16281422963663847, -0.18653136126826927, -0.20744795125183393, -0.21229353272867307, -0.4254198948979124, -0.35151244171161017, -0.012533572027480984, 0.009159069762678834, 0.2753627261089763, -0.3297402453467567, -0.03653161639472858, -0.138531158883982, 0.033701518006005536, 0.09515780183276934, 0.04199335777319008, 0.3121213848737322, 0.1724692656448697, 0.5101075548303817, 0.8317748135539498, 0.4739273974790695, 0.6298412263682581, 0.18135504057347843, 0.35665609379764057, 0.3870012912693568, 0.6071761531650188, 0.1969835065843466, 0.011456374543847882, -0.18784394334288643, 0.03335333982362728, -0.18402677146737054, -0.24044672561612648, -0.05835741548321768, -0.530658570171206, -0.5319185517594663, -0.35586290373053503, -0.20064678295252955, 0.016216294865791948, -0.04577494973192345, -0.15824536204822187, -0.1335173525218882, 0.06881856586898652, -0.22057964901012603, -0.06810825603781297, -0.0707999202394408, 0.6434652645630243, 0.5447248518079748, 0.4813607408874579, 0.48001679430974104, 0.556599211937273, 0.4516429010520464, 0.1717463273258276, 0.7471807045359242, 0.819240935993164, -0.025040114454485715, -0.04556758868554516, -0.10111090110581382, 0.17432574675372356, -0.12083720498803895, -0.17926594532458062, 0.4087878166096178, -0.28269477670737564, -0.18184532110704713, -0.17617883693150418, -0.1796716558636846, -0.028264338828480378, 0.05329460662736798, -0.053499495795289814, 0.11663306148527167, -0.06289505689370933, -0.3623076420657563, -0.3680209565351561, -0.7203959033393972, -0.9275977212281628, -0.814851531977939, -0.02302749287485919, 0.002376168626638021, 0.29083288560132065, 0.02762668839403329, 0.0187177350883158, 0.387438983865269, 0.5148111640457123, -0.031061238003840808, -0.07876500764058086, 0.023579999786393892, -0.08179579582575998, 0.0941693033435723, -0.02726985805282713, 0.496393786496724, -0.08444419187559984, -0.19936486668257264, -0.3345153178733382, -0.2285794417233006, -0.13864951969813835, 0.11784179434705881, -0.07243917990599699, -0.04854248618729602, -0.13607921514121382, -0.40977828594063137, -0.3267849640998711, -1.1439987723680143, -1.3604553958580183, -1.7599715564554765, -1.5731015847230474, -1.611117334600014, -0.6837469754719712, -1.2351785358140073, -0.8251372258586962, -0.271112937578238, 0.04277305361876768, 0.3165325023746869, -0.14630639050858502, -0.06563964898257375, 0.013123711372993908, -0.10402334910279154, -0.016879677258704023, 0.43063692654819197, -0.06596124118887223, 0.10223578833192581, -0.3482249898190337, -0.3010726793932227, 0.19836736640644945, 0.2355706930064492, -0.0796489231357071, -0.17652810078539616, -0.10245399819460173, -0.08829218662791456, -0.22785935390794781, -0.5621418274742384, -0.5854668922129685, -1.0930170142036577, -1.7192165647880528, -2.197996729169048, -2.03566208519433, -2.168105314981923, -1.9200443234906965, -1.4654658270463363, -0.5386731218770997, 0.05317289171363538, -0.2523266776203841, 0.056305082509851494, 0.013265829818563979, -0.021787362284845763, 0.07395778997536025, -0.0190728447909752, -0.1122738620996407, -0.023627753219780653, 0.1138463581855269, -0.5679751658579121, -0.13050360805368252, -0.09962971593719959, -0.07675581644135684, 0.1619565618605747, 0.3704556051752183, 0.30269861132060616, -0.17117924088438524, -0.1757915170902366, 0.030215288296769276, -0.15898411611045885, 0.13573350555174327, -0.4537435134845738, -0.8580088309693004, -1.1871612394673745, -1.5465749071516601, -1.3426523847202805, -0.44381608153122243, -0.16854238472822597, -0.041410071980390255, 0.056025044096830845, 0.04325649520894304, -0.19624787328114826, -0.26735111500497766, -0.0039540934011940325, -0.28902716436327563, 0.38225644533487113, -0.02245844250040118, -0.2546391837017194, 0.105641049269251, 0.18294925683717178, 0.009127693947849664, 0.01207423707716715, -0.052217120496681986, 0.0925235963278393, -0.08510966684489386, 0.07849688657065312, 0.22124250408034477, 0.33309885240381415, 0.03544646262131531, 0.3557597016117975, 0.2863955181152646, -0.23161308724906882, -0.5589302836982405, -0.5901269403275848, -0.21066895555190393, -0.025077669993898998, -0.12118458527542735, -0.06488561895159317, -0.02930996262384095, -0.15391699533099823, -0.0902127782988789, -0.0007349409548417429, -0.016814017472810666, 0.09008257382516546, -0.15504868077293668, -0.1572663976275, 0.04135165623293865, 0.14333679071634167, -0.16812805470059203, 0.2140670847265809, 0.03034887550799489, -0.4341377458128514, -0.16425499725321838, -0.05243464287433716, 0.08990248378933507, 0.12350707580428842, -0.16797263972808726, 0.09181218362041417, 0.1691774325822115, -0.08114493451360251, -0.06841094953934417, -0.21293014447227354, -0.1441944084616893, -0.14900494566901337, 0.04339129758197426, -0.045820602593208686, -0.11355633180579772, -0.009673521702859565, -0.14199806893397027, -0.18251797816884138, 0.12292030528777405, 0.09332507159256008, -0.26609106692021006, -0.12050305359096643, -0.025085910310376235, -0.12437581373655272, -0.5130241311836148, 0.09400102878515353, -0.08635306492834238, -0.2680763764260969, 0.03348827769536524, 0.10921992482353302, 0.11793208974277195, 0.048506931827956325, 0.10730328404661897, 0.05042242826146842, 0.3632741159677449, -0.443432287899547, -0.4293137470985374, -0.28822384435789095, -0.3701044116458092, -0.4616551751923196, 0.09437275796070245, -0.05782733821891241, -0.11364306119935755, -0.31310088667605507, -0.18315725193070337, 0.29433672164935687, 0.10882963491061595, 0.16977454165652017, 0.2997372122343196, 0.18192934704453487, 0.26012664131076757, -0.0015415398855321404, -0.15519238109840014, 0.1509616009101814, -0.2560216394447323, 0.06505601682237606, 0.3796994848351318, 0.08407559745364421, 0.13849987950636758, 0.14664124988061789, 0.16161344828653668, 0.2298284642502204, -0.05713413324993758, -0.09536758414319951, -0.0011156164765894646, -0.2578653404580908, -0.28289863312617497, -0.1161837207990925, -0.03272870620276545, -0.039640673129794086, 0.06849332590392741, -0.07546386953182338, -0.2682837818855912, -0.17970220859718616, -0.5008747880578123, -0.1071116795428052, 0.4625057403326924, 0.272202867689924, 0.23417034566872322, 0.19938008751620337, 0.12691116662027277, 0.5453244252290549, 0.1019294705276047, -0.02228942009181703, 0.14833794307597412, 0.2197872352458801, 0.1218758556968201, -0.2806904248590853, 0.2081933164844615, 0.12810248591532294, 0.04388461102247668, -0.047608419694264444, -0.04953852231265532, -0.04114119902022315, -0.28867051008286065, -0.02233066282226409, -0.06356095538659681, -0.20617302058068498, 0.03832430661828947, 0.09245002287117689, -0.5090527356462331, -0.4081219597305606, -0.13714088743210315, -0.012325990888168045, -0.1544465763971103, -0.07797647884956184, 0.005359019198113667, 0.21141272959249074, 0.4137462637394867, 0.47901814659497705, 0.254213763094799, 0.15964721342870697, 0.0441958061256702, 0.3022427632391316, -0.03723110350484372, 0.03297549154936784, 0.0866893403031036, 0.23616566797899827, -0.06397682110438585, 0.009279783873833524, 0.44522452960295417, 0.2404379738207609, -0.005855198448143488, 0.011899397955672466, 0.023602062523899164, 0.0316504901346923, -0.07020905156125899, -0.055743111417967256, -0.45343052359215047, -0.10110593983660209, 0.030074553245155747, 0.0395257418968664, -0.5739362668104756, 0.015406665100098485, -0.19480880105616566, 0.09076254150052175, 0.48843717895558764, 0.0061463583275806356, -0.14973844169532413, -0.194805343694476, 0.46252249881437996, -0.04816604768119639, 0.057442219971902755, -0.04419867725030253, 0.28437111896121336, 0.06725880049990794, -0.038353351781802644, 0.35823739989260006, 0.7230421046875837, 0.6318004192093515, 0.08835425816676565, -0.17990944495472547, 0.18349657403238584, 0.07149327437503052, 0.09115575678081739, -0.07267654850895082, -0.24222175162577517, 0.12156503980835937, 0.336873568272493, -0.0957309717599098, -0.18799219929636862, -0.08803441944202048, 0.16993364334605005, -0.0885625708520907, 0.026663244402534536, 0.10478200652084564, 0.14960319143044212, 0.039845786211844064, 0.10999603232860919, 9.868638839360167e-05, 0.020745932090102916, -0.1469162785405887, 0.3826623895791423, 0.22808600731156092, 0.041982693874790096, 0.12689021979324785, 0.49771369057771403, 0.5250246470561993, 0.31973854869286195, -0.057679128248359524, -0.11961484311084275, 0.10811647950373438, 0.11407839624244033, 0.114886539627771, -0.007877686660921339, -0.02478098350752074, 0.010581310428813098, -0.2149589334143504, 0.13063104706792425, -0.10117117624121226, -0.0130148336308558, -0.06828324280624051, 0.018522412799175478, 0.18936240600335746, 0.01126111548435616, 0.03240248420861074, -0.3015775185830161, -0.07091160099045535, 0.14788851522553237, -0.23229530466980347, 0.10390338979397108, 0.16127859050063634, -0.08937685582218702, -0.15256222596137775, 0.2572645826417044, 0.39701936741811134, 0.1141872432176198, 0.10632948331940359, -0.04985230098602679, 0.02140637907270013, 0.1063621273549254, -0.183991618305399, 0.039621430335844456, -0.1288957477609927, 0.14741580218709946, -0.12126406313795468, 0.002006841551460765, -0.017060838015011105, 0.05989965692248665, -0.03669896422086841, -0.07348121044046378, -0.07993828863103387, 0.11683408007853506, 0.19396751250526037, -0.01498514468055376, -0.11576416535190918, -0.2644196106349685, -0.09861882207879949, -0.09171941223535676, -0.0021558733269276546, 0.10692002688841994, 0.03087514959111393, 0.15661402610982897, 0.22265632235601948, 0.055659613827372174, -0.0031161573749887306, 0.04071379536229656, -0.0010778008096750675, 0.08281832734973067, -0.05412078877657663, 0.08408004911335103, -0.2561716074860603, 0.4562010424368808, 0.25680904367938945, -0.13871152267386447, -0.27739473749426874, -0.34371101344549165, -0.38242555869560285, -0.08258336373383457, 0.20155646900860835, -0.21068009717445216, 0.031595906716072125, -0.1564870012277758, -0.0018353992663262624, -0.2994404933149069, 0.11656933562897007, -0.14117096702872386, 0.052180640209390595, -0.5046884869457547, 0.1128095536444854, 0.15913475226750115, 0.04206246395147666, -0.2141092592332019, 0.048111458474161956, -0.05167854392011234, -0.13114141286448663, 0.01979799530966753, 0.005027797977512069, 0.1512976610094493, -0.08758192620481575, 0.15227189835136895, 0.326161624600713, 0.04993685423406906, -0.5900303939916974, -0.048272932916197255, -0.25109444867987485, -0.6531119830260955, -0.16443047212097053, -0.27847130113968976, -0.47456220672730653, -0.14404694127768536, -0.07717597885429399, 0.15880936030370993, 0.0566494994191897, -0.2344837901377032, 0.03140984033476165, 0.3600673570726054, 0.6147831027132956, 0.34817545420586815, 0.10659035930582207, 0.08916859876373223, 0.0361351113348443, 0.22072526518035654, 0.006939105247853643, -0.0534440991020547, -0.05754384846608103, 0.12636635514399683, -0.0058438158728634695, 0.17919744897854634, -0.12483849461018899, -0.2519825161471563, -0.09767113533632431, 0.006243036830900996, 0.021652046192267148, 0.06985932258692266, 0.37395631754297276, 0.17799627809878024, -0.019460808268485563, -0.014798871440282593, 0.1822019721783133, -0.3486094430152752, -0.25897436649960104, -4.874712069490401e-05, 0.10789288857062297, 0.22393018682840962, 0.34482354736203313, 0.0803182961534812, 0.05239128499767634, -0.36929619855678447, -0.15930956015510195, -0.18987288045828418, 0.02213733131973373, 0.02272292842733935, -0.1083184393874356, 0.0321071059435152, -0.19591745143348943, -0.2933535824233968, 0.07710325628479542, 0.06614269675830729, 0.16788992058650612, -0.0816577679780174, 0.02474251889317409, 0.025923820984199476, 0.17608099956157416, 0.13161329983001546, 0.09987845876412617, 0.028120277375421363, 0.009265372328894886, -0.1450214195239291, -0.07604056188638596, 0.007578442306859425, 0.027431908309416563, -0.1290460431807653, 0.17785128086928217, 0.06344826294243366, 0.16630698097947005, -0.030109755163542053, -0.09129182373391102, -0.017069652093869084], [0.033696100766960765, -0.07223582402036673, -0.03139184221322282, 0.06919279748733295, 0.04802411644848348, -0.11013975544111665, -0.17465602882610515, -0.08917260169400698, 0.077328653212493, 0.14131289924303925, 0.34407186160227465, -0.04602940785673519, 0.1399824553487132, -0.16994047335154283, -0.10969265770583003, -0.04684507728240293, 0.06956331973855948, 0.004540640243065184, 0.0229156025113797, -0.043557577097925376, 0.1510415794394335, -0.09305150189432687, -0.03561525928095863, 0.11689990355289281, -0.07388762986418013, 0.27713058543977287, -0.053043483391308, 0.15345964896173409, 0.1161006673559057, -0.08767067647418782, -0.08726923266354679, -0.04484368379568482, 0.03057666557539905, 0.06291110485317945, 0.09030198035087025, 0.12313781149181123, 0.04911697803087826, -0.08518750078973521, 0.07171196882833122, 0.1288658230181649, -0.023114578163500158, -0.04552054224774034, -0.1376292951824406, -0.056953128544263654, 0.05548651716811913, 0.07880283422652228, -0.13175328488241808, 0.12249751330942371, -0.11499112790199849, 0.1299549123510038, 0.06514960234206921, 0.174219244485749, 0.2761263734745562, -0.023592068666957317, -0.042661053322909974, 0.07627024908363317, 0.019056363190004744, -0.18575018288412276, 0.02303402301631785, 0.0720509255567696, -0.02265358730366263, -0.011862650216885864, 0.09722680220790014, 0.08185646730985784, 0.3330609881206286, 0.4650198023599254, 0.4485536001383525, 0.6022107296803043, 0.5353572293409441, 0.21557639651341806, 0.3547277045582399, 0.16886142495212678, 0.42359640358701006, 0.6222015605287698, 0.5598267995990339, 0.22607477574652843, 0.24618184632569393, 0.4179544565686215, 0.24020934079870399, 0.03664539342588018, 0.017833386064107438, 0.009633800161601029, 0.032066080876129735, -0.016370322099013363, 0.012217925984469564, 0.1508040034588057, -0.1014838405020034, 0.023940599632854696, 0.0990790862071802, 0.07956320559077701, 0.10112892512381352, 0.32921893749490994, 0.19622961255296636, 0.4812944929242729, 0.29512059394096213, 0.2700917400933275, -0.18331535973505805, -0.2085286247646752, -0.44503364729178735, 0.015708043240515068, 0.15012106809451725, -0.18958430409316984, -0.30711564005296765, 0.2890528325075729, 0.15890830555475075, 0.6578258330670052, 0.31948074814421235, 0.4115700046725127, 0.1366648740962491, -0.16135366555998326, 0.14826811023970904, -0.11240364995371187, -0.10503960940646162, -0.004376580413919045, -0.05588114765235349, -0.09905344854527946, 0.040666439532971874, 0.15542804347540942, 0.44564924565543906, 0.11417124525565861, 0.38714685498769746, 0.34330569892913415, 0.8592144055295898, 0.5972981836760904, 0.24904118790741808, -0.101221065379059, -0.1016454523216848, 0.03958303174146081, 0.013962977850825498, 0.31908511627759545, 0.0636228933521972, 0.08644801120704883, 0.03577752659880561, 0.01793236612151627, -0.08760403177800372, -0.04348573626235617, -0.05483472052277912, -0.023171425976715662, 0.13537036765494967, 0.03957026988133378, 0.01151218139038284, 0.039048372723900104, 0.06031542713419584, -0.08351611658350981, 0.3014778319276188, -0.003064104887081455, 0.1757827144864594, 0.04202394726866949, 0.2947537818593675, 0.4574895044276336, 1.0191074168156187, 0.29521037819566853, 0.21300832251709503, -0.04027738626755423, 0.09933342331337311, 0.4213439835289521, 0.38932997659338664, 0.38808988853566895, 0.0243862623555935, 0.10211554900861648, 0.337812871750158, 0.05921698342876429, -0.25749120385166946, -0.28493892142773725, -0.19481013559491078, -0.3544239932566693, 0.0030747225401329967, -0.032733413997403864, -0.04878775784853029, -0.028434659064651945, -0.24766188640641726, -0.2642750369288493, 0.2960014641103591, -0.21115675789894972, 0.027792990973393283, -0.2523918609818508, -0.3041068182935015, 0.12127861862702397, 0.10775770380147558, 0.18694679791233898, 0.3557942950575372, -0.26205281333172886, -0.06862410206703295, 0.0607151982312326, -0.025814872543853375, 0.18093429385515078, -0.0428906020939942, -0.025915265400353965, -0.00877398448553237, -0.1856539009885222, -0.4505354696291293, -0.7863829411001109, -0.6688040500786111, -0.3372845973479441, -0.21104856946699316, 0.047076279530973854, 0.10155693276033785, 0.18305808333369047, -0.0473363463625622, -0.3536078180867058, -0.1683791360812797, -0.5313244784288191, 0.15903236816718364, -0.10172416024731494, -0.1278065028098814, -0.22967144967932088, -0.15220829099159403, 0.19989637755316736, -0.025433042346901837, -0.27779031006959065, -0.14151238455165668, -0.07522045273251739, -0.29686926005606656, -0.09939979882166297, -0.0784269416011237, -0.38010830155965103, -0.1769982595969844, -0.03560188224137408, -0.49992694828649603, -1.023126882267444, -0.5465817307039484, 0.04949539049289092, -0.13041928406029601, -0.07005573524357227, -0.0030625562638267275, 0.05026023886031654, 0.05499460315695925, -0.2812937734967306, -0.9057148032267853, 0.0016644750083793672, 0.039008813235361754, -0.14724197691781807, -0.41513233339945443, -0.2221434390990864, -0.09714854390615955, 0.21464891153199533, -0.5315040054652465, -0.13917928779351205, -0.15833660676137057, -0.30545474362013453, -0.14315636637026086, -0.12127382407244267, -0.10080353946403198, -0.22916587244822478, -0.35283168718449875, -0.6382856269599096, -0.8066400446333861, -0.6181541932466201, -0.6388444188020503, -0.2951331749170561, -0.2438661022001821, -0.07940132338461393, -0.11398043216129969, -0.029868639742512474, -0.05512642005509038, -0.02373113064136171, -0.15788336655510923, -0.1630481725379213, -0.29456831804698114, -0.22885083225881003, -0.4067845951915324, 0.035450631885010304, -0.18937363029851614, -0.12237330607916767, -0.08111787182053942, -0.33240463096405076, -0.18983688445110197, 0.2371151041287214, 0.17950555966284276, -0.3603115682076061, -0.29984267503579387, -0.4369872168305456, -0.4074203949378955, -0.6659763071075718, -0.8653013617090718, -0.5755410560485328, -0.5766402746279947, -0.44215630996390803, -0.024617016599254107, 0.10961466239607608, -0.07847133978746716, -0.08111161151895893, -0.06634152016129807, -0.2505198484332098, -0.2121703177568893, 0.2690232866841297, 0.2524050260351419, -0.19055234096223156, -0.1634048534094027, -0.08504247365183723, -0.3683378924307606, -0.056881839542422645, -0.2862911700871542, -0.23893537931006217, -0.037644263110039405, -0.1778140717158086, -0.2433826157319019, -0.4302046418549339, -0.6042190830463028, -0.31745469425039907, -0.1984889803278731, -0.513129327746188, -0.3937534978856794, -0.13650578397073526, -0.12645439261659264, -0.34817140728412216, -0.2915943897927154, 0.0704375919736855, 0.07916514539084753, 0.09926684532542888, -0.3747063446279907, -0.222315771347553, -0.13515924253318648, 0.12292685576325739, -0.4776025666908845, -0.009196115192896244, -0.15924448022607632, -9.605772645298204e-05, -0.4417615998089054, -0.5422022680558853, -0.517371942906913, -0.2231032211284419, -0.4052761579467597, -0.8171694785039846, -0.621065745240469, -0.3243045830881238, -0.2309685998283116, -0.26248981971460655, 0.02289244705392311, 0.10690692854874044, 0.1069048782727933, 0.4525378616622672, 0.06431998535200188, -0.22864979905175825, -0.4412473242390782, -0.022355314340978052, 0.05511665056213445, -0.060287368704006486, -0.09904863579850018, -0.6386418267876767, -0.3794571467957291, -0.6274069580745759, -0.4170901240009556, -0.28751355813614665, -0.22568576552722683, -0.19777516834103034, -0.4215570369419125, 0.04214665159567397, -0.3697098846843254, -0.36587884417942584, -0.29423769485736007, -0.5834728107452763, -0.15035625492685192, -0.2715239256836369, 0.0252478436897125, -0.2899582154358103, -0.025280647657824586, -0.4006494040885471, 0.3211724568389031, -0.0017730333782165362, 0.4412392078445513, 0.45102338180670143, -0.05189451000099719, 0.10696904328730274, 0.014227495409655726, -0.03446817973678049, 0.12464319080623974, -0.3277893428616147, -0.537451008948798, -0.4886855742964782, -0.33394494514307344, -0.10075143339815418, -0.2095633788316426, -0.21558301678843722, -0.23147319454539472, 0.5392757485856198, 0.3137455107687524, 0.3687071705605138, 0.11122963628841094, 0.15486096175393277, 0.2752090237921724, 0.029193441136615116, 0.1699201036178018, -0.08693466009786573, -0.3367651773675413, -0.23533504335987065, -0.15521394866000182, 0.24878218949315584, 0.5755736503858834, 0.19233094577224175, 0.42089214073801834, 0.15067903589860512, 0.016856862406281654, -0.26227320483484745, -0.14360639073103793, 0.2959077717595849, -0.3622510415067926, -0.03959816441273105, 0.07712696820732379, -0.10851663067550588, -0.07945760069905906, -0.2333340350093401, 0.11219056709937714, 0.533177500236251, 0.3248915204147758, 0.3838842722223894, 0.2802301463057403, 0.529381167466269, 0.255127778687766, -0.17573738147815818, 0.25123520335614363, -0.2543580589551571, -0.6322899532055067, -0.4782855616308649, -0.07623586618174825, 0.13484353951806718, 0.3851900884727498, 0.03478953355806344, 0.4979767495717672, 0.15710898637308537, 0.1734275655003892, 0.012860444363559428, -0.011828617260068277, 0.365807028146052, 0.2771195164741751, 0.24333434361854378, 0.044448167651597086, -0.07219132065539564, -0.2518077920645198, 0.052418859912846304, -0.09284033202816198, 0.07948037983529838, 0.20083530453817786, 0.20940897505979336, 0.25422897230464536, 0.248463556783666, -0.1507253399939245, -0.16115460144168542, 0.02665320310336717, 0.2417279545678002, 0.009969314163340818, 0.13144449557320936, -0.08305791633860928, 0.04444572835565447, 0.11921701849434875, 0.06660723301496425, 0.5002397528292825, 0.20092787293896608, 0.042495494095524944, 0.04985015918300143, -0.029700873597808566, 0.4674015998389057, 0.1523078387572236, 0.273494498173187, 0.12480814282708975, 0.08390757493934009, -0.11003315156098388, 0.014311771205429525, -0.12154623282413297, 0.19800449115082533, 0.05258106554636723, 0.21765926898542148, 0.16078195877508458, 0.277039765579174, 0.024318576281446538, 0.17180304492855744, 0.059041875962102086, 0.015157831349483945, 0.034842959155059444, 0.3303506953853151, 0.026265021844519218, 0.016433619398331427, 0.1746569744350651, 0.8253070711755067, 0.6548552474145403, 0.024103570987916077, -0.062523564223372, -0.0046834335164717324, 0.02782674972178534, 0.05633372604502941, 0.06343459435938992, 0.22166207216408446, 0.14188022873808517, 0.06351594408684696, 0.3479773707671767, 0.0029997701150371457, 0.09406356435400925, 0.01879841241524424, -0.009586348131532738, -0.0428173480189353, -0.09212003443498308, 0.04069424819869526, -0.004549979889065121, 0.07127946620288933, 0.15646809673075868, 0.001492163183704413, -0.15122272854661378, 0.21285290567639173, 0.22021394620503543, 0.03128536072229854, -0.05394619822547988, 0.7702241729824714, 0.26989569994882445, 0.32276116633938934, 0.1204709281419552, 0.08064537634737921, 0.005071571019128992, -0.011977951088525491, 0.25770153204545504, 0.3913054267987146, 0.31295020752569525, 0.636083778281115, 0.28290154607070245, 0.06110017288941415, -0.18964173677641685, 0.06055415156803897, 0.3530493470168878, 0.09443812406086485, -0.0069956960384639395, 0.048214419080672234, 0.27462366713594566, 0.3533628166797659, 0.2920369452093767, 0.12625537741108492, 0.1679651826788539, 0.13330669244246748, 0.3909291210572147, 0.5351774438772482, 0.8111344345065191, 0.6024081339570505, 0.1521039646662191, 0.07838698486642767, 0.13303379477612443, -0.2569489415198491, -0.17444511639388788, 0.055277237515444305, 0.05208666565470184, -0.01541227785561604, -0.06309920348191285, 0.14943573732203055, 0.0571343385715055, 0.03932630249062084, -0.19922954311717525, 0.009466130341418825, 0.2503066861725547, 0.06849412795031623, 0.20476694395483397, 0.39695518023071125, 0.45182921949695415, 0.6123038943785912, 0.644006040673946, 0.18703145809430316, 0.32747247971722077, 0.44894851173708145, 0.48448683848619034, 0.6839295333357192, 0.5705469885560208, 0.49927503674561613, -0.045675951312482345, -0.1737154365299892, 0.03689390061785285, -0.16531909919665955, 0.27763841369433523, 0.1981257733124528, -0.1262869077210056, 0.02306710882105324, -0.08041457713738491, 0.16800317840764095, 0.11422640422413986, -0.26870283125338734, -0.13187268804456267, 0.11101897939915892, -0.24856628876385944, -0.10581816594659028, 0.11911050178584781, 0.039300569939464056, -0.07444882653201126, 0.2618546237115201, 0.4143771681898191, 0.293105057895323, 0.0858026670620551, 0.14595475663179253, 0.2360351103455081, 0.5192968024581747, 0.6245542478415266, 0.38264107212317733, 0.06608863708732193, -0.013472867559255289, 0.06679274697763618, 0.07060738248706482, 0.12867915800751478, 0.2418977249015729, -0.2765602876637118, 0.11110147024606651, 0.10701669881838595, 0.4048984220718252, 0.25632387462993084, 0.021248507939235172, -0.07622285841207285, -0.28585696402910277, -0.5384672966950778, -0.32943318115975984, -0.33883676219579784, -0.28171845957168296, -0.33290674919867724, -0.4200499767759533, 0.01347807871046106, 0.04522207732214365, 0.19102400000538766, 0.00214812076648211, -0.02858439940192237, 0.3324210199095418, 0.28412752364804444, 0.05464779498711499, 0.08989283953114567, 0.14291175721624583, -0.1077166314175978, -0.2575760590861752, 0.26879106822192417, 0.4194320482432305, 0.23996689029785087, 0.1918045909866917, 0.2789162330412893, 0.30227365893219676, 0.16526349560310957, 0.23638504002435365, 0.0019208339862083871, -0.1917939690659809, -0.22155421221326965, -0.4869973167670789, -0.7455858230815618, -0.8113673503572711, -0.7680533989006918, -0.6588457209128957, -0.27595677967455684, -0.04287820684675059, -0.005380872863763311, -0.2853934244888353, -0.22430517353261342, -0.07594204492950478, 0.00680069590682696, -0.007775642673002907, -0.07710580577488142, -0.12817629026162275, 0.003208416965075306, 0.15740110975565855, -0.1906056260212029, 0.16004569294271137, 0.016745785471411225, 0.07889698829230384, -0.17272474406438287, -0.6214697491148701, -0.37623302284128163, -0.33015243747325146, -0.5076893695661269, -0.2910846898314359, -0.1998302985259303, -0.5785665598434215, -0.8196996672311744, -0.6837995047804503, -0.7067680339914523, -0.7477621503507149, -0.3054091860605579, -0.700161503705377, -0.43020314314356684, -0.01692766581575854, -0.015900496327181584, -0.36140643499403957, 0.15087473895732362, 0.000897483631101527, -0.10658765369043154, 0.015295141838877825, -0.06328064050974429, -0.15761018778465918, 0.03195250344708632, -0.39019429651059895, -0.39008689462791235, -0.3162497597008923, -0.5494713193762513, -0.3747603043289009, -0.469864607181677, -0.9429111256293006, -0.8820938817866852, -0.9565678433246684, -1.0737237116388805, -1.3947896786271599, -1.5609926800311589, -1.2925548502824717, -1.2398817847577033, -1.4488791501522325, -1.1861142423948134, -1.0425065650878516, -0.6547562958959673, -0.3167027567312212, -0.32270050314307985, -0.5566213845151896, -0.042307090354485835, -0.028938888849066313, -0.0875247026175535, -0.07253473383897399, 0.14473346809953558, -0.05699953246807437, -0.08424718244253934, -0.12002686794809506, -0.15040974396362344, -0.294447679969031, -0.1656135608926806, -0.18319792257680675, -0.6573099965135786, -0.8767318107397435, -0.9049881143865733, -0.5123416848543753, -0.345476249019932, -0.4733715359944713, -0.7904030280069666, -0.4477036273971087, -0.43269885095897803, -0.35425513963182986, -0.35595945108072, -0.42715802183307794, -0.5390245052259417, -0.1299975324565608, -0.1730279548328258, -0.26096802671798014, 0.07351213458682451, 0.12665560603015866, 0.01646190282671304, -0.009852691724997498, 0.1225263482384673, 0.0624943436745679, 0.06639022930814444, -0.06792160137743952, -0.07455584070906494, 0.03967613043002647, 0.10226893879635665, -0.12325215569737553, -0.10372941389717594, -0.10573854292895571, -0.09355077165436952, -0.23593784004926938, -0.21515027669611803, -0.14430947258685395, -0.41572266100031896, -0.11499384250990129, -0.17309803678595212, -0.0826798762044809, -0.15961464713505846, -0.13842710728282318, -0.12276960605796386, 0.018689549218555934, -0.046625100459987814, -0.08894629445165196, -0.08269196991170248, 0.1001833340033603, -0.018726588911766984, 0.13435509744847374, -0.03865769522627219, -0.088718626001069, -0.21360521400150498, -0.07550896075787145, 0.11281257816938939, 0.030607790278802442, -0.048270709218652376, 0.02654611964702136, -0.005701992762553124, -0.12525053985390747, -0.18339101259459425, -0.10893293765021955, -0.07157691194673439, -0.24229386691019764, -0.05486778378098793, 0.10321792899600483, -0.05656989382305748, 0.03402402022650609, -0.1262312036365613, 0.04111797793118166, 0.02030727361069673, 0.10478303003561222, 0.006138161689942309, -0.023929712037716374, -0.0075091075715334205, -0.02408850753585984, -0.05420597697518366, -0.16975180922447272], [-0.14781182320403197, -0.059701930340228276, -0.06829302662744478, -0.13274402459626258, 0.09669167006688596, 0.01221362927063173, -0.2319145352497791, -0.07027419620914127, 0.09652590011398221, 0.048268406289071294, 0.04062462502015944, 0.03026886000158723, -0.1714828784817685, -0.16961088667413413, -0.12336502651953749, -0.024732679862699475, -0.100871936220569, 0.09814211754391988, -0.002576123225625759, 0.11186525533508265, 0.07614234305980298, 0.0360166807964704, 0.11098568874900344, 0.15180393752117605, -0.01933187863588218, 0.014500363188989547, -0.06903484885663878, 0.14871141569964194, 0.12451966713027057, -0.016647286823448137, 0.06735017278964121, -0.09060681632134772, 0.10533456176693973, -0.018485851480544418, -0.08280804980291176, 0.01268064365078101, -0.08232858434757162, 0.03853575763447674, 0.11529706587558858, 0.13300817669274487, 0.10398000804441616, 0.1855296462934267, 0.10740160885617371, 0.06417853066858485, 0.01119072737532141, -0.06609859211864347, -0.11056635335435691, 0.07661421703413104, -0.003839472533585787, -0.012755800423408141, 0.13647399119145606, -0.034641565061149265, -0.0045247104194041455, 0.09570033419497835, 0.05280587374926196, -0.08635864714892323, 0.11160808605572847, 0.21192082100511553, -0.030571478305326187, 0.12005622048506918, -0.10083301791481494, 0.03486173632186132, 0.018277718934284322, 0.05709810364079135, 0.03390473819424246, -0.19424296828413762, -0.03404629540846766, 0.11700315652712387, -0.02410720686193014, -0.15386410252852303, 0.16156284770652318, 0.2859513394054311, 0.2304441606748791, 0.1775348186096, 0.1295420477123171, 0.20710410122554543, 0.3365487562987514, 0.1400527514552996, 0.2604716180233829, -0.044683506298622014, -0.14868727892052788, 0.013089892911217866, 0.0020110287789418166, -0.019118250334262104, -0.019140438340631952, 0.048590406080693115, 0.045116821450976875, 0.06479644421808252, -0.01979962873687785, 0.4027110784670959, 0.20113660652734752, 0.22727525054087327, 0.2086497917551048, -0.0885159924174706, -0.22869363551541813, 0.10161464027351062, 0.12569936967605966, -0.1815041074765821, -0.1773242275430976, 0.27573763831699416, -0.3281765328280778, -0.506692485688402, -0.15920925427004912, -0.32066896127185446, -0.2537031064979327, 0.1640676785640451, 0.1213131355384312, -0.2029222458137276, -0.18455790566358035, -0.14464709454834163, -0.11678641876094242, -0.12502117568105595, 0.03006164588302966, 0.2587552721931064, -0.02092251974799665, 0.042924834410392965, 0.1500801318021046, 0.0869325517169617, 0.03630960933987571, -0.15629353774279284, -0.5041331716843303, -0.1938938113184064, 0.36264199487797194, 0.5836648460474044, 0.42387589653604185, 0.20920349596671112, 0.13053049729020258, 0.2643777311229266, 0.12453340731404983, -0.16230629880231437, 0.032682883915415066, -0.2681323823904004, -0.2410153812589553, 0.18604411061266335, 0.3318088971371651, 0.41385765011881864, 0.5764310855559368, 0.5483116789232704, 0.1783451511459976, -0.2056047494944749, 0.03466904012154676, -0.06409360399815586, -0.1813836797767303, -0.012461632675529829, -0.13193395342384953, 0.13251160448061258, 0.4186668298376861, 0.37374771049608313, 0.2816695275484845, 0.41945532101146255, 0.5253585043092499, 0.2568916540609484, 0.24609576415713072, 0.42653997515021624, -0.0404942424525756, -0.19217453177013213, -0.1457675233999521, 0.04763561537815323, -0.4429972270556697, -0.21727694230483552, -0.10572404927827134, -0.13387981137999827, 0.3720588637504456, 0.14613495089632692, 0.18094082373645895, 0.4255363310862548, 0.1542848483865224, 0.0550344781295204, -0.006144807522114024, -0.008099509276980771, 0.06353453426044034, -0.3904248115097904, -0.07337618414445858, 0.24101889916810185, 0.24711618059293514, 0.1573660677363122, 0.3270295990597837, 0.2606521655633858, 0.16191043636538077, -0.04000562412326071, -0.14597807935677728, 0.002456392957046143, -0.33209854757520335, -0.17502082352363005, -0.2902031567065824, -0.344357980165292, -0.5287176809389459, -0.14490361872575208, -0.3211751795583364, -0.32049766615806335, 0.19713167452558006, -0.33847041183024446, 0.3462287850421931, 0.7543152323808029, 0.3909582994382737, -0.2014156349233889, 0.14582009934138868, -0.04473567677114083, 0.16690847000715112, -0.434653254392427, -0.14012490666341115, 0.15572630708558327, 0.19227477139507854, -0.1914514309244611, 0.47464382917559383, 0.08469815810085674, -0.03924594473434912, 0.1803803322531899, 0.00804589668486366, -0.07109211674490808, -0.2634523169204334, -0.0974569770040974, -0.1637141774752475, -0.17852866825836683, -0.17495628698853824, -0.21072978640328474, -0.42991759883987396, 0.02572783965206278, 0.10742908943490424, -0.12482895271721178, 0.1505738190208986, 0.5469560436416618, 0.2906968390310532, -0.13931396130384022, -0.0037061924685554224, -0.2697977638858722, -0.03224415705110235, -0.5062388575818145, -0.317317385792856, 0.16031047952318492, 0.10754465091531502, 0.28484335383189924, 0.02504108604914548, 0.1915302227964208, -0.10453921624460791, 0.0325556024289818, -0.051796425047219534, -0.2184486805931758, -0.28760975020301305, 0.023003250993220013, 0.15808646054617223, 0.020895866761231677, 0.042756205062127746, 0.124629012462225, -0.3179650188663632, -0.04057693798623624, -0.1572401676305281, 0.09116572895188232, 0.36195484278006296, 0.8638261565986628, 0.16186525821633574, 0.06428240493401667, -0.10226379175440532, -0.09990355175159034, 0.11440166494758129, -0.3478277701340409, -0.21608972109852623, -0.5540220171584644, -0.015290677503989457, 0.25885109679802043, 0.24976772095176253, 0.2048561542424999, -0.03320345563571016, 0.04734640415552602, 0.043332809322104295, -0.5838979530848505, -0.24354159146733098, -0.05030355181451711, 0.15062471883922407, 0.27787205651574776, 0.1548041759164061, -0.08388919934031946, 0.11869047955884196, -0.1970015341411909, -0.1916520337509256, -0.10309849962804574, 0.5886516692306578, 0.8976580734724274, 0.4536902210978907, 0.005418863624080962, 0.05393609146996163, -0.14552558866013424, -0.3620212695789972, -0.4040988553373352, -0.4856939498450413, -0.39128424287908126, -0.4403205849079216, -0.049599668843363795, 0.1893889428009401, 0.30433158959262335, 0.4259728298721478, 0.08243295062765069, -0.12849840448711367, -0.414618425985524, -0.38290196295775747, -0.2151560725582429, -0.1911148781492184, 0.12405553764409283, 0.27529164422249897, -0.028472867914680806, -0.06295603860447903, 0.27439958484297966, -0.29251068863164015, 0.09895459751924762, 0.2915160523125547, 0.520382398708102, 0.6295216427852857, 0.1853479615762693, 0.14197708157892389, -0.002529662983267557, -0.5978046804462842, -0.6439370362704941, -0.5195110739620946, -0.16524702028056876, -0.22118411879729616, -0.21578823099809877, 0.41934572785238716, 0.6101567565069832, -0.04748850489725649, -0.06400523158566213, -0.06466675722128988, 0.025158915417854075, -0.1454212698105784, -0.25138492090424974, -0.22299927163514222, -0.010146015369857753, 0.09357948154592455, 0.12820460911315934, 0.2131316219326656, 0.169534554337021, -0.19068919770186304, -0.039101023801968754, 0.15425699734035342, 0.27730650048947664, 0.5906485034425386, -0.04700017969866052, 0.031230735572474955, -0.09675254466380263, -0.22420529692935823, -0.8566004014705161, -1.1424027592074153, -0.33096479338563756, 0.42026490498195407, -0.015529989915701583, 0.30565340377478445, 0.29377706266532716, 0.23838250342334683, 0.32993536026981185, 0.6040631848338506, 0.5051086726928994, -0.1967754969274336, -0.3159546373228218, -0.10983095745700208, -0.24474627148512323, -0.34710820838671347, -0.2441015567015059, -0.008276993530621094, -0.0370069051329353, -0.19134013763049773, 0.22344630310572522, -0.29897449956288913, -0.04075965146718926, 0.18199423949127613, -0.09627965160694929, 0.11407829591150405, 0.011981558821492651, -0.07393816677397959, -0.5940136481783125, -1.146774954265238, -0.2821394388798759, -0.23143570002451402, 0.3986983271400588, 0.6055459810463457, 0.41360087045984584, 0.20343545960573897, 0.36152467166586916, 0.5581216309935402, 0.5741319314592138, 0.15474864963494642, 0.09123376793239343, 0.05835109973887726, -0.2989116597303366, -0.2577403619048914, -0.31291965383718373, -0.4245327994302748, -0.1447036828526268, -0.09921750366809998, -0.0003644086082086168, -0.43087403461385715, -0.5627901792909221, -0.3535574589110076, 0.16794988132034325, 0.24313689076077796, -0.027504339749444523, 0.00119836329330026, -0.554802660591895, -0.473128814846114, -0.5803637410492486, -0.2281027001858163, 0.31783996077243754, 0.37020083357758315, 0.24718814173123238, 0.2395101892057296, 0.09537370892427623, 0.12697180105128536, 0.30554906935367515, -0.05885215515989581, 0.11887230904403927, -0.21996333354737257, -0.21546212077993954, -0.19924700894065167, -0.5177816852803656, -0.8459258623953353, -0.27269005700757676, 0.14747240646825205, -0.06651918497247307, -0.4446472828607414, -0.5710989008387988, -0.2510558763648671, -0.06357505377580147, 0.06652791519600142, 0.10576042901215389, 0.2142804054692689, -0.3387197522671565, -0.3246523474787, -0.6646829387126693, -0.5025488858163438, -0.4882534512398698, -0.18335892534007062, 0.31062775405743226, 0.26325793774848627, 0.3093857663479581, 0.31093903253044086, 0.20224486493588137, 0.08478076439575925, 0.018403136489095903, -0.20968281350819604, -0.14905207947649715, -0.5158901542579792, -0.5185593110545017, -0.540099380568607, 0.09998899302028191, 0.22166308911355131, 0.20357750250561224, 0.007049680862240693, -0.49251813827096397, -0.08916021188238214, -0.18191284612287592, 0.06023248377432493, -0.10676406528953286, -0.0910319723218631, -0.2066348008297168, -0.875804012003997, -0.6876452129546585, -0.7230736779668148, -0.9954557969506946, -0.6876633976001804, -0.3637789012198259, -0.09758088168486762, 0.33744336430566013, 0.1723670248094661, -0.0011854191934192666, 0.19842504761661656, -0.07843776295104238, -0.3160458127389015, -0.6304677042960387, -0.23137335026943212, -0.29157028301099003, -0.7149312290632001, 0.276412996849807, 0.12171615708531791, 0.1981684168108313, -0.48636633767019705, -0.5168199567075016, -0.39129142070773665, -0.12416195233645333, -0.0011992516140595854, 0.0973927376568336, 0.03619736352171327, 0.17511055840994605, -0.39731861360284254, -0.1951897477342207, -0.4263809296168727, -0.8758057532135938, -0.9832389457700016, -0.6129235302330743, -0.45929049555921286, 0.03789670713484886, -0.29324928745057344, 0.0029912052428945177, -0.007098190135266667, -0.1409763120517238, -0.3723218061773524, -0.36214735691820976, -0.544679717082247, -0.2173159651878285, -0.33530958301146446, 0.16870384159744176, 0.07191745704923702, 0.1568052120972129, -0.4996490392814657, -0.8733364015808333, -0.4176361831053037, 0.043854377924706735, -0.1319979049212209, 0.12945431612250477, 0.027523158748754276, 0.4635908488611833, 0.24693282007924622, 0.43485732964261, 0.26546156265160015, -0.5131911866407807, -0.696887391569613, -0.78419319713118, -0.5857284620586085, -0.15249628767359424, -0.3375757082686773, -0.1638193811053855, -0.32432039740314145, -0.0791216428412091, 0.033427727993448425, -0.4547113213053321, -0.3977187032801689, -0.0988730876139721, -0.08570453083638985, 0.08194799060019888, -0.07149308615924968, -0.13969748663223153, -0.26477525065866686, -0.34260273304593014, -0.1997969708144662, 0.09915814572491549, -0.03122951214849779, -0.07741356950419316, 0.18331428988145973, 0.3648585279242482, 0.49568504915921263, 0.5121114666917266, 0.3674634169314892, -0.011170725134855156, 0.34738105600455366, -0.2932293945762088, 0.06384858440586018, -0.20344089515479793, -0.2903355524589783, -0.3928427638759713, 0.006566469666773756, -0.08460986813115397, 0.2589404995165587, 0.19253327402073891, -0.0927254970516265, 0.08022427153646058, -0.252727903646067, -0.09713519926846564, -0.08000659313271608, 0.00825505978758075, -0.12927327298029756, -0.18658084554435486, -0.07315957654478775, -0.12497963882369337, 0.005464496185550042, 0.12369097029810643, 0.04411977798054265, 0.31861601671167544, 0.4273691289728064, 0.11400345521688494, 0.2648873050207958, 0.08906184547880845, 0.3567757665868473, 0.20966970806602714, 0.22511822892837688, -0.26056097509098, -0.3707716139680442, 0.10560758906742039, -0.011736716330103533, 0.033069221065305965, 0.31720939437577644, 0.306767871402357, 0.17649489745581284, 0.2696617770147143, -0.19047362882827407, -0.026886335154331694, 0.27547013072777743, 0.12534355648404033, -0.3095044784906473, -0.35232639238199376, -0.1746595387031237, 0.10661031516100188, 0.0567153628815419, 0.07688949295298685, 0.10280772198883081, -0.0456515337561509, 0.5994113391912012, 0.0165011130170475, -0.14647296499355156, 0.13374098961000463, 0.14204175282117906, 0.2285084584041116, 0.09934533945777223, -0.20606779199464972, -0.05580036102018463, -0.012899717676291595, -0.11054142425850007, 0.16319294839168108, 0.03846019788166733, 0.4081919262397586, 0.29491716180582966, -0.1558969472676224, 0.04661719960882218, 0.17941298645508902, 0.13909146732602476, -0.15083355376480484, -0.35642178333498725, -0.5384185166311058, -0.03442254113149207, 0.09461891836874588, -0.05866590638281187, -0.08807643607993411, 0.0352920537887054, 0.3032430717501245, 0.18792288843338847, -0.4335683635023592, -0.271621345011268, -0.16888267620970107, -0.19084015359257916, -0.05686505151959774, 0.14687240455852651, -0.07493379174130098, -0.14287419651912767, -0.1769815825755425, -0.26456994638244796, -0.09654566733302546, 0.05667990492382243, 0.4812507528312057, -0.05325932642076818, -0.11721613374613558, -0.16185692785648412, -0.3015162595111006, -0.5661850819774221, -0.7880296241582557, -0.7215293938515419, -0.3028535950443602, -0.05880044727929052, 0.03602366416568642, 0.07050170030794418, -0.02017144230624381, -0.06055184467258563, 0.3318295854213247, 0.4819872704760086, 0.251544150193649, -0.3438529838740575, -0.23009841790826954, -0.03697812494881373, 0.02407756604149597, 0.11377675072960136, 0.1924145586251201, 0.0014858097654282206, 0.08365516399162695, 0.24831989115711584, 0.1652419657823638, 0.03452349415055486, 0.28316387852777863, 0.14678777191144177, -0.26789238674413396, -0.30204833276034243, -0.7192183560548158, -0.402962341859681, -0.21442446739666302, -0.16409212347856714, -0.18278118808695895, -0.020541015931337264, 0.04347424347656704, -0.11354283968305062, -0.07588014340083717, 0.006037717522820145, 0.19227798600550589, 0.20872481332974585, 0.4857699732884423, -0.3197981782459776, 0.23700724005606696, -0.04862231975107951, 0.07272273814179217, 0.2618142546569068, 0.4720722342506005, 0.33306176774798124, -0.1400786123141007, 0.12742673685890069, -0.25797385953499385, 0.38208937859607106, 0.3474712648833896, 0.46540107577263423, 0.14196275891215648, 0.12282593524105904, -0.18120064618047643, 0.16962325435128028, 0.17666578207107855, -0.23272106971513268, 0.02797982264931877, 0.06385379657645918, 0.03779778566685668, 0.06694152354657444, 0.10859315365136744, 0.04391522981854347, -0.013877028987582746, 0.03637302818325909, -0.02984512126330612, -0.28113945790895317, -0.22649658325450941, -0.4413396879025128, 0.28199647936406813, 0.18331178390934283, -0.036368133695118335, 0.2948639829841584, 0.3916842618097103, 0.3114568843766294, -0.2691710856825207, -0.18002368330620075, -0.07204764646338756, -0.0643427635349226, 0.11134137485394109, 0.24754256503048438, 0.10286159976150708, 0.12547200452016427, 0.24621543937508492, 0.030175925243081384, -0.005677294259393454, 0.17891051186875026, 0.007586900300507166, -0.027962841570609187, -0.007023374171079508, 0.1862807712199996, 0.13058447503055626, 0.04259165933370076, 0.0378583838842842, -0.1425531684316937, -0.042391505487601004, -0.18827765654412112, 0.26636382123985103, 0.10726719532743814, 0.14599175878021592, -0.04333526811970747, -0.042474453705326945, -0.22574268936329545, -0.37044307948120864, -0.27881699705138274, 0.12023773120877874, -0.028890846834454337, -0.4103292449202719, -0.15533020883395968, -0.2622051835781109, -0.19213420814504423, -0.10287599907013834, 0.031694893733573724, -0.06948751587062504, -0.010560146576286443, 0.004002182487058071, -0.11846562758519459, -0.04680846797370605, 0.07957540618628955, -0.1053865966468472, 0.09828375524331076, 0.09649461158150713, -0.0119211158696314, -0.05168318353349138, -0.07576739277273094, 0.02715214560120163, 0.07111488423195139, 0.09104796259398243, 0.04553405346076486, 0.0010646106106594355, -0.12010962293178354, 0.22425428116723944, -0.08132431668409526, -0.14914594372890516, -0.04819216535837366, -0.04330345918758926, -0.035126714887524696, -0.2485237059681299, -0.23923697131505303, -0.019554115326494134, 0.05213400478906508, -0.2334037313505399, -0.03214837359670683, 0.01037728971341683], [0.030071189683966285, -0.03434059383847853, -0.0064600611404720416, 0.09512764937668383, -0.04956652907809711, -0.054169101741417924, -0.06641279155050127, -0.015316534051453235, 0.14043610624060332, 0.06841509328201864, 0.11600776697534575, -0.027568096164412744, -0.08225214020426559, -0.035289110191808665, 0.05916273580739809, 0.1960198759551678, 0.07342413324099606, -0.10233382423385798, 0.0052969960437409536, -0.052731188445563286, -0.08675337353522607, 0.053518803073696365, 0.0335256412440879, 0.014951440728935972, -0.005590205484872657, -0.15420305591393246, 0.049763873614026094, -0.10772925140621446, -0.1483129465965466, -0.0009659047693293364, 0.04112036518593147, 0.107145590665343, -0.040821006179335484, 0.09188960617876192, -0.11471878773961057, 0.028106265617330824, 0.01724925170281126, -0.06320976449045998, -0.20235673545859678, 0.027502022937841163, 0.011617193378467408, -0.07696282044477298, -0.08725787240001505, 0.260049260811136, 0.2564353104345953, -0.10726108504250256, -0.08347529732872297, -0.024342940900522757, 0.030541779041687096, 0.06350883310188209, 0.17379740748104178, -0.012564674434607343, -0.05794600154675461, -0.1391266754120921, -0.055650043177975284, -0.20507935639455313, -0.02762796115768681, -0.060275448775777445, 0.1632994782736664, -0.24492887969482668, 0.008892878076915675, 0.17029051819607038, -0.06208910310648385, -0.1149809386221325, -0.2206329472675577, -0.37264995871080314, -0.2364787586931251, -0.3552212667183966, -0.20403598018926988, -0.3327535502701457, -0.32944495294878784, -0.1237843247006789, -0.22903320820872006, -0.35434331187803997, -0.5439754200479812, -0.3141502363875449, -0.2828399535444972, -0.17932507559267466, -0.16172618003780448, 0.1413309703883364, 0.06413961924850577, 0.20490069984592102, 0.11481666307911219, -0.13688119477547214, -0.11727043399783649, 0.1410201288062664, -0.056472617064529156, 0.04733141580641065, -0.15165206165702813, -0.11806603892362, 0.08681183932561429, -0.01708358700749239, 0.34956409305317443, 0.02950151197607278, -0.12445711087138613, -0.21653974857828923, 0.06745323458580711, 0.026696129212461492, 0.19496003006229104, 0.7392032661961326, 0.31878412066212375, 0.06363318283088473, 0.32180200845562573, 0.1824638269954211, 0.5227943231632872, 0.14811940983828512, -0.14700615779543616, -0.016096947866777053, 0.13935848562858977, 0.23547785535038063, 0.2161011776915942, -0.0944413000750719, -0.0978525032489822, -0.007639519538161843, 0.08123475082520797, 0.14814093834180356, -0.031743316141570964, -0.07069915522600344, -0.2686297443226229, 0.08778884422828594, 0.0377332770977508, 0.09213312764957075, -0.01505277840600971, -0.16544523525070606, -0.10580279267762255, 0.040106557733622074, 0.2133894508727193, 0.5261879406559817, 0.2630184026847832, -0.0454133764036671, 0.14511222992398037, 0.0733552421901349, 0.12388970127591234, 0.1541884571893595, -0.23359380676603575, -0.1765783760147236, 0.19640445565240205, 0.07013659988570475, -0.004841230732014921, -0.05242240500011526, -0.07543582013150651, -0.014454329500324195, -0.07523821970437944, 0.09913466978852051, -0.0031490843410775207, 0.3161252618731587, 0.010213127756483321, -0.26410474719246785, -0.35496800340591317, -0.25422777100500066, -0.7409789241018327, -0.32803944036425503, -0.5386662646218776, -0.5969428880930528, -0.7004356669544484, -0.38963202241289563, -0.33593020781239374, -0.16938393986379596, 0.021308726536622087, -0.30263236307417063, -0.10923489427083889, -0.18975656780796518, -0.2437011061478672, -0.2791938570204218, -0.3382411385010117, -0.5235932381810818, -0.16430054238028985, -0.07079967080027204, 0.014995608562819347, -0.017010173226611885, 0.019397928378355984, 0.5303441103423469, 0.2722371503711558, 0.060662435869461226, 0.23337447120615887, -0.14454480493388283, -0.06299794325620701, -0.1609451475335065, -0.12750267692226355, -0.2620150225867983, -0.5376272393427817, -0.3240767386916399, -0.5192586149664181, -0.6049056047248196, -0.2468257449214071, -0.20494804541164505, -0.27421094131434876, -0.4709465528290374, -0.4570752453200776, -0.3384955886844826, -0.46290205178664134, -0.3309785491700726, 0.07597848834241859, -0.4493591588973477, -0.1700365426418411, -0.0351847722110963, 0.014260273995470954, -0.010774465907696174, -0.12683791857204368, 0.33228829518637615, -0.009019755548404411, -0.04566423923608369, -0.07414409777608165, -0.08138163852179706, -0.06840476390699742, -0.16619650445981962, 0.08506989951989691, -0.07929265782886533, 0.05948666168902714, 0.1941578101632718, 0.14226114438835444, -0.31286128858613166, -0.5788065491634169, -0.688313489351911, -0.6848032080138823, -0.7054900759814006, -0.5690004125959961, -0.5105108020075726, -0.3256527614325742, -0.02114183421540714, -0.047286725242301715, -0.1294673742852047, -0.16540558989901527, 0.09805417873856931, -0.12754522261510987, 0.11729451693367354, -0.06068783259428892, -0.05206660495639919, 0.08266322807808724, 0.011533362090856926, -0.023615617791751996, 0.05162331833635738, 0.11669627979651853, 0.16939771619567826, 0.12583193342167856, 0.3116442162962315, 0.5892394739137641, 0.7078094167125121, 0.23085792948101413, 0.03605050915386281, -0.28386647421999983, -0.15799689377194506, -0.3013382368178541, -0.23507976109578846, -0.3694708483124915, -0.20430753175349117, 0.2940859487248274, 0.13958123229061523, -0.008228777703184599, 0.18464236291672853, -0.11960020107218697, 0.10174755546346831, 0.0259667713176181, -0.03691869929219562, 0.032874999015057645, 0.16170313376038786, 0.15027347297837246, 0.08676998730667705, 0.07616129098112788, 0.14901646970254956, -0.17742829295441434, 0.1552794827305917, 0.30322320447050755, 0.31683893003098296, 0.3286009723029513, 0.5725912936287407, 0.6066569506325432, 0.5066882584913218, 0.4215817758666856, 0.3444415400490749, 0.020198929567465225, 0.01216382285175717, -0.2312181577402263, 0.008283019038403297, 0.255762952999574, 0.3076982817480638, 0.34092859073412224, 0.14830627690079784, 0.20622563096853924, 0.05355667549367304, 0.022043847715066768, -0.025901236480066103, 0.3293573685113786, 0.30645838448608714, 0.10331960375981138, -0.009539882126507453, 0.13306537056624498, -0.19706292821115298, -0.32347148935511516, 0.21083385531280488, 0.11997833854781874, 0.15640864588321393, 0.05544504187740715, 0.4622916056745686, 0.4178787797857518, 0.7367665127412492, 0.723634992279501, 0.4118886488217098, 0.2347847685482935, -0.03388949720258013, 0.28604288336635564, 0.06017709474235328, 0.10568529470036145, 0.18431930305946737, 0.02025429414374525, 0.5321766653138296, 0.31410881676834634, -0.18846388137241918, -0.2294035882487534, -0.007938849534531365, 0.1857585117989059, 0.2759578524876672, 0.3404755851559502, 0.2801057496266489, 0.18568774845343808, -0.13401841869074627, -0.37675129000059665, 0.1357903145985745, -0.2227428929520416, -0.023636596699778984, 0.050265755340702975, 0.3023636198284696, 0.2971323984062022, 0.710306262666563, 0.5477707783856931, 0.6960131966403645, 0.2197279608170923, 0.20341759426619424, 0.23148347013176387, -0.3089255370442532, 0.1426967286422275, -0.10051092145024124, 0.12849143294354445, 0.19265307379078772, 0.03163373158588985, 0.08804153991132538, 0.12510511379855582, 0.020831475037481412, 0.27848812372722354, 0.31690663013716663, 0.39157816748734464, 0.1296337423829096, -0.12862410632541948, 0.014601463265039258, -0.15089747785064847, -0.20822323561757894, -0.22592929542343443, -0.1102419919902461, -0.2099155401142478, -0.043856026772041805, 0.31764774304980675, 0.3384089864310078, 0.18235403021837354, 0.3987311290586692, 0.29822632243219827, 0.006608438124365111, -0.25620990358157236, -0.4773343859188861, -0.3677727642140635, -0.766883904843736, -1.0415776944466921, -0.5194125033784429, 0.1304078371769572, -0.10638336244301484, 0.004148094713234353, -0.07821498148698292, 0.018410819716221417, 0.36083004266667135, 0.13263566272476474, -0.37220472462463305, -0.26334297718659666, -0.5200369718626319, 0.03539235283310792, -0.08069459337331598, -0.18280117810721033, -0.09294668728521154, -0.3485585307873007, -0.3166098552401281, -0.24938264350770514, -0.06807198473724364, -0.06464079035195622, 0.1249735115863381, 0.15943826681410125, -0.07019955271947635, 0.19263162209702073, -0.0919091388661192, -0.4134711961939368, -0.6835365045175328, -0.8301877117353577, -0.23030168568041678, 0.029652741921432253, 0.11374084320977035, 0.15029015221610867, 0.06878448191735648, 0.11438540592621865, 0.03191359449758748, 0.05558847788989573, -0.3471732092234271, -0.27457920058601587, -0.4143550693743259, -0.3029001536939017, -0.08104900766084865, -0.48578224453841223, -0.24800524644673985, -0.18327855488383368, -0.41092557534737223, -0.39897962102962764, -0.2350353448838807, -0.09568435014130149, 0.12333353814003702, 0.5241741931740954, 0.23425549157667333, 0.11515735445349949, -0.012739561516798947, -0.14002382796097915, -0.23684919950579505, -0.05147363891362798, -0.112089167851959, 0.17162814662757098, 0.0551035926201683, -0.07996207517196949, 0.1092304681854655, 0.009877514661006146, -0.3367250448827455, 0.20464338355803494, 0.129864583605435, 0.12185435900733244, -0.3516501329594407, -0.23620794584972926, -0.09367808393957748, -0.391426853932046, -0.10627376355587496, -0.012725531025776846, -0.4560441820443634, -0.5188000664265406, -0.340012589042694, -0.2050688876502553, 0.1537327581406427, 0.348046901511064, 0.32676294933800787, 0.16327352073108037, 0.07467817196402843, -0.0488285369779128, 0.05144563579927559, 0.3066662176742163, -0.054678658979638174, -0.01455252234871591, -0.08959756709535462, -0.06368909254193336, -0.12112059566791361, -0.06216561692233649, -0.18341574720544873, 0.5509395633670999, 0.36397026801276694, -0.05183366391619897, -0.33588091457663366, -0.3732577092079153, -0.41181881306312745, -0.24387206019249433, 0.1054270271028202, 0.06432078160948392, -0.32636753933278484, -0.3795352513499237, -0.4925210454933024, -0.15973342454120532, 0.05492019795635356, -0.12201265379615257, 0.18847111239150452, 0.1854878689157592, 0.031755809756905985, 0.18881103622828216, 0.11244287119036672, -0.05198163428581903, -0.3377805079782201, -0.3119630848115981, -0.024362788133671702, 0.20910776598191202, -0.2305165987081471, -0.08947003162162169, 0.12243760695553117, 0.26572719334196904, 0.45297389261159476, 0.18114738448602818, -0.2405049303805448, -0.06468868028220759, -0.15429752323039506, -0.41222919592942264, -0.13056533732121434, -0.005599225727222152, -0.14522542770799862, -0.17280657160521265, -0.0695981458872682, -0.24772326147063137, -0.042112529898052614, 0.03951797154445373, 0.48196820036676385, 0.13674476061144933, -0.1434200618768653, -0.12345654132462008, 0.12132969057473045, 0.05176259995670458, 0.1415999288311012, -0.07151212724357202, -0.03606939887424931, -0.034800660675627634, 0.022326948465105315, -0.06573656286645589, 0.07371644468607369, 0.18341301483008776, 0.5625532731339945, 0.2720924212257858, -0.003643275348901404, 0.28687993207492757, 0.08630426206087644, -0.24522961137874438, 0.020758000491323078, 0.17082564319687454, -0.0637255303793065, 0.15881052463674672, 0.26038419041026895, 0.25127155801185613, 0.08257921153149284, 0.09798540898173959, -0.01321454777773625, -0.05476449516574998, -0.14391005570950974, 0.21579746520068432, 0.011266038409471258, 0.05734071627687646, 0.45644743932590054, 0.17719236454788392, -0.17947406365500487, 0.0026479790757342457, 0.11283762227566888, 0.18285961951457508, 0.1512636613258309, 0.2144174687927333, 0.5614756506054068, 0.6490895435669186, 0.07093958079569268, 0.38220519036955564, 0.19422380713822535, 0.14476238735108837, 0.19000455056404403, 0.2519215610573937, 0.03253077603119983, 0.327270438978034, -0.03454012052312258, -0.031459319232163385, 0.03672666531786031, -0.035752439605539636, 0.2694725113609204, 0.08618765467945025, -0.06231436129557062, -0.18381501717085197, -0.022916376658242955, 0.012568523565861994, 0.19402031552434015, -0.1024463736380253, 0.06785932905131162, 0.10313975082516165, 0.0011671912590585083, -0.19868242765960747, 0.25780943270454343, 0.06405275456729734, 0.26526670030997457, 0.5046104866785946, 0.15015739333381078, 0.6089430967568098, 0.5451525838724022, 0.08195013282697201, -0.046598369927331185, -0.33561980995516233, 0.020738078587229914, -0.18340527128769551, -0.20623721566199768, -0.26742618510220806, -0.12017352827976803, -0.1865533648995585, -0.02313877619685233, -0.2605785715169053, -0.15336842387697355, -0.11753774971584627, -0.0921337898121288, 0.1017053841399014, 0.25620821514191433, 0.03393523407366214, -0.12256503661508393, -0.07963915110149955, -0.0467920816152678, -0.1362304574606937, -0.012495010575087248, -0.3645512692256403, -0.20620710793393077, -0.2764070827536366, 0.0875647996318682, 0.29399283792870995, 0.2812792082927774, -0.08037857073810603, -0.313805990741713, -0.2454178175500584, -0.2498814749434468, -0.25051621237540844, -0.3180942912120562, -0.10726123599755619, -0.11972486691122498, -0.024546577250400655, -0.0007673694771974992, -0.3949760131328145, -0.03507225793395085, 0.07012931880440634, 0.046016561872611925, -0.2307918170185865, -0.04506988338047127, -0.12745485072798723, 0.06302994029700533, 0.0500159689462217, -0.1178435517241669, -0.0752738776342685, 0.024895095990613604, -0.3390181337562881, -0.4184913396768735, -0.6014347049483435, -0.5759436096603351, -0.5940601841004421, -0.04087731413540517, -0.1446064558226841, -0.5070319507217328, -0.24872833157322516, -0.4448606251420637, -0.45124908517718115, -0.26695060853010166, -0.13062032489896888, -0.09069681482633117, 0.07341457125552908, -0.5988869592855774, -0.327842796138806, 0.028840688219966867, 0.3663116372520393, 0.281740488928693, 0.21494416152399728, -0.1588294975992123, -0.16263031899198513, 0.056308511579399236, -0.14477240345410666, 0.014502321315242199, 0.19153814946380382, 0.5189791298422395, 0.105431213124541, 0.11307864567549229, -0.6933796211926103, -0.44400796519957264, -0.8406215445648845, -0.6650676395717885, -0.06763204609957252, -0.08665097896330148, -0.5273540508110363, -0.3564355441918732, -0.44459134239764836, -0.12216334561363698, 0.07274932991251801, -0.19813460707411726, -0.23407842660569383, -0.6147330032213872, -0.20120652294217398, -0.18448564043483867, 0.22720718460802136, 0.4966009291235556, 0.33832685479931085, -0.1853833187676443, -0.04477246589435736, 0.12092134972621588, -0.14132714609880745, 0.014600316488509705, -0.10612004591415412, 0.3249392279628784, 0.40986395615766485, 0.5649239862363328, 0.3975182437511435, 0.13366958801355155, -0.1851739899151958, -0.0873909121307129, 0.017618272367059224, 0.008462526083905879, -0.256733299061285, -0.14663683678671924, -0.20313477202070107, -0.09541242969324365, -0.02201927268186948, -0.005956963935077598, -0.33171497819200474, -0.23797141328649768, 0.21217030033253284, 0.06025096423893726, 0.034087120934730875, 0.21845963933436952, 0.18925203892967737, -0.03195663246179034, 0.22499672020043351, -0.07379238103574359, 3.274116522027353e-05, -0.09836147928713722, 0.030204836637735002, 0.04789628819218472, 0.061518993333615796, 0.21199092489784277, 0.34523569924557285, 0.5533412250228132, 0.5363258241662404, 0.23556456401206943, 0.6690025650148289, 0.5309548032168306, 0.6983127746531212, 0.4832558932037642, 0.2774080942700457, 0.07824026392601614, 0.16901053903956775, -0.09848950748753094, -0.06854027042083329, 0.10368557571763766, 0.19966539112838658, 0.1839037172806971, 0.1876674731789758, 0.04908840330224743, 0.1680986935472821, -0.07587911641554103, -0.14300462287312676, 0.06891592188739305, -0.006816098216331956, 0.12697013652088787, 0.008330041496225852, 0.05471328417294107, 0.09615928350159557, 0.1925384394968497, 0.18495352626579495, 0.22569880895450026, 0.08084730856518489, 0.7792873585527106, 1.0983011421947968, 0.9764072593611657, 0.5457987526182936, 0.8332321978445004, 0.5812034804573145, 0.7420454260190762, 0.313562471404225, 0.062312045328198826, 0.26406019022787414, 0.38133190479932877, 0.5212309814882475, 0.1413440075634808, 0.16283669873377632, 0.15750660711899755, 0.008739407620369491, -0.014893980211828996, 0.06711564831321712, 0.2584336867567929, 0.15494318696292325, -0.13912317645657307, -0.13388797840509073, -0.08232605533900694, -0.2380227539430463, -0.026366463482810954, 0.10772917686142738, 0.36064719363519765, 0.3002314786450682, -0.0049761915170286036, 0.3975584693829777, 0.4664503021938388, 0.333217601910554, 0.34391332069068, 0.588209040018649, 0.25868227294425905, 0.35863701752173344, 0.22479692728227335, 0.04819238900361471, 0.23737458214793197, -0.02600040229184961, -0.0953870165501694, 0.06176493020888738, -0.057043910958392736, 0.029383083976090647, -0.06359009083290416, -0.1023604896664174, 0.019369981806819786], [-0.026673110064484053, -0.0897825410012561, 0.054038448754185966, 0.04396834674948165, -0.03438894779194589, 0.020537898594902765, 0.21559337167259796, 0.06404546457356801, 0.009528104405827255, -0.04159283943768441, -0.062220898723609856, 0.00029357256924935157, 0.0888280673532243, 0.008513775482270301, 0.0072826659175880305, -0.16851689607445905, 0.018361518606478718, 0.08725098375164726, -0.11016449048565378, -0.00473556591216057, -0.0454402197361189, -0.0661664828933818, 0.06617180352907613, 0.02201077083330329, -0.016654419091092786, -0.006392230595986446, 0.08745684845230521, 0.013486931028031349, -0.08501299102536887, 0.0620909216543738, -0.011969713205964266, 0.0835642797205244, 0.20716903403046544, -0.015288263891797946, -0.028119055468248166, 0.10310150487985952, 0.05102247021672535, 0.0314378991979707, 0.06291707489231181, 0.05807845974155959, 0.009263616924700919, -0.1181977414946497, -0.04368629855464955, 0.1237944946067894, -0.06974339399275419, 0.28718319453304686, 0.038614543830670395, 0.03697386501749026, 0.21919405134741676, 0.0848499919131782, -0.06928031151300067, -0.0641830483164936, -0.06444356878722757, 0.058858388889890714, -0.09214072326003345, 0.019055598040423213, -0.02596444881210849, -0.046325022632061855, 0.019421917574938313, 0.09561896576195562, 0.023541843249707133, -0.015400143962537282, 0.061193388178641714, 0.14015985702656575, -0.07430674719498276, 0.012367056712657714, -0.111472100719984, -0.17362571995896006, -0.20556809524045386, -0.5483486323010544, -0.09046134765476296, 0.08807021125729392, 0.05615027421825541, 0.15712742324716175, 0.2763033715046676, 0.48252469994433317, 0.4678393409480612, 0.2821313186297755, 0.2025167273937399, 0.2748130224242466, -0.060312859930911004, -0.026515941393174647, 0.07831084941620028, -0.00671681101360732, -0.09589677898915436, 0.017047399319161185, -0.09044946458647646, 0.0870897126124865, 0.017829884986421088, 0.07243643303779668, -0.07839722670827398, 0.08831866705913564, 0.04165998534243238, 0.03640055893777334, -0.016895600445349462, 0.03234378441884664, 0.38854684377932597, 0.2532667959025223, -0.00045102350593326766, -0.2565581632203801, -0.06399621566105917, 0.027136250234744953, -0.03983251004536509, 0.28069974362760025, 0.734841496148782, 0.3255269782111645, -0.23205587403706615, 0.31633576938256797, 0.19066145648671942, -0.023837483961119593, 0.09353660971713901, -0.07430895793375247, 0.28430975314826806, -0.08253184875574529, 0.0037536606157383633, -0.12841705723388805, -0.03349387301281319, 0.21769679444523293, 0.0024627937020353656, -0.27994418223570194, -0.04105084643000642, -0.028898951538619228, 0.0741791746253229, 0.2102877097787564, 0.4855250387583263, 0.4363518445027248, -0.21073826387884423, 0.026409419444336724, -0.2253463735491202, -0.1947438791905239, -0.11399974370292272, 0.036318162126561714, -0.03186146584287374, 0.13133566188518425, -0.10777154605487196, 0.02066902136972, 0.01173354924006369, -0.0693610980142256, 0.06170924184778403, -0.03539579147800878, -0.0350896076569745, 0.3175591233750379, 0.06956016451315562, 0.2717345835836517, 0.3165982328388479, 0.3269410447924715, -0.05571210786192032, -0.1734918105464148, -0.10526172137289078, 0.06140680040356484, 0.31444401017549073, 0.3288292656556207, 0.11410244437561784, 0.20144538834172215, -0.24194419573147344, -0.18989321395312547, -0.39066012325630256, -0.18384225890594139, 0.12673892556186667, 0.227834466118228, 0.3431252304716798, -0.12021593148818634, -0.50676603097517, 0.09358622398447415, 0.17670082288512096, 0.20274850637530062, 0.16857514574599203, 0.20903362794883773, 0.012112970579005553, -0.003115218146474391, -0.02276312614974186, 0.2544433038561961, 0.2772514869885832, 0.14871366869769598, -0.02671896561780709, -0.3036332891263266, -0.17699808156177746, -0.2102322838512584, -0.1484733366584405, -0.4260340516147187, -0.6607803156354747, -0.3240946976716508, -0.07987285986599728, -0.06708361354947794, 0.191998037404175, 0.2593408468980863, 0.5097142847373126, 0.04597607495624018, 0.5561447564649501, 0.20187453407627262, 0.08163251672884234, 0.07914891716958673, 0.1568971594236427, 0.5010995109081611, 0.19915718368108923, 0.05726782983659392, -0.0500990400990164, 0.07538123711840367, -0.13384036579834885, 0.10866617175207599, -0.011356543270313067, -0.3487713231586933, -0.27848585600857767, -0.5775169071390843, -0.7448576603484327, -0.5035214691420821, 0.08365449951786676, -0.34590911607869723, -0.3759755582001856, -0.019045400235398476, 0.10996516340094593, 0.2100762966206141, 0.1963658621734176, 0.3003025518275958, 0.3265663166395423, -0.10824128355029745, 0.4430335107381808, 0.15548419312831618, 0.23613538542835244, 0.11775457083643764, 0.31990355638098555, 0.734357317087396, 0.09173549768150419, 0.0690134798060562, -0.32989684664025115, -0.07716988678126953, -0.16183104902154027, 0.05220118249654602, 0.056720397954896855, -0.34857002070494364, -0.09769218692856504, -0.7656035058071677, -0.8616369436131802, -0.31909456358271715, -0.04515239321639017, -0.0927160085828172, 0.08588183736775197, -0.11138089056081048, 0.039901681252168614, 0.1752150519262169, 0.407591842479713, 0.4287281037237346, 0.38195748347448244, 0.1990204101527081, -0.23429719591866846, 0.3394102010143781, 0.14010033691634402, -0.050229765716529, 0.1421809031585384, 0.5232326760821302, -0.09171519089892768, 0.04147560289274406, -0.05363311511582808, -0.13213636899150752, 0.03868363642267411, -0.1695695311568629, -0.1615254415907024, -0.4559849760913099, -0.7405985490004312, -0.4711691804612432, -0.5344707903271101, -0.0009046589174532275, 0.07308305538552473, -0.17031114843420847, -0.168465264407191, -0.0993627555457417, 0.3063871889487734, 0.18091900982176906, 0.3600513948421785, 0.36124891456173946, 0.2186728348890199, 0.10679346877293361, 0.18952902178228057, 0.2748038870174723, 0.6043052104648113, 0.3812030989887581, 0.2265234762371043, 0.6709903337305566, 0.20318291003745292, -0.0024090315549249305, -0.014644521525650373, -0.1447444654112646, -0.04824876682537953, -0.1922715876424297, -0.3054585509684493, -0.5591254895649328, -0.8880563368520341, -0.6159629545105139, -0.5255680641229374, -0.13032681190386644, 0.20882407198305256, -0.03663940238991095, 0.0304544682116004, 0.30292581463112606, 0.5390598644375267, 0.33450094416701626, 0.10110061127261397, -0.04489970056386335, 0.19011808521962262, 0.10918720948722159, 0.43455985686697346, -0.01864157469048175, 0.2026733035787039, 0.3765596478268997, 0.07637707954857446, 0.6451270183323151, 0.09852012838463356, -0.021774472095513222, 0.05543739671537868, -0.10035292862781849, 0.12397423770863647, -0.05069458173845815, -0.24560660389730773, -0.9297299943816575, -0.5275123331020973, -0.09832491184517943, -0.07537469461812175, -0.11571624568723655, 0.19608489299220588, 0.14601451087033554, 0.20268497041411998, 0.7357964683248355, 1.1153606536534078, 0.30335519728536586, -0.22750853279717823, 0.0736537662808727, -0.06215099271565783, 0.121234716243459, 0.34867755301958947, 0.3131750000728758, 0.1859904989351063, -0.05002637786219796, -0.010043607488928226, -0.09474461916840889, 0.17059234755145808, 0.05629311492860707, 0.08879574900862384, -0.001277334159265627, 0.3938861517009005, -0.12588148134181826, 0.02408489524523803, -0.17604999920873546, 0.11849661795048723, -0.16153057478301605, 0.0038243910891130315, -0.30947438924139276, -0.36236754468528665, 0.1277537879063589, -0.10126241052751223, 0.12100133811417726, 0.4213465343850928, 0.05170504912747593, -0.21523165183390627, -0.1566920177832509, 0.14945303015894706, -0.14235159522274238, -0.023418887009708875, 0.09499672101524266, 0.07129407778038768, 0.08883793034369204, -0.8483658910124693, -0.40909239299510913, -0.0641049457320846, -0.00757094776468937, -0.0566341136023511, -0.008387011869436429, -0.1507602098461186, -0.05942352111244569, -0.04992762013744436, -0.10047294295823675, -0.0018254126267920928, 0.10862487286301287, -0.22926221111857265, -0.32589964560729173, -0.38063589159564926, -0.4369100068336574, -0.3066264076332818, -0.23868239382739292, 0.2031496244619476, -0.20265242182361498, -0.042293247805359875, -0.21963183171187356, -0.37292878560983556, -0.04493914371302599, -0.17671345214979278, -0.05500041467124086, -0.1667753534290661, -0.448159216038885, -0.847335879905409, -0.4278925416413964, -0.08638364242668294, -0.0012732620335760918, -0.12044458964972242, 0.014929516324481402, 0.00288032256053254, -0.34640632278887995, -0.15002384809613176, -0.004004633408484993, 0.11452477732493298, -0.22392289753713657, -0.24759345654827875, 0.101758545932475, -0.45295743697463636, -0.38929952506618537, -0.45422358927996376, -0.09823283299481085, -0.21936491744176195, -0.13087292152736238, -0.021555495875123707, -0.2908944401423176, -0.5255666214746607, -0.22126855244688262, 0.13337916803610392, 0.3599076440193986, 0.0013776130497098027, -0.4559785505220163, -0.9293341390804986, -0.45129551531507794, -0.21604139846205195, -0.01807191784108804, -0.12405482144255126, -0.06483906034777975, -0.096361692278007, -0.342975860016053, 0.12625274411059834, 0.26271244011597383, 0.32816449576425016, -0.12652608697823048, 0.043593959636303296, -0.3286486132407476, -0.32249717839976344, -0.3119768503923607, -0.07841285862567995, -0.09296103245747316, -0.05423442601105689, -0.06552007656147661, -0.3620778941537917, -0.5755480259605137, -0.3094588253671321, -0.1046414265037718, 0.01478408300045201, 0.0292472143325243, -0.08588142657981465, -0.6716390838505313, -0.7964383659380752, -0.4349129386863848, -0.1267555358778523, 0.018840647797512714, -0.049077316869891884, -0.004845930189035551, -0.13637990803420122, -0.06859333813944819, -0.16140065303725337, -0.09016915402241107, -0.17622083215155915, -0.1503644102620391, 0.34665311031727436, 0.04853186229829202, -0.19538871775249844, -0.20444282565357205, -0.1996008508196493, 0.031093301693245538, -0.08983091450496951, -0.39540031454340774, -0.04134155662867652, -0.4098790338725508, -0.322640680235064, -0.13866566000375918, 0.059378912500806895, -0.46361919421206305, -0.6751708505449732, -0.7360421028686945, -0.21688366073017168, -0.5043910472353047, -0.48167323897686803, -0.19854701970557093, -0.20061628442171872, 0.09392571973497686, 0.1091336867112788, 0.05421062572671659, -0.27750929321872964, -0.19509504373348105, -0.09682331396929654, -0.06621728341230519, -0.0012732203529088112, 0.032228063155793706, 0.017447842594948748, -0.16482261168923884, -0.2286747421253265, 0.11423242691112757, -0.006375632399601742, -0.13972884017044332, -0.007182915745264495, 0.04809954737777481, -0.20085768714930377, -0.09056860848731034, -0.5424461954619243, -0.49314846476567165, -1.3276282628736662, -0.3852137055056513, -0.6539769727833216, -0.2979569664145499, -0.05022415724826782, -0.22213116641833003, -0.053887298594621526, 0.055625677442394696, 0.08390271196288951, 0.07302612966219571, -0.10240789130295516, -0.257031112348922, -0.27782879823207784, 0.00704672091295766, 0.021134939833398696, 0.005685248147467783, -0.031227313896092863, -0.3973284596234972, -0.28259381597973504, -0.04644104677294264, -0.11846731643898567, -0.0001361266621131289, 0.1443649727179759, 0.7250584307348511, -0.006377137555764864, -0.18595042034264625, -0.32016955928877466, -0.6512548430609252, -1.09119288332764, -0.49933255200653337, -0.7648140900860539, -0.20552210871783871, 0.01155554279759414, 0.08377388052642112, 0.11071592763472626, 0.08594052757630093, 0.0078402340643499, -0.06297943901863524, -0.10257552431317443, -0.04596832637043089, 0.03708622545528128, 0.11494134365311744, 0.32672518912673326, 0.19451539382870645, -0.1321644294903933, -0.13026527731014903, -0.11029974272381832, 0.04077616008407511, 0.01103933799381744, -0.038611280445136814, 0.28978027181131116, 0.566855583340019, 0.32314831904587926, -0.033783809040500566, -0.2560069203519125, -0.6632018483954538, -0.7380183879427782, -0.3335747513525513, -0.15406325486564879, -0.13627637079636268, -0.06632618441199294, -0.11656412060009548, 0.12024874139806022, -0.03254549715996842, 0.12893808597638687, -0.047482578210371114, 0.38786835597818087, 0.012761767110451528, 0.15981471550803028, 0.1848243538786673, 0.20856747865584405, 0.2469986935077199, -0.23476031180553095, -0.25902026380203763, -0.23583756978659537, -0.05586479326615455, -0.05886197833984622, 0.17983868504082345, -0.08716994581752538, 0.24771442245571806, -0.1396053504875939, -0.506589667702633, -0.928849296828049, -1.3149433624094515, -0.5810605848048234, -0.2716425079717983, -0.031335033032287546, 0.07591876544714997, 0.10036843043077374, 0.11686689208971657, 0.04080435211859045, -0.21201786431058067, 0.00620477170724371, -0.0928082052264497, 0.4775162264608454, 0.1470168711183068, 0.03027380687045159, 0.19981116905333787, 0.22392495055846873, 0.09854311510385642, -0.1969847169823082, -0.24985951688763688, 0.0054548756883917495, -0.33750304559634287, -0.05854204165305469, 0.1822627047107449, 0.2003164755298904, 0.22014264553295054, -0.3638648887714698, -0.692214170655826, -0.9873121137987962, -0.5460634729053622, -0.6437580187611577, -0.5038851805694584, -0.4553400420189792, -0.10326328369496049, -0.33785668592628615, 0.12327545568800499, 0.22226535896078856, -0.03339030610782533, -0.11694570926138015, -0.4914879853363012, 0.38939423064481327, 0.376106231198236, 0.2931885898123346, 0.06956606871356769, -0.02825863858355637, 0.023868231148667953, -0.10462080702412173, -0.16713945475132566, -0.157895026546655, 0.0922475426337484, 0.18241064926424577, 0.16944842217211414, -0.09342947802841667, -0.12846452113961257, -0.65865579431085, -1.0490475440456255, -1.0520034459307679, -0.6719988270112207, -0.3097116825119573, 0.07331893185069548, -0.030518278732230786, -0.12083064653370462, -0.0552740960446426, -0.05090114646990461, -0.1925743249975374, -0.14095896006935596, 0.061492006231196036, 0.17087587418279476, 0.2773965513390477, 0.40349726121409996, 0.6418871113582008, 0.6576783652072382, 0.22779188893050226, 0.04097248450528047, -0.01541009970938203, -0.07773999199329652, 0.1463951642478075, 0.12511636524858258, 0.17239288470455766, 0.13592739105628548, -0.29640461151880587, -0.04809823048126771, -0.4640864842098892, -0.8911168643200532, -0.707185866823748, -0.6031119922644737, -0.1085864987229088, 0.07091533078999268, 0.13898151480126003, -0.06701599546134926, -0.07759883376216628, -0.06995481693434595, 0.022692739231400028, 0.039417952983135954, 0.08572148173831294, 0.48437556267910303, 0.4407064419703207, 0.6289358353796398, 1.0743153850352072, 1.0236996858613598, 0.8169530755931831, 0.5089393531235573, 0.5713104191427213, 0.15859692731037625, 0.22292535723438195, 0.19132520008252518, 0.1046351346028314, -0.19987223848390642, -0.0234675097487154, 0.27977836868606915, -0.04184071120452572, -0.21933341504305692, -0.35784709322530206, -0.18157660062635989, -0.13786467122773424, 0.22432512496829024, 0.059570548511291635, 0.08586944620428819, -0.05778119994291764, -0.04225167687675316, 0.10770644814240166, 0.08815741752364684, 0.1676531233475281, 0.057458988766243405, 0.008725736763052576, 0.11921452265100742, 0.48263558170202153, 0.522980343323012, 0.6772422574095432, 0.5381199489907751, 0.45312452502333395, 0.3615361026213261, 0.535455191449733, 0.40141104747282064, 0.3525038756075589, -0.30177340101301287, 0.3036792294571096, 0.5155182586506897, 0.19594404881822508, 0.29826986257888544, 0.3753101658654442, 0.22125693876141536, 0.3907306343931047, 0.25977662139576724, 0.06979827451814942, 0.0032784611504480953, -0.18106201106638975, 0.042297259834512435, 0.049431914558618985, 0.06305393716708355, 0.014694848309267483, 0.007041004968288215, 0.02717599687824291, 0.14074902100053416, 0.3959505719385689, 0.3725843844803505, 0.6274077608316274, 0.5842913491002943, 0.5914125608086639, 0.4805274723230266, 0.9886733313014836, 0.6895933374231604, 0.5040155914225011, 0.22876452275297526, 0.4730161171552224, 0.5316766360137847, 0.6022365679226908, 0.3730450532840676, 0.4280910733435858, 0.31135360107448756, 0.21019811848949654, 0.029311795449375788, -0.0047087442933918195, -0.05336107841372452, 0.2601757860384702, -0.013472736970002034, -0.005910849224223129, -0.1637770087496202, 0.11304926590260043, 0.010586258979250323, -0.06458282990760363, -0.05225818479386171, 0.021878429346770187, 0.06092578418086329, 0.0071304858196391, 0.09014563966402346, 0.2038972222437222, 0.21780804927486377, 0.2133441480293147, 0.22670171914035073, 0.3539954586914004, 0.19467811152739464, 0.19647579216768982, 0.19742025148154876, -0.0710330813607467, 0.0799510596318198, 0.007292945160622219, 0.01942490006185861, -0.098886307047569, 0.052281500122580475, -0.015158937029195086, 0.08739337060137664, -0.20487547733658845, -0.21619862664919484], [-0.08776392974552465, 0.15038244893814434, -0.02236934051465381, -0.16778397474910575, -0.05115874520407603, 0.05419180758602208, 0.027105069972735596, -0.028838878274747723, -0.03422986489546298, -0.019214538217339903, -0.13056454972520334, -0.06961269884838656, 0.06224864974828347, -0.031115111539719638, 0.09657586791415926, -0.0661800018456118, 0.09282307150912206, -0.09132223253503857, -0.13500207019700897, -0.0880659226988845, 0.12438416667239514, 0.20103239993423117, -0.05809170099491289, 0.1400994998863098, -0.05685267297884627, -0.16497325965898912, 0.03898543535810226, 0.041941979540141665, -0.13059644081594998, 0.12382854357502333, 0.021586773874875356, 0.02946968320381177, 0.0866068409265018, 0.08062100659713811, -0.1406005592752454, 0.06517217842057225, 0.07967939807193092, 0.047598491930733206, 0.09401361964011741, -0.12541862984031202, -0.060047650003076346, 0.012093004549833598, -0.2611377274906489, -0.22736221846636448, -0.19173766415314686, -0.10747010168168172, 0.021162325037434874, 0.09799192517940988, 0.20521353600931708, -0.10196073937896638, -0.18950509512452146, 0.11857904645815004, -0.03542475819977033, -0.19817348850427166, 0.09826520128178154, 0.03403250302212849, -0.02394319931944294, -0.00400617158400859, -0.03815174391384757, 0.031999914897367664, 0.11870127892664208, 0.1572566663777921, -0.0771630882100743, 0.059308147057981805, -0.001980616880521708, 0.31313122453021497, 0.11866788427368696, 0.13202642490556263, 0.1559902717900711, -0.09871987897591193, -0.058841243996146035, -0.09414091038854852, -0.22010421765901172, 0.13883922202563537, 0.2031588764124541, 0.031211289186595922, 0.12850834134466207, 0.10170167113822662, 0.1447897310819654, -0.01718958993818971, -0.00466653245768948, 0.01023730158017891, -0.0914169729029304, -0.019306528210525226, 0.06807963816221652, 0.1547744436074226, -0.07457574187380377, 0.0646408361404472, 0.07763174147994256, 0.06461250754014237, 0.06141294567860626, 0.1239996749451802, -0.3212929002288527, 0.18831997944653758, 0.33567715151764244, 0.3252728780218185, -0.2434454505449387, 0.17340904258768908, 0.13814022177337001, -0.047329364190918585, 0.34969616352534383, 0.31193002103978656, 0.5554256111189447, 0.1587028220837441, -0.16839344818012258, -0.08692554575765633, -0.09947320343880824, 0.12560258021092177, -0.27492644179261183, -0.10813710605350921, 0.09673112140760745, -0.1413991626548355, 0.07087545202580402, 0.1162835764437005, -0.06682292341076222, -0.13817780072173771, 0.08879740521271372, 0.14190331563450495, 0.5169126066917437, 0.5136415513106093, 0.47810274680243126, 0.46250545261287657, 0.5375532864946969, 0.015885107671965278, 0.3827534373641315, 0.3914550248819068, 0.4691736749360773, 0.1098390663141997, 0.2530649829436165, 0.29551363338209086, 0.16221165797955414, -0.12746351178001475, -0.4858118506243323, -0.49419941137754453, -0.22148113301570457, -0.03765622687941368, 0.13914114602779087, 0.1892761231283947, 0.1635742396888482, -0.03480082135650787, 0.02287494199174025, -0.12833805648777083, 0.08544495498779531, -0.1057916064723816, 0.07638484358965186, -0.0021736405310798608, 0.06107943705138536, -0.029658224573305688, 0.19617643230090737, 0.169658928568267, -0.04503898730544226, 0.18185359338100604, 0.2150339085338357, -0.03047930822712071, -0.14473250334893883, 0.06700618491875374, -0.061848193565884856, 0.07041492204888188, -0.14060491088419827, 0.12797524180012806, 0.12175709576641186, -0.11688383239280989, -0.08194959694273331, 0.13211861249913004, 0.26750471759918515, 0.3059637950427131, 0.19558263105258752, 0.0437583352637809, -0.11616475744669448, -0.025996442708678166, -0.04535902657892097, -0.294135139557156, 0.022228417436119575, -0.5347082397317473, -0.18628180551064008, 0.02139799339681812, 0.16050727228701697, 0.218399366072953, -0.030515644222407587, -0.08362652525909607, -0.4064355946200589, -0.23815975391656027, -0.1493470067752239, -0.06985750551747054, 0.0886800797986962, 0.12453267241930907, -0.1538475529607797, 0.08682859147829229, -0.13743258197710842, -0.1681821987430985, -0.33454895148990765, -0.15655066972578824, -0.18932525019866034, 0.3272396702819659, 0.12904182080213175, 0.1428980035018484, 0.05120719240309535, -0.033531422773762136, 0.05305939655117022, -0.16613889966442213, -0.06969306333179824, 0.00866754162671498, -0.37037413911372946, -0.35226166706995243, 0.021819204950024238, -0.2946188424602246, -0.09313277038158684, -0.27694978992076136, -0.5442018844911048, -0.3269594561822513, -0.2302314351682669, 0.1106822628147122, 0.060650771551083386, -0.00019801345328606507, -0.10176868422644172, -0.24536746064851464, -0.05098996850627696, 0.2786280055439286, -0.12223873955007473, -0.32401906300430244, 0.006164965274475371, 0.3657959241722976, 0.088275885993756, 0.17284284142521106, -0.11485064518149053, -0.11554242084757838, 0.03122667755679833, -0.15050967054740988, -0.30635873569605704, -0.18883637924658844, -0.07145388887507796, -0.4466860271567344, -0.2986338717760639, -0.28005393613776813, -0.356225757309454, -0.19954691032188646, -0.5706691200275723, -0.16278025841387267, 0.10593038312360478, 0.1708057599110475, -0.09569067522073019, -0.02924233207535032, -0.07744636936719691, 0.20057273855380708, -0.3313214477682733, 0.048060024363078255, -0.38183342476021154, -0.2550293164162643, -0.004039334242502944, -0.03151186812103403, 0.024526457523599877, -0.013474598036901498, -0.17612469653064197, -0.12970568269968386, 0.18782978787224966, -0.2121826554286842, -0.23037650230490797, -0.29704375840101904, -0.06904036495494703, -0.15962895237157154, -0.13813843848752388, -0.036749005995778794, 0.10418276214343997, -0.220859097801676, -0.44683975084361977, 0.02084521603413829, -0.04579258133779513, -0.15242604007460608, 0.07595793655977295, 0.1488599296380774, -0.14228766248694083, 0.11759531705683626, -0.20102026492959824, -0.09805217392465843, -0.46221199825872705, -0.17969963174286072, -0.2710341948690495, -0.24118888913589065, -0.15821547274756737, 0.1318461515945432, -0.0559388941316175, -0.13291956252537274, -0.06870291105141148, 0.1270656008217091, 0.1982232171686455, -0.15000571808005977, 0.1306845102504897, 0.2691539870808386, -0.12879599036614364, 0.4563735989677085, 0.005781785996166031, -0.5643917838771774, -0.5584786256710736, -0.10014594835702112, 0.2429204035398805, -0.19777005091635494, -0.35942363791141907, -0.2003043651107204, -0.1903446284742517, 0.03592302121942299, -0.21176367700584586, -0.015469153345217907, -0.3462619276292153, 0.18048121896398756, 0.20451870004910114, -0.18846284183388357, -0.039713020172808026, -0.054808787638293624, 0.08839877870455351, -0.1925631323555006, -0.3791796019772627, -0.33271475201748973, -0.005954497538412222, 0.21161634537709817, 0.09772333200163977, 0.23681576761767795, 0.3858551552939256, 0.4414808053173261, 0.24384275252039467, -0.30051734990940454, -0.5393469237773865, -0.5118330619107616, -0.22519407716187942, -0.11097385496497014, 0.09624846498226068, -0.43386538220569365, -0.38941337771795465, 0.04210188386926256, 0.013862364908184963, -0.12218627150407864, 0.19335785777977907, 0.6268697012393184, 0.39938195476213373, 0.20303935254794608, 0.17561848285210377, -0.03464260862114374, 0.0248640115930683, -0.22380506703149045, -0.3091370330607312, -0.3467556757409016, 0.39168521830023273, 0.3506541436277623, 0.27122914463230646, 0.014048810358619393, 0.14652709918664164, 0.6550289748594037, 0.41067969628546475, -0.3842518785598477, -0.8405496453716051, -0.6188453388898738, -0.4852807481675505, -0.1443895556659272, 0.12857003629159885, -0.06260419654553684, -0.47639303940068134, -0.07118639890815003, -0.002105497310161955, 0.11599978857400416, 0.2076425457093487, 1.2292330860748681, 0.8790687605413199, 0.47417201981916746, 0.0320122762223877, 0.062046775531756596, -0.10503873509089864, -0.09432733654907821, -0.18863807782560094, -0.22726216911537048, 0.07050456469209608, 0.2089281434515849, 0.06096116894342993, 0.2239747500595045, 0.5253714253152368, 0.976683695879145, 0.9630577668444634, 0.5116704353143395, 0.11443068422098869, -0.23596327007917994, -0.22927846111498645, 0.06667316060987942, -0.12088963969485449, -0.08574251840498072, -0.0853787974940652, -0.0420257433636745, -0.2756520541674635, 0.02607864122010586, 0.25608934415485085, 1.0614780529954126, 0.400671884309661, 0.39653088294993527, 0.22903030730815604, 0.0744298250896507, 0.15847074032937392, -0.10006130839039208, -0.24839115215718077, -0.4127083085387467, 0.029413177996106415, 0.34330384986100476, 0.4460995247884773, 0.6418913197834641, 0.508933688217991, 0.7554753292476685, 0.7823544492116373, 0.9561207371722812, 0.3650233746047143, 0.009737355762613885, -0.37016913667211776, -0.20298471851470087, 0.13584381035942675, -0.013474972220151257, -0.23323677714321367, -0.1310840290654206, 0.02145479375166046, 0.048050597011373444, -0.0727030591345341, 0.001257023173775968, 0.20509983295991926, 0.2183277907910781, 0.13193703307852225, 0.24497059913071167, 0.12226101338059513, -0.07160170261565267, -0.2460924607443442, 0.11745745560920136, 0.28966862038322244, 0.4845224618391945, 0.11056284339103814, 0.29457156463489975, 0.5331496172774948, 0.28684276300575606, 0.5473125225767431, 0.4314132834290036, 0.37628145315250433, 0.16247650648172549, -0.29610333258462074, -0.2573403890886702, 0.05246354345969835, -0.11058602580491332, 0.08031489783930866, 0.0006140700323203344, -0.2121468444833198, -0.7400730631635644, -0.7225012328191741, -0.23606848130047794, 0.26848093530497014, 0.52055451581107, 0.0937870369481549, -0.09258119670581003, 0.15742978411815453, 0.13016372499164466, 0.06920095495912158, 0.03325242266631938, -0.02971717694178105, 0.1278707766086046, 0.31448439701556136, -0.25857543044249953, 0.15845230700053972, 0.13633997766517938, 0.23304802736317742, 0.20939898771035584, 0.04182519017000454, 0.15129768282098185, -0.09454481956552246, -0.011757008091583008, -0.1773731604975696, -0.16927400307950818, -0.004791404965929525, 0.014767085707671074, -0.22218190622890333, -0.36297543111764546, -0.32068189134895725, -0.4444921119311451, 0.3447674644991233, 0.9192394415454609, 0.3835657642671993, 0.08963290255713476, 0.05474760087747103, -0.19819814413999892, -0.11107637479262229, 0.04973240480781074, 0.335573133147882, 0.05163118226676724, 0.5703802093668175, 0.5388863203724087, 0.5984049599169213, 0.3624149186299563, 0.4890589955227223, 0.0031080199787729247, -0.0664266868124172, 0.20239296893765704, -0.045789333957726046, 0.0587699389930886, -0.06459728074113617, -0.2686502364759813, -0.41829942578208584, -0.3175069492924274, -0.02692205904472131, -0.27550028692336803, -0.4847443028581546, -0.3910650787010667, 0.44081887712154033, 0.6333893428474018, -0.027481904911390347, 0.020319350469854915, 0.052751137424438765, 0.08283252755929565, -0.1447719590538711, 0.1780474426944723, 0.40702270613758085, 0.07314050148745636, 0.45467494065078295, 0.40837001540750634, 0.3316909778669302, 0.2497333854423504, 0.25482221891057477, -0.3192043102598396, 0.4062785213354629, 0.36505613374388957, 0.10820888376198985, 0.012551994589315227, -0.5237155024064063, -0.4060243695630043, -0.6210969734795063, -0.06331661145969425, 0.07597070971034976, 0.044012033229656196, 0.07746162924942437, 0.055457514170673974, 0.40619805012183297, 0.21051685851145738, -0.3309156747493647, 0.1452000331357952, 0.2160072925599126, -0.16951584768794917, -0.3028666273975616, 0.003714718583661516, 0.6204767290477642, 0.027985210041758104, 0.14654527171781198, 0.36005679952568964, -0.02177174817201041, -0.19058279860357671, -0.303795382485481, -0.18509513145683193, 0.3410948742905838, 0.4101671677742188, 0.06914258395463317, 0.03045250738518225, -0.088126254692116, -0.3037259624970912, -0.2933760492895776, 0.33453674091459207, -0.08762598462806875, 0.13319646475146557, 0.43573350848850695, 0.35231292103298667, 0.28322670757299034, 0.025058238027674325, 0.08692211958081465, -0.26173206988441833, -0.11420682593078127, 0.0199802611067761, -0.05377701476135911, 0.09898033323817775, 0.011284846630761881, 0.13771003493966288, -0.30343332608108836, 0.16969612002591994, -0.030820562431514674, -0.35639582568997885, -0.32849918719747406, 0.030801719533559046, 0.2741796896504394, -0.03260312749959068, -0.06605857162935298, 0.1898711866012853, 0.1040160100904117, 0.0071398353445037074, 0.29806672635077947, 0.19329151816141327, 0.2552096353944315, 0.1584126567832993, 0.056506631684954164, 0.17906939463357344, 0.6722072696865536, 0.35296342037970474, -0.020171853400042506, -0.13153853035882726, -0.08113419579404844, -0.09744643577214265, -0.040127286582629554, 0.0323985965940905, 0.2388872007949967, 0.3164718671145771, -0.2247336261496968, -0.02660450092385955, -0.26063185443571396, -0.09661958838869583, -0.12512746288074889, 0.0008679965497501933, -0.11143165127317818, -0.22766046190131078, -0.231015691700704, 0.0023795097803309966, 0.042256023949570606, 0.2985496424217422, 0.17694112846045168, 0.06612472559180416, 0.39711448489433504, -0.02772319298231294, 0.2629941094018375, 0.6105659042566548, 0.2944766972794607, 0.17831730418174863, 0.038412893695339755, -0.0019666265063516372, -0.03891688640836087, -0.045139740250902415, 0.15846038889088962, 0.4206076504883659, 0.29515972577073, 0.24747424078671632, 0.3617192912968517, -0.18299792681468607, -0.2842310202375834, 0.08589372102716046, 0.052556694092349074, -0.052664094427419116, -0.006920155960963922, -0.2388560077112543, -0.039707383406444204, 0.2835653266081381, 0.27628022752829223, -0.11130386500662737, 0.08153711081929624, 0.17300174281491823, 0.38871973567797713, 0.3993652690561973, 0.27982715788525425, 0.40858140549532257, 0.4564221867952188, 0.012250863770323098, 0.0920851091152146, 0.10754600554348415, -0.05017211749289148, 0.029442750058232416, 0.17972308100144446, -0.1704913321036755, -0.14024578881051408, -0.15428802678233297, -0.23544744201046203, -0.5797824177915665, 0.0023732526616052022, 0.0275366832044431, 0.19495735304648093, -0.20744525808480235, -0.2533033197594937, 0.029228238471910924, -0.22381946393923727, 0.01535237336829041, -0.004384387313996372, -0.3095389893547775, 0.2547422651471324, 0.47815349618981223, 0.497097829222678, 0.7047418437330327, 0.9024186771890651, 0.7010794036558335, 0.49050765573878297, 0.191213007634079, 0.05762423549519827, 0.003263500773004791, -0.3020291230053722, -0.11790255647920758, -0.1686309585911368, -0.1667529626964327, -0.11107356551174799, -0.024073847237264644, 0.1012493272287254, 0.07243844579215183, -0.2346322994114905, -0.06040086357607652, 0.2498299003101288, 0.08893976473581734, 0.11225036897976945, 0.07235353792718793, -0.538366160987363, 0.05190622747197143, -0.14458831076843381, -0.1753842874373122, 0.24379958329005577, 0.5290723363794917, 0.8755206124142875, 0.4242711163922886, 0.339097816739289, 0.5544909451335943, 0.3273157059993897, 0.2774861343942257, -0.035647643392457615, 0.0037036491187040724, -0.11165513736403093, 0.03686260469020009, 0.19083387129932483, -0.17626248569398156, -0.0207380653152569, 0.03487771260688957, -0.12676861309724954, -0.1643849418767352, -0.1273740686640932, 0.16237017299398315, -0.25968674514966644, -0.19534573015414053, -0.2609698381982249, 0.017919412053990114, 0.21501897175849344, 0.29858000454131284, -0.14524220096368823, -0.10285326451391104, -0.23140289563396418, 0.1388041724879418, -0.05857386891187395, -0.01057914401175468, -0.010523999277159158, -0.07169257109361041, -0.036233962218797024, 0.15374981534432947, -0.05985125637223097, -0.013330190026775544, -0.13254898672808468, 0.13693153042134484, -0.03143324009333958, 0.05700081577666712, 0.05001318407720195, 0.25992586588493616, 0.18833411757735966, 0.0978557122767539, 0.053993312372806475, 0.03831923737948652, -0.12219548400179031, 0.353795623499475, 0.5019126860480049, 0.1489381361172927, 0.05502940073447695, 0.2584482269865836, -0.16011075994009696, -0.02396704295575183, 0.2918749073020386, -0.020986030573814717, 0.01486467888135062, 0.22425693458267706, -0.054713114032906934, 0.02581391242624561, 0.06663854531254013, 0.11787657620068016, -0.11419765930890576, 0.1302698574193269, -0.004826337836541933, -0.049283441379218126, 0.10710124944965393, -0.014879581163305344, -0.2056317500137663, -0.13821784281408125, 0.10601891509179989, 0.08092060822155167, -0.0067353540943214775, 