{"internal_architecture": [{"inputNodes": 784}, {"hiddenNodes": 128, "activation": "sigmoid"}, {"hiddenNodes": 64, "activation": "sigmoid"}, {"outputLayers": 10, "activation": "sigmoid"}], "learning_rate": 0.001, "network_values": {"w0": [[-0.11798136886270183, 0.02138241804899959, -0.09977910010945036, 0.02720161970358248, 0.06992875467260502, 0.022698750041187037, -0.09631684042154887, 0.009026135951098165, -0.003783200359932399, 0.00886875414881637, 0.03978588477961746, 0.07425734865086672, 0.009323140443669775, -0.08056227211060982, -0.02088195754003852, -0.13463500965383404, -0.0799765945328698, -0.030446013889398972, 0.0010995213056134796, -0.12836424206034322, 0.13369811979591853, -0.007707060447378212, 0.011840462063717763, -0.17783710050542675, 0.08843178683383435, -0.01749557980657906, 0.00874147871961929, 0.030418989795567387, 0.045681708540328075, 0.09230903546196392, 0.03502553923921842, 0.11709331058383875, 0.10574225143835567, -0.06414316699319018, 0.05562994110749915, -0.04435203634721515, -0.0860718854090591, 0.08086926598264273, 0.06633126453873259, 0.064460242821758, 0.0801003778388678, -0.1562264128071172, 0.256439158639923, 0.09002442610746185, 0.11940347166090745, 0.039447412120993924, 0.005603095844063878, 0.02152714128397467, 0.1412226402392243, 0.40100123541361654, 0.09226520708463784, -0.21086017391758588, 0.030923671096048634, 0.06682867530341655, 5.74916965957381e-06, 0.048626385703877215, 0.05100489848210096, -0.17759023080596065, 0.06183707636990515, -0.053177528586127384, 0.03959614420941763, -0.06938016044306997, 0.0461875372158705, 0.2859451340054162, 0.20283777396631342, 0.22175932092711428, 0.34133570366187826, 0.058174433724580206, 0.29659804136117085, 0.4247846877748246, 0.6888902324635857, 0.7337515808231674, 0.29150074372202894, 0.12466188471580075, 0.2634512584359011, 0.4912046591199295, 0.13241405852823507, 0.06700162740005557, 0.1478177382327677, 0.09298923616970689, -0.11647764540034952, -0.003635694830991008, -0.01968125980707092, -0.09558860747438777, -0.10626800373361732, 0.001657992225253768, -0.09385971771567803, 0.09410908299580316, -0.013436557212761234, -0.025500096202472806, 0.09253500983917282, 0.07661114367659774, 0.07055998963231035, -0.04752109095927194, -0.3487031460163756, -0.4628532317289851, 0.08394867285308649, 0.49053718919189593, 0.3948434557662561, 0.25726724093430786, -0.34966240726817654, -0.5278531731341186, 0.08690975962010643, 0.15641302174413863, -0.07338766370566123, 0.16984756443071442, 0.43831722748909996, 0.05353131652880506, -0.04202214355094744, 0.06336480202804538, -0.027785219153680842, -0.07926056958459021, -0.17532786150419974, -0.021683848118565403, -0.07811594083938024, 0.10219035525706519, 0.07624521091677389, -0.10264618535547813, -0.07795279026048825, -0.06922257153967641, -0.6152824682953292, -0.7346861312439983, -0.7056237818995521, -0.018473015060655233, 0.3986175743295467, 0.5241972654346189, 0.7434444631267365, 0.1972643594288684, -0.33734174527762284, -0.12477861294113989, 0.11554206275608056, -0.011264595258258259, -0.12708840054290768, -0.18791682507833424, -0.2852002771543271, 0.031473710711817156, 0.20945082074553548, 0.1202619128989819, 0.18117645454981707, 0.01539759275036209, 0.1561479429572874, 0.16358725900503612, 0.16988204812871435, 0.1312073146681347, -0.2505543715304811, -0.4545829966506663, -0.17405624995816177, -0.29042595215024036, -0.18086329805921397, -0.3654564833629409, -0.128200748688749, 0.1110972558940683, 0.26095356161578603, 0.344997603223739, 0.619211660564021, 0.3048102186822365, 0.09894444477111326, 0.05426526967812105, 0.020303989206597074, -0.5411214491758776, -0.47077535384130503, -0.12957444900404594, 0.19834484468788213, 0.032342209680595466, -0.1877615017309538, 0.19771108056389647, -0.031222795727043475, -0.19887976446084712, -0.13540049305914048, 0.10990685700155657, 0.20480417024288777, -0.02676185761110126, -0.15181205073266288, -0.6445998873139253, -0.3698542951155879, -0.5077436083411844, 0.6266362054470648, 0.41453748079929736, 0.4198641795003381, 0.5758218323830844, 0.6526262740297368, 0.5868308784593111, 0.1630840829305416, -0.2787392669507515, 0.03499090425833085, 0.19957648762471838, -0.15086653712297285, 0.1911427185275114, 0.04481007711903983, -0.49114951915049515, -0.01710501527992198, 0.17046676742042866, -0.2795611637765865, 0.5173007661827244, -0.09176516610294401, 0.06293570362495653, 0.01006320365082738, -0.03663846413519177, -0.12985287028659806, -0.3068800553929902, -0.6835003973460815, -0.8579182015702269, -0.1989039835540055, 0.15731680905556625, 0.2991634447665817, 0.2048618817541066, 0.5463433437824499, 0.2846597300525375, 0.19772973552430056, -0.3173098513524808, -0.08952360937217231, -0.11960152903689997, -0.3443945528568914, -0.1541367765120364, -0.12799807448689124, -0.11192047070858042, -0.37955352840083906, -0.1474946401514637, -0.35396492640967736, -0.06387465843566822, 0.07446461750351797, 0.609710555075267, -0.10432140149985245, -0.0766686681339609, -0.22544781973699118, 0.17747270591831898, -0.11761053303878462, -0.4849961381186406, -0.7581873714334623, -0.08825463706199423, 0.29741635918809, 0.022561646667878122, 0.13901105576492573, -0.11949488099911303, -0.11701508670577238, 0.25651060646698554, -0.1406340346014274, 0.20368342173248463, 0.14105083923388928, -0.07722612348735072, -0.16079183563241767, -0.0266276038942933, -0.41963531315133124, -0.3289604643253094, -0.5744962658795666, -0.40706465678359754, -0.16474234957838832, 0.06686389707035478, 0.7211672833154384, -0.03944577398926769, 0.12687815724789273, 0.028836246411891284, 0.012420492561632619, -0.060520538431299675, -0.03436731117797131, -0.0480374683047936, -0.4076950520193472, -0.2282270444858432, 0.14004360725955428, -0.054105738601122236, -0.12272578877423719, -0.062110489287079435, -0.06553841905210836, -0.08899152880299298, -0.3412396835520969, -0.1830031840106065, 0.2526252067831221, 0.209514942781562, 0.38244802971898334, 0.17661472662593256, -0.18133998605445692, -0.5470946155528529, -0.6933427853257872, -0.14677998246396873, 0.18036044349803884, -0.18540665763190078, 0.3157476889805709, 0.5065705088268514, 0.19581424876418815, -0.07579669208901134, -0.07954952290544087, 0.021851139563869137, -0.15107691754034475, -0.66789311458297, -0.000799740576920116, -0.020640054053511492, 0.07470881078682837, -0.1897886394016145, 0.2534644287211308, 0.5109426187127937, 0.10761512368126427, -0.33635406817614627, -0.36826132011671747, -0.2982707527889196, -0.11025934175826425, 0.08134007243686896, 0.05660547949659042, -0.4054716066950262, -0.2934860144088324, -0.38476888783131796, -0.18341739537565532, 0.2937878837715585, 0.18693600448785092, 0.09370359922035741, 0.5169591256200858, 0.18155706592752627, 0.2588840564402989, -0.04351213446545167, -0.026017740122491567, -0.17151214955514021, -0.3155781359618715, -0.1225402983261064, 0.3327852914218147, 0.3539235987908564, -0.21072468180791212, -0.10104401697842638, 0.4482168444097983, 0.4287130409142812, 0.03746766262939233, -0.5178764420645148, -0.489622145931915, -0.11260587578761873, -0.031142910369985607, -0.04828470694732459, 0.02013971178701406, -0.16753201364452605, -0.09004838676422436, -0.06550189035829433, -0.017124442295945844, 0.5951392558610613, 0.7200706092979964, 0.5163610406702063, 0.9186611536915156, 0.26358890144751596, 0.3487375361816702, 0.16347621753460198, 0.12803292460022467, -0.07407416304860824, -0.22118294570496574, 0.3892917631707303, 0.5422706558101612, 0.3769916364143308, 0.09465024314446513, 0.35104776876643823, 0.5643690370930698, -0.08993659899399822, -0.21023224302385204, -0.6917479265932268, -0.4841261381525473, -0.17832416257801584, 0.021621245333437438, 0.3292407518785242, -0.22085467565938469, -0.3580896784844105, -0.2923416533475028, 0.04340036945708716, 0.09828891567693557, 0.43884254428783087, 0.6871073034672661, 0.880178657841987, 0.4364759842671991, 0.3418476637194289, 0.29694481379795706, 0.22458497429815297, -0.20791369855479908, 0.04105166152753245, -0.16151521885729783, 0.15552126818672896, 0.8989540792833534, 0.4720477898021156, 0.31161442456759175, 0.6200999888404628, 0.272547375094634, 0.11954625748279128, 0.21627651830256345, -0.23058827285026173, 0.06442768045066262, 0.09810563123171617, -0.0034037286267689817, -0.11372644565793465, -0.4255611391858351, -0.20713361106618838, -0.17113163825464442, 0.06871922997286324, 0.511024908074045, 0.5083338402083519, 0.9273238629305626, 0.19392869606953517, 0.14871559018577932, 0.29574530095882584, 0.33553908325839277, 0.09045066803285233, -0.10360799751849828, -0.07843958005329157, -0.08246996785385399, 0.08804639402675941, 0.519081636604694, 0.2952995609716216, 0.7395205683229084, 0.690440827189912, 0.39069061443118785, 0.0525474446548502, 0.07380402760634458, -0.05482562432872463, 0.07300329954967884, 0.2530727302726417, -0.11512236137194796, -0.3535230863792623, -0.1345285167583213, 0.026306433163829232, 0.09982196978868763, -0.25546443114765566, 0.06980932867340378, 0.20150971139039128, 0.07159991707141711, 0.021572548450948508, -0.20599505435499793, -0.04859139109064212, 0.04709632938763283, -0.017955750158138818, -0.02274799525271109, -0.12435143195291923, -0.15023254865065008, 0.6140202736384055, -0.032547266604562856, -0.07336857795515972, 0.5297315428971348, 0.29306924046752997, 0.2513863333451587, 0.2464358295426331, -0.0747262001054457, 0.27797825375063756, 0.13247036939150905, 0.1929620831098842, 0.03326641320914373, -0.4467457116265962, -0.34453378280465974, -0.25594742358488837, 0.24455489215963497, -0.08889680728113189, -0.14417823687837336, -0.3053652938806418, -0.24946663687062343, -0.25098626559004045, -0.28472646122711104, -0.016022874564393903, 0.03312480879796366, 0.0932002626740997, 0.009549699623373889, -0.07301970355804097, -0.007748397637537465, 0.4370145863067202, 0.1186241654482365, 0.019087765902078935, 0.6149402857494194, -0.02936775271442946, 0.46856165868428357, 0.03654438795726735, -0.08482991395880761, 0.06177999463911002, -0.32541813969924566, -0.2948211869647313, -0.027165306399411105, -0.44487956190387923, -0.4879391446331437, 0.2539610871069138, 0.16196060045912417, -0.12056357839063692, -0.4141797166551617, -0.20877615915479267, 0.2276703698214356, 0.30507088850722985, -0.17717945548908334, 0.4909598114484758, 0.2706480714685544, -0.2645900187221895, -0.13166142556919552, 0.06554692037563728, -0.059956394394510545, 0.24108309345605786, -0.5435865557031856, 0.19796725321385422, 0.36950199750301294, 0.2167282869094527, 0.8004036990891714, 0.6439659522083923, -0.03401720763298804, -0.1620232746217869, -0.574075498913824, -0.05547467049509681, -0.06376484224384528, -0.0916754902819574, -0.2143782701032806, -0.10728986762597657, 0.09432116779717173, -0.15985385119283388, -0.14252892051589933, -0.2736560884974986, 0.42165441843987694, 0.2778660647030859, 0.35992886014481235, 0.8803889673784151, 0.08702350236802334, -0.1168728476665877, -0.007058429488691233, 0.07500158774692454, -0.10853537120197611, -0.3494785801156311, -0.8235548712907667, 0.00017087214571357936, -0.28814644785894733, 0.3520661138542948, 0.60795115018946, 0.40747982013450834, 0.3084699041571181, -0.2520647491906919, -0.5148663542342399, -0.2624878459964055, 0.1729530770912952, 0.07262754642535289, -0.12357495472753333, -0.2541519046159392, -0.033152516882039094, -0.051044328226651524, -0.10131993655097031, -0.24995748528728623, 0.6046472175889004, 0.42400441482242784, 0.5028162792200119, 0.6622604336210056, 0.1342449615659459, -0.12774354750771386, 0.025545658206392565, -0.10601320690538699, -0.09962190376441588, -0.031181289594293303, -0.18269825180742844, -0.21578197891160658, 0.18168970551407718, 0.0856682378228938, 0.5062620194166434, -0.040607799567172205, -0.08900916902091414, -0.22300068550607766, -0.2076812444627094, 0.0546054943757935, 0.0508559350562145, 0.07070458828944799, 0.12183547716845132, 0.09399654370752149, -0.21324385424215367, 0.19917202981041912, -0.1401705599085503, 0.2650616900855305, 0.41140238220261793, 0.4707933385449494, -0.20976387613407763, -0.0002258099139598354, 0.09279110701413767, 0.10634655712986944, 0.02131579486035781, 0.025540184044713973, 0.48467182320619234, -0.012417796534913459, 0.40431983093984253, 0.48808704649689544, 0.36191602499114806, 0.20045305845911915, -0.3919849888827144, 0.009633357301031245, -0.21801529214354037, -0.28873594251014656, -0.2604195583016169, 0.30128083607438916, -0.11803853895028449, 0.2568801452477029, -0.01113972542141768, 0.18070105358565397, 0.12515344873722892, 0.36314919808957763, -0.15756099775024207, 0.18640595549774538, 0.05077702577676383, 0.07281947930846712, 0.14736023829055833, 0.215739136753483, 0.09467487942150274, -0.029505852065817573, -0.037627299348283814, 0.17650626287680332, -0.010220526619789467, 0.028699815887566493, 0.46932802113248706, 0.8704696852333886, 0.8494363134862447, 0.3250810485214239, -0.5826570576509582, 0.021829014944948565, 0.19225272977420368, -0.273143509876752, 0.0701206515795325, 0.29154734192589166, 0.009565061335242622, -0.25288186908223087, -0.2460043395264011, 0.16932293779144228, -0.21131934996516394, -0.11006023569233193, 0.25022729253357545, 0.05787476943416258, -0.1507377406917212, 0.4458943520457922, 0.18381779519232574, 0.1548542260551671, 0.10604225520557736, -0.012086237236739947, -0.02604245729893292, 0.14127266425360538, -0.15591255370550924, 0.29858946140830966, 0.7526908111467742, 0.5014625300240914, 0.36496331510131513, 0.32936294693530893, -0.16936882142606843, -0.2226996348263657, 0.03261055832539686, -0.06840088497547302, 0.1871364661624577, -0.09054688980344562, -0.1487784074373494, -0.5240868814711496, -0.36633223760400835, -0.18159083170827092, -0.21050350835572373, -0.026280493362393825, -0.08553801235194042, -0.2667398265652004, -0.13523322659937767, 0.4341381273371401, 0.04537901759918849, 0.06629429827979585, 0.08404531918679299, 0.04185058451164312, 0.04266955893785194, -0.10604812651505946, 0.08153442302755805, -0.04573871761651626, 0.5326293491552869, 0.4305602210964113, 0.3181397845401903, -0.1774602071624204, -0.043768654309403084, -0.35004778554876925, -0.431933992916827, -0.3589028327881365, 0.0635097753778242, -0.5594671272700141, -0.751303170275312, -0.31786402883058185, 0.19752423520492066, 0.1584018794236838, 0.15960430147208482, -0.07420887908619955, -0.009654138839765748, -0.08638762905760311, 0.16380361444249408, 0.3357516923123565, -0.2493219506939023, -0.003940285439334975, 0.024533648649060734, -0.18162964532777331, 0.08813101134322156, 0.14763800179542594, 0.009569123060512552, -0.20167335805657058, -0.26017033113123067, -0.27935354447790123, -0.3569554563922673, -0.37762646610740686, -0.29920175870614746, 0.03099548884734094, -0.4580850583852536, -0.37933802418025975, -0.3114184661642593, -0.4975792791300134, -0.40039591053967377, 0.03846497262631883, 0.234168936438715, 0.04532557495349467, -0.2670964770965522, -0.20033524364250588, -0.2473624261220413, -0.12295010297285223, 0.059623237226912915, 0.04819111921315178, -0.1131216560785052, -0.18406212035551434, 0.03394934408924681, 0.19894607423137994, -0.048356576701708426, 0.03332912803342638, 0.00474433216165205, -0.0636614838689257, 0.08268478510255213, -0.24859387671403432, -0.33907106157192307, -0.362171122690152, -0.31557914753855565, -0.45426384168983214, 0.08299932361156273, 0.15283447023857732, -0.16046173702081276, -0.8890849240586262, -1.239730194054052, -0.8743624064462814, -0.3852046169734729, 0.11107352861253766, 0.44481968280607975, 0.30330530431199504, 0.17482608073460087, 0.3793306614507547, 0.2486989322754577, 0.29910245893067927, 0.030495733949799743, 0.03927489825006755, -0.001858396111396061, 0.12820970615249025, -0.08817712884587639, 0.1291569311126606, -0.17858184261667687, -0.0289273305384023, -0.07721678903726038, 0.06086140699607842, -0.01352363093953077, 0.2505624072146998, 0.19351609408098763, -0.0029423069283898953, 0.09444454197314135, 0.014934510738252322, -0.20356003904681297, -0.24662127365372546, -0.5015867288630804, -0.09034472425024853, 0.1557437256157427, 0.5982202665610789, 0.4275398283646884, 0.4513575659279357, 0.7599407800917864, 0.31740643067471624, 0.08578867983248767, 0.22128319330966856, 0.015309599739471288, -0.12278194783416922, -0.15648613195842906, -0.1106190924390949, 0.10566367237057915, 0.09611619299809124, -0.1349930221245327, -0.010610344229047516, -0.010513355447093359, -0.013806110038136025, 0.2215884603270639, 0.024786746759862463, 0.061114770278663785, 0.041787387384117344, 0.16373540795202882, 0.14207605351653746, 0.02364217412532332, 0.11364596929815018, 0.20126863140211565, 0.08473701889718695, -0.06433001373174098, -0.15121454447242075, 0.017933634838663764, -0.03235773158476922, 0.1270196956837539, -0.15078587772107047, 0.15009706321229135, 0.05125161272782618, -0.05236154127512538, 0.01965056031238724, 0.04989781530834886, -0.19035643003993352], [-0.09303473043893998, -0.030981101764664218, 0.07490766321632863, -0.12412508497594038, -0.12509749578307935, 0.0016201092511709436, -0.015420509925316243, -0.08977733597196681, 0.2092827735249752, -0.05116176857353788, -0.0261151162330539, -0.0036705448150397522, -0.12884678783853934, 0.05212108084420954, -0.1977475388490996, -0.05321894173585958, -0.07461164588802988, 0.043962657937742386, -0.029202895114277556, -0.19101178889657675, -0.19610727618803298, 0.07188419931052803, -0.11339169085106127, -0.08428133669329445, 0.02200345205500477, -0.13093000981810354, 0.13896521749020194, 0.042155895191480004, -0.10175466364765291, 0.013135843360947098, 0.07334602352624561, 0.18623305624988556, 0.008194725039417091, 0.007227367973946084, -0.02650096813618683, 0.025943317235337954, -0.03523448441375734, -0.08693898966003803, -0.1321288230504676, -0.19830664754318766, 0.10268800426897212, 0.12171123619506903, 0.07709342253946308, 0.08738901874821951, -0.1269605213196053, -0.12259329120382817, 0.023273876727322083, -0.08133429188469903, -0.126878088140682, -0.19568752220162247, -0.09105829788614835, -0.13707566791597922, -0.161439508519126, 0.03547426454883542, 0.12294825902917564, 0.024113821664911692, 0.015309730872920141, 0.06231241360924292, -0.04684033068119314, 0.02898636217570715, -0.06038989986155143, 0.06482239806544333, -0.25072257118928964, -0.2690075167143522, -0.2465252046842505, -0.5119116357838418, -0.5796395153938936, -0.6507978441461741, -0.6854547428525781, -0.7285154375820964, -0.46874489930633817, -0.3915489766098945, -0.4681067931525982, -0.27801271788996174, -0.2540671271487799, -0.01795283049010516, -0.06866824771323132, -0.19884963487659352, -0.1412775795704237, -0.053254955880429646, 0.15740025764388538, 0.019738632963988798, -0.06935380816587944, -0.09854206184345893, 0.035420585859188725, 0.1201738202455343, 0.14019494955809506, -0.2077404669289723, -0.12933753086989286, -0.18297086621055159, -0.4696056533889714, -0.19832950909422553, -0.08482818955175696, -0.3404492946664935, -0.34259608182094503, 0.2488669460129075, 0.2757943905808199, -0.43441797357610706, -0.2684366209893468, 0.05436883663641675, -0.2270174380323469, -0.11727114967131845, -0.06320621742710404, -0.2970388810757723, 0.2075695954431298, -0.18000246638758463, -0.27896689995750246, -0.3544981561931177, 0.10549678479821306, 0.20260001183068468, -0.2723027552883233, 0.09750217727566307, 0.12720795169209537, -0.0315918416123517, 0.041725120127911915, 0.07374774850647892, -0.12259286436047497, 0.02600196078807146, 0.09493587101411578, 0.11633230382482503, 0.1139356406254667, -0.5486813692230776, -0.20104137811087844, 0.4654340734734502, 0.3694902415257956, 0.2533036138945124, -0.08005868154157274, 0.1061680072691896, -0.3225982689388892, -0.014888588385919043, 0.4131813972684641, -0.3005469537253163, -0.3953735397364973, -0.3708028153229368, -0.45348544436311544, -0.4792618241767459, 0.41493085886556147, 0.2903252178797394, 0.23041664029917538, -0.005054447627449536, -0.019797447222543767, -0.02189915196692878, -0.051713013780487406, -0.008321075130302228, -0.041945427131019966, 0.2664604505681819, 0.13755389006686702, 0.21500611818776397, 0.48198349193606194, 0.2538905377056894, 0.03824170425422992, 0.6676598027815676, 0.24428639340358513, 0.03567848823003139, -0.35602829925712165, -0.39188226602876286, 0.044621783293005396, -0.1815865752313257, 0.23680816310410502, -0.2745167210267505, -0.53099477108174, -0.19877190159077632, -0.0877693289173084, -0.6339286085503163, -0.6255430877964857, 0.18076059252274163, 0.00046933290994168487, -0.03652397234338733, -0.17239078528226542, 0.061188186557233674, -0.05564313414050442, 0.1963918205267136, 0.07453907697099925, 0.5620148318065719, 0.6854125751298634, 0.38856405414779355, 0.46069167718107407, 0.44669027401641637, 0.5843802042269214, 0.10171603009755553, -0.17417629697136325, -0.010697307549191308, -0.3718340375741042, -0.18936523835834912, 0.29087933245376285, 0.6662311778749329, 0.079415234322087, -0.15815185590360004, -0.032762128277537106, 0.08903507501842874, -0.33685337853642505, 0.11211172428487651, 0.2136518554002207, -0.12674701790837561, 0.25670519700651223, -0.10161134287376938, 0.09673733837832958, 0.10705657387703901, 0.05840983857101855, 0.37650147707216003, 0.46623739612875803, 0.9206761826949871, 0.6038946146438153, 0.3986336721385689, 0.3529685013434812, 0.38611626857269343, 0.09024860172537948, 0.06291179161202029, -0.11516095549646264, -0.33559162531641124, -0.5462790938202575, 0.021670367579823834, 0.29178641440406455, 0.18699634886104008, 0.009834895967435333, 0.26823163524798577, 0.10759467881886982, 0.3498593317193917, 0.028354683253439403, 0.48670495926476165, 0.07546312100666644, -0.009207298292666496, 0.3878539949050626, 0.007974722988938678, -0.1269110624986408, 0.06069971768112329, -0.037724984496451654, 0.4336819944239097, 0.5202445983807252, 0.950573810289573, 0.5878531297289763, 0.5048311443979699, 0.5569069558284083, 0.31133329263239057, 0.6323985446716932, 0.4525602789372398, -0.08508578299228266, -0.45903870340099645, -0.09185209289293521, 0.15522509379221205, 0.11622852827317061, 0.4616446053246169, 0.889529998110525, 0.2383005288721098, 0.03802175967606108, 0.5599061375398228, 0.38102566321957637, 0.2527723989706238, 0.4448165831351957, -0.019635306564512813, 0.24863113584528637, 0.0008596264987260927, 0.035865207555218895, -0.008437579412897066, 0.15815691364167803, 0.36522551798327796, 0.5298237183671405, 0.892354506744214, 0.8351699064994187, 0.17716649670682752, 0.44543624136430776, 0.473668621102024, 0.3571986584052961, 0.1518510997366972, 0.2415932187863922, 0.2290222418970442, -0.06830722600083916, -0.17607764460242273, 0.18991130403270617, 0.8206175098156789, 0.9101198634646256, 0.7718843382861459, 0.6195856132578204, 0.7753462150071098, 0.6344192034594245, 1.3775192807761185, 0.6847169574844207, 0.5474151135969483, 0.19892456269261385, 0.009856377281391724, -0.02576388003077194, 0.016288661196864517, 0.17588376286424048, 0.2598059622633489, 0.543835406026996, 0.5082877773236419, 0.3252225330314936, 0.11893109818154006, 0.17578682200596513, 0.26448065853661223, 0.4447247164382276, 0.5223310575696257, 0.5335483644623432, 0.39467588611305215, 0.03792186144215261, -0.6418551325074412, -0.11910876839338069, 0.7745554687008199, 0.5862193052132031, 0.4268066694256984, 0.4302085716239342, 0.6104008068454251, 1.0100013320872476, 1.3319009685811594, 0.9677059482256687, 0.5713293979448255, 0.4256802811104402, 0.03223411169082054, -0.11304480589865382, 0.08733952160529004, -0.060155448503936934, 0.30848951999342394, 0.6117903088839868, 0.928010567803617, 0.6132623356564784, -0.09885247190385753, -0.3736509756702015, -0.07991233622008348, 0.1889078974745055, 0.3748909863403229, 0.5507493188385428, 0.4119583202650336, -0.37177437509112127, -0.4936884118701345, -0.15986098971389703, 0.6681783225226156, 0.5154669984972051, 0.36050561314704566, 0.14461488756003274, 0.11999769130337896, 0.6661674636149132, 0.8774961739378281, 1.0149912649517627, 0.5025047698313907, 0.666271012414078, 0.06258110036084068, -0.028087626208304992, 0.06683455400911263, -0.09503151877504283, 0.3914781628783409, 0.6875678350368646, 0.8715110102375438, 0.49139219538773293, 0.11047295512603542, -0.17761037402249208, 0.04306247466024711, -0.284792578418148, -0.22109453750858876, 0.15909593983771947, 0.2581530485265488, -0.6520781837188449, -0.3790653337732764, -0.1812355533536577, 0.5532697118509332, 0.3849623143603334, 0.5645889219751454, 0.15762759805222726, -0.18518870646658034, 0.27329206666095285, 0.46715500647949826, 0.4405240726368167, 0.042423653147490074, 0.38673884601076, 0.10887898564249346, -0.08065842693789925, -0.010988569595597863, -0.08503640176399854, 0.13979989525833947, 0.6291682813577206, 0.731775953455183, -0.02881358700337986, 0.027365571208630073, -0.13080495157136407, -0.20008351779651667, -0.5057450069191393, -0.6317292462886795, -0.026889032038383234, 0.2607797446765985, -0.2577193837641979, -0.46585878378734397, -0.4007788929536826, 0.40262095154056493, 0.2997133262644803, 0.13107240134265405, -0.006563569902768194, 0.0044009349513741405, 0.0018817158381780857, -0.2953615707595696, 0.2578015716216274, 0.06140744697401147, -0.11910785915015351, 0.05798733312552489, 0.0558096276836879, 0.050363999443188756, 0.14170674881080145, -0.07670634838391664, 0.8185105355037997, 0.1508062603288364, 0.12929518579569851, -0.2153717561420173, -0.4015060733957774, -0.3027346546940038, -0.8077855228001265, -0.6376042588102239, -0.4309833792882393, 0.15993405656563406, 0.06553327187934989, -0.10129400842669095, -0.2329392326779221, 0.5962280791473693, 0.32864412340461846, 0.33994847888309293, 0.2073898538469753, 0.011304732645108815, -0.42465781221330107, -0.2878133156099974, 0.14623692512694011, -0.23153559776195873, -0.08821448588676617, 0.03167141942370866, -0.04963197140755113, 0.07685832377130523, 0.18921656430180436, 0.2063349747722135, 0.42820397156297696, 0.009895316536891461, -0.2709708645802669, -0.6535944926819607, -0.23685370558972613, -0.5889064616375169, -0.6881964816366463, -0.5301036929570601, -0.17334107867578286, -0.25095206322728586, -0.48166219954642014, -0.16108554785219212, 0.13212387122889177, 0.242542291155862, 0.170514159852201, -0.14774525919089204, 0.2439463617655881, -0.3870501366438535, -0.3350677207529643, -0.15971096009555846, 0.11107488190641895, -0.4797452160024917, 0.08356785633863098, 0.07894033632794237, -0.034152321477697395, 0.11469788133870759, -0.11371230031309672, -0.18145666456436182, 0.29578519130442593, -0.16452267092377823, -0.38412905355001326, -0.7497499410361934, -0.20154111943110292, -0.5799729360880514, -0.18393472752630344, -0.1970050548099697, -0.06325069125533325, -0.2211305519931692, -0.25782098081098065, -0.050506780203031135, 0.06550852070973819, 0.1354281429525541, -0.21744969050025595, -0.21638490185507098, -0.007324433359895904, -0.31657716793517515, -0.28598609200668573, -0.3892597123024697, -0.07805835407265883, -0.7014376990286811, -0.22077794236946507, 0.18467846553958145, 0.04718722196070224, -0.113843461961345, -0.34885932250087903, -0.08503602453220592, -0.009660136726250915, -0.17477747282562214, -0.11297842179401513, -0.5579191650900999, -0.17257277416345201, -0.04137117226567001, -0.2448980267396678, 0.019511281018533874, -0.0858206648290916, -0.7807847478645518, -0.6842081198990749, 0.012913456176548124, 0.38287234592917635, 0.4297517168243172, -0.102322441937098, -0.05978669792394572, -0.08935554926700105, -0.6485905768128708, -0.3113414493217374, 0.04281597456670588, -0.06360481782633316, -0.26241706897865075, 0.008475033878784325, 0.2187540028677352, 0.018874270640533305, 0.0031394934326693918, -0.006974954319143316, -0.3950719261187934, -0.23710364701585696, -0.04869137895778093, 0.15254714126010469, -0.22834594082126686, -0.0793653048338344, 0.03555057929976072, 0.24768635130400846, 0.3000504599156064, -0.22803260603990863, -0.8557308597201195, -0.3111791898955532, -0.030027825220086745, 0.24095086627606344, 0.08737393452229739, -0.15787123581092427, 0.2730608201766556, -0.3657741352380496, -0.5714831758441704, -0.054627795396079044, 0.035761390583561224, -0.3469683443258919, -0.1106145831145469, 0.2001867060566055, -0.09894085942804379, -0.029885239223295192, 0.06705012054114512, -0.020955019179868632, -0.49603474792323704, -0.7407474289628154, -0.012263477123658632, 0.0671236134554142, 0.12438849943382203, 0.24403954159005364, -0.39664807745880687, 0.12386581271051005, -0.04312548078104731, -0.05532037989488419, -0.10384289278637997, -0.14243169091462424, -0.24258776016449268, -0.0092372008307183, 0.11473854526219891, 0.1656169937672724, -0.09572597685044386, -0.39500119492733804, -0.32788243557194946, -0.4468929114251935, -0.0877461054786399, -0.215618747401016, 0.008488129810455611, 0.061230977428739015, -0.1596540461758778, -0.0749655515064401, -0.02372162808712292, -0.2534679483546956, -0.3354271824507668, -0.6969761450729333, -0.2677303417443903, -0.312334198692706, 0.025901951499562502, 0.52302957280996, 0.053460371881996586, 0.348891700676128, -0.0348233423981144, -0.26552602287825583, 0.019887168746764345, -0.22083838255501037, -0.41313853443973436, -0.24620622575235743, 0.1842898583479438, -0.15426269152331193, -0.3082718338716023, -0.003447195315988628, 0.10306615317740019, -0.16383354986126886, -0.004305941359672227, 0.057182233769429366, 0.2531171408664789, 0.02715317522315383, 0.028586424726694506, -0.04723511888092672, 0.11869029597200295, -0.04039393265292042, -0.16262701570018362, -0.6424728991740747, -0.26492760201622534, 0.014245087474021737, 0.00904474828199289, 0.1686627523117921, 0.12557855665735485, 0.4411605656163651, 0.0890565408718754, 0.006502438065944665, -0.2278344102040356, 0.010466002122005541, 0.0711912602233298, -0.030241649177739284, 0.3235036245700395, 0.32287859034109473, 0.03060170908858364, -0.07091199539276048, 0.05782688477567945, -0.0727898817179215, 0.7702215295976637, 0.6059003149342389, 0.276904888836795, -0.10085786077221555, 0.15613237775308594, -0.03614615273968501, -0.028616832784214428, -0.14360585334919776, -0.061704555996825346, -0.25805304490325576, -0.1257195153436037, 0.5362127819706136, 0.47006295987071356, 0.17941270033438142, 0.1827335847909882, 0.03486363438526862, 0.07793772975703277, -0.3015299734457264, -0.38165555348209, 0.06723566222088746, -0.2506228932012176, -0.15752029465553458, 0.3170102649550187, -0.19629971400313792, -0.11676276622642281, -0.2735787119882263, -0.23374703812358785, 0.4180905126324631, 0.5462073139246543, 0.40008573213725285, 0.4135290599823882, 0.08900312946307455, 0.10790811287140957, -0.13334012907495182, -0.18099332498251347, -0.14552766767828185, 0.07492816782050028, -0.025659208581888145, 0.06544162542692225, 0.42841063638206833, 1.4866467314197218, 1.2270245563854119, 0.766259081864352, 0.9361254206166829, 0.4115284171659123, 0.03389705072047274, -0.05165897135475291, -0.09722378067261149, -0.32361674081652214, -0.07074099660186436, 0.017130535504235336, -0.0888039510101602, -0.23340983352962724, -0.002604414906657579, 0.5496717786742896, 0.44165179198438653, 0.8179309693514994, 0.7182738316589762, 0.27116316155104364, -0.06864028971598714, 0.03595506430928962, -0.0588312538061468, 0.08403787110492733, -0.08366264921563649, 0.2635631084740756, 0.11349792240448826, 0.044125404312248886, 0.35737000295834737, 0.4834991047442793, 0.503422870758911, 0.7525438420038243, 0.7593246325181843, 0.8288674845485825, 0.6220134426826268, 0.6894207283171961, 0.5344027145955684, -0.07865935943573954, 0.25754963922692076, 0.525014607612283, 0.17506660274528002, 0.46431494133530443, 0.5432189026544754, 0.29313195340494275, 0.41762380770799107, 0.4223878800698377, 0.038944726658054714, -0.09264823046343298, 0.19666047600159067, -0.05882335728733739, -0.06799553147036877, 0.03625475420916823, 0.1116006274464219, 0.06525896993091554, 0.11719375206982328, 0.14406001834239932, 0.21361662553353367, 0.19179445323353686, 0.5641910198515143, 0.5389882242219474, 0.6790122227410843, 0.3541429091914884, 0.7080489255779312, 1.1702391871843503, 0.9721256169403204, 0.8444452940784202, 1.4443221486700941, 1.4299004058665967, 1.0664828544135547, 0.7076601733984098, 0.11554197251175029, 0.23910943854220107, 0.21459013032168842, 0.18981159250018306, -0.07616670770431913, -0.053596057421848024, 0.10490259594962016, -0.0811012363334966, -0.03188994519888088, -0.024437204531349097, 0.052329899785090596, -0.00286953846724978, -0.07663281272396666, -0.08203681961387058, 0.04331056255738035, 0.1351609777868643, 0.12575042512825557, 0.2903692645577048, 0.4524719716581937, 0.23655821784438089, 0.29344868497280047, 0.6555562565327132, 0.7468350076949115, 0.7111202815996179, 0.2693410013498066, 0.16353397493498004, 0.024838955605762467, 0.1712801342974917, 0.10373410060739306, 0.15688525502523334, 0.1376822532154522, -0.07705987518339251, -0.19810105523426214, -0.15991932704879577, 0.040326311754005584, 0.029481711634150445, -0.061622230815316585, -0.005707453197625199, -0.15072957578185542, 0.008805495001997007, 0.09046983247176439, -0.01264970413963184, -0.10988763055751122, -0.08285835152699804, 0.05697789335285961, 0.01773997590398399, 0.0978489510415219, 0.03488776887740742, 0.08390367730580149, 0.18063916861930546, 0.23023081252825506, 0.10805733837139725, 0.07815920894503216, 0.02521233003054278, 0.24064991072295577, -0.07194087231299165, -0.1419588443176988, 0.07725075040105259, -0.004913628662235198, -0.20999873473210756, 0.009356970504446593, -0.16628913915479848, 0.13571863746989057, 0.07126943688567593], [0.042506868360841485, -0.09105475759886435, -0.0012408673377366213, 0.06267736290965552, 0.2214198249522856, 0.06150635207907225, -0.13438229699891885, 0.056079182904441166, 0.11228722349211928, -0.027824391982083526, -0.1376253550147204, 0.16936611467060833, 0.10026864751522856, -0.15927882845077057, -0.10369816455927194, -0.16364695738856036, -0.07933066307587937, -0.09124466363952394, -0.02451137362160378, 0.056376600052288485, 0.11899060993855913, -0.1070058775224184, 0.038269089998307054, 0.12182230618436317, 0.13901766886951744, -0.052491892110045214, 0.06938389157898936, -0.16926111407578917, 0.012123083915954612, -0.013272457671428227, 0.154803176816445, 0.14367112996007103, 0.04032026978783577, 0.09565689253087742, 0.1747091340704055, 0.2923432647663761, 0.1728985440372525, 0.09713176363430764, 0.18778772032230096, 0.426680340026926, 0.43405746153216634, 0.2180799049827726, 0.07730747609453872, 0.24443800027746065, 0.4376735733732204, 0.168797051782259, 0.40312806396002565, 0.17537874241721796, 0.2647431170025452, 0.2895026515691921, 0.07538552218333468, 0.1281190608085192, -0.02143789073176061, 0.10235586852945289, -0.15354112320818328, 0.08132313858502316, -0.23549670198115868, -0.052081908079495545, -0.004033431544532831, 0.21160571077597773, 0.12327543455730873, 0.07616620490655143, 0.24573697575495962, 0.24991204103781844, 0.3466601578780168, 0.38900770876958585, 0.6646887624110042, 0.825070697129727, 0.7399713081209711, 0.5087392137942259, 0.5074913904871841, 0.5877208217673082, 0.5905875877122505, 0.5148958144638515, 0.5070394193247996, 0.45922396819281347, 0.4385223693790298, 0.5029994585485684, 0.3248630610563135, 0.24340677535253383, 0.3202707309614026, 0.052251607314696934, -0.04290734321411663, 0.1237004193283428, -0.10901338806228651, -0.10033561304628853, -0.03797105109054959, 0.014999325250311526, 0.03786350758108171, -0.023371274537163225, 0.1274475389716286, 0.4304939999101944, 0.8103760579852435, 1.011531700555307, 0.8128303213923037, 0.6758932635605167, 0.9698094939250635, 1.306379479886119, 0.7759295520766983, 0.623765952482361, 0.5998978234673976, 0.40798365739960096, 0.6707159371694329, 0.7647471926462479, 0.767600813031062, 0.4985812414045604, 0.43023245517307146, 0.6284428050222101, 0.30788371568731565, 0.10483382284905643, 0.02587832815504986, -0.053789811624209094, 0.18583602813568714, -0.04942026801113282, -0.04659520224734871, 0.1838210020305679, -0.08128108838564595, -0.06262336057500627, 0.10256984370635666, 0.1929135435118335, 0.6757497613382611, 1.186838178709652, 1.0925696412887507, 1.0677775328569634, 0.29691441837124927, 0.20773521546087814, 0.5078839764359104, 0.09334152142038081, 0.1832309751106122, 0.41228607167388265, 0.4936314024813971, 0.3090560093634379, 0.46863004233409083, 0.41885992353593343, 0.46551113424380874, 0.5156833779122771, 0.12814732438355003, 0.17024972087674478, 0.1288337283540849, 0.19151289714726297, -0.01671512758137666, 0.00858372088744085, -0.08627331251166216, 0.07423235298198787, 0.1204535768451107, -0.020592512561598844, 0.2714190034195401, 0.38140132000310795, 0.1966480972281805, 0.0915801817290185, 0.35342268524893977, 0.5275809334951733, 0.3229017696712297, 0.5030807495195574, -0.09366291466816458, -0.35187056903406444, -0.1226791510705716, -0.3387594012252085, 0.3441721363283131, 0.038281442740092715, 0.5619083951012895, 0.41817499465207797, -0.05138917159620898, 0.07234714985704356, 0.37465090303144283, 0.41324724519676187, 0.24577205059240018, 0.12732306985565744, -0.017691842079294775, -0.06747768921644495, 0.028756616220088717, 0.0007371871114435649, -0.3199867067791706, -0.38578784808594807, 0.45966752036778435, 0.3574396559457976, 0.41770544434706547, 0.843563140472239, 0.6660017534968171, 0.061370276180963065, 0.592667741089288, 0.6622041163695932, 0.4116093414137536, 0.5492174820419679, 0.4816496672081294, 0.15047653883551848, 0.6005308904154917, 0.09627087652942423, 0.3773312451430346, -0.047613030743410514, -0.6026500004435601, -0.27014702103721155, -0.16690676105542152, 0.3982689892585137, 0.07757859346658992, -0.008311702262284865, 0.07777210642047053, -0.015807599277659463, 0.03454826674380383, -0.12257016742567756, -0.0472647698804004, -0.5475883792886832, -0.04386975542249709, 0.0544690529819805, 0.04510353423216985, -0.01392154900161132, 0.16026646350197493, 0.47228661402423866, 0.9319857705156441, 0.38260181902082846, 0.5269331302650986, 1.1754348995231014, 0.6134411772397163, 0.1571078730933092, 0.5380038309942241, 0.6953093796035125, 0.48663659142163024, 0.502771031937315, 0.09893876388866099, -0.08445748929809128, -0.1813807648834534, -0.19942222702331058, 0.21023561140038077, 0.11057943614440727, -0.02812273905507973, 0.1423716390912546, -0.10198365078493263, 0.12950777108277212, -0.25944623623146007, -0.259380494769355, -0.4094225605930035, -0.3762255017421945, 0.16204442464951735, -0.057781031993483854, 0.2858933838550351, 0.5846227991272581, 0.3328459552381782, 0.49705139676388405, 0.7725617757203652, 0.6431730493103727, 0.8292940228257415, 0.5414737533660183, 0.6717936637180245, 0.5771998699775195, 0.4618550124737207, 0.3879914009310825, 0.08253237212593352, 0.07550603004104192, -0.491301684447643, -0.5001174154134779, 0.04213474670117275, 0.03740439857824552, -0.0554124415959812, 0.056984721067571825, -0.4471366769681915, 0.13802444808545006, -0.01606539851888815, -0.4342443873192141, -0.39539858418384577, -0.17414846282836402, -0.055773127231265804, 0.2100183252424549, 0.13860777084471604, -0.03043620236889378, -0.028843489541710544, 0.10953639243653078, 0.4297268923023648, 0.3488211144011851, 0.18288501066286508, 0.4463642401384383, 0.04309239979624117, 0.20794570706178875, 0.0026800764416151875, -0.16082971820716516, 0.06570855735184562, 0.3874317141698584, -0.00441343446606906, 0.18644109250871935, 0.08727372400076708, -0.059530240007140106, 0.00984500334049906, -0.04753206635659632, -0.17895550932930834, -0.001294411794251415, -0.5309204832401274, -0.31126327901123574, -0.10326896886633469, -0.047577893881082606, -0.0764740750605656, -0.26628661631397615, -0.41204379415979386, -0.23061743621589537, -0.3097696599297087, -0.0074250383090313605, 0.09536708373115874, -0.3537193444850832, -0.2139368078003628, -0.07852221910797329, -0.09805495597078512, -0.2075710349081344, -0.06294423352172074, -0.08861540946912008, -0.13701689099570308, 0.48217176951627666, 0.13433811341554006, -0.2390015800450401, -0.2939110212992849, 0.03899887851373666, -0.06929899813779536, -0.0019204466401532307, 0.15763845364774715, 0.14420348249910903, -0.19346225855738694, -0.4312327571136769, -0.06452271940878235, -0.1812407964907092, -0.6659582799004713, -0.47368968266291467, -0.5354462851179926, -0.44403984559157467, -0.5138581695221296, -0.14707851175846373, -0.4603891940515741, -0.7508355810296334, -0.5758078241982589, -0.05201583729896644, -0.15693823846335272, -0.3562661253295058, -0.18498788669116709, -0.20383967691065916, -0.1922176254622386, 0.10334547778400928, 0.43013242430979526, -0.5222606112233336, 0.15767995474817567, 0.023148461217147424, -0.05388390523413121, -0.06275071574976111, 0.019946523056960427, 0.30058491703884477, 0.5140276288756388, -0.21733392664318152, -0.28056527573493334, -0.30405660979496973, -0.4612785753673072, -0.3288897635506729, -0.5663309292099787, -0.3636356752275284, -0.5140767761055864, -0.5639306515311007, -0.3391310168049442, -0.3902681532995046, -0.30991773330382194, 0.10548453897967627, -0.09462103381457998, 0.01687219789702699, -0.10490007409005973, 0.052022666423187494, -0.18964916380918348, 0.47007881166011306, -0.1796397133119276, -0.6837631655866736, -0.13170415642893002, 0.10586691147732356, 0.04153148750589442, 0.039239072181483384, 0.26911663827586896, 0.2257700082260853, 0.24725624051278927, -0.29875448970119145, -0.5786706840658575, -0.5462966555801367, -0.05017727055356597, 0.0025999847307209304, -0.217537311515874, -0.3800709906977187, -0.29882165135809996, -0.2000705715513948, 0.2073043752182217, 0.018951020450807227, -0.19939877036303336, -0.1219318838180845, -0.4271756607468326, -0.2119139630241686, -0.2816089050276305, -0.12152000179093995, -0.35956411240557906, -0.29877548731926423, -0.4628329246155698, -0.5809053426708779, -0.27552806867132307, -0.004129417120882479, -0.09930442314942182, -0.2051787217092255, 0.058357741524130355, 0.0938076704889652, -0.18945987926667404, -0.6309897618178839, -0.7003602387662688, -0.2786565059967068, -0.3047874460206624, -0.05087776849146859, -0.07537574668698332, -0.23997663945523395, -0.4855135686658356, -0.3393243909868769, 0.026715607148940133, 0.06866979595633305, -0.47195648766469783, -0.4774527005942921, -0.22596472902023457, 0.0033784900018377514, 0.06323249397540937, 0.12734937379942823, 0.024915064399158852, -0.46847266063144394, -0.08667900667101142, -0.14629125833375942, 0.04503865681194282, 0.028615824438533798, 0.006280363758358996, -0.041890087259630664, -0.2865737157316154, -0.10280807238675752, -0.612285024075904, -0.5200822959114267, -0.399603901425559, -0.3631454116118715, -0.21933470344889522, -0.37020457719301997, 0.08285149337472905, 0.07140912242832277, -0.08282589311432274, -0.1731695211890449, -0.1630261754377535, -0.44893437137055714, -0.11317215698808183, -0.524249403892655, -0.2057074273874294, -0.3048549842339284, 0.25757747626232, -0.047410304855164655, 0.05906116489922812, 0.10853697406090886, 0.36465691612348144, 0.13204692530985063, 0.20905130537864927, -0.017459491532685417, 0.1425774941861476, 0.0005821912630432424, -0.04115439801149234, -0.3163545324406885, -0.09374775049502045, 0.08153074074625519, -0.02487051390028213, 0.05455879605241962, -0.048897302326906845, -0.10101869313271868, -0.11194039705534624, -0.032243006810900636, -0.2486355382319725, -0.21861470582125067, -0.26543237672959646, -0.4233918155337741, -0.21354596793039224, -0.4512480107636821, -0.3119367435395266, -0.189515838406428, -0.2454919064662453, -0.4359001243461667, 0.07080329221264246, -0.007917162287919458, 0.4286535765817166, 0.07921288268908708, -0.10888111896666779, 0.1909654694493162, 0.0353524736032926, -0.03139111378604669, -0.26338231898010944, -0.14151388835458362, -0.20291648731652007, 0.09570539727412518, -0.292044169931916, -0.06305014101362082, 0.06705599714368926, -0.5668508741555777, 0.06828218381305569, -0.17041916527211273, -0.5476253320956227, -0.6691004456646367, -0.44489654669255735, -0.17562454642211997, -0.3144581555567372, -0.2154639181259554, -0.17223915942289098, -0.09486899962801852, -0.0765225522396875, -0.6230018735401199, -0.19005382725602882, -0.07381911489157045, 0.32274995349140473, 0.5295562880530983, 0.3629908136538437, 0.0516022451599974, 0.008620241890865124, -0.054154161403010034, -0.289247264512363, -0.26812100154979684, -0.44178254061281547, -0.10367592032929672, 0.1219573432169639, 0.14808755811222205, 0.2947374912270687, 0.21460542213568864, 0.4731790267222196, 0.2894179991235228, -0.19902815312002994, -0.5094731472992331, -0.22631584647551048, -0.13645153251335265, -0.1737130843495121, 0.02746584733542545, 0.0790923788058924, 0.04450416776223854, 0.3139829644862402, -0.026853914443532297, 0.19741092570824387, 0.44800434779124815, 0.4129370008015238, 0.5827402604027092, 0.2536467781749789, -0.0778482360721704, -0.016347708059875496, 0.10170438014668948, -0.09804141283000603, -0.07149614060651172, -0.25207843533386104, -0.2955422430127601, 0.30339920843528284, 0.4779415409613604, 0.3551111879297867, 0.5026024361952688, 0.6353203373238466, 0.25743296370622254, 0.722964733705647, 0.21048974867717646, 0.13176766539780693, 0.004469607380381901, -0.04722131782705518, -0.016394405130222115, 0.44662041978448397, 0.9446086778555023, 0.6751458982845314, 0.6916268821778307, 0.7927648945904556, 0.5618893068632815, 0.4408023180075629, 0.2993822637703511, -0.06592583587264361, 0.07777086653260656, 0.01377428897087975, 0.005704025927064787, -0.04762801648950739, 0.04460728899806753, 0.4636843360195512, 0.5654262224071596, 0.8984265865687046, 0.7063895139544174, 0.6458011531246032, 0.6224451346008062, 0.8206475107656366, 0.5384312297597793, 0.4915350156640374, 0.37503574297090364, 0.6020153478117094, 0.33662049358907886, -0.10540055544728374, 0.2618468248300442, 0.9315030193117045, 1.2323709138819252, 0.5392407598656325, 0.5700889913069512, 0.7066572331384371, 0.29715297991895917, 0.18160990529611598, 0.042228049984629284, 0.10213738778434894, -0.06276476036938358, -0.169055634593258, 0.04299227342127842, 0.059543473624431104, -0.09981945054163918, 0.30184901955625, 0.32214033745906523, 0.35493156571566303, 0.3691599091165237, -0.08652030855571105, 0.15101110756653485, 0.28363344340338054, 0.13936447997483475, 0.5498255819961769, 0.5524893056769892, 0.9175799222757463, 0.4317156480493643, 0.24288193890319643, 0.1129591775828777, 0.7422592921589367, 0.8287226491683238, 0.6981158961044163, 0.43524911319063125, 0.12541168257438606, 0.28790034339427406, 0.2490847568576968, 0.060859597700870245, -0.16902529315580792, -0.13882197983478353, 0.05628261104220407, 0.12439589211488522, -0.032381069256636454, -0.09041736038058831, 0.38886092163636343, 0.7898016794343065, 0.1353255044239967, 0.5053830213567987, 0.08164216009855953, 0.44037011717333535, -0.13995901035834826, -0.09595496791367407, 0.34144829747414046, 0.4670222072822112, 0.7828252448374043, 0.37872967931724416, -0.0748850491381074, 0.32882328992127613, 0.3040799171176366, -0.1593904137405194, -0.12934337821889316, -0.1677290103338325, -0.11849037085186771, 0.10825661865475626, -0.10756538435171387, 0.08484653485539961, -0.10293197629438683, 0.10466283811806722, -0.12181365947518959, -0.16644606421979932, 0.02772046364617246, -0.11154278869413882, 0.3377461759875191, 0.5620084324331134, 0.26622938801258234, 0.10291847209735111, 0.190009106933552, 0.1454889165787324, -0.03923157156620577, 0.0921804989218278, 0.08042217223512821, 0.5935959469448543, 0.12637082034589334, 0.5393935898642591, 0.14623406520646537, 0.06873138448295354, 0.0026957082583267482, 0.0017045716298539858, -0.009312784675761894, -0.2237315599466912, 0.2671396102804079, 0.14391931451555184, 0.19430537118698124, 0.03994599895115521, 0.06613994941806857, 0.06009031112351087, 0.1206986309327413, -0.13350149928393795, 0.013647284233229293, -0.12969578378427044, 0.3780520840052621, 0.45887034081500305, 0.7100503365849408, 0.10448284783508706, 0.24278888031367618, 0.078438905125495, 0.18886493096490817, -0.2721438001681722, 0.1440938163825905, 0.1911900763837741, 0.19899633183800533, 0.3970868472838337, 0.45042548860949777, 0.24890951757833568, 0.15469805698806724, 0.2122780502243935, 0.12065044163206981, -0.11987203900574181, 0.2438531545114795, 0.1824556256843318, 0.2084671275135792, -0.013630552690329981, 0.06759851602628134, -0.02598285341115158, 0.16126473827383134, -0.08266715675923131, -0.05449872153932389, 0.012169614517608207, 0.2730137093048688, 0.5315028793368258, 0.4678421756455757, 0.6637281546326493, 0.7670264845113112, 0.8934836266760262, 0.5964759243903069, 0.273628761079383, 1.04476414627231, 0.6679704045018651, 0.33053147887316303, 0.37442726778475804, 0.6795333914192069, 0.4381489808919837, 0.5725483031236531, 0.655491967727212, 0.4891196156602622, 0.3416039786595773, 0.3620675098012861, -0.060171053581404746, -0.09253380973367138, -0.030981572802177705, -0.0668924865965476, 0.057629366886091576, -0.04318484464986838, 0.045024935145887776, -0.04533979154658318, -0.07240184928110727, 0.10225166176802138, 0.22512883641578232, 0.5000651287827317, 0.7194783178181017, 0.7281105150156716, 0.9310826010868937, 0.8924169960415611, 0.8596012513017672, 0.7924853345800041, 0.9350550926115041, 1.048598021475069, 0.7102879306351922, 1.0302932903902131, 1.2002558918311075, 0.9015707342718202, 0.44093866317035096, 0.47529419758534514, 0.6967203967774682, 0.27297606536289293, 0.12259534167095579, 0.13158090714891899, -0.01132895250631336, -0.012630087233083412, 0.1489108011360503, -0.16387206876086854, 0.0309516071690243, -0.15120032568801917, 0.037762491154830574, -0.05420469948823073, -0.1490147562183148, -0.04991630735913405, -0.07937857334090741, 0.032128880139645086, 0.03275499981800952, 0.17513065796453875, 0.1288035132543484, 0.12424011741422986, 0.2160962430439924, 0.5756986542339939, 0.32121851675264906, 0.31620791583543056, 0.07958585537921425, 0.30364138184519524, 0.058310600629399634, -0.0014579848683836361, 0.011391843947465227, 0.16817880716169076, 0.060439938572804316, -0.07907060219270189, -0.1193789836102349, -0.013331390145081438, -0.06303882504381565], [-0.021250428057262263, 0.05541154315052093, -0.010416527840133296, 0.16656264343384392, 0.16270678346156683, -0.21156908746834777, -0.13470715800739794, -0.12298798189075447, 0.1217502259867595, -0.006894355678465077, 0.10324212592073177, -0.15574956295285167, -0.13126876208351035, 0.026218093173797564, 0.022628163203815114, -0.12669185345570214, -0.05624276931871939, -0.06290095053177795, 0.17959997615260193, -0.052309443526086796, -0.05093883924417434, -0.09150948068609677, 0.06143575879445802, 0.012424621285208706, 0.11221327206673289, 0.17329167120114553, -0.06235852452299408, 0.0008811001229588131, -0.11859718637316569, -0.03917618255701017, -0.015509438310912, -0.04867402361627367, 0.06953433578291357, -0.07623006456161996, -0.19205983499768023, -0.004765611573131312, -0.09007365311696183, -0.021099760387512097, -0.03235703472006312, 0.17950872413004226, 0.000623825678762731, 0.1357601925478504, -0.0006960635855467755, -0.3346807159458227, -0.07749370275428002, -0.13263929867894497, -0.09624416234831544, 0.14981183371625323, 0.017523280857206093, -0.060452298915608715, -0.05420450841658818, 0.18120304141776677, 0.1111459702924516, -0.0888739102098149, -0.10894317196731838, -0.04800070569569688, -0.23057450778884558, -0.06241490116375964, -0.14398875670219524, -0.04316864277352004, 0.07651751155679262, -0.10846057620700364, 0.1327793647140742, 0.08958327615258951, 0.11418445461224372, 0.4268504292360471, 0.3353960086230642, 0.5424135773548975, 0.28069146996689287, 0.305709422852941, 0.08014173328895037, 0.1566551323987733, 0.210291139573027, 0.12343329140708698, -0.24751464998144337, -0.26191005196889455, -0.22450585779394222, 0.1935761546345729, 0.12941315891631616, -0.1598686428644663, 0.13305433112205436, -0.06449469403190099, 0.057269139754875846, 0.007779905455647983, -0.002912941846675755, -0.07830187268298584, -0.0341664393873918, 0.012380746910807311, 0.08758591391839556, 0.1992145984485183, 0.11579076158297938, 0.12075824499662412, -0.03170821819708325, 0.11808610097253713, 0.1859724754270622, -0.025954328959849764, -0.014156570137121773, 0.20339195858669784, 0.21826080337685533, -0.05684249540417184, 0.21906953483763852, 0.08322260232349425, -0.2327115710410764, -0.1710792344184738, -0.4384360761272351, 0.09961413333536012, 0.2112437141578256, 0.1822131307876724, -0.17729399938233367, -0.23221126457502167, -0.040785147954105, -0.04607557810728563, -0.03382408483185727, -0.03720978678753711, -0.21028444538705857, -0.257197383192854, 0.020080911245240824, 0.08662261696932196, 0.2415341912054168, 0.24288389841541402, 0.02297820837314873, 0.32141542230343906, 0.43101869801647635, 0.04275635659232941, 0.1207384928852861, -0.107496962825816, -0.004648822000274276, 0.2288893632831147, 0.20676543581280785, 0.08238924191171579, -0.06675312886407757, 0.10255175017561122, 0.2164949612779933, 0.2431041385048659, 0.2231715235443972, 0.16129182189273664, 0.13523426646540468, -0.2629487596334181, -0.315701225061035, 0.25866221361509273, 0.057260223264451654, -0.07433786093689476, -0.10370481078725023, -0.13431470225270187, 0.3130239639547094, -0.03402992157856702, 0.07591862366391601, -0.09740208888723188, -0.4375139055583741, -0.3794002754219131, -0.23430010379335198, -0.23234636873476108, -0.22664904599850302, -0.16464997917840288, 0.2142818996088033, -0.09348403941581163, 0.30899977954292485, 0.25672355272630976, 0.26335243635640143, 0.11633466038187684, 0.11182205618337208, 0.3092661218057243, -0.5116697502545854, 0.3121985113306368, 0.3272854651320317, -0.14323685147343104, 0.17152264811707585, 0.11661357586786433, 0.07426091466631589, -0.0691848008833178, -0.01411228892700592, 0.13252897463278462, 0.07946961965823011, -0.4149458210248205, -0.2233716461882658, -0.10279940699606835, -0.49978990448938476, -0.2982104530235339, -0.24320835909796598, 0.08927193007688447, -0.22195514806134103, -0.8750517589391406, -0.5976232448959999, 0.04864111682848551, 0.22645800818421205, 0.1127459444065674, -0.2954006901461585, -0.25286529071540215, -0.001949023201635007, -0.34205769005303716, -0.0069387976542626476, 0.2841344220340974, 0.014205926135514725, -0.2139670255385743, -0.16413981265387537, -0.029487385203511827, 0.06984188878716649, -0.2717471655277296, 0.11204416474943409, -0.0028661225506808044, 0.20638665487064217, -0.12855185660100393, -0.1294163556121632, -0.21153638684183682, -0.17000340877503445, 0.23625374207217872, -0.16472695656356906, 0.1569938725643575, -0.3613368830663595, -0.11618585739853556, 0.12712119248291753, -0.07055748038167138, 0.22763806658209776, -0.05129288650669773, -0.00942386198940943, -0.3064977876747586, -0.24819281100136886, -0.45600913521955777, -0.22946611652309082, -0.05310385520393601, -0.2143104084810933, -0.3238657098722767, -0.2538754219674097, -0.032448756076362176, -0.013381474597888684, -0.006352164234796572, 0.13725182582002945, -0.040657036965680765, -0.4150029058067084, -0.481911811375756, -0.06806398110024237, -0.11637313344591099, -0.3126477980329136, -0.22030429830661066, 0.03121869634764706, 0.05818892891300904, -0.13289967616791773, 0.2081176541575879, -0.03700725519092535, -0.23857850645453565, -0.11716501508507794, -0.07247356440673437, -0.36199965738220646, -0.10493626516908595, -0.24406456705297672, -0.582591993166421, -0.7574587786366408, -0.18768227991626132, -0.40469390842834885, -0.07861008426136838, -0.17588261276981257, -0.11649646468466358, -0.02211154893723636, -0.15909706032879922, 0.06265102631768787, 0.235720081764875, -0.5817121496510442, -0.5819490499082528, -0.5574548711587535, -0.3190345340797838, -0.3982307188231012, 0.09955573245179165, -0.024569646788155694, -0.37065211512623464, -0.08141912018328441, -0.21074508143972995, -0.26455885811496804, -0.30498456327259044, -0.20932649690391833, 0.1167901796636902, -0.08841944959121045, -0.2243569271626289, 0.0519523805604128, -0.14256746681359014, -0.432565249341942, -0.38768703077746924, -0.36835375261731035, -0.3101872345929742, -0.4583583383233616, -0.14651619215904194, -0.07903145422618583, -0.03948897676868358, -0.1343618441155669, 0.5732243345102376, -0.08834655873558525, -0.03407875827181178, -0.319852841414858, 0.0687346169663687, -0.36509562349726343, -0.0358912840592257, -0.17367084154623547, -0.5167767333210697, -0.05664315964697377, -0.029774705232239834, -0.3200192097667856, -0.38309954657047707, 0.11634461548018814, 0.2787410873853073, 0.14255434628331423, 0.05720076931395196, 0.21685049417445756, 0.001674312506997177, -0.466606151821226, 0.3461287429445534, -0.2415206927528095, -0.48858852156892263, -0.3694907455908481, 0.020540987489566894, 0.03269025199572924, -0.09875183665799823, -0.06814392152030402, -0.006713319670667622, -0.42020780176354033, -0.08874118957628888, -0.11019886968695264, -0.014313841805585235, 0.17217493917946491, -0.030990359173805018, 0.13439710734945198, -0.07624098360684893, 0.18948239679515191, 0.06030900192660257, -0.13304099152107532, -0.732762682253916, 0.3255571596102238, -0.1631746857554072, -0.14077503969076635, 0.1747299467412454, -0.11400159879372208, -0.6445174325260609, -0.5236274944951371, -0.12456059039659009, -0.12850111245460197, -0.38057207728780346, -0.39748462181276484, -0.34917323005056794, -0.018916395519105834, 0.007455487969200096, -0.04913527713953428, -0.3412669422238097, -0.6164200141713636, -0.17132997769807246, 0.32928742287595586, 0.16883972363546712, 0.2525818999191115, 0.11130349708877775, 0.12756209514018435, 0.07733210070549384, -0.14847323452896935, -0.0960405442348125, -0.8953769967441173, -1.1178816811534982, -0.7101224435261732, -0.448436103526848, -0.4823200718064239, -0.2826553642673721, -0.25612441154019017, -0.3745671723719244, 0.16518240135242238, 0.19963612932676175, 0.1901903553194613, -0.2176838143216688, -0.7533315037315036, -0.23692541173845746, -0.08290725931534554, 0.12133082397159556, -0.14877020715288283, -0.46007714741311734, 0.06642423304408354, 0.26881499943310033, 0.47429307880663957, -0.04130676706760704, 0.30346979286701686, 0.00857131579215957, 0.0861670872712204, -0.06685526608560892, -0.1662906409399841, 0.008801409210105427, -0.7399510051331984, -0.7877699952728457, -0.4800876735184051, -0.5479196764432931, -0.15823050280657122, -0.05376279287389141, 0.22701006871222632, -0.0013162415617223506, 0.4950782601354592, 0.9062410020231402, 0.2805053601321072, -0.1756265751334856, 0.01662527606578428, -0.20741705823958678, -0.18876069315660515, 0.04769359161205008, 0.025405715102028523, 0.31572590510347986, 0.047151797570278764, 0.494551303649061, 0.09167267427225713, 0.332597491535351, 0.43379006648909063, 0.6431703350290645, 0.45704233296310603, 0.23704237450893303, -0.025533962221500353, -0.39195473905408307, -0.4007695943652626, -0.7031727922222594, -0.2874804564987299, -0.4429374031913406, 0.021498705878826102, 0.034206102309933026, 0.34096721039792827, 0.7239652750489591, 0.7534057928621612, 0.2804954253006843, 0.371039253649795, 0.28602198479465635, 0.013125660399463982, 0.12204732917646172, -0.13461440102296232, -0.0016721629074024685, 0.23076124191825412, 0.4177977853499872, 0.08231424832049118, 0.38778141011975487, 0.05600426203641434, 0.4391683645473531, 0.6542024785533516, 0.9952985579011374, 0.7335431848521308, 0.4873845928976507, 0.11345778389052573, -0.20892483762498268, -0.2716946822561965, -0.18680461411446028, 0.04585678612610886, 0.17781778927236766, -0.0768954782521465, 0.46521932865488796, 0.22754255835974402, 0.2236073257720986, 0.44884756605047477, 0.011029485189724011, 0.10543055891679463, 0.18778957293488505, 0.18902101656308937, 0.11931264502495215, -0.12004687869243001, -0.20156070560231176, 0.06458159604893882, -0.17306923545101072, -0.29726479117494575, 0.320352842647015, 0.3725443450936599, 0.3219417318173242, 0.1309426265783085, 0.5310625457561575, 0.6954313398729592, 0.7513584515161826, 0.14701289987352734, -0.03069804751708551, 0.06510734110236496, 0.5312983320467484, 0.24168810579601943, 0.27184725060877213, 0.5762781933736852, 0.44234075934604805, 0.028416616204286486, 0.2267089069380862, -0.06977188379758285, 0.08776196635635482, 0.2593547536429019, 1.0018343534161132, 0.43470617645314635, 0.03700067407934724, -0.04007071820127675, 0.04486419612278138, 0.18563366008722706, -0.5036581053949943, 0.02258876381099914, -0.1512014981411559, -0.24161433571058746, 0.05588997580262874, 0.12459946185083086, 0.17853402867689588, 0.4921076316475152, 0.14002000831737105, -0.04208351053511283, -0.20700487883228985, 0.533081088156796, 0.6401629251389219, 0.5292779690939636, 0.36693224990511175, 0.3961710395534715, -0.13619365834597671, -0.2909805011619628, 0.34275868196344467, 0.11833553352158804, 0.13000340485867184, -0.1039226565945648, 0.8954355162059604, -0.2279531673299596, -0.003926174360949675, -0.1818599902564628, 0.035001243455306766, 0.05336007688867299, -0.26847018832022834, 0.19782974487090588, -0.20379586316413756, -0.41908827469928484, -0.06486985986724154, 0.10388505640942826, 0.25054871249251565, 0.07259249265669374, -0.12331777897726943, 0.08295919412828118, 0.2631208477996009, 0.5890132052366626, 0.18654796975135152, 0.4543121969743536, 0.21973574720828493, 0.20569264529043416, -0.15300346136554213, -0.02154850657973525, 0.08176378109960045, 0.13541122033678515, 0.5460947049978736, 0.3445281143033705, 0.3996472026961881, -0.369894151895744, -0.00029589210881776157, 0.11897198963301994, -0.1486913484645109, -0.20083061320680795, -0.15895043651801768, 0.15664777491426485, -0.15056250452190548, -0.27614789513488985, 0.06695835386024333, 0.2036869501524913, 0.5944434419336198, 0.503477959848775, 0.5157759172783104, 0.0963557822088179, 0.08138097720655414, 0.1677640075831894, 0.32520568932193156, 0.05319167203271585, -0.14963198315639076, -0.2684017866670928, -0.1932123638144646, -0.3461426251619459, 0.2255904558398501, 0.036737101005676384, 0.42669695837513966, -0.08995447054646687, -0.0782031639459108, -0.07485744860642668, 0.009428266324075622, 0.09886989289618765, 0.2302718540972017, 0.10060007293473915, 0.006963406054325699, 0.24943793133679407, -0.1677227900224171, -0.14126203925100103, 0.5333575279942168, 0.3194599307769563, 0.339418781976432, 0.3053722005713504, 0.3412301888169496, 0.41981924606900334, -0.44163863124254726, -0.09576831762007998, 0.22320834627414537, 0.11333620987441526, 0.01563363597752961, 0.16234310235209218, -0.2709172654235703, -0.3903428636058093, 0.23193483534434467, -0.1100595174581885, -0.12431426224492917, 0.17787574074885634, 0.04362494048800819, -0.19488282434281515, -0.0863937696684312, -0.02398218804074209, -0.08319972056786315, 0.20239392292949046, 0.13359636311567138, 0.2798168378026693, 0.5380430752144724, 0.248865757009952, 0.3524766713714799, 0.5074441029264176, -0.06593846981704911, -0.00767620776706751, 0.019567989561397884, 0.2874785709528636, -0.029539981202235416, -0.2735596702716062, 0.1524759805836724, -0.15784500380546565, -0.01303303818789324, -0.40305626955138446, -0.66500562163719, -0.012148520067998185, -0.09435402715427293, 0.12359394565455316, 0.14956433251297152, -0.32728684030843114, -0.30658415237798453, 0.12748015516386116, -0.1212704420494752, 0.01680609332888508, 0.02934138569596315, 0.33894644905085486, 0.32479995896012387, 0.5019099451186855, 0.5165286981614086, 0.3460342671590532, 0.4726206341789133, 0.12872354485418835, 0.15451678360737608, 0.08542629198562088, 0.150268621413151, -0.013673476505502529, -0.2995489887373682, -0.5281810587293158, -0.13016758646519322, -0.2719252934842877, -0.46622577573497526, -0.14859018456835507, -0.5961797105348771, -0.32710895175033, -0.007344172226167589, -0.25220212841130124, -0.31335688468474404, 0.09743533374219521, -0.09110024611516042, 0.017464103526048, -0.12059419829849373, -0.030514463419646577, -0.04286585357456672, -0.001080896771693351, 0.0657769739408057, 0.23599196608723558, 0.1856467121418789, 0.41795401453358205, 0.7401827294545221, 0.18405864654764023, -0.41108236406364385, -0.4849483169032509, -0.19047705021176167, -0.37055010615801715, -0.2913854555076758, -0.5222591167191383, -0.4283965713711041, -0.5699199338777651, -0.7265852134976968, -0.10452157429677218, -0.0661322826831223, 0.034632190824167644, -0.10691252053359189, 0.019554234100201778, -0.4277700168772614, -0.0791696311255572, -0.033898446189211354, -0.022224679462639705, -0.021613635332841906, 0.013369972065128114, 0.03556590713241111, 0.07171785238548883, -0.3724655007083506, -0.2550601003286092, -0.09934214380878821, 0.053688429982437995, 0.09393205940559501, -0.32596086348742753, -0.5069374414785587, -0.7730107897773929, -0.5361023495995296, -0.827825342128386, -0.5958014497535647, -0.9063126539204122, -0.6668157025784597, -0.56639064709186, -0.34702445136381077, 0.08783632401411001, -0.40752416982155293, -0.26438151540446647, -0.8382709367580226, -0.42012029203906914, -0.7276346443980202, -0.5389527771260156, 0.06841518663095286, 0.024580880764059704, -0.08339103310602597, -0.0001834069974854706, -0.02179913552611666, 0.12935936491671918, -0.028904184003829964, -0.17777781751743968, -0.184683600498994, 0.38596787868076393, 0.036332520795288634, -0.4182188319154238, -0.9018698508242495, -0.6191971423073923, 0.5463762443300539, -0.554092086715133, -0.11699606272196428, -0.04066816342217886, 0.07504126755033386, 0.2846927375233034, -0.4978952183939353, -0.39024598186376513, -0.21419544119527578, -0.12689066801816373, -0.5352902032797291, -0.5583793714037444, -0.4965832392223954, -0.4065302510272483, 0.008252100198098852, -0.040411334107502424, 0.12054082291262645, -0.07489086758848071, -0.13180657095020776, -0.08605892690781167, -0.0477160481124374, 0.100522297692589, 0.051774597554217615, 0.1223555890653989, -0.10879520152100469, -0.053288679516422424, -0.6375721249007562, -0.7626014591172109, 0.05089733114345682, 0.6614606193013357, 0.6663888718623145, 0.24835378557973714, 0.01113210568654816, -0.0646429571374065, -0.11466827597216238, -0.19461147719050537, -0.5451919645478963, -0.48898742187206856, -0.22407014416834128, -0.4884248433729302, -0.05509819917669782, -0.06736114668673991, 0.052112316186536556, 0.006885365583107414, -0.038759759057385254, -0.1285066412667085, 0.12002745005732288, 0.03258061404696213, 0.10034741297288151, -0.04156086163804429, -0.021377441888827047, 0.03729217392783206, -0.10268018359011424, -0.2632121804821048, -0.042532719425143174, -0.22580968977347257, 0.13833778924693974, 0.0017752870282964045, -0.05356712172130961, -0.08609801055684296, -0.0032848912239239235, -0.29401003920603447, -0.2608813332949147, 0.05301454682498062, 0.23123296400266044, 0.1042767598314646, -0.2996871572874548, -0.2510327206949678, -0.08087097376193328, -0.1887532457535796, -0.001761092833176295, 0.031001930729890076, 0.06106694210783917], [-0.11806109461767494, -0.10358396858955768, -0.04145144107126207, -0.22573247638668864, 0.0691985605174882, -0.01128991041226236, -0.011533871735483502, -0.10820518688553271, -0.07421022483469919, -0.06120282386039684, -0.07622226569464546, -0.009111984047242247, -0.014114864791301297, 0.12846862692965083, -0.0913667635317891, -0.06984235202228942, 0.02986829755852032, 0.014828896212267684, -0.10001106818205732, -0.0725539878270686, -0.035161246066503546, -0.07064082091890421, 0.15487000049060703, -0.1429108561633431, -0.1438617839352904, -0.0411271029092766, -0.03402664387645903, -0.09604716793041254, 0.06457392840578181, -0.12381165805710109, 0.062307983731825084, -0.04563040005243572, 0.024989825606538774, 0.025393875656255532, 0.11527022010096433, -0.24738564694867193, -0.05760377984740526, -0.07177844480243646, 0.09339381591645082, 0.03798641744772971, -0.08870685662047788, -0.1142574564966719, 0.08679349209408657, -0.08153485749736866, -0.33952869881221875, 0.21732834491885622, -0.0201907115229383, -0.15343440969889663, -0.10508465576496816, -0.18627239623830089, -0.044370311009661795, 0.1352011257787539, 0.07003186785819056, -0.044606350516494774, -0.19464890835227866, -0.1918441793546265, -0.019953069374644, 0.028126560936971485, 0.031041037808405697, -0.0704062116353489, -0.04992735214433116, 0.13463398756254863, -0.11884323971266599, -0.026784002617568407, -0.05078371859817924, 0.21139204682708285, 0.28724259437691596, 0.3006566708461137, 0.3092347263065271, 0.694488430194324, 0.5486545696164172, 0.45139077425204427, 0.1871245185709983, 0.21457500667444787, 0.00048431017664250846, 0.041630492546300246, -0.18561830801297394, -0.388347340528768, -0.24684730767383428, -0.08265778445351277, 0.14981478235080198, -0.05634725707895876, 0.1263396871353425, -0.022995878505955088, 0.0017703545664592025, -0.06807873967476996, -0.049686781233685647, -0.011965248856751499, -0.02072481856780905, -0.14195880735216654, -0.18853679840306622, -0.0409216439617614, -0.15595299281197206, -0.1498820193264983, 0.056830755783932506, -0.08091590542799175, -0.5488930417164463, 0.14368026456601746, 0.3754371810644573, 0.343441610820373, 0.2485648651677612, -0.26353481606957424, -0.13183410037344345, -0.22639779055527673, -0.41809029403078163, -0.16265859178577874, 0.012324911870366254, 0.004737753189865879, -0.10171538037844881, -0.02541555846516851, -0.0840205828332842, -0.043853403623005355, 0.01037106552821282, -0.16535577874116425, -0.08810664692406034, 0.017813987509830216, -0.13472080366380781, -0.04687634501655701, 0.27187491755600357, 0.412207437181188, 0.26690549560706717, -0.05830585205354014, -0.16422066808342056, -0.36572837609624187, -0.3510248625714826, -0.04775751068171665, 0.4337869980108435, -0.005286777863428588, 0.08037227181193822, -0.31767131829229267, 0.05594509511857743, -0.06237522922170849, -0.0009446117307925606, 0.09953991290063938, 0.01975532595634857, -0.02577022448959068, 0.2883893105843558, 0.12658007814128236, -0.08427428427221118, -0.004363107896953524, -0.01980696044268753, 0.09712328513450658, -0.12190952909052512, 0.013242105840173862, 0.01734954682768308, -0.0906176558714941, -0.21941472734702333, -0.041507971391625195, 0.41604131572044495, 0.22652429287087456, 0.14291920298231583, -0.28033228075386046, 0.4052617995679821, 0.3604430823289008, 0.521955835272133, 0.45949326693531184, 0.44110755908038557, 0.424999899081886, 0.06807450864914696, 0.09142604234153187, -0.11346649615453806, 0.05013375217457437, 0.055101799144121895, 0.06185308388755366, 0.016362642609476386, -0.21233194041436143, -0.09607983766896358, 0.09611667308024095, -0.11884757202540182, -0.001408664703082736, 0.06223066769940131, -0.1285512283182946, -0.027668337602729028, -0.013452742753192899, -0.054391419545143954, 0.5118002879633229, 0.3330426076147472, 0.4001295154102168, 0.3826034696351962, 0.6521816767417868, 0.6888439074330582, 0.26354709112266683, -0.03890794975295384, 0.26274091207727995, 0.3055882579846825, -0.11721868823342498, -0.4671049415920389, -0.26596978212524264, -0.28292145967400883, -0.4192761736357039, -0.18208867902176723, -0.3490322578258687, 0.05619654723301305, -0.4216555988126821, -0.10813111935424982, -0.0011991692817970958, -0.2047432553999783, 0.020719671568826727, 0.13579393536198342, 0.15529191751911692, 0.14978133213610054, 0.545015356124563, 0.44893450351461184, 0.38985631263819026, 0.30415810051219433, 0.4887465389698417, 0.23016183654357378, 0.7501890887087957, -0.09191975120873079, -0.1381517236522647, -0.40463410920662973, -0.3788325254324097, -0.5574365264894038, -0.5165814831373071, -0.6897875486224081, -0.29620580979720684, -0.45825534040438587, -0.6166782356648733, -0.27953250477269553, -0.553521528343204, -0.0015370595291041077, -0.11487127746259737, -0.12651990876355476, -0.05371954481077423, 0.028177925449242806, -0.013544112799280611, 0.09616137239538576, 0.049132237286570145, 0.7006470884025993, 0.3668730576054925, 0.11119312720889866, 0.5338288549334989, 0.06249977899021098, 0.004730330620506415, 0.19963437120201916, 0.031023457688357455, -0.3487098177321436, -0.15925247346544077, -0.20391432846782573, -0.42467306921598164, -1.1161739446008894, -0.8488898876754287, -0.6349184650138119, -0.4944448251636253, -0.4361760390720826, -0.42248842653355756, -0.4998491504062157, -0.5425800053276754, -0.1780163144700078, 0.2448455025457285, -0.11223836795567128, -0.11012908893267641, -0.0812755759333351, -0.2004904210498609, 0.13638331976914292, 0.2049734207397912, 0.5718190968820503, 0.15260192883362128, 0.17213087463599255, 0.05646738011446182, -0.09631684401223438, -0.19243499359549177, -0.25833197464010715, -0.27270350710323643, -0.14989107260924103, -0.4978351487214868, -0.7621942983622445, -0.8178707750044574, -0.6771348394662848, -0.7602872139520451, -0.6112534597519464, -0.707791583278468, -0.30657862881900233, -0.2743045142339252, -0.5718459162271503, -0.49410430442375425, -0.38622855307719317, -0.34282380631457, -0.20115388713616794, -0.3410265709566211, 0.12340993706947434, 0.06503854766754807, 0.09281669202438456, 0.14809594845505133, 0.9059709525519801, -0.008750599144343962, -0.191867011198706, -0.23897549754532435, -0.5235503198483615, -0.20392089134834418, -0.4401324628266612, -0.27371229671762526, -0.0008580272494597659, -0.46048607157798954, -0.8618430922564286, -0.7489535161280639, -0.6229908055342611, -0.002692756560225017, -0.3088553141644151, -0.387711809950794, -0.18968348611051197, -0.16110676190070944, -0.15824015612588557, -0.6099104291827698, -0.4032241146901507, -0.5126132005851612, -0.10074829978993116, -0.18358402219828637, 0.18614564657201005, -0.042442661419281394, -0.5245103334952212, -0.1652667238625669, 0.022846205464981926, 0.042593836188222996, -0.023782310596752645, -0.36501557189885536, -0.03598860592061575, -0.043015596775716106, -0.1814331820998146, -0.11687291088660261, -0.0303692183564878, -0.6106602920642965, -0.24233541345537443, -0.2960490134561988, 0.21498474075446608, 0.05249809183908799, -0.027185844557023362, -0.31716649084961573, -0.09484041315377136, -0.10430414143250465, -0.4274889002856231, -0.5206089246369618, -0.5315858133631649, -0.05908222723882451, -0.32396384288072466, -0.1257733371627315, 0.08916980834016505, -0.1283382843458231, -0.3929840892550751, -0.014997661926978784, -0.3893012453780741, -0.5357256082209754, -0.1632950923454433, 0.126410325801228, 0.015183046427380113, -0.2389889132454069, 0.06734809882363996, -0.17219913916640003, 0.17770135916101526, 0.2793841819873822, -0.1000016475925751, 0.2124688472931711, 0.4463186061586324, 0.15642907427697278, 0.16129637477575104, -0.1649819141946526, 0.4194721773752561, 0.07053552250489326, -0.20774576509068018, -0.27291469748627234, 0.02552409668350563, -0.08034435606605861, -0.13504787188462117, 0.008614721259568529, -0.00012479273314983656, -0.045512841302696616, -0.2149304101096013, 0.15178879860257147, -0.5249377195835163, -0.34648358463912665, 0.4905647123647254, 0.4567747971951953, 0.4408553968903192, -0.033892610347439976, -0.034877697393143704, 0.06075185754428426, 0.2921692982745631, 0.13549929848084602, -0.06909434604689639, 0.14583884335770236, 0.3220456920973964, 0.41615752300662207, 0.24131479374592682, 0.317549675952793, 0.5261625813535196, -0.16241996199828176, -0.26115402104856605, -0.001380606597801588, 0.10537433388533868, 0.27180600828276225, 0.02766595757891415, 0.10487904682172329, 0.16409643808846286, 0.08691108306833958, -0.3621190004993131, -0.08135500042965735, -0.18596292856690058, 0.018422181294336128, 0.25073204270587496, 0.6050496546318436, 0.48325459213319094, 0.29592992365753246, 0.09251889259211045, 0.10872887505122952, 0.30689329832079254, 0.2826644307258242, 0.3370342640363845, 0.05246868656000052, 0.2960293990553351, 0.21117495851354565, -0.03534538055075512, 0.030653770690299117, 0.20935944261408673, -0.4291543841691538, -0.6459136628031935, -0.2651874676959948, 0.1308062206348396, 0.5285528260182305, 0.08361656771922375, -0.017517226914799358, 0.022534045531269233, -0.1251565828878913, 0.05740016133533407, 0.42366174438502935, -0.04203638886779236, -0.33392158438878705, 0.1711024884148315, 0.4268168255694313, 0.22007972192313643, 0.6548494542957197, 0.23347645231438638, 0.318368270489621, 0.2592872433504975, 0.22882135933764375, 0.6274549599499792, 0.364381288425734, 0.44350918272195783, 0.1488844736942431, -0.3321445790841005, -0.11678394036112386, -0.005504103971483575, 0.0739221058068992, -0.19975396875396967, -0.24244461422067526, 0.013008204816861171, 0.4161743945019931, 0.30920081120944515, 0.01784904873860862, -0.061701953174574595, 0.06454530404533225, -0.022524853720009546, 0.31580143071713845, -0.2903958736776054, -0.5296862261044448, 0.22503725907066494, 0.4080491786426464, 0.2024675709748553, 0.11493063233706047, -0.009257349067909855, 0.1615434572938026, 0.5171455261596565, 0.3949658978497687, 0.878263796159981, 0.45753080715610267, 0.14494992572356724, 0.1030732662224131, -0.06126032977124305, 0.3645250030867899, 0.2678284612110916, 0.65576434395814, -0.1294124887351477, 0.059292364054444005, 0.23134842669122344, 0.8626511432852283, 0.49499741185629265, 0.36913268378837677, 0.05716302299393862, -0.12867182954622203, 0.019448814237358582, 0.45744178938106356, 0.25998259460856554, -0.2374836786842642, 0.20400879285752324, 0.18015393114178374, 0.015664577101034683, 0.09464546410632464, -0.15598906038825391, 0.40957594848062473, 0.6080149013678532, 0.4524324515988766, 0.5885306039713026, 0.43463402600097, 0.125510708256402, -0.20839712486903106, -0.3665188244273342, -0.24126411374019874, 0.06708658097387209, 0.5368183291742519, 0.09611337172653332, 0.053931525795125716, 0.2904527203457781, 0.5791373046088643, 0.05716536720932908, -0.22766777880466257, -0.08297242425424929, -0.007607179767224782, -0.11058078904147067, 0.3308026941260654, -0.06918342714868254, -0.2548496665293799, -0.16437831983326393, -0.20810462532586763, -0.16712264567797563, -0.23205062363709633, -0.5335586480038715, 0.06969753097666091, 0.38722974451882247, 0.4450305155235533, 0.46767205764472, 0.4915592185894064, 0.38407197150781935, -0.4299398554348952, -0.5765274128355835, -0.2809884889590263, -0.12416886582944679, 0.4991567972243205, 0.31015922044010386, 0.5704400617410592, 0.7328770577081946, -0.15348000966424286, -0.06065784155006589, 0.010014185467533453, -0.16504937115537213, 0.07515743745137755, -0.17168295979773485, 0.3738228375516847, -0.012310181457184906, -0.21098768138993548, -0.3983080026502244, -0.2264129736666401, -0.45276857326197095, -0.14042963308103965, 0.12768132061249773, 0.18595030807685234, 0.11018871147036889, 0.19766556661988804, 0.31585809072654525, 0.3836750412314417, 0.37234643834445363, 0.02774125542900527, 0.13898617623511986, -0.452929517564974, -0.4057253150787535, 0.7883018259055187, 0.5357468807102754, 0.21948311440723897, -0.2020129274971042, -0.3047886386806839, 0.10317472254554987, -0.2149698390236813, -0.025256551796275256, -0.08326567359747136, -0.0394561375938198, -0.004946873712319494, -0.24959223463194194, -0.5275281443185699, -0.40404010690448816, -0.13390089833691884, -0.46764391075539635, 0.19725435767375807, 0.0979303942065506, -0.05552861290540347, -0.23301706019413027, -0.026928989927564227, 0.3141694512133236, 0.44057206747231054, 0.6279039388732338, 0.03001409092996079, 0.7427668523118008, -0.18755693083438738, 0.22350838265430936, 0.4961578680543136, 0.13362214468404482, 0.38452409102158425, -0.20308155783869192, -0.2922969090318681, 0.08321592052921135, 0.09241053683847707, -0.07952140614198959, -0.024212886101065846, -0.1874122895322294, 0.02031965201117706, -0.004234520570221281, -0.2844465313647225, -0.42571887863354246, -0.6796999928742335, -0.139299178047693, 0.20580857336511788, -0.2005000422421254, 0.02330325037433733, 0.13162520306734532, 0.3620125964365882, 0.20901924036611394, 0.428066484201542, 0.36781436454099536, 0.23023079337919988, 0.4343771404782529, 0.316357431743203, 0.02696991070445998, 0.023973375336076554, 0.15348230507496538, 0.6466283241544213, 0.22074048810289984, 0.08989649711408153, 0.2515748545476012, -0.16887326829582888, 0.06599789535878943, 0.06988672906595661, 0.1679033049256515, 0.19804691851572995, 0.11010083729219233, -0.45295319990191407, -0.8093183238701723, 0.13453403020973417, 0.46225589092356584, -0.1131811753723983, -0.06179703567201032, 0.012641674369156268, -0.12970169529379366, 0.15097187818455682, -0.2043737066307632, -0.28877167153394895, -0.12261858195608726, -0.12812943387373615, 0.1602834723066521, 0.579743124774076, -0.226974105052733, -0.5380368823315124, 0.36013742787046793, 0.2678634875672451, 0.3104699687677924, 0.1756991039280573, 0.17680077915268125, -0.04382640302838122, -0.20278218345468169, 0.07039563705661843, -0.062160710515063194, 0.12355671634970712, -0.01715863053250365, -0.6496384134938552, -0.46318451711173997, 0.4466425865516104, -0.02739123186693848, -0.06530754132061556, -0.028739477185383472, -0.022337436478518574, -0.4777163408429207, -0.3814876096884414, -0.035088770232903355, -0.44370530706113254, -0.11689839249841612, -0.25887347275927464, -0.04758984705546183, 0.33752246400032687, -0.08156121073457137, -0.05192603935712524, 0.4156429135217826, 0.2856926967829228, 0.08286140151290959, 0.0985793184112373, -0.138949301731269, -0.06607153580336592, -0.06090767326445318, -0.01984799791021971, -0.04232268274422945, -0.14959907484856394, -0.5384268216439309, -0.4923763518948865, -0.4315524473761594, -0.6636988033200343, -0.27268830600398347, 0.15590908080493265, -0.42048524311840807, 0.14759847889298297, -0.1541507683736796, -0.07959994698940857, -0.0888406793997753, -0.28409028403091213, -0.2074844630393393, -0.047720785290684506, 0.37595179183038924, 0.36209635496724174, 0.02854299234017373, -0.09918831738360932, 0.07119446738600106, 0.17117602074685184, 0.2840964151746809, 0.18412045598182275, 0.2530846566810948, -0.045917919214726655, 0.008735885758130472, -0.0575667590429107, -0.0016624852350961856, -0.16712704835257855, -0.22343130209624895, -0.6058658338527393, -0.4714573757309691, -0.7552204476187311, -0.1024428914970887, -0.31985529379065114, -0.3529328039448487, -0.05355779104181633, -0.5121497278134121, -0.15696232219915954, -0.35218449782967076, -0.06200345079464077, -0.5043345466397412, -0.6632826569790479, 0.23408205064799795, 0.12975113813689215, -0.22265553945022024, -0.7780707287530937, -0.4676616074626525, -0.3209624833238295, -0.042554262200554464, -0.09800270017382602, -0.0867377086083129, -0.041942782648793545, 0.02083149706913567, 0.047769805857726916, 0.10586628093595872, 0.07975404614720674, -0.02424284534215249, -0.2496368333593264, -0.5087897698435672, -0.624235235118915, -0.5919409871474658, -0.5050067252141707, -0.37887797173136895, -0.9036024200542607, -0.8852492839176622, -1.0039908494513086, -0.9786637348263002, -0.9209326947817963, -0.9367629571813408, -0.7011703141707074, -0.21751960231972448, -0.21391210769827168, -0.7624034978328418, -0.5829819509072315, -0.3914903550438568, -0.2538326883694553, -0.04590382839814174, 0.023228465362738353, 0.26776763510231244, -0.09414503990707217, 0.08738249962848395, 0.029979895310130192, -0.030152646617455942, -0.0999928352676131, -0.051436370090907645, 0.054092535792039695, -0.08988498789583127, -0.2216277546713759, -0.1442577197472692, -0.24696808057469846, -0.23079617128716334, -0.21213780155379014, -0.2984031667110061, -0.4224107398333766, -0.6074646128552909, -0.32760476422721496, -0.24269605981358697, -0.26088971194862387, -0.5315151201953627, -0.37036294368222955, -0.21945100052554958, -0.06325771592628429, -0.3376056553614851, 0.050058554094552524, 0.03412522214429171, -0.04068804308930204, 0.12887566265355474, 0.10252249259620497], [0.11370287913010169, 0.1569954789931741, 0.036195309267288915, -0.029819549887327514, 0.015197646842851006, -0.014440899706011001, -0.16190620129162692, 0.1444549437330461, 0.02268972047889214, -0.058933477238959656, 0.05716155512567255, -0.021538131305696002, -0.09282354574668363, 0.10072507357996592, 0.03676828137539215, -0.0007336431291286753, 0.0988157372088249, -0.05123322070583386, -0.057243035552636226, 0.017011293755555473, 0.060288020856323093, -0.13337071003213877, -0.08632298831248486, 0.073185320432703, -0.00419801790190484, 0.1573043328825442, 0.0023055093255552927, -0.027396051153741025, 0.06254972997909576, 0.09452258001961095, -0.11126211156191412, -0.004215082404848256, -0.007326182577418463, 0.10772246436768734, 0.0893538286151682, -0.08836362144444589, -0.11020452270464894, -0.10990562592658283, -0.25832386464735335, -0.11179275858093798, -0.23965175960105417, -0.04404799983863822, 0.20174030705793708, -0.46856130554357306, -0.26023126657737367, -0.40374616553811987, -0.2909873471510149, -0.15840159824076935, -0.35041362416484073, -0.23703897040530147, -0.21291181813173704, -0.13958118730242522, -0.08591888015927533, -0.08054161522438652, 0.01901818547774183, 0.07732667375105005, 0.044832377701185984, -0.10256005276308883, -0.01883187401241246, -0.12591298984045088, 0.02427728360146834, -0.12658699247113905, -0.18046695918552463, -0.3280298776285987, -0.34861366636221985, -0.29490202975453494, -0.4753709509553048, -0.5230618636753689, -0.23022959140210592, -0.13834380149115463, -0.3021580436376548, -0.08822732953051554, -0.29110845507887506, -0.30090145396099993, -0.3953848035643453, -0.4190401645744087, -0.39856901831585645, -0.40982472752677823, -0.4227136428628937, -0.335181240907881, 0.019515932399972707, 0.13119215745960425, -0.000657196986663972, 0.06412861424052672, -0.0060717428767148324, 0.02970308434991939, 0.2684269917136394, 0.07858751977131484, -0.12828473708168014, -0.053517672726603883, -0.2860596498295766, -0.38000452340457463, -0.389466109734309, -0.22287538927602726, -0.27041229450370685, -0.2458278548695018, -0.051950356057011655, 0.12882240470374604, 0.10835534429734119, 0.37131274650348295, 0.36461531984110757, -0.05277877528052913, 0.16673582895464029, -0.05737933778626556, -0.008430057967754622, -0.05638026347141529, 0.054814831318427806, -0.012847377601186576, 0.13299996961168567, 0.2652983647307585, 0.06180084757831555, -0.063446977915416, -0.03769863153054939, 0.019938886809021252, 0.23356071518984423, 0.21005117903403672, -0.2583471041518119, -0.3683383135006131, -0.1225999679278208, -0.11655521275565428, -0.5402915869459197, -0.5486734310697109, -0.48915523944416633, -0.3889588974897875, -0.19939612605991328, 0.22843167248362412, 0.19292853504717497, 0.05484434582673807, 0.3979755910930209, -0.2040152477003411, -0.4692214273115754, -0.4026499138740585, -0.13813145561368345, -0.17636537843167344, 0.6318594314669184, -0.2004796944946441, 0.28250136839924195, 0.306276122564687, -0.036355061938262684, -0.13375196414427717, 0.057261041608894774, -0.07456275916964268, 0.07439329134337859, 0.12225811147071464, -0.3640283263481962, -0.48879740559738794, -0.3491424817377079, -0.03749991102997503, 0.15785285568678542, -0.1886987916609152, -0.31837377176816173, 0.0517876191514503, 0.14340221405550213, -0.09625464945006615, -0.1613382298604855, -0.17661675296594462, -0.01899640099053265, -0.16158088475648869, 0.07525800601042104, 0.5017879252465444, 0.21137446824177097, 0.011642503997981364, 0.6963402549471206, 0.05527902253672814, 0.2915962267516043, 0.47862275321653586, -0.006799978427196236, 0.005888186857645072, 0.10778177367684293, -0.05124725416889455, -0.041195783322439526, 0.01848289534678073, -0.46758038033778454, -0.28528865820023086, 0.022245085836819545, -0.020410504641387373, -0.09634500783637773, 0.5521062960883252, -0.20901782420154805, -0.2983889908925723, -0.40145508677495795, -0.3539341910935569, -0.44371882086154857, -0.3923904893647918, -0.048795819523030366, 0.13165900149196075, 0.23913867966216573, 0.5002474749291617, 0.01697595442005556, 0.10357251006853657, 0.06454136506357566, 0.18762545445985793, 0.08783079462034135, 0.10124090972347173, -0.05275534298425684, 0.1286904383171388, -0.11436132712840334, -0.03801711316540644, -0.18683709922410444, 0.04456622460034971, -0.13816614201738375, -0.39488341074304895, 0.04265989926247554, 0.2356447211261565, 0.3842667422284075, 0.06716773070899495, 0.20013902159279756, 0.10550718304529746, -0.10320208357294823, -0.12714223581467, -0.41298473256880863, -0.19599182734757048, 0.05194191365997839, 0.35884228906494753, 0.4991014686831546, 0.7870880690420391, -0.028868660731116637, 0.09742805427564812, 0.0834693612360849, -0.10607065999994919, -0.1263754698039556, -0.3469946391384904, 0.03643380520322022, 0.06202202769819947, 0.10781611032284312, -0.03686509898153731, -0.24852753642554395, -0.3261216117780071, -0.19042798476716824, -0.11974799094017802, -0.0965258257396395, 0.07042584871578286, -0.20812907250580795, -0.08167632082667098, 0.17714333660150947, 0.18341414125161187, -0.3893532705481992, -0.39971124489955573, -0.28864325454051004, 0.0014704589216446259, 0.26920143347349107, 0.5462542536917588, 0.6561295986954024, 0.07193066025856926, -0.24841713820525402, 0.09338470147671785, 0.12016375020711459, -0.11381971878532277, -0.9278781872935219, -0.06919016216747685, 0.03479971999455558, -0.1781221842862726, -0.07173166042617603, 0.016420793292302654, -0.12824482766396525, -0.22209177567947005, -0.09107254566715334, 0.23969871376748275, 0.004241824132307506, -0.18679481546990293, 0.13386242425194303, 0.05321179709211561, -0.0027617085463535044, 0.014561918243367961, -0.310902893320288, -0.7574726250694469, -0.53140033579182, 0.29904184206532813, 0.6626780127725594, 0.2149765326449769, 0.15245974201703996, -0.5014982455791313, -0.12114097771427625, 0.19183144628202878, -0.1521903024041939, -0.30331698323176604, -1.2997674332864366, -0.24089563821572332, -0.007915323931851194, 0.15341202562800949, 0.0426767275814773, 0.16614397605997755, -0.14751073255294578, -0.008145923362225232, 0.09198109380756139, 0.13627768291517406, -0.3710137775021935, -0.20808262148671822, 0.05197097679296605, -0.0323799263970958, -0.5089779716081984, -0.33743620323933055, -0.8562293615510329, -0.8527346092249147, -0.33003870939707436, 0.5184550634458617, 0.6211745623878796, 0.5571968426308656, -0.035964104762905555, 0.2979182076506995, -0.15603355095755045, -0.530190332320934, -0.07772738929760527, -0.25282873459751926, -0.87296897898618, -0.01205223119255258, 0.11084220967819691, -0.044129987649468023, -0.10033224499408652, -0.0813697225897941, -0.21949132026853974, 0.11179826360323776, -0.46262451309507513, -0.5565523679881942, -0.734803547535815, -0.35994753110587036, -0.138094814825347, -0.7061441509606922, -0.6757306900643878, -0.8941168496690965, -0.7164571737582149, -0.27347982577661156, 0.5254399791332688, 0.29763093767546894, 0.14910132837683696, -0.007645252334015836, -0.017009899602706765, -0.16037851868506306, -0.18138086939510045, -0.6378038583161927, -0.21895229883882428, -0.3002000746964696, 0.02278442478691473, 0.43697714435244717, -0.03210965835402388, -0.1202105275940992, 0.0826864783893639, 0.08953681236305878, -0.1269145985475951, -0.5259787261541021, -0.9597520483772705, -0.7597354751751793, -0.9080916982222049, -0.58177758057941, -0.9839920298729344, -1.331837736163356, -0.5679443078479982, -0.787821706409311, 0.17721395418986172, 0.4220137692456558, 0.047127470303251616, 0.08474200545718014, -0.07487609310222364, -0.378132055500539, -0.4847597122101639, -0.4137020581275275, -0.047239102984045545, -0.13638454323954774, -0.6020655260927779, -0.679906505809894, 0.08468004849421523, 0.5636003046675592, 0.2517469396556376, 0.07940553304117574, -0.06748819418340389, 0.10417456558205665, -0.2070537867563637, -0.40254805636738394, -0.9570476190027704, -0.801773717941522, -0.9879920865126759, -0.9579395980224926, -0.7893242040826649, -0.5769280000106758, -0.5350593407450892, -0.3372321496684481, -0.21591771872301926, 0.1643400571097743, -0.0705250756618085, -0.35253634320822164, -0.0818474205667271, -0.06832800435505097, -0.173868983524555, -0.33233480604627735, 0.13088839694785373, 0.10944271063035067, -0.00452602558445769, -0.46127806509883307, 0.2010728492749324, 0.6214291332509172, 0.529299827266563, 0.04768688153557218, -0.1923550060507525, 0.023312825821559708, -0.07987182111071112, 0.05701291849736713, -0.25759699457759305, -0.6506679169305328, -0.4786146793448024, -0.5164646818503564, -0.17532013041091832, -0.15431350058121934, 0.05807740968661654, 0.42700812502745844, 0.7549391781329206, 0.32120121029984267, 0.26904560224181223, 0.04320053430182563, 0.32920707784281245, 0.32661564265842824, -0.2876595813930694, -0.09683555045060188, -0.18826635930334948, 0.5066757954139163, 0.093286265583241, -0.17000934324387762, -0.026586863391088386, 0.7082549846993871, 0.30794746165272924, -0.10393877941312027, 0.1300364699293659, 0.09695775767706177, 0.09874884613299914, -0.010933889806382944, 0.08774430260113408, 0.2433579678765398, -0.038243712502769915, -0.3292217536531579, 0.1555892168591285, 0.12654585096431686, 0.26285577385075604, 0.4308804639046803, 0.2736679035063143, 0.27559864281418084, -0.010062125092358267, 0.3009525174939682, 0.11242230765312616, 0.16052448719926465, -0.44131398486048856, 0.0748971643806071, -0.0009656868816950042, 0.4182501941086079, 0.5748972425277057, 0.3580088226321696, -0.011901865111977751, 0.13142476044889523, 0.6923779823347976, 0.012028801233807306, 0.13697727493264464, 0.2145512649936978, 0.1921505955892783, -0.08918561625676073, 0.46502857171515694, 0.30912459943812526, 0.19870847638902508, 0.4864611058194476, 0.6913485531805311, 0.6369690725989701, 0.3193291600252301, 0.16560849977739173, 0.648741981667283, 0.15248795018691963, 0.08230009328773256, 0.4154997836220222, 0.26943625114899533, 0.4975997594377048, 0.3612269989281594, 0.26433234192286464, 0.26582967729085993, 0.42286477431496783, 0.3047669198243202, 0.2136214626856787, -0.33861310774080783, -0.22520761579174747, 0.5129511977312351, 0.1351203120761482, -0.13005908839743577, -0.08180267393057548, 0.49709120116624034, 0.02595185230502842, 0.3942792782307103, -0.1401577592493857, 0.20558383595298174, 0.5242560928851717, 0.45779322011248713, 0.3005838774786224, -0.10031116242016891, 0.07397336090108592, -0.11376400067949143, 0.15120209639696036, 0.5482767434786965, 0.5172709220499081, 0.21131454901848823, 0.32181393069261965, -0.00634980127503586, 0.010595257125026106, -0.36971055470627084, 0.007295153073043972, -0.2748452880696979, 0.056070221413700196, 0.01532503071050034, -0.007490954500807491, 0.2525942407551073, 0.02336529594152751, -0.05118848166956493, -0.08052571604404636, 0.2531189191638605, 0.5945867630854681, 0.22315418369068982, 0.14900572816606458, 0.021190888260723354, 0.21529723673073048, 0.2538002359866627, 0.14711304449922732, -0.11389843410328594, -0.11060232022911759, -0.40225506277359596, 0.09029208956970272, 0.16516352028211487, 0.004658686784202345, 0.3008879032079548, 0.1045916886204971, 0.08106792076689362, -0.39291929687868027, -0.6901843642909548, -0.20929757809322683, -0.20529526727594505, -0.18167692432825058, -0.23234641116280846, 0.09564487378046986, 0.011258087854962545, 0.20435307837285435, 0.012857231282767233, -0.038827788823445966, -0.016277473283853223, 0.7817650547104595, 0.5920635555575225, 0.22594476006360784, 0.13999180112188928, 0.25581389234475316, 0.42013078458590847, 0.1204012632207157, -0.22901178271789616, -0.09389006608709136, -0.6802294988113212, 0.20506400322180657, 0.04782333864421795, 0.17953412128586785, -0.010178346602879126, -0.0747925476177101, -0.351152272274373, -0.2608986527964827, -0.09956638027177687, 0.28653161503752844, -0.05412180017968866, 0.23904780504699719, -0.02424704240420877, 0.0399240957854561, 0.15759747263997298, 0.09098213894323597, -0.013326351684232858, -0.13551276417809796, -0.04852491290616638, 0.3186946762039195, 0.2817572795236483, 0.24670802239455555, 0.1974175704016843, 0.42258429733311176, 0.11891330551548254, 0.3158888275065928, -0.11832335008678546, -0.042775429961849375, -0.19239638815025734, -0.12095446730342915, 0.06931767847564158, 0.07929902978193261, 0.046940919337038534, -0.008635820591639283, 0.05775873089080309, -0.05633995648377791, 0.08485644909684506, 0.5003174417897784, 0.1741701463314132, 0.12345005390885551, -0.07533658894816327, -0.05571658841829536, 0.036389578906050296, -0.047070778571593454, -0.038515541119299716, -0.24053836275146484, 0.22595952938026798, 0.039546490650987434, 0.09325187448227351, 0.06424194199320145, 0.4697331027141864, 0.8597175987702197, 0.649996796934486, -0.20996948010244507, -0.2849242101009122, 0.005037228834632327, -0.052757756443666384, -0.09733403560715086, -0.026026825326615505, 0.025380901976073834, -0.054321398653736495, 0.10993657807357851, -0.17438788960824136, -0.26521357048080163, -0.06044285285071195, 0.28795826347398334, 0.15812313688026358, -0.08213162722183388, -0.12300442430982356, -0.2246780585954603, 0.06359361164958478, 0.13683099806959714, -0.19962273469044783, -0.03940930822066119, 0.13592192482065657, -0.29640016340504677, -0.08773084569484213, 0.39825567299779296, 0.7870034171935121, 0.5718270535285794, 0.014127496590713676, -0.4260633310522493, -0.1113176075698792, -0.2558393508401403, -0.5370571879511058, 0.031773830429082196, -0.3584637943372848, -0.21474912603308446, -0.07368858911435722, 0.25248806099008686, -0.4691355945027035, -0.10479165051076168, 0.12889793868439328, 0.36345801879234646, -0.09136590189088131, -0.4253425780446319, -0.0907240917339726, -0.3008764717217331, 0.09102394742468817, 0.237719059677731, -0.16499439441263486, -0.04440815710116147, -0.031709343498470446, -0.04013536447726489, 0.2458110379795337, 0.12815741685418275, 0.02231150107284403, 0.813212927315691, 0.46488695306260175, 0.0839281945051759, -0.4096341407648131, -0.5254611384593278, -0.3117414200428477, -0.03665389477699786, -0.18405814372145313, -0.18161602548485392, -0.01652133856371291, 0.11790395375419861, -0.12250031348672151, -0.06916145108627544, -0.20947599376253276, 0.20656059411225436, 0.02624334744107175, -0.1414381451948179, -0.283825888860138, -0.2674827197935892, 0.23159055838637224, -0.04513039768317227, 0.09532231523348274, 0.025082116749360867, -0.1463560737904186, 0.2039694907691102, 0.2550950448517507, 0.08877651877813095, 0.4917159160583981, -0.056187934317724626, -0.25144141403232423, -0.04702547604422112, -0.15863889242777335, -0.0023419620829302403, -0.13980814762164767, -0.04632282301047482, -0.22159482435165656, -0.772317177837689, -0.055091783435122055, 0.37719348798506547, 0.003994291574862787, -0.13325384485057568, -0.029409035318214226, -0.49135490357617273, -0.32293395090355365, -0.4152629592613812, -0.3563603074037067, 0.1826281586226684, 0.05290394923005135, -0.026802295138497852, -0.09278299359637852, 0.0025908302315769145, -0.0005509829068796594, -0.003365689249379666, 0.17572322441694016, 0.037376937159113506, 0.0006173704058735095, 0.05858909822970855, -0.2992483496458013, -0.17090829753039094, -0.021856828121353474, 0.07434400435700105, 0.008045579402506825, -0.0992249863884412, -0.5303777516647528, -0.43953873777365693, -0.05851477016197371, -0.20322017919202248, -0.35796438419131676, -0.5810348997783755, -0.5473666560649861, -0.764104653100672, -0.5334950598598179, -0.19146269132851101, -0.3413171383138411, 0.07828713877441495, 0.13953496550537087, 0.0068568697835279585, 0.13960765220172205, -0.023788600776717354, -0.06339385256467872, -0.004434776205324591, -0.21901158902753906, -0.252442547677692, -0.11507054660373739, -0.24928455029031876, -0.4198787086342555, -0.3696471858717906, -0.20954667837079038, -0.5067834847866758, -0.619478445768158, -0.5658245951332846, -0.9014378669593599, -0.8424492659299045, -0.42110175346019973, -0.17620641630547093, -0.4217503851508099, -0.7493665251102992, -0.9407459019188075, -0.4823443714775832, -0.39035987663065747, -0.130814247800139, 0.0068696893104476745, -0.12568753069038693, 0.0612957565946744, -0.2646922707934486, 0.049168537635656706, 0.12010751305550837, 0.03824619048500004, 0.03417804799121974, -0.09468972585427776, -0.06364547984940064, -0.0865621563560897, -0.1469083522504069, -0.1937057351785908, -0.14574311860570033, -0.0662200176420907, -0.24751937501449403, -0.20736165305016274, -0.40481267058557313, -0.6604578679257677, -0.09755037121741089, -0.032063306848023124, -0.04476575861406589, -0.05627516093612523, -0.027368417097936998, -0.1710401438320629, -0.030534167415994382, -0.2724421041768182,