{"internal_architecture": [{"inputNodes": 784}, {"hiddenNodes": 128, "activation": "sigmoid"}, {"hiddenNodes": 64, "activation": "sigmoid"}, {"outputLayers": 10, "activation": "sigmoid"}], "learning_rate": 0.0017, "network_values": {"w0": [[-0.17423466851238278, 0.00617136864781199, -0.023388402720982318, -0.1413508342358251, -0.12514591899803468, 0.04710804421898103, 0.28336720002020455, 0.23707244984859302, 0.03957269464494269, 0.15420937655369568, 0.1676458691465442, 0.03974031784364349, -0.047461346472859385, -0.12695896111124277, 0.01623925492556524, -0.021711280571522343, -0.208660442473592, -0.1725467684676576, -0.32186587096166686, -0.34278162411557783, -0.2870290957903266, -0.37968034006832035, -0.16987730103051504, -0.28488180172171707, -0.2819198328148799, -0.08732843749097911, -0.06990567807366758, -0.21765986965163114, 0.11957081586034243, -0.01055268734957834, 0.0009462728029016348, 0.11587659255061215, 0.036385722200251415, 0.10182136003418432, 0.12042796617911229, 0.12302491144717229, -0.01826810668335741, 0.022951999156767374, -0.0021940424779438657, -0.1581090022006229, -0.1446714650693114, -0.05445191325635153, -0.15023727782747606, 0.038126366682803864, -0.2396553862214805, -0.23709143340474356, -0.07041104000908219, -0.39984067838858284, -0.1744113707061446, -0.3588125749177405, -0.36037519595429485, -0.3443933398124057, -0.4174630983528096, -0.2486490207993055, -0.33131627568162136, -0.3385990407872026, 0.1378076659280479, -0.024384465103128, -0.0669948127563375, 0.0077223318724883696, 0.04115484454145375, 0.07112942046451969, 0.11941948574849552, 0.0585139840951839, 0.05763986025183449, 0.13692466697140432, -0.11444333715357265, -0.07298856221502971, -0.015486011197376758, 0.05478749000991265, -0.08703392081150885, -0.11576774578883323, -0.0068194657532612, 0.11642187559784636, -0.24386259999900473, -0.22594534606387073, -0.24897221891636956, -0.10465130393733255, -0.2597323143867312, -0.19648905780834425, -0.2827960373511466, -0.13750294183789422, -0.12982697926112582, -0.10943515570784919, 0.14261781988923591, 0.014719722123696627, 0.03965563125847123, 0.1630639808361163, -0.12173095747989585, -0.16684380654633205, 0.208045876845213, 0.026240904491301488, 0.06378831400416504, -0.08819345460735852, -0.08076147838672686, -0.21245635848525293, -0.0821145273641117, -0.09768753651745093, 0.0052398362056957255, -0.10597277778060853, 7.034103368163801e-06, -0.3013333887109826, -0.08532379392692749, -0.169242654555385, -0.3650956727683245, -0.2721315894937806, -0.13848795182595627, -0.2663340749429186, -0.2482835409753242, -0.011151657605262462, -0.28799711298266206, -0.17605843413015698, 0.19686766472135606, 0.03318825838275171, -0.0042703457946297345, -0.1263655055078298, -0.05204387574388312, -0.11964486473384463, -0.07486149488796988, 0.12163848320200406, -0.035211539282400776, -0.11708008307257729, -0.06410354415014363, -0.07261580575525725, -0.05153312883220738, 0.09966801439087743, -0.00382788788007751, 0.024724703562770872, 0.015728920647035592, -0.2689730279841648, -0.34043541794956844, -0.30485856034822995, -0.28867255321187424, -0.39868354538591927, -0.24347099728426733, -0.25792946454119636, -0.24798253922876187, 0.05297902967076104, -0.1456100186086151, 0.05463463609447737, -0.06719512198554681, -0.02396552469439769, -0.030344678029373035, 0.07588235021258988, -0.0446212777149874, -0.031027279522116025, -0.08126209969080438, 0.02314245683162454, 0.064147805400386, -0.038800494913579474, -0.08072016784362088, 0.018128132167606066, 0.11285492693693618, 0.11331688301109819, -0.07071771055039235, 0.04370898634499178, -0.022189531696306587, -0.03782082568046431, -0.05127280730890158, -0.0015170084716039655, 0.017997105484919403, -0.14930321579248126, -0.24481977599174362, -0.11141227974112096, -0.03346621685984978, -0.07237588168031021, -0.19965106292923723, -0.04056148076152544, -0.05008230064228198, 0.029083483759593406, 0.05009259329323693, 0.0858145482844252, 0.08790023983537222, -0.010927822284590178, -0.07311044822684061, -0.09543103678223744, 0.15699809934655615, -0.003994809253545723, -0.17253267144102474, -0.01596229813945933, -0.07822591213587603, 0.11574082326056039, -0.08239179195783919, -0.10620991237336132, 0.00841117053170247, -0.312091007240274, -0.2718479468269706, -0.13883679547528185, -0.040940808151172174, 0.1401777586822418, -0.20104586617472162, 0.07504008419049542, -0.15363587239302323, 0.06717621098690282, -0.13241303308073765, 0.11515207529830446, -0.07883490589497039, 0.03361252994600715, 0.028736114247994715, -0.1320303861781755, -0.1575626111956784, -0.056351599379464115, 0.16793809006528784, -0.007488437291042034, -0.1613860908097339, -0.10463847366040957, -0.23915308778503075, 0.007041727339986227, -0.007002208999967437, -0.0454977484958369, -0.012351793909129265, 0.10297576264525145, -0.046569314873371515, -0.22783739109899007, -0.03727237409951147, -0.1896553130460506, -0.11781624857098123, -0.20115480017512888, -0.10363203014560753, -0.04987510402347386, -0.07406081647073871, -0.10822929486975386, 0.10800464733872475, 0.11839431727507402, -0.23263532701864414, 0.011840172335799034, 0.1284714417467536, 0.07411053088100947, -0.062256501067586435, -0.15400847857802927, -0.06992819276860586, 0.08378119823912945, -0.003927462614782697, 0.1335658280925235, -0.0035329119114083985, -0.03284121634580625, -0.09771621512259153, -0.10154131697630779, 0.05891996933944769, -0.09428707169383509, 0.057811551424725945, 0.01615766751374926, 0.12108670851246585, -0.028156833188736737, -0.1074243482579522, 0.036799263775355744, -0.10066206992189143, -0.03726244233157417, 0.07412605683910568, 0.10666245367233186, 0.23207558764029126, 0.3520064545847607, -0.14676805481486385, 0.05912433181383064, 0.0806573373034787, 0.22349407901685334, -0.07804187492050307, -0.04548177066134682, 0.1894558811515989, 0.18750867291835563, 0.08849549294905146, 0.06937975121989602, -0.12225872704947566, -0.29669702305877943, -0.14226948550638924, -0.016667591029845347, -0.22262443264785653, -0.09754543053201181, 0.006612132596587908, -0.017999838652230298, 0.1523447957805338, 0.09836410017729649, 0.3662360283000743, 0.030010680153750247, 0.1679037085001194, 0.32648203070771525, 0.19001816052590476, 0.4002911255378331, 0.2631099819902633, 0.17945978164825904, -0.16824137015915658, -0.20626975209734114, 0.17216463615092395, 0.08458197881526984, 0.30286133154246364, 0.1145079140555853, 0.021843233962100674, -0.14211534883504967, -0.08703277660190929, -0.0016126483095733367, -0.22595766878989382, 0.005364330853003209, -0.1967131030667066, -0.14467630858063943, -0.20134086092001607, -0.054646016699155725, -0.09529356141483114, -0.01563179357351713, 0.2357071405279338, 0.22280413700535925, 0.3765243642283763, 0.11194018172293829, 0.2175108285224352, 0.24875945358785248, 0.20333943343476907, 0.20475212984552682, 0.29276448908903663, 0.2817500351062318, 0.03817914870017637, -0.19736918465918785, -0.13531786077720556, 0.14113739993720512, -0.027084505188028966, -0.027395577710622038, 0.008327066937496998, -0.15344909421260888, -0.09380940375978065, -0.2140070607459113, -0.3508369563841133, -0.47627876446437584, -0.09324277902351392, -0.3040241645758348, -0.23752588937655097, -0.5127819398905087, -0.18917852181851932, -0.06894783032422126, 0.20078886507661559, 0.20395079220336834, 0.0669795157084963, 0.14517421887204576, 0.3507693386432845, 0.45741935256304167, 0.24154839310093132, 0.2940012564962945, 0.18107736737646957, 0.2784623863959934, -0.21015368112853047, 0.02869200693346394, -0.04701215188127059, 0.007476331954384235, -0.113796076922232, -0.1155844975049925, -0.08250360869924646, -0.12731417889281732, -0.3671551479721787, -0.11841176738842879, -0.20582224936269033, -0.3243568741192006, -0.37774347532079744, -0.31513032180440065, -0.33403488516721125, -0.46930401826281687, -0.24012704326266238, -0.13551937892739352, 0.0434058719846885, 0.31724894409298926, 0.46548469707012574, 0.3077500230983515, 0.23538606993930775, 0.4013152864582092, 0.17544849281022848, 0.20146298447249975, 0.2814317050436975, -0.052312364568890574, -0.044359043581251804, -0.07152529635109721, -0.24213934091243083, -0.1655439038714659, -0.18085771744748438, -0.0957680965200216, -0.2707456550581242, -0.008001156830562598, -0.1431908252230993, -0.0779261084332586, -0.29571196696800456, 0.02411485555306201, -0.05000591203790849, -0.2918548123917194, -0.08244489841995034, -0.32102787580381775, -0.23898544282808304, -0.0631894263782354, -0.0961077354133206, 0.36102910533387095, 0.047294007257028245, 0.277811036593397, 0.45994957335844294, 0.10562746923881587, 0.3188351244204612, 0.27225841730186545, 0.09524548413839763, -0.06460057487910628, -0.15248969198012166, -0.10916200141717013, 0.013673725692662345, -0.13743348053481302, -0.1789753021853836, -0.08242797341021929, -0.07737056025299888, -0.10401357769265455, -0.011014244660578792, 0.09425931967960037, 0.01256313701737189, -0.0008681436182257315, 0.056583252650139866, -0.2570554749556371, -0.39726605838546986, -0.2232256642886861, -0.38123484568810556, -0.07042100964498633, -0.12225865182012743, 0.07272746419494718, 0.1253736307504224, 0.07106749753096164, 0.14397285031672252, 0.15056730355996878, 0.284439911690594, 0.1990287955059706, -0.04170632459816402, -0.05767641006193526, -0.24230034355836103, -0.08564299713528928, -0.24479551841289127, -0.15016653262430327, -0.2133558641156141, -0.1904138549263759, 0.017417425974674376, -0.1136839840417523, 0.05491567019011998, 0.12228403267476828, 0.06477444256442551, 0.2471901750349234, 0.450816484225103, 0.15162928427837638, -0.1340041827754064, -0.4523664561128341, -0.45597423973888884, -0.29482451259595127, -0.13051165096327, 0.016009552659287784, -0.21234598878397928, 0.06835982847180117, 0.006553445342425549, 0.1953444774238639, 0.19808725416441306, -0.07765066262413729, -0.261036246666558, -0.26712665766662036, -0.19374370882821634, -0.09870896634387949, -0.15134279747916815, -0.24653057482445315, -0.2778902083836498, -0.10435157902356455, 0.017682398722511608, 0.04529732286361847, 0.0731632233894234, 0.31091882007773686, 0.17417354184292205, 0.288530911254975, 0.5125863334189464, 0.327548799164428, 0.025535366194483905, -0.3823312535185732, -0.49511567151052094, -0.35586918695234737, -0.27132299559585665, -0.31006515306267846, -0.32285350410530106, -0.37757722969040036, -0.22578295460450104, -0.2600056676662591, 0.05928147052529288, -0.0596566812891759, -0.2612189055893299, -0.37263693511578855, -0.5674766897433265, -0.4753828261855682, -0.21997217825108464, -0.24437996454812025, -0.2739509945030165, 0.0845787401306796, -0.009206771730256247, 0.24581579523946576, 0.11408120599927095, 0.048663758186150145, 0.018688088953348843, 0.24323979090539632, 0.25468167345685133, 0.4124635742628355, 0.020676846709661724, -0.3129503467753955, -0.3301628275136303, -0.6829819896257407, -0.43651829639169315, -0.609195124342425, -0.4142424778536237, -0.6192883292931282, -0.2990251148976954, -0.15321745111131194, -0.10263636456024858, -0.15418864607608934, -0.2792241289127677, -0.2764026587693139, -0.5306424754377956, -0.30580637602423777, -0.40574214476172127, -0.241134693972891, -0.19203427715485935, -0.005120895005381329, 0.1505709822475267, 0.2520269270035027, 0.20959365985879713, 0.004324403356443996, 0.2261726695434693, 0.28254926920618373, 0.26146346082958677, 0.43845250823800325, 0.13434831111466786, -0.13697661555025828, -0.3860875488056734, -0.5632866508733666, -0.6218554281093861, -0.6495139970139543, -0.9006955807495294, -0.749723543810583, -0.557473530541055, -0.21113221853019004, -0.022369573885286737, -0.28472471525193743, -0.2372934191112903, -0.23765580477021028, -0.613275644411345, -0.4373325433784883, -0.03263100748798848, -0.24755354783922126, -0.007563487089500622, 0.0038480859534490075, 0.1775784805074149, 0.0696813533248171, 0.17732172139155072, 0.24021132776610704, 0.09414916955572056, 0.24292333309982442, 0.5649315046249167, 0.4226077851862355, 0.3437211605620413, -0.12147900429654213, -0.40619440663318435, -0.6253935241271644, -0.6905656888907699, -0.7181825708968131, -0.9496840626911786, -0.8656956309100744, -0.5945362970328452, -0.2894871388950525, -0.2797048976536239, -0.029989201734299985, -0.03278905755719245, -0.20640956182781828, -0.5149926269129357, -0.29952546612443165, -0.20980683961023788, 0.04105676877494323, 0.031833131704643865, 0.38704373120791646, 0.020772528862041797, 0.10748176969814949, 0.05291905337885766, 0.08453451324275145, 0.12562954991117545, 0.3503548824006847, 0.3196443747215114, 0.25647276617005244, 0.21822363204098752, -0.1384837609431083, -0.32296451592087644, -0.4328671226675955, -0.7257922684318808, -0.807479120060877, -1.196512084991687, -0.9048444058444223, -0.4103212794611488, -0.3497258941318986, -0.12893456558673874, -0.12731853596086615, -0.1864502274594875, -0.13321722762506497, -0.45707752010179314, -0.40838708489737074, -0.1797680650352786, 0.04032274634327611, -0.04421506881862994, 0.20353581971472343, -0.09903038029367799, -0.03986067417239687, 0.25215116142389016, 0.2325679156460633, 0.12917718323089303, 0.1318684940701719, 0.20981313357180245, 0.21565573657588435, 0.23898012787710535, 0.02746780613574141, -0.07332840767812128, -0.43651951999298927, -0.6598182413045312, -0.9280562344282519, -1.2637772446174236, -1.1039371375517661, -0.8012216847692234, -0.5681299200592826, -0.30959469289853275, -0.11018632782318825, -0.21252437912102162, -0.12491581695810458, -0.16104951185798114, -0.22637844030924473, -0.2652295517910571, 0.06189115696681788, -0.21387209172812546, 0.038640177611295505, 0.17074760889989327, 0.14358574980571737, 0.02849088044728257, 0.1367438295560083, 0.3446743919436489, 0.17382668911700586, 0.261877646912793, 0.1588896906374956, 0.18084768969073817, 0.21810581906522783, -0.1102432384649297, -0.21180482222681665, -0.5962526514169112, -1.1757667585927962, -1.2524526997905172, -1.2441798061213634, -0.8422156402741906, -0.6834278297689245, -0.40076234744114736, -0.22687749607623586, -0.3337405158126534, -0.22543158175871023, -0.36027543016333496, -0.2175952618311548, 0.23533982568939293, 0.011864359327551267, 0.06748235887026831, 0.20363979505345595, 0.07329092254485688, 0.03585919267608333, 0.19908750758888918, 0.1304182515513232, 0.28225406569814976, 0.26087804403319376, 0.10651933772074376, 0.17015385000339214, 0.1673352299393025, 0.016301558875217528, -0.04090949191816936, -0.2762881836181643, -0.7561365580738402, -1.1376527912410404, -0.9313147526507394, -1.1228318114575804, -0.7547496722799618, -0.790126985912725, -0.670197001950996, -0.5911976983012124, -0.358723297549914, -0.3476261888457245, -0.22133353879038964, -0.252614829277389, -0.03633061437993873, 0.21999644272582927, 0.14854425088954967, 0.3742283803724809, 0.02210478878806429, 0.008170744943040306, 0.34250446409781277, 0.24081276247927658, 0.27617631978239626, 0.35022656786242856, 0.17163277175091252, 0.02390512012133993, 0.11048538547751902, 0.11600339612370392, -0.011233462412478199, -0.15206022961719964, -0.4813970034774784, -1.017773009037241, -1.32572970420663, -1.268345259241234, -1.0082596300521773, -0.8827258469357504, -0.6455671184105264, -0.47170085105750154, -0.39539297782134136, -0.3382250465002384, -0.29565236397882216, -0.18494692429908735, -0.1004619824994237, -0.06608582879819024, 0.1738582565604211, 0.17358416198844437, 0.35424507429958174, 0.028429306277815567, 0.015225431660390303, 0.13598973133351286, 0.27242191353055745, 0.2787452765437839, 0.2690085312791626, 0.1257505578358817, 0.042032420944580595, 0.06216290632962124, 0.20739915817320606, -0.22978367225203872, -0.47744199242987795, -0.7037217359476166, -0.9220247509129285, -0.928862032670403, -1.000520728009438, -0.8712108722467772, -0.9132757291715397, -0.37269937150348514, -0.328372384655491, -0.37484637048694197, -0.146783467313967, -0.19725810713570646, 0.062181286582195315, 0.2101578734304437, 0.016681715195545038, 0.08562118892027741, 0.22686570573467704, 0.26183025065478965, 0.12884678545640493, 0.024470527819648466, 0.3012536617504794, 0.2728018188328976, 0.19256135075717434, 0.24405622064954943, -0.02599885044454019, 0.285786224149687, -0.037346950098827165, -0.1814208569321753, -0.42701529142396116, -0.5894685802953016, -0.9496837286698568, -0.9981360557234822, -0.7148443569480247, -0.9249207920498498, -0.43736004197624767, -0.5401401148752714, -0.3709157473392299, -0.08349012380131035, -0.051336415611247015, 0.15568708656422803, 0.1537916679699789, 0.2520899987413404, 0.32422512413610943, 0.23217663869992328, 0.22415417073068358, 0.4374627382177064, 0.18523284143625252, 0.11303743877445933, 0.29711732419866627, 0.15916682122152506, 0.3526640677640367, -0.016608928320985417, 0.153928888895782, 0.08573958010042156, -0.032248536166358636, -0.09613983417891041, -0.8230566172806234, -0.617307701688922, -0.6250535279460981, -0.7220743987205291, -0.6646518551329568, -0.5794669267191871, -0.5687052296718982, -0.47907773663020004, -0.2933388756441873, -0.0726608825889842], [0.016210849954265076, 0.15695240073068198, -0.050021362916629175, -0.4952636471976706, -0.4714620725843811, -0.19783272129831153, -0.08500756766890306, -0.06150968709694517, -0.05291565154649783, -0.18380483442373063, -0.0845570548256284, -0.286892684610421, -0.4080700857735653, -0.21630001265452634, -0.3835574886974753, -0.21504091001195652, -0.41791455181712317, -0.13460497903276336, -0.3343787663880169, -0.2723596995389395, -0.16154254103162763, -0.24289705568714867, -0.2323150965878109, -0.18009486200555405, -0.3214965480237323, -0.33545735741162047, -0.1969331024793371, -0.20742252620245052, -0.08598174814451205, -0.002809282922643248, -0.4666557990700521, -0.5088651677426762, -0.3571866379282285, -0.2965531788979405, -0.2312228358547977, 0.013916316643774351, 0.08141290415471208, -0.2967311393444145, -0.2026893435445407, -0.35148156499841643, -0.4138727120014409, -0.5937998423901945, -0.5091496466924491, -0.37137707944584114, -0.21974246295304933, -0.2086789885702806, -0.29891810109436123, -0.19985170225077473, -0.13849152889073973, -0.16929483018703972, -0.26260003921590447, -0.2843187544403765, -0.20818128484042953, -0.06480079450609115, -0.23017930025976824, -0.35245872499093844, 0.11410552909949981, -0.2808381658182601, -0.2946512132437151, -0.44453641290064927, -0.34908120788394825, -0.35579007124581186, -0.03767307173327093, -0.2064725896330973, -0.18749927697071736, -0.4681370504921041, -0.19505804269595822, -0.2515971415077743, -0.4940813465616454, -0.38457753799632355, -0.519632430810237, -0.26382811289031494, -0.4256482779652749, -0.45702778786732606, -0.3473063871808867, -0.05802044031386695, -0.365037418184257, -0.40998474670199586, -0.33766591824400277, -0.20173671157545672, -0.0886275149161388, -0.21512998342413972, -0.1411755709738028, -0.24726660782582996, -0.07593683923698111, -0.32630422829830463, -0.49263697762969255, -0.6758122313373025, -0.4502978419538942, -0.2418532447255568, -0.2943109585912627, -0.29648789516290874, -0.34430320898373507, -0.25278431295252307, -0.30851272164089566, -0.5326041997249035, -0.45630946481827706, -0.3616994164944734, -0.17379256550360395, -0.21877281445660554, -0.03288869324105394, -0.050332132247481266, -0.5167964037986305, -0.27733381388459893, -0.1897932258129993, -0.4242815894497728, -0.36932200238040075, -0.10518996184768442, -0.31433441712369525, -0.06519324946729564, -0.2095517902088524, -0.22960791417268972, -0.2152102183896195, -0.2338057132462562, -0.7021478523266981, -0.6572114177282642, -0.5191577616199265, -0.5280046510165843, -0.2850196404533889, -0.27371549602550804, -0.28857157606258704, -0.2683225053314996, -0.14039272354171758, -0.045320524834126893, -0.3202845712336995, -0.13144123384567266, -0.18518499064764624, -0.34077144550241717, -0.4081820764658602, -0.36284871561711085, -0.3418053590319201, -0.34918159055510944, -0.30793082590270915, -0.3620599589770884, -0.4646337507096553, -0.0931298276956485, -0.022405190503058663, -0.1370843969840125, -0.3560713106961067, -0.193935751691263, -0.343233641242662, -0.3481659608815137, -0.5272279305027822, -0.528592147891508, -0.1312075317201743, -0.3362630266681686, -0.26198940879861365, -0.2739984170847932, -0.1451493485753934, -0.1736687014301464, -0.15247963092709846, -0.12663320370256637, -0.30457931034170044, -0.15280971163924148, -0.05895515163398276, -0.13251842580749065, -0.16175223292116406, 0.0002274613794168645, -0.07768733620682781, -0.11740176859166962, -0.07670318862438828, -0.29862896995870847, -0.14539954781841774, -0.07828222439519686, -0.1530434342572778, -0.223289006114264, -0.28534480570581944, -0.35516311981814763, -0.5057455833922384, -0.5054109599785964, -0.45811688662984695, -0.3265400548625963, -0.45275930749960525, -0.2113070383062367, -0.26997956692701525, -0.09201734653652216, -0.1240967777529204, 0.130493821351231, -0.07086177251940251, -0.1193164908273664, 0.033377662978467754, -0.02335710116625095, -0.0628878738023466, -0.09800396678385326, -0.1450078174153547, 0.0667866442045026, -0.16992331650578635, -0.13076693265529787, -0.15535250874993134, 0.013171647072592588, -0.005889116161817411, 0.1280404493279893, -0.26155377155135995, -0.12541919187304912, -0.12586015749601331, -0.1725336922758498, -0.7265662184411102, -0.5254430429522525, -0.43843734702936404, -0.19802106893648125, -0.12301846560535969, -0.0243767422788085, -0.13255125407416377, 0.08729880399528489, -0.03207930452573585, 0.09680786623465894, -0.030266156463363704, 0.021486457233989165, 0.17140254491740728, 0.13643576410451877, 0.022039070662306398, 0.13017204467378635, 0.1320416093050024, 0.07849866207426916, -0.020208772136904113, 0.11867579404251358, 0.059669415866619835, 0.1569339492703682, 0.07889056370941644, 0.18001229503155744, -0.11647740106418956, 0.01488361419428968, -0.02113025363859275, -0.0031629895458681304, -0.590323690624037, -0.31892317934284226, -0.3302086261259562, -0.14163466940396796, 0.018669744866507954, -0.14868854065032883, 0.113382997370678, 0.19812274873579439, 0.170468422862242, -0.04370565497100387, 0.0337656887351049, 0.07829062583864602, 0.16211272780044916, 0.3180455790470391, 0.16178911561753676, 0.3798551225760076, 0.277523122704386, 0.2845389209221525, 0.14411140013532564, 0.40550164277965633, 0.1959930120778793, 0.34764019415625713, 0.24912782810212664, 0.17846551246093464, 0.2905284922435846, -0.0289012310554552, 0.11850346331112026, -0.22711845879895484, -0.36728448511225886, -0.4417357929508767, -0.17952122446566077, 0.11939227067133304, 0.02776247407351595, -0.15004821191363316, 0.13036316113490992, -0.047372757297149695, 0.23824535455009813, 0.029591157868617397, 0.08765403760339815, 0.03894122452272605, 0.11016546877792414, 0.17386417569160767, 0.22803216555426153, 0.13778063807101396, 0.3441066333977646, 0.20455176674242098, 0.5035489320552001, 0.497140553822714, 0.4630942796909435, 0.629140313449243, 0.5037865692348649, 0.3573032171021766, 0.29373445452059377, 0.10496930394807462, 0.07593975596495191, -0.16511523832815492, -0.1472608087909812, -0.1879755675123058, -0.1570377220967286, 0.209135891923908, 0.002765585330001744, 0.038957035056489966, -0.06282405467232738, 0.08509576028824654, 0.09296540052885525, 0.012429939484614072, 0.010096439837431784, -0.13151519723337346, -0.01671688927288433, 0.2347998153415183, -0.029615608630612945, -0.08511327617827098, -0.06726794841875923, 0.07556034195604515, 0.5212510816231064, 0.4104412518473136, 0.47290095325896997, 0.2939707320052198, 0.4602179191927992, 0.382208745083495, 0.4726362506140852, 0.25354537216172707, 0.11121798589380517, -0.09263450411010608, -0.5023497410512078, 0.013919045683660019, 0.0795511695384082, -0.10364145896145949, -0.15261967109810531, 0.0018685896491609146, -0.0753637608226755, -0.0887425319363857, -0.0760369006799189, 0.0069074521571418045, -0.05563437221485651, -0.2311801308167883, -0.17769825423092434, -0.18296967175046364, -0.18348047799594355, -0.2763209026623378, -0.3653976115977271, -0.35888432212576465, -0.17998411899189592, -0.06171573348454389, 0.32972807322683356, 0.1845699978705237, 0.13322082759299153, 0.3573128948197434, 0.20372058116884775, 0.0705362169025787, 0.06326974819011572, -0.09951622133908165, -0.36223569711197434, 0.0990510446308174, -0.1335060291157344, -0.09999475245751792, -0.027433144213588792, -0.15271929232265424, -0.028000931616121872, -0.055102185619326435, -0.040156917922789304, -0.16831920495619643, -0.16754141724696234, -0.20569485486906336, -0.05445543487193919, -0.4222203575936472, -0.5896815381803314, -0.7055345236954847, -0.682247063633821, -0.7942068047931863, -1.0998836832245824, -0.8459512626104007, -0.8071940533243834, -0.5733746723656008, -0.1852223020238043, -0.14016650772935538, -0.006449205169304278, 0.1980989017597486, -0.08856829587139872, -0.33063347384267194, -0.00046251277773989906, 0.009475188870048288, -0.11325231288809898, 0.01523281603993853, 0.13302811619818408, 0.1922021099164417, -0.0793048101410096, 0.07259859311608972, 0.21119250671915904, -0.12766318800142076, -0.047895361891080984, -0.1867077232946823, -0.3422065882738142, -0.1474701929693011, -0.17675392616632835, -0.48746900765797285, -0.7097369883971371, -1.1624773014929073, -1.2237730650444034, -1.4236513801001516, -1.303547744463899, -1.1510804718960232, -0.9730237706134625, -0.6858555923718819, -0.3295401973979671, -0.15507047394965343, -0.21477530424662397, -0.3464331653862396, 0.0730867352913557, -0.14083493147590964, 0.11207039371424689, -0.03734381574738102, 0.06689527170987965, -0.12515132219032227, -0.07118366938429102, -0.02158512187869974, -0.06590374464725175, -0.033641303080402134, -0.20811929049393718, -0.25445315174996136, -0.09348650041493223, -0.2443429177697533, -0.0970264965534968, -0.16219154115030818, -0.31355520780192314, -0.5927379300670712, -1.0332405229192214, -1.082607028765161, -1.2717821710263526, -1.7746267453086095, -1.4738305227910056, -1.2111369718101805, -0.8200119810008731, -0.5537169647260877, -0.34167104309240204, -0.504411309562712, 0.018860910519772817, 0.20303176564577424, 0.01820852448673311, -0.04910124958072095, 0.06547878440285798, 0.07449694761731482, 0.1407729394614632, -0.052770664965754784, 0.11997212872331778, -0.0876023176776174, 0.0682353137765482, -0.21927980888829077, -0.10351439915502428, -0.09796798180096206, -0.04470443084317673, -0.06367517873505442, -0.0008821754305638732, -0.11713750118953506, -0.2856441832538583, -0.38637594895181804, -0.903357019544734, -1.2738643297197063, -1.4564868860174207, -1.5222490416220655, -1.274481590863219, -1.0256214091465705, -0.7968323225294053, -0.6758560706517408, 0.27667782051708256, 0.1055797680935249, 0.09098138218569618, -0.0739712102317775, 0.17172306641962215, -0.02241399907207488, -0.03316793282708994, -0.028801938242140467, -0.05582334604380291, 0.059767903492409576, -0.020034144308991492, -0.07570633040441405, -0.09636760976993385, -0.17383318037745368, -0.061543299587240655, 0.011974650491653607, 0.3272611230575029, 0.27395655927300433, 0.10646799640141441, 0.11867798909595516, -0.4139657856612141, -0.7897705514543407, -1.0778146840580292, -1.3318702179444344, -1.2026308973157487, -1.0733254234890155, -0.8767040772125025, -0.7298130805822814, 0.1299558966948583, 0.2887722148661687, 0.1337075903225785, 0.08100255302748215, 0.05710224582431682, 0.024328122775150247, 0.003915216483821076, 0.17871706148991476, -0.11101121818554778, -0.01781221037181292, -0.07244070682604699, -0.12616876450903783, -0.07574134053246512, 0.2214967464442635, -0.04744251767158539, 0.12484911002540851, -0.00798597939478097, 0.23147156065119764, 0.15991209954215943, 0.256817872766267, 0.06822761906643704, -0.23818207130589897, -0.5957669723663435, -0.7366555800497914, -0.8877050582967134, -0.9806888620291411, -0.7533396909414114, -0.8034386134313544, 0.15070872355570442, 0.31769252933039027, 0.18619828276963662, 0.24939703522964882, 0.07443756706051305, -0.019927626842820876, -0.16972545398885974, -0.07265063522429545, -0.06195444474895239, -0.007912113857148698, -0.05237815025177971, 0.13196175032687205, 0.10428796887164503, 0.05769789118163048, -0.1069576737944996, 0.13248564603902416, 0.3226329973559073, 0.36660689564338883, 0.4081870423369881, 0.3968675942091219, 0.2500713266045958, 0.033460149590833564, -0.04873324925948973, -0.6623129671394301, -0.6293646645984937, -0.8389754550206101, -0.9978721333006955, -0.8742736907786839, 0.22707064163013121, 0.21635978860687302, 0.1492320104367558, -0.014287885119706368, 0.023129562538231074, -0.14187368156945498, -0.06295704110909257, -0.03737003600474508, -0.12575136328094708, -0.11624088022583065, -0.08183650588014858, -0.1819396241404328, 0.10593980245271403, 0.129317481652341, 0.17665444048206141, -0.007993587105046355, 0.15279721029150922, 0.08678976030672242, 0.28561686238575723, 0.34066900838345254, 0.35924865434369857, 0.1767363113104508, -0.00899078919786115, -0.19636212589503974, -0.35759755434878776, -0.7467878706257184, -0.7285526572928656, -0.7374406025136644, -0.040464043809105475, 0.015158215479384214, 0.1272641650673609, -0.1956764174876816, 0.05403313043511703, -0.11159254384209186, -0.14444665465340875, -0.05286634328670027, -0.033734248441606544, -0.2530864150331077, -0.04385547619371892, -0.17819628721133293, -0.037619021123838664, -0.23941927028697427, -0.01582124107193214, -0.053112301519822554, 0.015324044895572807, 0.05757106449932622, -0.0034235050657633473, 0.06433945172409601, 0.2497617107062097, -0.004880804282282741, 0.08952218645274106, -0.218192992348169, -0.204812067767061, -0.4612462505579232, -0.657416470230364, -0.6366069898021329, -3.9206260027991805e-05, -0.21511688431919054, -0.017014143041724245, -0.072309883404225, -0.02722533284252879, 0.06524443577742309, -0.12207727936754793, -0.05656174498506839, -0.09537437031647159, -0.2412081016616273, -0.13764065484669077, -0.09619297928306661, 0.000170454620155325, -0.0805356086221309, -0.015798328756007653, 0.12676967110630802, 0.19479189549013118, -0.1826938087706889, 0.3370710121495069, 0.10767845455960431, 0.23456460831499082, 0.022943462916630682, 0.14524135549719128, -0.13001018015465765, -0.17436354971894513, -0.19471666612283456, -0.3594702698372386, -0.7431137023206825, -0.15115202396993463, -0.4357978327964879, -0.12148014412329976, -0.04651158766980331, 0.08280640641578098, -0.01709955942941909, 0.07582903422983638, -0.05209723437001469, -0.32042065796115315, 0.0034834166631948793, -0.04613561078724411, 0.08556745294350952, -0.07916370464721388, -0.09838990829777718, -0.057265266645479346, -0.068234084847355, -0.03913728151622062, -0.06039917493436848, -0.13320010171613547, 0.13870893559225744, 0.23022542691577674, -0.010543286724678967, -0.022847339403023227, -0.13049418546673883, -0.2856950897950445, -0.24077978014881163, -0.5346957977491058, -0.6910024517426484, -0.06990407672594615, -0.009439436963774445, -0.2552734115712743, -0.22333192141101293, -0.2698800603018671, -0.15970856863722716, 0.08861348442430066, 0.13298276159045042, -0.11411320827660892, 0.07760716713817908, -0.15385575348675118, 0.009302773566458308, 0.04572567242052497, 0.1913508246749949, -0.01815301056147956, 0.004753942396085338, 0.08919366313294907, 0.02441914260271416, 0.18455828302736396, 0.32672143117299074, 0.07968583566167502, 0.09874886862542387, 0.05616534722227193, -0.13376059117811395, -0.3591582849356792, -0.12348460016252855, -0.4866226938026334, -0.5548446559028983, 0.1471206026878063, -0.010953746888900417, -0.2851042844605869, -0.23928669886934215, -0.13639939972126722, -0.013610504228180534, 0.06114019221054373, -0.04151712129284158, -0.2239977384911747, -0.10437704409729348, -0.044851229235359835, -0.0948283333360604, 0.17119692856307167, 0.12944753667092523, 0.10911770209371391, 0.13761450839913972, 0.0786004309792741, 0.1423048286766648, 0.16582389173825418, 0.03360216304056976, 0.16588828431863117, 0.19509654305938812, -0.05509354744143145, 0.0984636051838665, -0.2771709574948247, -0.35491617537995124, -0.2611687169728258, -0.46428984177397326, -0.07737838164257108, -0.18457188286602808, 0.1363013288678632, -0.12346858141105506, -0.23694919022529232, -0.3016984965495794, -0.11857020461195839, -0.01469168763028519, -0.0548442003627089, -0.049221697035020585, 0.0029916466607984448, 0.004144894880226522, 0.1853133497660136, -0.1266416699033909, -0.025982054573033615, 0.06773484233766246, -0.06493379776404033, 0.3968662351519569, 0.2942821922385212, 0.06458632412723343, 0.04518083459624408, 0.01325796929682081, 0.16635322758526677, 0.009971363683519368, -0.1903284609891759, -0.42424753485055144, -0.26079072141009463, -0.3268104077138194, 0.020033959471894604, 0.07481396553137319, -0.07034920181290305, 0.2053798032645134, 0.2168860779926399, 0.06750161733446387, 0.005038046323697761, 0.1150330971236282, 0.17200787723180533, 0.024756243588153367, 0.1921831615910533, 0.3257839671095002, 0.17162971756736886, 0.20210384361856487, 0.14469160296123953, 0.010623061194785446, 0.1409579177258127, 0.11560392508021305, 0.2599393127649255, 0.24188237050178235, 0.23699307937867573, 0.1972496694702975, 0.3075022850141637, 0.17149878963502238, 0.07955058058263836, -0.21896806274556896, -0.2723293750458558, -0.35994282521214904, 0.11446835709884368, -0.009960610250866052, 0.04857994941729204, -0.022160670383494452, 0.005814493535561227, 0.16543348977153152, 0.18472968261421818, 0.01115757832467118, 0.22118151641673878, 0.13333740324415658, 0.03541779400329516, 0.04803186976773138, 0.22449010070241138, 0.03405442331592165, 0.12054992477268132, 0.008963692288979296, 0.15605488309087157, 0.14235675179082277, 0.20622186188944971, 0.19140173998570106, 0.3016749777455899, 0.13151908789667774, 0.11689906352958544, -0.05354373814082452, 0.03146206466865555, -0.16868252309273235, -0.23218185009690398, -0.10703331302792633], [-0.13335363243585519, -0.1529828041899212, -0.40243570828730507, -0.2048918921801104, -0.19013162844016945, -0.32029045819675417, -0.2737594535346412, -0.16374502830557872, -0.16624514315022942, 0.11510518825153607, -0.027293081100514968, 0.1534018127848024, -0.10452017293501203, -0.020935625092826662, -0.059485867241310955, -0.04725248434047333, -0.26123603330109674, -0.1363664443781095, 0.08707048550854546, -0.1734777078502042, -0.2931569699845934, -0.17561677400008305, -0.12511557952355495, -0.028043250814862256, -0.36716137026364526, -0.1421192435355028, -0.27182397511423834, -0.28526697730836736, -0.22207217232301502, -0.20552403090527116, -0.21509264085991608, -0.2831349687852164, -0.5383342619292586, -0.39015029763709924, -0.39396053166087946, -0.4118386956498667, -0.24054261279549907, -0.1228045695598961, -0.18395131938245926, -0.12621240248878804, -0.2544370370376474, -0.18609155118395201, -0.01659939412144616, -0.32439384981346836, -0.3889395749889465, -0.28469379988443283, -0.3200042045840343, -0.18796696841860153, 0.07153106229640452, -0.2960345185083798, 0.01941030395305033, -0.10329198784218432, -0.2836627058473911, -0.35357536684408386, -0.28501461390109667, -0.3449189853379928, -0.264871239315108, -0.32221956334732826, -0.31880933407405554, -0.38115542039122263, -0.4279324236951303, -0.06857575728034188, -0.1677350656973731, -0.3679754817782174, -0.19329622482147124, -0.26836243972466656, -0.21181806668751282, -0.23553249410961336, -0.036625664696149016, -0.2878257416217101, -0.0932469532806812, -0.16607029773800663, -0.14124220543936652, -0.2373926892288611, -0.2352527923142136, -0.1380869110684004, -0.08573855642409395, -0.13440880480658846, -0.2909082632721854, -0.23033697928806965, -0.34052700949658277, -0.2271894196721816, -0.40106757214388344, -0.21896547497438779, -0.2433560334621292, -0.3052232395204366, -0.1931646603654691, -0.061688024176822544, 0.083952101760286, -0.09877807874405337, -0.1908383252245354, -0.19915123529323278, -0.13399180446455028, -0.09705344283643463, -0.1708291010733974, -0.24427741735292968, -0.15141091937699847, 0.02239349648871085, -0.06391678199783894, -0.13645071341906867, -0.20318469655943985, -0.2435787747857849, -0.1504883476777083, -0.12966586902555668, -0.07004515028159557, -0.01899608767018188, -0.2639062902382729, -0.23900464861545007, -0.11204140798752447, -0.34117204402459905, -0.37001869437294094, -0.2219664160162598, -0.2889785427213431, -0.3253887893659944, -0.04702042547924855, -0.13674471524960574, -0.10730216312675661, 0.042822873009684875, -0.08284875272776947, -0.10652868727962302, -0.19755589379044491, -0.22223505336573213, 0.009754508849962956, -0.04795140601232238, -0.28949922819357005, 0.06315147235211586, -0.2809621933296287, -0.11990595827804033, 0.07959064084297, -0.1489689321102305, -0.2083462468978525, -0.1544471761175298, -0.12012222896001339, -0.3092596486730709, -0.14418725598382115, -0.4891767778333598, -0.28330316751825557, -0.2974118910653495, -0.2533995017498771, -0.21169615052767526, -0.3018297920237106, -0.026014369938167872, 0.08515180693937463, -0.30117886841481356, 0.0011352126707112097, -0.22737438182708436, -0.15525065978867233, -0.1415271213336529, -0.41915224361042425, -0.034557161288956535, -0.20428178681645895, 0.016371485278311462, -0.1263432443258343, -0.16591550003126782, -0.1394327731096349, 0.07656576081247106, -0.14823082777429214, -0.2539306002685292, -0.22775424589133067, -0.10098028409936424, -0.29086534116498525, -0.3402862727843208, -0.23188576190223145, -0.4286300681188731, -0.15577072063042996, -0.1902942742631853, -0.2910089621268396, -0.38507902675486166, -0.3904253296642123, -0.17182187503462235, 0.010976044060779531, 0.010457954262370615, -0.0866043446467009, 0.23609546702718182, -0.15109466864815768, -0.0347632809272946, -0.21994336934597494, -0.14702249419984642, -0.295330378607349, -0.0497334657889821, 0.012461587890327308, -0.08925443514297658, -0.14004977175150873, 0.05796819551325309, -0.2589338293426912, -0.36840841045925266, -0.26786275946291066, -0.20974254183223118, -0.24670523592908555, -0.255540678045425, -0.38941685924226926, -0.3745733939753344, -0.28684551532235564, -0.0035194567825970434, -0.3482651285039566, -0.3527614806922194, -0.35677626427517545, -0.2698220662674005, -0.000340870933426073, 0.07480458034999014, -0.006134822522675277, 0.021559009267679896, -0.2613883951911361, 0.037584716447613124, -0.2240617478461079, -0.20519123769696937, -0.08662783440893419, -0.21391628603440538, -0.1343314959316488, -0.02003585150962942, -0.11509790802705065, -0.1296609609216087, -0.29269833047695015, -0.19442357732345106, -0.16766209309343783, -0.4460025207828677, -0.3486768005444614, -0.18189792470119456, -0.2905249925696634, -0.38732581709433506, 7.161323792933134e-05, -0.16823088781883694, -0.18583743016746224, -0.3928669103936127, -0.23569720390915314, -0.20267766932475315, -0.08628328851703447, -0.06567229310816536, -0.09613580595156661, -0.03976132627250209, -0.11434622637115596, -0.15219369854903164, -0.115314350676675, -0.11573351500675123, -0.04227973258604739, -0.26380612353521565, -0.1436427636714609, -0.1789057508171598, -0.1943924835581148, -0.3520629150618602, -0.19486584302914634, -0.2916941039702711, -0.41557873733660644, -0.33148777728266177, -0.238686109877311, -0.22087364613233146, -0.12471445426672237, -0.17498175485694897, -0.01585886911308055, -0.2382522815269113, -0.10836045097056257, -0.3433515407043445, -0.3868368369367549, -0.3576999627015528, -0.29707577920015893, 0.05504625968861015, -0.017928595249880695, -0.11035576213776249, -0.09010158985992565, 0.0264718425033062, -0.12815743634217527, -0.013852751281014654, -0.45598913885162545, -0.26492445343200904, -0.23262935478208066, -0.39312761689147224, -0.47037126050922173, -0.31256873929018086, -0.43781575322573124, -0.18078692844172428, -0.0985738054825067, -0.053553652866249954, 0.006750349930777827, 0.005985991213520922, -0.06017646240230061, -0.03294957586249306, -0.03794945860033216, -0.07217963048553261, -0.07845059858790368, -0.2882670671018205, -0.19568933880969616, -0.08061539788085242, -0.030855686842331646, 0.028742600312794016, 0.06952108952920849, -0.12639663182778796, -0.18054745936994768, -0.13229916514347353, -0.1751616929732329, -0.19153030922571562, -0.45382748942983975, -0.3889828760131728, -0.326684242731981, -0.4518400098539175, -0.32297209377714703, -0.2848572643751068, -0.34983915746903016, -0.17246673408921678, 0.0064332393285875976, 0.17036070370731926, 0.21495119670609159, 0.1426506300689468, 0.20492710654064852, 0.3016615557188556, 0.20644762707447922, 0.08964882695147854, 0.026665448393447727, -0.03151349717734074, 0.0724264325074331, -0.1869554270279157, -0.05752610374179954, -0.08793079038108874, -0.13595978424228383, -0.12983251714530616, -0.20268878635677917, -0.2557433691099714, -0.5637491142263826, -0.2303482995857858, -0.47851269237864696, -0.41733690490206954, -0.569492490813443, -0.5038556626766589, -0.31768137861294, -0.22061694579322258, 0.06669568508917785, 0.15419019742774753, 0.16782894845028343, 0.27730865889835227, 0.3061213739234644, 0.2360935249301434, 0.19379623652730113, 0.31969889061958723, 0.10925528805956441, 0.04090181969857645, -0.02469998702717576, 0.16401325085816262, -0.3720900644110851, -0.10395044986442409, -0.28079844605595683, -0.1977938683442843, -0.011452719083495268, -0.19496265194491005, -0.44919252298505186, -0.15253191794566862, -0.29487334026333556, -0.6736627355202007, -0.5812358913014043, -0.3614991777718791, -0.2283946014977761, -0.20932249371922648, -0.020939881718285428, -0.029018182908263968, 0.30720602993990226, 0.3146631540990666, 0.263723624227057, 0.39089258168747393, 0.3838268866174238, 0.4343649243862267, 0.5656083834538977, 0.43757559432902426, 0.138651420013144, 0.39298275099108465, 0.09330666839754125, 0.23985786347175286, -0.19006393034113556, -0.30361606848007167, -0.23208177754992237, -0.09567107322386605, -0.16337940984918362, -0.20783712904988924, -0.30346594368460655, -0.32929964004027334, -0.3257991309674554, -0.5115667402088617, -0.45848787329902246, -0.2334002435895116, 0.012245239509062296, 0.23744425906700423, 0.12193299229999903, 0.3403439556544238, 0.3032049883673572, 0.3279784599672295, 0.362424616872185, 0.23296018167935353, 0.31069641235625434, 0.3961733460069534, 0.35481152275603006, 0.35469191007193435, 0.3927388089761531, 0.35714589701078775, 0.16314865254495053, 0.14903771232599372, -0.1781295697061282, -0.2560426983592915, -0.11466614368556266, -0.11717592833687253, -0.18928925095419408, -0.38249972236400653, -0.44388277763140754, -0.31096656020229707, -0.4087590297091862, 0.03393783834586735, -0.11681064734050577, 0.24521022442105075, 0.38407192923968636, 0.2487973627968156, 0.5236471682397639, 0.44974424444789046, 0.3269558698547259, 0.26739556301641487, 0.19234140855924287, 0.26060508412980227, 0.07893244387566772, 0.35485836838766954, -0.05016011719041887, 0.3883153550457935, 0.3863704886362231, 0.40116266549558194, 0.14341899541199857, 0.14285325052798908, -0.3769010857235794, -0.1506469794528906, -0.2816517901257743, -0.24625553621811688, -0.2658139259186162, -0.14611825183112417, -0.25517769226247, -0.11021072481210135, -0.21404096479176002, -0.3701775861020817, 0.06424692547573996, 0.33061368146134135, 0.43134555152308784, 0.602406913849253, 0.34788293186413655, 0.3789492609465493, 0.1867034901410302, 0.32882305502516784, 0.09861704692884161, -0.032639472982989894, -0.059282234826244756, 0.12884917719162367, 0.4251121276338428, 0.40299673886242576, 0.06848305303679346, 0.3990709619438265, 0.21899740645632174, 0.29450215262548846, -0.3941348970693203, -0.3262602208111088, -0.28719544270219294, -0.2089842860023957, -0.17184677939557078, -0.15330764837510763, -0.10949001849404344, -0.03418755930533569, 0.15245119686923506, 0.10219235655863486, 0.2642649877744697, 0.3474416658144421, 0.44180092718304004, 0.30611754883065145, 0.3079479071605149, 0.1796163390033877, 0.17592820336690762, 0.2142465828304236, 0.09487640821067825, 0.13275164832059863, 0.13281642513312153, 0.21873870836359638, -0.009825043592643173, 0.27117930064419826, 0.20767582291247064, 0.3369425165671108, 0.19835023228344406, 0.3597320846999059, -0.15919075882846875, -0.10833008640608251, -0.06362624664599247, 0.07476426666127245, -0.0851525601527373, 0.002093181959218579, 0.10410654817237225, 0.13074683200759032, 0.15381472568903068, 0.272015251078631, 0.41452276199870325, 0.3851763678135184, 0.39662735257066467, 0.34553038292943894, 0.3591537625861895, 0.2558534790374319, 0.29580614554856044, 0.32256310675068245, 0.14844683327801814, 0.07881351086542321, 0.05587933151163125, 0.057515624113380986, 0.1406125653155439, 0.25675148868966013, 0.15783754068703235, 0.22424064454169665, 0.24908926181120616, 0.40043553114473374, -0.10799748459624668, -0.12862754048801775, -0.15219299557116203, 0.03979888690107549, -0.07425173093418522, -0.053572455061100255, 0.09374212531127177, 0.06029369072272288, 0.35111464057752034, 0.3582470718633029, 0.5871002793781143, 0.2111641800009883, 0.2698249970662295, 0.24034221459556368, 0.06320435100003953, 0.06835078370615427, 0.07853120331730823, 0.15249860809881025, 0.1027964932544237, 0.08260019711714632, 0.09323781564140915, 0.1085784172754079, 0.12157537081501192, 0.1264534094118222, 0.05839339479330684, 0.2651620045116865, 0.22174665825924106, 0.4614773895738723, 0.2560839518107442, 0.006714414100352128, -0.22735372861441702, 0.04270951597486247, 0.14416560748918614, 0.1619268373786685, 0.2772833559250461, 0.17135750231790858, 0.35510757835135076, 0.3142393256052269, 0.1698537150896308, -0.0026597212617929687, 0.21370555225668061, 0.24998007679798712, 0.01634315483068237, 0.03313651395906001, 0.09037780204382771, 0.10073945647923717, 0.048067140023394225, 0.014224253094139208, 0.05686661143870405, 0.1195877272572355, 0.02572254359635238, -0.016473413794861905, 0.22881549579323565, 0.19866114359148462, 0.29850720043880064, 0.3470628396286349, 0.11024886445208752, 0.09633783810165204, -0.04652192616643101, 0.006933163777661824, 0.16784297944408821, 0.19367257537729515, 0.2583112872864713, 0.22071388781835993, 0.3078256664612076, 0.20698469408429376, -0.04644836672489295, 0.15078389412864657, 0.05598886768334727, 0.10538706329185618, -0.07434116543832593, -0.08867182572725642, -0.12589544547634757, 0.16278383692026815, 0.09626888134174848, 0.3496806087653367, 0.04912228094682984, 0.04511143996959984, 0.2178042060521811, 0.12404030097196458, 0.08436044790610132, 0.20404932865167924, 0.3699726587553525, 0.3440822520126354, -0.044416180695360394, 0.0141899470649857, -0.09738173840544653, 0.08259039361739266, 0.16467765035822615, 0.1853839905669276, 0.12422268169990124, 0.28983342240733734, -0.0161712675005126, 0.21837711121580916, 0.3571715471564296, 0.024410979438561718, -0.21955635381175714, -0.04786963278702751, 0.052552445359025896, -0.04915581026026877, 0.07564280354072773, 0.2667607045501633, 0.18062309102034393, 0.1410670734570504, 0.01831601218439209, 0.060336032147463296, 0.046829676082395584, 0.21217458290584507, 0.2933727689592787, 0.20818997665689576, 0.3356551403185475, 0.5452113191050361, -0.06806840531369318, 0.07171569233452614, 0.08200799856960492, 0.16265489165502797, 0.04215305931369197, 0.09973111155781787, 0.1810177087876322, 0.13080211186692128, 0.1846032501373985, 0.12463624073782904, 0.14819971541119104, 0.20087409471905207, -0.03058695905723292, 0.17319071851975207, 0.1673544590362471, 0.10881460261636924, 0.018917381298383933, 0.2119205904026642, 0.3980155592799361, 0.47612213174774093, 0.272853417768756, 0.10156122713347812, 0.29798769636766115, 0.07466417186742154, 0.3134303861418393, 0.2753528690035243, 0.4008707355689075, 0.18350843771133624, 0.14409795593194996, 0.06902728203210712, -0.020607136213877213, 0.08426335908005816, 0.09640213701521304, 0.09093643753010217, 0.07408807724412421, 0.12288508382455611, 0.17837025570669493, 0.118998481584581, 0.024417762682856517, 0.09826972606282432, 0.16761016282256377, 0.2723047664663859, 0.0634607364020967, 0.21457790835263055, 0.1474964632518276, 0.3326689594318705, 0.36502529822300767, 0.3667526767871618, 0.22269845185305245, 0.1800543065318137, 0.2115193482046975, 0.07567586329836774, 0.504258306571893, 0.31264930463434776, 0.34799593230883197, 0.06747203845091523, -0.18334114638200844, -0.024171565934830164, -0.03767297260730695, 0.040166343208856085, 0.15576174198409856, 0.16167792226906721, 0.13453103037165234, 0.1798017665795113, -0.005641208819577168, 0.15702431260346433, 0.2926947202032629, 0.17516787558756375, 0.21337928901963818, 0.310753305795709, 0.1474229140553613, 0.22329544727264272, 0.07579630492480283, 0.20832821237174154, 0.2127620803530271, 0.22146559572886954, 0.15853368462191728, 0.021853182039344044, 0.0890529810129911, -0.05189832819450223, 0.22916800296108975, 0.2440632419802869, 0.16327968788865319, 0.21334933129154873, -0.04928483262458585, 0.08644237150039817, -0.0384707092536972, 0.2781828084403843, 0.16584835594838263, 0.20547139347237717, 0.17508044492609323, 0.10208457676609423, 0.11029810857565883, 0.1502259300885522, 0.194489111127024, 0.24648699613441638, 0.18800956588088236, 0.24646977718318536, 0.008653450986442478, 0.47859972855208327, 0.3523274924467949, 0.31361633534438843, 0.3141265072642256, 0.15692253811662996, 0.3017241371439636, 0.09420637481181829, -0.030069919268859942, -0.09361970964534899, -0.06137802380695676, -0.01045880506387481, 0.10239551151368276, 0.16334008071626926, -0.22818070338608504, -0.14418348389104527, -0.014418028174223036, 0.04330194535060218, 0.18558140172999635, -0.016042386050113006, -0.020528933436656387, -0.06029038270312679, 0.017249321793920223, 0.14969936488748775, 0.22272141528103662, 0.30406108093778456, 0.028964632005275513, 0.1564350969589014, 0.09176148343943173, 0.07361586174422487, 0.00972358412195957, 0.3260777534963211, 0.13011802514161588, -0.05780741044413094, 0.2022038389270551, -0.029593463061120907, -0.35106797415534263, -0.14954130520826717, -0.08490035076816164, -0.23655540605743514, 0.055897674334372496, 0.13909266395501974, -0.14090569207725748, -0.046077500544547116, -0.2507832337726649, 0.12257909208455274, 0.0957502521264583, 0.02446311436239059, 0.06518780428896753, -0.13289285047146074, -0.031281497751143784, 0.2117395391352335, 0.23053817844713062, -0.0887003714466547, -0.09797678227618532, -0.014140902959640869, 0.045393806506503445, -0.16204421444099898, -0.11677000877717968, -0.0302245048495335, 0.14549598195936347, -0.18526871042878623, -0.03854183041427888, -0.1674039515445544, -0.21107458215299169, -0.27518571153597426, -0.0453691104441282, -0.10149386359160936, 0.19994184075685106, 0.2530008202617073], [0.03337589399611601, -0.32571696483214746, -0.05616847297399897, -0.15950560656520885, 0.03980179869195086, 0.15939974316874278, 0.27829186560595737, 0.34979464127451515, 0.49235570710285465, 0.7658421804875283, 0.9685178737048088, 0.9178744633656607, 1.1649184470361034, 1.2005294881109942, 1.0678830961365915, 1.0644153289364955, 1.1091509938075885, 1.2989356649563315, 0.7945558338283392, 0.7789654716187552, 0.72792614951462, 0.5287230911090246, 0.45941850501919657, 0.21646396101653598, 0.4396987598890565, 0.16200933920501895, 0.3576704319889029, 0.34169015068192893, -0.2602333905939291, -0.09647822772048043, -0.18653697226911065, 0.0018885676845586735, 0.08335149063925784, -0.06444227513002809, 0.2825511913184378, 0.013500542642712367, 0.13712453982759742, 0.551597205266101, 0.46448344225779875, 0.6286951167087449, 0.6021209718150876, 0.9221608116370155, 1.231979860222277, 1.0851927725539463, 1.3763714959112685, 1.3730540325734724, 1.482328684497332, 1.2137258710638734, 0.8859316141494489, 0.7221031119985594, 0.4124772554476623, 0.0695849375551014, 0.24255878082026006, 0.16598236848034603, 0.09748498821534997, 0.015127596164787947, -0.42782741853814366, -0.34289937496676914, -0.24674413729583447, -0.18578070805052785, -0.03341082104318879, -0.035800948294345915, -0.029635996240933278, 0.054579462562064925, 0.10767175064304688, 0.12305066644479896, -0.05570237338441284, 0.21653048889869492, 0.2887329904176975, 0.5067958683452313, 0.7472997524149778, 0.9076106880541758, 1.2606131046694637, 1.37426271696992, 1.457048446694167, 1.5488766993359, 1.1786834628581575, 0.833891281597199, 0.8065070710335951, 0.6769102872034735, 0.4106368796729276, 0.32158664622934924, 0.1123519430844829, 0.0977070834918347, -0.3920357190047183, -0.17402858605197083, -0.11766236561403386, -0.04481925803568137, -0.035107876452830276, -0.31187664646518043, -0.17125828851031835, -0.030769028784627214, -0.15556532797210554, 0.09397349755572777, -0.11903723459265071, -0.02641840297310665, -0.01816229693317315, 0.23782892244341253, 0.37472857823831346, 0.45539491844224256, 0.9390396217740044, 1.2073171056180774, 1.2502898313272535, 1.528277611508051, 1.7121051940110898, 1.7693287298184392, 1.4721217913279452, 0.9039772973368535, 0.5292174245574434, 0.204418272080619, 0.12498598816933994, -0.024481920680915918, -0.23506345289927347, -0.31585161841795073, -0.2278760080547297, -0.17456330380231538, -0.27464114793233646, -0.08544515829298803, -0.14874419784910042, -0.25372272809794433, -0.11094456101057151, -0.16245204714166295, -0.15766013496782252, -0.2291711964914615, -0.03320416589311174, 0.06550237414135471, 0.05400093331453, 0.13350793445758063, 0.5709658645654057, 0.7702503215861533, 1.2033181579768426, 1.473572644696035, 1.6736814587299347, 1.756116846571171, 1.7644624021847766, 1.4091439063945645, 0.9301854529873514, 0.5020518504007907, 0.2565780724745796, 0.07730159693699545, -0.416996430194455, -0.08466336190401132, 0.046844175167774185, -0.27210197283594134, -0.17122808032943865, -0.13203100414381916, -0.24398555805933866, -0.2674785520110837, -0.3216398998627771, -0.19394613682475287, -0.33851055507485933, -0.3179241399892337, -0.23975702643010208, -0.07729747708068443, -0.19206911747607017, 0.09870545193501272, 0.20089693784448906, 0.2703031991829062, 0.9786919036471996, 1.1108795325326517, 1.4869124150913402, 1.8565443253405216, 1.7620095717101014, 1.7186402040693105, 1.2462285714308585, 0.6744600996275943, 0.5878051416925398, 0.36743950148834653, -0.3512332981837905, -0.4082834158195211, -0.15622874401597314, -0.134261151100729, -0.13764981080085817, -0.26073474395034224, -0.23766597415149673, -0.21743382992495772, -0.39185657542400665, -0.4499453505253635, -0.3816956706669362, -0.21036409254925123, -0.4789349950289724, -0.2709998331217339, -0.30063217002021914, 0.03973814929011307, 0.03756606365443111, 0.29842927853387086, 0.30161868139818654, 0.776369756655534, 1.226162741445056, 1.4569879655622404, 1.6589369814821544, 1.619612325239799, 1.3944130633340985, 1.1522256650624008, 0.9414833829820468, 0.5011178260101037, -0.14897492999276318, -0.1774482816238519, -0.07561921546619255, -0.19104915412462103, -0.07292930547612117, -0.106597899569179, -0.23945299064411596, -0.2356128808876352, -0.3603411545318312, -0.4092897568805738, -0.13860007647797606, 0.09863695018825995, 0.041356262934370606, -0.09719872665377927, -0.14696042465959336, -0.2389040239415688, -0.13704447165130254, -0.05059000601798099, 0.06521877692280909, 0.30908772620765945, 0.5580489377391167, 0.9058559701121747, 1.2906479540120617, 1.5444500854559542, 1.5229174597042863, 1.2423650979478367, 1.0829447632048794, 0.7476258278373276, 0.07376933330566103, -0.16679100516140083, 0.04459211065766694, -0.03289236274046926, -0.033030555656055983, -0.04643111326389672, -0.08421867488670898, -0.1457186125712483, -0.10094860592652075, -0.20483909817515591, -0.5284790374693846, -0.10264530024522378, -0.24933922365845587, -0.16166392228193882, -0.29942110103948016, -0.06518109795346969, -0.1724234861087508, -0.2595554746511915, 0.07260507730505761, 0.17055007191066374, 0.5398535496313317, 0.5510954404813393, 1.2752801834296665, 1.474479450345625, 1.4376805104437356, 1.3062686475387923, 1.1752785064828146, 0.7711264245995515, -0.20600571933431985, -0.02752242646761901, -0.08529563989104691, 0.12848100437937304, -0.1340285757739592, 0.13365162786277648, -0.03616086299753496, -0.11708646125360128, -0.33829154174470916, -0.25041778241774554, -0.40170748354119923, -0.4181709449681697, 0.1393168907451252, -0.17241988040737116, -0.1663955693222421, 0.08020625931463825, 0.012499449428750283, -0.05226346124766641, -0.053903335898423305, 0.09501744176970255, 0.28957258687330667, 0.23809644642083752, 0.7709135692355711, 0.9560891918330306, 1.6199045864067476, 1.4053103995050789, 1.1749855876196578, 0.7770285551945422, -0.14408358221247025, -0.02577100897257096, 0.06313391871086134, -0.1668807665600712, 0.19616091119911283, 0.03785809141732971, -0.05527837284309921, -0.06824948244016496, -0.24404617390972186, -0.22109877975638206, -0.2627206757300491, -0.17079179701988687, -0.1910628970784938, -0.10779987073264789, -0.2045991344388533, -0.15394553996385948, -0.14221482879193656, -0.036540642940265565, -0.08868479164876185, -0.13010999866282424, 0.20936131731626678, 0.18129507180502868, 0.6631234960673045, 0.8032014773390482, 1.1959994831214327, 1.314274158060766, 1.1752421774556145, 1.0642110770987077, 0.06679340444231988, -0.0034869466355744944, -0.04680470897682532, 0.13006026855847636, 0.008696246455442671, 0.19459497495532818, 0.2956502951690981, 0.11589860839962182, 0.1247617038224248, 0.030447861911378337, -0.0862107331349209, -0.09850316396147304, -0.20147552246129757, -0.2366455003187526, -0.08013096277338767, -0.15281939539448797, -0.3390242312625097, -0.32081155369992775, -0.3076981516850246, -0.16904940743610775, -0.05822662718825229, -0.039961485949133395, 0.511367419090508, 0.7525774594733056, 0.9126036385241563, 1.071765636264998, 1.0950060267279715, 1.0375581498319655, 0.009874763612922093, 0.12106918452451827, -0.10144412784515615, 0.1111813505528853, 0.12218566003960878, 0.19601009449235793, 0.3893240721919089, 0.3647581526256421, 0.3649813435322135, 0.2629865043375527, 0.16425722079100627, 0.07103345382635642, -0.02676179660957143, -0.15076285427470723, -0.2776809234861823, -0.056830212067945966, -0.2397824015063278, -0.13186606611453783, -0.2760461552432112, -0.25248954346964314, -0.1727476133179018, 0.022911371205131124, 0.05735749685317732, 0.34874047207470704, 0.578622215665564, 0.5888187700035051, 1.1404137293966876, 0.9701791297969794, 0.2501758189856242, 0.1618966217331059, 0.10978163693377165, 0.08817084603265936, 0.11019097259030934, 0.21205626261674268, 0.27494994029620157, 0.24557982434452316, 0.3005622536296086, 0.18683693757311562, 0.23134678185273067, 0.078987273531318, 0.02263553712268675, 0.07029642427914849, -0.04042987632053474, -0.06690679575699891, -0.2451406606583652, -0.29259434204019674, -0.3081418773988463, -0.18077795751156844, -0.20614119998360977, -0.2932445545003195, 0.0010446293970224633, 0.2851181612991336, 0.3296049851990044, 0.5643390857580329, 0.7560085511738678, 0.8088201618478235, 0.4630220845897655, 0.24416182874565365, 0.12413923900609972, 0.056451961339690236, 0.1840944037467841, 0.10344733446122409, 0.20899600498237444, 0.2568132586239484, 0.3054921568778147, 0.3936523219217825, 0.1829175216624935, 0.09030178140641903, 0.10938827639454311, 0.17878161341642812, 0.022674253528370488, -0.022771467153361487, -0.16167548369711535, -0.12263685491199837, -0.2134169862262239, -0.0936997785205817, -0.2071969044602502, 0.027062058875963337, -0.030754724174061828, -0.03038719005150794, 0.2552802424412459, 0.4623502373471816, 0.5394863068386575, 0.4701683968827516, 0.3704811654240138, 0.4076860279539164, 0.25586887428564903, 0.13130198712249685, -0.04258824750839079, -0.010900701624102564, -0.09277395709650535, 0.022751327777898102, 0.15267751371716173, 0.030762930681602282, 0.14754186051162232, 0.11763420580221508, 0.04620602111684762, 0.07493152879553218, -0.07214077878856043, 0.11652730611910281, 0.03486628701835273, 0.009110866954774567, 0.02639851944690206, -0.18889112572029587, 0.014842730980540618, -0.06297310098209302, 0.1212984197930692, 0.18231664306460907, 0.10293294280978356, 0.19228445282980364, 0.32706486385767586, 0.13504343308249936, 0.06567152309573505, 0.1246752149820367, 0.043660228957824905, 0.0873529115917671, 0.04901147452476733, 0.042901356784502714, -0.09049427991535346, 0.09109581650770317, 0.03399242631220911, 0.02495426144685133, 0.04061397774456794, 0.20665965252436702, 0.040904424308663485, 0.11288650553945029, -0.24673193480276115, -0.11004058142987229, -0.022231970250561468, -0.11279130694011648, -0.07852774359661688, 0.07267036937717039, 0.09954319230483931, -0.22180068702877823, 0.08275395900282907, -0.18216209456393914, 0.09160456372969693, -0.03937017895925151, 0.388034966385221, 0.1387238425314263, 0.09041671748869202, 0.1491102636527353, 0.034648161916958624, 0.051364365160807356, 0.021436239632603816, -0.11411600134568035, -0.07067205506475582, 0.09192730843912507, -0.17871118455679957, 0.0634006558794901, -0.05686019264949247, 0.03399052958076837, -0.061558017289091556, 0.21667095829892188, 0.015048506154352425, 0.1267400934537605, 0.0024159280680752125, 0.02128298707034179, 0.07192801584524304, -0.08499090378543804, 0.22306495117758754, -0.05866516598285902, -0.020467402704124234, 0.036966418594261044, -0.09562891121231831, 0.10003886462829202, 0.10094037047412158, 0.24076704246698238, 0.0760713070258104, -0.09057668313073733, -0.050607091394187176, -0.12615581017740085, -0.16020324848790257, 0.022663692868399785, -0.003956481255433365, 0.018886578209311184, -0.1034011351763086, 0.07690848585615272, -0.012439242907863728, -0.13589160674785913, -0.013078096102449999, -0.016928797845598295, 0.2670446021542756, 0.027843766370257688, -0.047458069576580865, -0.016385427992951666, 0.0443745617851057, 0.09705832090066428, -0.12190350814198261, -0.10452178835153625, -0.05428909572795158, -0.07482783121029697, 0.03068146712294334, 0.13870502556014946, 0.1074761323174591, 0.18109894478633018, -0.11053875582647994, -0.0209658568000886, -0.05802364344480131, -0.08978873962195054, -0.21822153771603625, -0.04860214869935836, 0.18486573827569075, -0.01831822913245609, 0.027782855596851046, -0.01797500545074565, 0.28145029653350223, -0.018634586908888008, -0.047699585931160755, 0.07910446886109541, 0.05985338567348898, 0.058608476309671476, 0.17791223235555778, -0.15432594455974583, 0.17723013821674655, -0.0146361879588255, 0.13705034839233038, -0.024450233482173126, 0.06850919750488657, 0.0910902081783548, -0.08559925752141156, -0.03205336581084401, -0.11797190476525102, 0.23472423495957348, -0.13962655361585039, -0.27305517523233747, -0.07309396836009333, 0.05818929863051839, 0.10381077418429396, -0.006703576826012549, 0.04750255959288825, -0.1462164242075531, -0.19486867949944792, 0.06021673697188518, 0.023713037392853048, -0.038013670260002456, 0.03874255118940199, 0.08899553920581565, 0.11314073427870779, 0.07674642161251115, 0.24474414482358992, 0.09874440834857316, -0.145744382464695, -0.022174141431790015, -0.02945837362551583, 0.02929838805282857, 0.03351594097539059, -0.06409087502272033, 0.048067268688967005, -0.09824236458498514, -0.0500408836158729, 0.06920667886070618, -0.13638366402180738, -0.011478038379151182, -0.02859765663152602, -0.14232365887269693, -0.05400463900784183, 0.09199579518395605, 0.15496203626295882, 0.1309351660305452, 0.10233072753219775, -0.038656565814086684, 0.08584622992973269, -0.15395037461878022, -0.032741135381047864, 0.06263654974121342, 0.09194937571045944, -0.0657293844740163, 0.021326862378039473, 0.11606277219354345, 0.11673393014109328, 0.08630057956569905, 0.2572605525673434, 0.27075126169523367, 0.005831677566594885, -0.044047593641103666, -0.22711726901649207, -0.09203981332411283, 0.037546584310065634, 0.1258433214333121, 0.08915203560681163, -0.07526538344742813, 0.061916008976636704, -0.2759482177213735, 0.026274093729149812, -0.05859438123432735, 0.003349527512051045, -0.028371335297424725, -0.024714028429473643, 0.012427863002216736, 0.02651696554455552, 0.10678214184358231, 0.1330279662036157, 0.24705003232091877, 0.016735692368664474, -0.10853322017489403, 0.05183653441278176, 0.11185170014175558, -0.04941872213171732, 0.12108456073885338, -0.000773804812383583, 0.27724244604866893, -0.23861919370035634, -0.12122692269862834, 0.08914453335947517, 0.16474253401665412, 0.04993361491061292, -0.09088908677115123, -0.10743272164555305, -0.04835158622963075, -0.13557751247087316, -0.10349058233020504, 0.17316827024725592, 0.00875017221784864, 0.05786950508686014, 0.0783926011691658, -0.06334297944383394, 0.031477695566955635, -0.013641985783488282, -0.014424575583583874, 0.0654584484242939, 0.024910580667107655, 0.008608801838805396, -0.13554732624205595, 0.11075876633719721, -0.07308127287037533, 0.00978889166044291, 0.05434082241002625, 0.020779155062079134, -2.426601317156909e-07, -0.12563915993918212, -0.03188682745266902, -0.012477691524708531, -0.09665793769758999, 0.02947276980499553, 0.040831130303673274, -0.1650656813747871, -0.4074878893476297, 0.05846379875068843, -0.14789176047525762, -0.009086971626280842, 0.01601959892951591, 0.05918039137533426, 0.06986241417652397, 0.008027329244259404, 0.006777903044846451, 0.009349768398291873, -0.12327908049056387, -0.0391469741071852, 0.018155874325671083, 0.04980819880874435, -0.07324536444008885, -0.017253865314901425, -0.0050328175002760794, -0.15397071919340105, -0.0392462184529964, 0.04120171206754031, -0.02047307066790968, -0.05916737200241848, -0.11222294472432359, 0.06302743510812743, -0.028000387079449233, 0.016213122143972886, -0.10282639737673725, -0.2675981592135158, -0.04375733377511997, -0.13920027847287691, 0.07610015730663504, -0.15909052236888083, -0.0810911967589247, -0.05317514661756244, 0.17710312388239396, -0.09319516687774948, -0.0847309307505331, 0.02582065924344696, 0.17722040656875143, 0.06382971736890737, 0.07658116957101342, 0.0923522541505718, -0.1765602604101506, 0.013772849024440561, 0.07748093736215747, 0.13638592678170028, 0.09614315649304174, -0.0819633818465432, -0.1698081181012773, -0.30659473208807825, -0.11723596525313412, -0.18609034867777516, -0.0704438401968667, 0.16891865756185298, -0.0046202872866770986, -0.1973745884884551, -0.30364240339948206, -0.09028111289463742, 0.0767454199926054, 0.14105361000152308, 0.056510202134540076, -0.08246096945928276, -0.1403928332188406, 0.028153084325893616, 0.025052147508193918, -0.030044884794219188, 0.2119749750831053, 0.0851895986966955, 0.02237314229461036, 0.14196311340865123, -0.06577842841531702, -0.06035506910642778, 0.05503024259589626, -0.1031818337433032, -0.2715986351642247, -0.09839312461573331, -0.00258689212094947, 0.09241034184052666, -0.20097143063036219, -0.002935516022119358, 0.22456272520788667, 0.20456694226415117, 0.14074843092273845, -0.05257787359606015, -0.028975364988516897, 0.07783139831170367, 0.02118825800412605, 0.06704237245563019, -0.13177539851572687, -0.04675918748579749, -0.16577984226241094, 0.06259350788013324, 0.06755972840091325, 0.08717544198365319, 0.024048052528407932, -0.07939958032358074, -0.08713415997955266, -0.14286710488899013, -0.04982140160580911, -0.041062206420632845, -0.30177520449728595, -0.1542522885702645, -0.1330191603384825, -0.07401023353426119, -0.15018876176016727, -0.05308330607044939, -0.02976468903601012, 0.1983489019594058, 0.17692189459758528, 0.19605902561461125, 0.29271553459811434], [0.1131723013892713, -0.06854487429772718, 0.031195030055643246, 0.10356989667078291, -0.09857031978545584, -0.09061029677176743, 0.044392976499440545, 0.03470194029483725, 0.23475413674778814, 0.21340436701015233, 0.46794345861906567, 0.361792764536031, 0.5876837038493332, 0.23757317152900997, 0.1729142585146266, 0.4767566966613316, 0.013253144581725392, 0.14581439546102976, 0.024417530330353692, 0.07745499168689726, 0.22305608363096435, 0.3286097654875539, 0.004006890649875956, -0.03068163002422255, -0.009667909995106033, 0.04724925419342809, 0.30276941830108484, 0.04670618527320757, 0.10089251696359784, -0.041477354202832696, 0.18236647702101202, 0.13046142716260412, 0.11159027086362536, -0.026446740999787596, -0.09842445000364143, 0.06266387926987298, 0.0003303285923137433, -0.012587330539654312, -0.08864600980613024, 0.1265340194261574, 0.06824776193139397, 0.3463956139662057, 0.24874097311569535, 0.27546933516480304, 0.23250693763390556, 0.05249640165341099, 0.08416447420909103, 0.0432917733114394, -0.11156977194925323, -0.0479961373624892, -0.12204343177688314, 0.10073253250636269, -0.1134801959630887, 0.025701140765167614, 0.068565461189951, -0.07703708963738161, 0.1901666467718539, -0.02124974436343711, 0.14701094661309544, -0.12500260085654977, -0.11280310230001607, -0.043746281829945145, -0.11148734718233669, -0.16207465875605986, -0.023147117835039338, -0.16963862083460596, 0.18957171450594104, 0.08275930904563411, -0.07824854058118028, -0.027469777554511108, 0.21430141493680446, 0.05181014949480389, 0.07697940501645337, 0.09056669867592931, 0.1773617463488842, 0.05485380667019817, -0.04847334398979596, 0.052358379636681926, -0.054059347854820444, 0.06982386301238964, -0.12936429983648917, 0.03794678235889254, -0.13642174303267757, -0.052833795440178896, 0.016679236196308723, 0.03179092536910792, 0.038015748962238256, -0.0025269775569154653, 0.074382418652786, 0.027565564703697327, -0.0351254897196781, -0.03465170132311799, -0.2663067015789517, -0.28931024935699207, 0.004442108597711505, -0.1885468221899395, -0.06448326582162547, 0.13122271565917612, -0.20250697858310737, -0.07971227816054278, -0.0032350563281569144, 0.13308609677522304, -0.18025775375113218, 0.004402462108627712, -0.06671626582940861, -0.11062764318719832, -0.041428426473878364, -0.17989828883243936, -0.07215784301446192, -0.1466638631024778, -0.0396229380795528, -0.14056571202763443, 0.018044820336241562, -0.2291021703663411, 0.03055437595058005, -0.07982408002608635, -0.12566657821134825, -0.012109418425841945, -0.10719022723025623, -0.06200648518801774, -0.2576539358128025, -0.0689885062353435, -0.11157080975616987, 0.04238751243990421, -0.06149252840237002, 0.01912776822362407, -0.022400698374007988, -0.0954986434562734, -0.05049324318667958, -0.13007062394502505, -0.06628148361784107, -0.16583963671038238, -0.18387717220846192, -0.1820302078522994, -0.0984322052532016, -0.27668356914728, -0.24785927448399514, 0.1774371465481888, 0.1226224579733217, -0.16618440216150954, 0.10412373059233365, 0.004537067049411507, 0.17718253574371512, -0.09955420237168144, 0.04918678029180303, -0.13026222917551614, -0.12699076844691767, -0.06691095210830529, -0.298895568997023, 0.0419997379417166, -0.14518911397149853, -0.2805158878707718, -0.24905463252442359, 0.09761443337431101, -0.09573671206809418, 0.019080783470974933, -0.017204760569846222, -0.16891051083468947, -0.05494831637566898, -0.21266736585095242, -0.10869756768872767, -0.023529497680823668, -0.44286058045830934, -0.3975692011549253, 0.04997581542665551, 0.20203507619968614, 0.2864272768422785, -0.20837773526299894, 0.14255222595067732, 0.021103281876322027, -0.06958902981869874, -0.13757975883297738, -0.2559086804968272, -0.1094275641417549, -0.25336116674854436, -0.23004586421989323, -0.14661077636761022, -0.28464422232254166, -0.16427642631027786, -0.2515829100763478, -0.18571591681759597, -0.023473310707395605, -0.19523873594485447, 0.052271076107418185, -0.16462838695185436, -0.014363472201381839, -0.11059048121695063, -0.23269658861009077, -0.3542677361361509, -0.08172644139679813, -0.2343886662763957, -0.21738694982739398, -0.11430878817199343, -0.053032687180493615, 0.05401465027854131, -0.0991096414008218, 0.2162061661532502, 0.10456623233593892, -0.03255714520116799, -0.02185990071615119, -0.36647163767898766, -0.18102770291051726, -0.22492860152230099, -0.2048802790615313, -0.09112777368315038, -0.30166792531566555, -0.2613074076342487, -0.24770130228022935, -0.22290302961030325, -0.14346305955247227, -0.15349386911195087, -0.11007541935757914, -0.07515642125309385, -0.19907946909881688, -0.16926570120882534, -0.20838451642201464, -0.1394724592790833, -0.23507157738531081, -0.18346062066227337, -0.08467819717735858, -0.2473313327788317, -0.029396085647982295, -0.034725185599296375, -0.08397361815300729, 0.14617422543165715, -0.1411155151182181, -0.10779498173512597, -0.007021164701052598, -0.1426385660021924, -0.1377066039255308, -0.3139707056955131, -0.16985576542790926, -0.22183670860370888, -0.26886670103508625, -0.3045776200855703, -0.16341943633993553, -0.3463083042270508, -0.2527837007488572, -0.18718875774224214, -0.2092175360907933, -0.26978551935003336, -0.24508842273404108, 0.10300129089488866, -0.15768471901461334, -0.10275439241740336, 0.04766615977429554, -0.289154020806481, -0.14992093194284356, -0.13360632307798812, 0.06823390967130391, -0.1782078735903415, -0.11689894976337206, 0.03655312609601328, -0.03997031048949139, -0.1639646229093115, -0.11122153350574057, -0.06592247353753196, -0.2040247112808287, -0.07662234990624915, -0.008313644378326242, -0.3871169974654493, -0.3002562689322192, -0.40360852961945215, -0.2583782993252947, -0.4316953940908188, -0.22056385080391225, -0.28405621747219456, -0.22714121155539763, -0.06928206061554183, -0.40131600613269675, -0.20263767190065912, -0.21789513602305238, -0.4707875821194378, -0.08234414195985142, -0.02622576830248297, 0.12606323929035615, -0.11074019276099083, -0.008250751827165562, -0.022994125125092215, 0.09974933518396972, -0.08232496435490039, 0.06850564129254906, 0.05828876178485625, -0.16536764739001694, -0.010556720188299765, -0.16642580567768817, -0.2596301152880591, -0.011751109681413194, -0.13005710730452757, -0.23494379831580336, -0.314252652863263, -0.38429300502385644, -0.3778827796656052, -0.030688199231021302, -0.24961218836973795, -0.24129350041068484, -0.09643859966047576, -0.18351488347469377, -0.26011925093033833, -0.15502446400843367, 0.13366640968585056, 0.01600995334227459, -0.04573716461272892, 0.09267768588502025, -0.09857564282631039, -0.025251122007086544, -0.0698114932366423, -0.10887191753415378, 0.16608674600337042, 0.23992114400022277, 0.3037431155103976, -0.04033987213863686, 0.12265125277876862, 0.17818281611171405, -0.046802532650197834, -0.2671945701286563, -0.1615993064410637, -0.01796364390128338, -0.16122946409400402, -0.15044940785050437, -0.16678718348969873, -0.18407122292219527, -0.09035251234480011, -0.040947482322945164, -0.32964373597155455, -0.1988838840861452, -0.17627565423573982, -0.15194495888676637, -0.1388362346750203, 0.15114257639688627, 0.162892169435122, 0.260721369434293, 0.05884120697036144, 0.08566265743518278, 0.20379945369924518, -0.04389461342179882, 0.2426661724362548, 0.18560680628297152, 0.24854848829636422, 0.21399106085555503, 0.35379634825191536, 0.12086571047648595, 0.09575298514048733, -0.2086401979571082, 0.1279259691615488, 0.14493244757843693, 0.09238540101168692, 0.12132627327479942, 0.05298677649752766, -0.05597046048330752, -0.07666808927086735, -0.017723063945844834, 0.07567933212776949, 0.011649177085018319, -0.0251792949160816, 0.15600108823691203, 0.26601239315047814, 0.1962469220062122, 0.19375787862120736, 0.17992787331399154, 0.14782388228453608, 0.09428541952298679, -0.06656934340880896, 0.27332863274782787, 0.21073720256826564, 0.23408978618329007, 0.3974722541184491, 0.36527399217540335, 0.27664607810537056, 0.28712147429859275, 0.5192029115630876, 0.3542263200940592, 0.34488633443465466, 0.19201509180143864, 0.27652484434240404, 0.2798770227830105, 0.17498689824049302, 0.26252591247336426, 0.22344309515099325, 0.12794270841870337, 0.1604023964093903, 0.04524317679857091, 0.09454769874155723, 0.0462703713141116, 0.27093435254196746, 0.2066419164402621, 0.14237622790412613, 0.11538484446588694, 0.1941843416782807, 0.005516748535412766, -0.032441227503340005, 0.409653923426453, 0.378388381362925, 0.17168373032514248, 0.3104892403694993, 0.36892646076096297, 0.17813625459873544, 0.30887266238301336, 0.29219927898678844, 0.23651994039776053, 0.33817837813321155, 0.3485884204427816, 0.4310320664837232, 0.28968325143310164, 0.26823237757118396, 0.41967289739698294, 0.1852873288405616, 0.41394675677600284, 0.3191438414718406, 0.1502221820910385, 0.27455269949796407, 0.2948204838866756, 0.14163010506224896, 0.010196737130260584, 0.3368553339414872, 0.11629218493939981, 0.12968929479757707, -0.009961513762612995, 0.22629083925470764, 0.08623668919375034, 0.19713701170085252, 0.25029794517034715, 0.1815996280435582, 0.4137749803132278, 0.0823821048816408, 0.2906768853943984, 0.24364245299663503, 0.3232484842236921, 0.2249935546300983, 0.09769680933490114, 0.37691884548679216, 0.29104178986194373, 0.2582772469778067, 0.2819234224526612, 0.25895251645654416, 0.14264930744289434, 0.4025524264563765, 0.07952928348065263, 0.2185806281455467, 0.24426060683804846, 0.23671617068300968, 0.34518448651129596, 0.11125789342692219, 0.2519544715724877, 0.05069848545610397, 0.011655926269987215, 0.20273869398208424, 0.2954967389671371, -0.10569234708479915, 0.037109368150664936, 0.18948743030786389, 0.09706672688551625, 0.3268163891960641, 0.06551409578456513, 0.15977850054383813, 0.0710922585407429, 0.19257784091673827, 0.2055429688396433, 0.24650248172404032, 0.2908600097434228, 0.2541490224371318, 0.35904530547805663, 0.22365330200285785, 0.5519495993743921, 0.2193909446202009, 0.24789029500733242, 0.38061294602923823, 0.321436961084932, 0.2666854533279899, 0.13452533969480535, 0.058957107360167654, 0.317130345826837, 0.049213430118867835, 0.11627770964493059, 0.16972988595853075, 0.2211063999116866, -0.15401602597292974, -0.29879668710641066, -0.0904834754123035, 0.025089842466901238, 0.07960356497204694, 0.033261942354743654, 0.14152488481463577, -0.015214077758950437, 0.018542940575368243, 0.20385186179221593, 0.3139326933536572, 0.30193776499762365, 0.24131327812300143, 0.1937059560794318, -0.11574853947403795, 0.17257155731474194, -0.025634272106502088, 0.2563982593957881, 0.18639218130035448, 0.2141629415049627, 0.12762174462165157, 0.17156305498822613, 0.22661478958761214, 0.15525060811616154, -0.049101075962574, -0.11467350851556245, 0.09860990169383665, 0.5579927920937486, -0.32110969780057375, -0.10217501094748381, -0.17953281459530646, -0.17762715726549166, -0.16833503977431966, -0.13389835921433207, 0.07598983758598413, -0.0960503612480987, 0.02581056162763559, -0.011805130594513453, 0.09116330376870517, 0.04252209015823652, 0.050439181949114176, 0.11107451374932098, 0.042605664007804425, 0.04484904242918189, -0.02750107756944532, 0.07677191179584397, -0.0826504838078143, 0.04082072425528584, 0.274830931781362, 0.07204088286508176, 0.0803334136398694, 0.10141870015946067, -0.0430013849141441, 0.14820310410653123, 0.24039438073505096, 0.1450140032230334, -0.31122820225163167, -0.36899746563328795, -0.22140248438395158, -0.04695246383668839, 0.00216354300251249, -0.052757394015549436, 0.041565674015007104, -0.3019041796804981, -0.00925133843852133, -0.11921281045869074, -0.1190990064916172, -0.2359976147960324, -0.3192349976468352, -0.11032037060506321, -0.16800178965955098, -0.175069112783585, -0.11962485659957367, -0.3049125756063768, -0.3739161462874719, -0.11992293295765036, 0.002012820474921371, -0.31197634103949134, -0.1290538201490372, -0.3174676360879984, -0.02187802823685892, 0.04974371688539958, 0.10356587233326901, 0.16531956016354968, -0.4860878207000444, -0.10319695993265855, -0.19277874405473236, -0.3646894460552682, -0.37851526310300787, -0.22376135030693226, -0.23031626164696475, -0.25096736353400767, -0.1026865213605433, -0.15899687012220654, -0.27435792229338823, -0.3230120790970546, -0.28159678265808336, -0.3297847210261604, -0.013517826916683932, -0.12823331892034914, -0.17554215064682155, -0.19009584898864734, -0.14489364377764585, -0.21534223912278155, -0.2121420952491384, -0.06019787133430555, -0.19598737045685302, -0.05576755957257783, -0.148590037951936, 0.11719766505089817, 0.1741481902335131, 0.2945033679543115, -0.5788585363802855, -0.2888509310350738, -0.3016391786821734, -0.34738234112511784, -0.3326219059575927, -0.30768548485107927, -0.3154380291207908, -0.14918625305306504, -0.42175806290563395, -0.28412828305657867, -0.3391941555907785, -0.25007195959073963, -0.13405385167721084, -0.11432784126949255, -0.18023983731820703, -0.33670350640541563, -0.4440536087495821, -0.30494735698371683, -0.3604431175823158, -0.3050567128446254, -0.001509618175754143, -0.3166558511378299, -0.01775023549238972, -0.2294239754978028, -0.052175692389596455, -0.10637881133143154, 0.04038695981766205, 0.13762677754088173, -0.6330883129179226, -0.5774408774177243, -0.39615035169703955, -0.3574281474864366, -0.1953961225152403, -0.3563910204902933, -0.39804649605647435, -0.4720363771672488, -0.5062842437794524, -0.34228358324986996, -0.5132304900069667, -0.4327727400583881, -0.23483302767005898, -0.2152908715101525, -0.32776671706628807, -0.26842410202142947, -0.235594480030473, -0.4497001699582888, -0.24560042901349485, -0.44711737256296985, -0.4869868807490161, -0.40522442229435857, -0.08525667765292344, -0.3408998667215614, -0.2888964803420698, -0.20647296341561636, -0.0668311979309195, -0.03983934774056822, -0.4165452868499623, -0.6075437543353052, -0.4957102109607726, -0.41232966833942275, -0.4148842861759256, -0.4269490420075719, -0.5030589096952413, -0.41409425616823503, -0.6540308334084634, -0.597175569645489, -0.5857769785211541, -0.7042154547035359, -0.4930327807163521, -0.6274271983050854, -0.5018894894011247, -0.22334898465278366, -0.27857453875280286, -0.2515142075079141, -0.2382676588057664, -0.3763195673458832, -0.4895580926896586, -0.2173095982836322, -0.3156764009536401, -0.2632030478766977, -0.3285044317067813, -0.25056173548386995, -0.1597415435381434, -0.09790969601835325, -0.40544567631153544, -0.6858371870621615, -0.4314922654513739, -0.3450537988027591, -0.24135267831558924, -0.5550307922324573, -0.46973120224151377, -0.491038592162048, -0.5266769294314247, -0.4872868645829829, -0.6096561736923071, -0.681023734919057, -0.5371742606279881, -0.543653534249047, -0.4724391692320647, -0.43706863577607585, -0.14599071619515702, 0.047901757319761304, -0.4567846736713681, -0.4255878147772903, -0.4191763523301593, -0.421092176636345, -0.5561653915541966, -0.4518168387657315, -0.46616764065385463, -0.49649283764739977, -0.308853966432852, -0.3592210689478562, -0.5335170984858096, -0.5615776234436776, -0.5385450267104882, -0.5317373082629926, -0.28927735744229166, -0.2854406605933434, -0.5226953388158962, -0.4347932766059044, -0.44048052216818145, -0.5212341830976738, -0.5480598380808592, -0.6544129367343945, -0.5390771243814027, -0.4756242387668164, -0.477421663505046, -0.21842536212689997, -0.335552923279468, -0.3465035004268862, -0.42275494896485644, -0.37808830560599316, -0.23033589898143045, -0.38584777088814015, -0.6826666598998093, -0.5422145773665195, -0.3765834868242802, -0.617589454253023, -0.5197204756033896, -0.37617850474209674, -0.4248235243370994, -0.5574855130232047, -0.506980289819468, -0.3514568324799724, -0.2819212988082781, -0.3732241564997086, -0.5218399501382677, -0.4886815134540525, -0.6615224192159057, -0.4711589790421386, -0.3515955056999643, -0.4096914009418746, -0.8317941818731249, -0.5571259504647564, -0.265473297420425, -0.43943126069464866, -0.39040608301485424, -0.31715737682950096, -0.22965857866225456, -0.4843416504118952, -0.3073665974723553, -0.4445146051178111, -0.354647467165268, -0.541173874375828, -0.41812395375894174, -0.4314261147969943, -0.4356773810621137, -0.3982791003165217, -0.3474187076415205, -0.2102859478320067, -0.27996849800975326, -0.05039278413883307, -0.44805852819267816, -0.2561304398429505, -0.5381791392490098, -0.5352682566588047, -0.5709801031819173, -0.4677850403273578, -0.47527483205315846, -0.4593555208488133, -0.6128688827231994, -0.5525070804701004, -0.3516062227194346, -0.6416956885998668, -0.5130390784236424, -0.3699079196783457, -0.24601553242083965, -0.5050115670550089, -0.24858386469543062, -0.46700825227651943, -0.594109690337488, -0.6598865155406525, -0.6998448190486863, -0.41141776210161857, -0.4353124417884767, -0.5586130264068566], [0.42839892758889225, 0.5590734869760443, 0.5252820843520594, 0.6705313658183423, 0.7496662732152461, 0.5668529122159711, 0.59812177525191, 0.6194942772024721, 0.29718983465755805, -0.1390245753619452, -0.023532795312062805, -0.3212809860783468, -0.42612668603300546, -0.43086077872212797, -0.4639769119815296, -0.257486770391904, -0.21305011361247111, -0.4189745620493373, -0.33965632895728437, -0.2384442832153876, -0.1466050981518741, 0.11480277120512557, 0.28740190100612223, 0.30731733104334413, 0.41720124119403645, 0.37112811503491233, 0.4486583143108284, 0.2560801608427314, 0.4843526972925527, 0.48553128541335017, 0.6321137082323205, 0.6057831436783335, 0.658725283627349, 0.5187112706464876, 0.3721333091770071, 0.3911840078115302, -0.06629448194155291, -0.07805141602873437, -0.33782950207454066, -0.17987822646407528, -0.3758827910034099, -0.3010422452723963, -0.3882498670304582, -0.43676162376956235, -0.3686844042656386, -0.30122052279778483, -0.2294691965671801, -0.2493733660408836, -0.08040775732690177, 0.12841018631285217, 0.4465087235111573, 0.4354848135336118, 0.6495477551068733, 0.3871657895840029, 0.559997628805887, 0.4209209762682844, 0.48118036991137497, 0.650856504132697, 0.583857888085813, 0.5697391229008586, 0.5242198404807892, 0.48134990934675154, 0.40343148429830666, 0.10179606856768322, -0.0903303449870036, -0.3500017466427946, -0.38118849987262216, -0.33428202655763584, -0.27716202776122123, -0.32571981050450677, -0.20943910600253013, -0.48464111445066976, -0.2642546354857789, -0.1827512073537167, -0.21268494181144618, 0.15989622307072476, 0.23578876408818436, 0.485656076145828, 0.5126656602707623, 0.6773330424056583, 0.6092896663590136, 0.5978056067710356, 0.7563174947508522, 0.5695234822479955, 0.6176517025434691, 0.48410497007323133, 0.5618481089727848, 0.6292662204697618, 0.38824026701502995, 0.4641753494481401, 0.1108794045086396, -0.05696828345956017, -0.35994815503642, -0.211826857102478, -0.46399189029375637, -0.32415614912832613, -0.24026229712003572, -0.21408619005552038, -0.2231984631563619, -0.08251702864408429, -0.3753218855383796, -0.06187758940810461, -0.0954145091496976, 0.04798665476725696, 0.563026780858903, 0.5992919867157525, 0.6547503738725328, 0.723838725771672, 0.5963055331865313, 0.7067461715692605, 0.6424096039586261, 0.45344660883860943, 0.6791281178645632, 0.5809912193792585, 0.647930712540642, 0.702685386041762, 0.5834992646756129, 0.311540904226633, -0.20099275344774897, -0.15952469200681216, -0.41106789214625367, -0.3467703552147742, -0.1904120411425025, -0.2897304752090358, -0.10998716021386416, -0.2613632705685101, -0.24679458959245296, -0.33238869320165987, -0.00889211365523076, 0.09734979930641958, 0.16976162367851486, 0.655055950657921, 0.6838246278485998, 0.9674096058659871, 1.1579044993577836, 1.0755534172292058, 0.8214102637939845, 0.7838260630953792, 0.6746317530384907, 0.38638686037811065, 0.4228052888541542, 0.6856556878228284, 0.4757711434359109, 0.6313762278907521, 0.4500809674891659, 0.1417464366648558, -0.1382407890658817, -0.18472410773954867, -0.3112699055781004, -0.012433396028932548, -0.009458877939419269, -0.13793238827469856, -0.12588524721433236, -0.1276661034423043, -0.1441337832160324, -0.02030374775840038, 0.13498646121048777, 0.53304246669252, 0.7153425847703102, 0.9845575871853693, 1.2552916303126327, 1.0423856968666692, 1.1647842569951483, 0.8273292915440881, 0.489958920152285, 0.5197354884967021, 0.3704737004729747, 0.24264491908764418, 0.4656641784553772, 0.6168284011223107, 0.6552978303400337, 0.5103687186520961, 0.48051869760317695, 0.022980794686216253, -0.138291369250772, -0.22940349961280856, -0.2434629487892888, -0.08430157924996154, -0.2457695796574014, -0.050147693662163546, -0.10967072652546407, -0.158438486846169, -0.04487097083570409, 0.0799395051889463, 0.4372293875905053, 0.7091183752260276, 1.0658243890409556, 1.159120822541919, 1.131426912985626, 1.067342621577267, 0.7116798155106477, 0.5913118751748311, 0.5401892023345187, 0.3316147991365689, 0.18490808441984638, 0.09059172421159158, 0.33161536201077435, 0.4779698206603318, 0.30375537003409747, 0.35187657481069223, 0.4486361925133719, 0.1445954790183172, -0.17312604243257573, -0.12739907813729887, -0.24275609610861187, -0.06404392880357834, 0.034352491235756843, -0.12925050030186017, -0.3202911683806284, 0.12109063722021152, 0.24721924314996405, 0.5850614056913253, 0.8842076529451378, 0.7306059150298385, 0.9466378834285204, 0.916226329186941, 0.624063546630714, 0.42891732641165303, 0.579186497597903, 0.3825633248593705, 0.31725102502627045, 0.30812137608206336, 0.0741790670108731, 0.19066263414743564, 0.4710993387891904, 0.4280340080084406, 0.5197686011037193, 0.6584663666066753, 0.28894276061943375, 0.2194341344272455, -0.22465545108420787, -0.225021724375697, -0.45379749517796936, -0.10238195579060161, -0.038685698405479946, -0.08940149634549473, 0.1301823484673638, 0.1066203130346077, 0.5946674160120649, 0.6208219700165425, 0.7169286812029388, 0.6016312044753749, 0.5204865321130209, 0.39814420902168285, 0.2659263613678635, 0.15045312979877068, 0.0047838916455608185, 0.27380723818143976, 0.08579707349135494, 0.13627414236998622, -0.023134237742543886, -0.01858722206738228, 0.4920625337330617, 0.2735980809473526, 0.3785402080946302, 0.28754739311776933, 0.2238704850564301, -0.053310942192745396, -0.05601389389317693, -0.4697404436602539, -0.02235444451661609, -0.045813516816805365, 0.18506077662868717, -0.06616313553440009, 0.10147751063938952, 0.19966652080912292, 0.5505880276675752, 0.5906590196394512, 0.39530255450194024, 0.30697351222068886, 0.21436763922201943, 0.20750704270542292, -0.325838321775949, 0.02318574454257818, -0.05763144406053119, 0.07574462136820746, 0.11337644279741359, -0.047090449576461864, 0.07359373706701156, -0.15522011580693987, 0.3269485041584561, 0.4379369859303214, 0.2913513856148899, 0.18557758715259168, 0.148962679400788, 0.0433814637699763, 0.11048023279762159, -0.0828659299597505, -0.024619449390519545, 0.07043685677994725, 0.0515427665712397, 0.2914307112005637, -0.03843577589340086, 0.2092159664466338, 0.31019702294547224, 0.24075923211194525, 0.3638697583075513, -0.04869400085336059, 0.06163012168673292, -0.2052853718619562, -0.14624248862629974, -0.27523321221388347, -0.1828118514266133, -0.05454522462329219, 0.03756823162265774, -0.07978297613760806, 0.14656854196862326, 0.0841278015736587, 0.5359914201970158, 0.4935838258863656, 0.24356981366957547, 0.1732621643652636, 0.22363049573650934, -0.030977029294599383, 0.10989527909316535, -0.08124556464611558, -0.12571279314507763, -0.010030228486374542, -0.012613928719676157, 0.022484465539221843, 0.09860559162776707, 0.1993819531668575, 0.16546429569035404, 0.12408593640727379, -0.07948017222135087, 0.06876455472990121, -0.07972775226255638, -0.12099484547303327, -0.09993075299096006, -0.09485378958130901, -0.16682569266383135, -0.03191789451719837, -0.12286667398597555, -0.09008714821592848, -0.0521841661349367, 0.1594948180126407, 0.6189865117322073, 0.18534866983738527, 0.2519992234942542, 0.19862420109514992, -0.04843244220975405, 0.22848001937797657, 0.05050100076213986, 0.07055164209337454, 0.054330454913640004, 0.1811920741274813, -0.032290697197745494, 0.1363840676135239, 0.13826252984753307, 0.008273349005933295, -0.01409623774829081, -0.10453741750756983, 0.05124536849042612, -0.1216503292100273, -0.040861550400090534, -0.26168917959677435, -0.1697653258087493, -0.14151586051300233, 0.06028122509404085, -0.15074636359681348, -0.10934609225778523, 0.019768518854045604, -0.11659192026411089, -0.07584408677823287, 0.3130733309051632, 0.32520455097623885, 0.0968295054485894, 0.18794354887008147, 0.1316622561526748, 0.08982534069891422, 0.052394287320044586, 0.10346324091585733, 0.21337887603485536, 0.17631029997285733, -0.06354439684617379, -0.07988489247443267, -0.16039357593794398, -0.11487473801782852, -0.06922521543310635, -0.04258975750898911, -0.11710477264244981, -0.16780609480981318, -0.16141770168283479, -0.1192403045117211, -0.1748544116796134, -0.15990133124733585, -0.12046957502854562, 0.024884405874682672, -0.25261986464171976, -0.054592079959124594, 0.07944798204435985, 0.10295755372490328, 0.3731835869552333, 0.2318348659175031, 0.31216184290860655, 0.1718114344076716, 0.04784731185367692, 0.25642998856059923, 0.22954151313082855, 0.15676479987140068, 0.09238848693118822, 0.03038481390368224, -0.20488687384817325, 0.0436905627872856, -0.17028988783227403, -0.10341951957499838, -0.12031708311205307, -0.186009072060959, 0.022472879500106624, 0.05648495774875591, -0.03303169230941684, -0.16540220488667007, -0.06338396719974726, -0.051232633209353146, -0.1240723796749511, 0.10170653591193529, 0.010260770018947917, -0.11788689536687406, -0.07843298410134336, 0.015574231421444127, 0.5400558451409831, 0.165303718862034, 0.02337914673746155, 0.0725616331403228, -0.1407688083405196, 0.12716502002698954, -0.15025865144039519, 0.15529383910640368, -0.05414613252625261, 0.2390808978718656, -0.12076674403633592, -0.029940988766103287, -0.12897109704106266, -0.1472106527007204, -0.1806444991568461, -0.15771860422705705, -0.05908714669010978, -0.043229922467069595, -0.16010871866481813, -0.06351244125474867, -0.027451310257863498, 0.05678394447053765, 0.1645736945179859, 0.039028366156668964, 0.04564439312766966, -0.11310644089465975, -0.03514968511726842, 0.3182270825678007, 0.3147465727909476, 0.18017364569857003, 0.09572785247231526, 0.12404365273480564, -0.02817848867859271, 0.012422453317854621, -0.15616752855272809, 0.12324434096242637, -0.1039423673657014, -0.05503038153912173, 0.028318209071710974, -0.21192489644768628, -0.308484588699599, 0.009711367643466867, -0.10110180330407312, -0.16008672572047686, -0.025775573612716998, 0.13295521035401864, -0.0928472743775963, 0.033673229217895305, 0.051513199289936654, 0.031172564277737836, 0.017173030711065202, -0.13112427756729206, 0.072449229446985, 0.29892448595584775, 0.19515149099462248, 0.15371829537455423, 0.2952941135318509, 0.1906052508341307, -0.19474045476923668, -0.034993609379168227, -0.06603114082437168, -0.21394111097928045, -0.23493431654486185, 4.7483616253293044e-05, 0.010194492944976217, 0.04047814558587727, 0.02207411949277892, -0.07076387222340381, -0.06009988336465723, 0.029525693595533004, -0.04433730445581508, -0.296576715250086, 0.18642057008853266, 0.19178551806968078, -0.0825442543025509, 0.0343974141167567, 0.0609386978496882, -0.001155588965908374, 0.21033987563653553, 0.09951099148003029, 0.060329652535236825, 0.07626247138614622, 0.18971811738668265, 0.2910264183255843, 0.16120282212438117, -0.03690824387319955, 0.1445093227444422, -0.0902709477036328, 0.22346458500689426, -0.14447533112501318, -0.01679402219785067, -0.055101914440847354, -0.08741785450469466, 0.028372419339669056, -0.16595148705050172, -0.04389142475975497, -0.14068709076381905, 0.11339722683518395, -0.17640510689224956, -0.10886749678582848, -0.1478432563157721, -0.06344248724635602, -0.05819476989557787, 0.1829685489774116, 0.019908331063659267, 0.05737572928166224, 0.15940514173624962, 0.05078568631038164, 0.28317001981236783, 0.0661094402843877, 0.366792198387713, 0.5793585239318045, 0.40170939305265274, 0.1658309176062603, 0.022339112771859047, 0.09484375382502665, 0.013297569408666245, -0.1377855231926786, 0.059010374191397034, -0.16999198762979928, -0.1173880541445434, -0.14626565607528083, -0.03212589272907035, -0.028166081057891847, 0.005986644695896075, -0.24234933031651465, -0.1876354513643285, -0.09242036439535527, -0.24299859976345412, -0.21371624885463789, -0.17848617171707734, -0.10080733649974062, -0.04718178753812765, 0.09238954873041814, 0.16828731595882981, 0.34765641854717116, 0.11325675594876237, 0.07260753557142287, 0.2552575067993563, 0.46749770499070104, 0.07233966093920838, 0.08037656523171971, 0.31008874984813606, 0.2070295227602923, 0.19884329832538253, 0.170164338025806, -0.23898161849422686, 0.01264083368429891, -0.13717259479273058, -0.029787049219805236, -0.19467198863017018, 0.09605455127698097, -0.13643311654144968, -0.05994171296645137, 0.04997999225229594, -0.097569217650097, -0.10452767157951237, -0.04373577747304614, 0.07706382385685635, -0.061701072317351426, -0.10162630787642839, 0.05924790188373744, 0.19406333861121056, 0.5121824005216078, 0.322735075699281, 0.35972161025048927, 0.672938196067266, 0.5694188228218159, 0.11117621729346919, 0.13431185051689157, 0.19229487947001792, 0.30949140174386136, 0.1134080497289444, 0.09127716381078427, 0.06046393723980847, -0.1203752869096832, 0.1589602932022811, -0.017163973079911903, -0.014190200046095978, -0.003112597507730828, -0.0019338186527330847, 0.062191817533983035, 0.062491582270365484, 0.2668608923896858, -0.11137744567563215, -0.005784144780821149, 0.2267831877140907, 0.18105919937660947, 0.30613298974513126, 0.18345376290793852, 0.4350038500966134, 0.49186396237097685, 0.5543364774869742, 0.6413626456494023, 0.8272884686937979, 0.871952313007724, -0.12891409855771468, 0.12738386912650232, 0.2901779577981813, 0.30431656084229036, 0.2863369325368858, 0.2508760182563267, 0.23056891979276478, 0.15166422419967088, 0.24667019733027762, 0.30672475186073506, 0.152701282339555, 0.04464526482218458, 0.17435645870361444, 0.03261474773472876, 0.13238139322662906, 0.30705764408618963, 0.19257425583511964, 0.37047284786115525, 0.3178012635473482, 0.40383886639135996, 0.5280424711796152, 0.5493486467422098, 0.6916055836101945, 0.5900530931018073, 0.7649552249796859, 0.7026281707714244, 0.9044962878220463, 0.7225958917336419, 0.19738583261722425, 0.09055379784040593, 0.3611865592738946, 0.3193522558675894, 0.4313703639873387, 0.11439269060435, 0.21607227183280736, 0.33763562760171517, 0.3229660504921977, 0.5364213009425707, 0.4957917524960517, 0.3594101992491356, 0.47841223342534794, 0.28218919853820623, 0.364721468178932, 0.676297670683975, 0.46016808567073786, 0.5871924965462846, 0.7274764280545198, 0.5676604723286935, 0.7196181668871207, 0.7709524277881628, 0.8321484411277654, 0.8629111910688243, 0.7010811127165616, 0.6683923394319572, 0.8523697590054577, 0.6666913645702283, 0.053303775849512715, 0.28711116798013103, 0.3012088203491298, 0.36434939043101733, 0.4728199028053237, 0.4543040515201879, 0.4874804831339545, 0.597954239497118, 0.6047312831936272, 0.5061724083646539, 0.5721106470899969, 0.49192553539466677, 0.6964104869334544, 0.7281356117756366, 0.7983575620147334, 0.7092348143256376, 0.9201562756560285, 0.8043075115167766, 0.8629839619174656, 0.5356801987468032, 0.9091843238661506, 0.8629587137142508, 0.9407907007809052, 0.9239070746291224, 0.7436511854121444, 0.8173978532491742, 0.6888038618302877, 0.5656860078784687, 0.15390057398781093, 0.40894183169515375, 0.5143376942681592, 0.5018994072720611, 0.3280375950913797, 0.4044993459439656, 0.611233165423823, 0.5979747637555228, 0.7589652797977874, 0.6444240801274004, 0.8689042009149041, 0.6407327306298548, 0.6563191558533975, 0.8849102826595786, 0.9207092568742186, 0.9393033805471511, 0.9923439505784657, 0.822857694181862, 1.1431859478050317, 0.9149302565614246, 0.9715146327655286, 0.7495885801970606, 0.7104379063295896, 0.48452435304929276, 0.6245245821625751, 0.7099110861033584, 0.6571408176909859, 0.5942284306677528, 0.15554008834531774, 0.2157223106401323, 0.2418944726664932, 0.3397553969755735, 0.36802303137014347, 0.4339837624711537, 0.4131760567561023, 0.5827855513770549, 0.5704053716107621, 0.7492461930563316, 0.6351163703090154, 0.8047907717201748, 0.8914483821248517, 0.9450735414829666, 0.9120542743043017, 0.9553568546040964, 1.1643549445286405, 0.8438306227434317, 0.9148197644890348, 0.9353437535264248, 0.709345373676432, 0.8679949083107478, 0.8143511318981147, 0.5569231241040453, 0.34366825087891273, 0.5311389059547222, 0.23320839931542095, 0.1478153698944239, 0.08294153861933974, 0.33516173622149886, 0.3089659124359385, 0.3164571173137811, 0.3315547073063887, 0.43932194235464195, 0.45437841477330454, 0.6261984629499068, 0.60041806000362, 0.3958715564135348, 0.7280261751504766, 0.6558850935323641, 0.5746822845711888, 0.8015613823103328, 0.8817811448614722, 1.0041930489785753, 0.767645009302072, 0.7399716957385307, 0.6933272784064529, 